-1.08274 3.16726 -0.857597 2.44307 -0.583239 -1.56496 0.206224 -3.27385 2.86744 -0.255898 -1.64877 -1.44027 -3.28193 0.54434 1.4245 -2.04492 0.449218 0.461392 -0.587923 -1.09649 -0.794619 -0.328739 -2.62747 3.04217 -1.23333 -2.43639 1.08164 -1.50205 -2.98386 2.50329 2.89302 -3.4156 -2.76038 -1.14905 -3.28146 -1.01947 -1.40699 1.57692 1.45079 -2.52936 0.917157 2.06623 1.84241 -2.86237 -2.11468 -2.23463 -2.91387 -1.34993 -2.52722 2.02256 1.24452 2.88475 0.89024 -3.18595 -2.08076 1.52516 -0.181063 -1.49672 0.159675 3.34974 -2.72475 0.282048 0.734599 0.81288 -0.630958 2.07049 -2.37748 -1.02697 -2.41691 2.10875 -2.92823 0.495633 -0.225138 -1.63265 -2.85137 -2.65931 0.066906 0.714765 1.07335 0.563304 0.863083 -0.0797854 -0.589033 -3.00828 1.81969 0.503606 1.75094 -0.857228 2.99148 -2.36121 -0.472518 -0.919006 0.9619 1.34087 -3.16146 0.239525 1.03799 0.265048 -1.42604 -1.13195 1.39242 -0.992725 -2.62475 1.63506 0.854661 -0.969628 -1.99926 -1.85289 -0.0228827 1.49643 -1.59798 -0.208775 -2.05537 -0.762992 0.247144 -3.2273 0.0325261 1.27877 -2.57199 -1.29552 -3.37506 -1.22654 -0.655168 1.33508 -2.77337 -0.362138 1.06868 0.00907319 1.04743 -3.09204 -2.64919 2.94668 0.0686657 -1.86538 -0.102356 -2.52948 -1.9198 1.85352 -3.34377 3.26035 -2.52084 -3.48796 0.69297 -3.21199 0.765044 -3.02915 -2.14877 2.62956 3.16603 -1.32801 0.657657 -3.24819 -0.620653 -1.65487 -1.27495 3.10989 -1.53055 0.429343 -3.04998 -0.462009 -2.91135 -0.258727 2.48059 0.291442 -0.391501 1.90662 1.97288 0.140343 3.25953 3.07538 3.23945 1.36472 2.24335 0.036422 -1.88021 2.15439 0.530151 2.88921 -1.81982 -1.62422 1.29937 -3.25262 -1.67804 -2.31706 1.76687 -2.46742 1.13315 2.79192 2.16504 -1.63937 -3.29456 -1.83027 2.72938 3.33785 -0.893713 3.27118 1.51761 -1.92449 -2.95284 -1.17614 -2.70802 2.63374 0.561718 0.140345 1.17455 -3.22744 -2.09075 1.33981 -2.75911 -2.37873 -2.61056 2.39014 1.75141 -0.319934 1.57871 -2.3086 -1.70755 -1.04709 3.35828 1.4954 2.99911 -2.00301 -2.77999 -2.93973 0.976372 -2.23764 -0.492426 0.754003 1.85882 -3.35282 2.65433 0.666409 0.149105 3.1858 2.9661 -0.988277 2.40759 -0.52718 2.87106 0.268804 -1.76142 -0.383975 0.0666382 0.998697 2.30581 1.84256 3.04538 -2.34321 0.729984 -3.17503 -3.19431 -2.59798 0.215842 -0.259362 -3.11217 3.37759 -2.96596 0.219494 1.48018 -1.43803 -2.05397 -1.7205 -2.22815 1.30149 2.615 3.16819 -1.61572 -0.853805 1.93052 1.44803 1.65147 -2.91458 -1.58709 0.647487 0.86136 3.36303 1.83976 -1.01846 -2.18434 -0.0981409 3.24391 -0.0908853 2.01122 3.24809 -2.12478 -1.90486 -2.46249 -1.36372 0.981451 0.159735 0.594415 1.26983 -1.58284 3.05791 1.09447 -1.5546 2.89709 -2.16822 -2.63853 -1.7815 3.11514 -1.52737 -1.51363 -2.6326 1.41445 -0.813455 2.78214 -0.901383 0.830107 1.18002 0.0352706 2.69656 0.933747 -0.789472 -3.32914 -1.35224 2.77586 -1.49385 -2.29558 3.29322 3.46286 -2.16963 -2.61272 -0.0597121 0.0454681 1.88106 -0.526009 -2.97179 2.46921 1.56404 2.84149 -1.72097 2.30849 2.8863 -0.372884 -1.34781 3.23472 -2.99195 -3.17898 2.35208 0.851055 -3.28511 -1.77596 -2.83617 3.0382 -2.99566 -0.276642 -0.942536 -0.939055 -0.213932 -2.9965 -1.61084 -1.62497 1.65542 0.720612 -1.01127 1.22264 -2.92486 -0.0849381 0.205084 3.17341 1.98565 0.948657 -2.58784 3.32435 -3.2474 -0.900404 -2.09158 2.49389 0.365813 -0.698799 -1.23935 -2.21179 1.39751 -2.92458 1.95699 -1.26873 -2.58597 -3.35646 0.6905 -0.977401 2.57824 -1.74221 0.995318 -1.31936 0.472364 -2.72704 -0.450982 2.39143 -0.261773 -3.40692 0.979509 -2.59665 3.4493 -1.7816 -2.16522 1.01091 -1.21234 2.33284 -0.051358 3.5195 2.26432 2.29543 0.735304 1.07104 -2.93446 -3.06803 2.18085 0.616212 -1.12213 2.7197 -1.59571 -1.0349 2.9939 1.51531 0.0676156 0.0694434 -0.730055 1.48264 -3.44647 2.34155 3.40844 3.39197 0.684227 0.598033 -2.77176 -1.7243 -3.44583 -0.21187 -2.61378 2.54097 -3.19768 1.58801 -1.31148 -1.83963 2.07654 0.797048 2.75759 -0.398974 -1.03219 -1.73338 0.83289 1.24111 2.76388 -0.218094 -3.22835 1.17025 1.74106 -3.47347 2.22593 -0.904488 -2.60004 2.65685 -2.26476 -1.67907 -0.635892 -0.125406 3.47185 -2.21076 -2.85332 -1.08318 -1.63107 2.1422 1.54054 -2.95963 0.463195 0.988856 2.08836 1.36997 3.22511 0.646638 -2.96032 -1.84172 -2.23007 -2.06143 -3.06357 0.735944 -1.96426 1.13469 1.41539 0.176267 -1.05408 -1.39179 1.26954 -0.378809 2.29762 1.3605 -1.8556 1.12585 -0.241893 2.26786 -2.795 -1.0262 2.33268 1.30021 2.87597 2.10521 2.57753 3.4878 2.72101 1.28635 -1.46075 -3.20674 -2.29476 0.451041 0.472779 2.39638 2.14501 -1.12231 -2.15294 -1.15224 -0.293367 -1.84702 3.24452 -3.1925 -2.2385 0.448334 0.14846 0.102227 0.982068 1.5109 3.23165 -1.18349 0.368155 2.79832 -1.22829 0.477693 -0.201363 -0.949938 -0.714505 2.36663 -1.66783 3.19987 2.9224 -0.70281 0.278741 -1.77801 2.56157 1.82553 1.87305 -1.85717 -1.54139 -1.11401 -1.18042 1.71165 2.78101 -1.36068 3.38128 -2.67105 0.900198 -3.08883 -2.07396 -1.11488 0.907695 -0.537222 -0.526941 -2.34014 1.26373 0.348868 2.05975 0.884356 2.58992 -2.23122 3.37298 1.70068 1.35231 -1.85617 -2.73746 -1.07718 -2.38267 -2.88848 -0.520372 1.54135 1.75349 -0.736884 -0.36413 1.63269 -0.396648 -1.90758 1.76739 1.03246 1.45708 3.05318 2.38344 0.846031 -2.26937 -0.715433 -1.99915 1.1125 0.596807 -0.501653 0.0372962 -0.489168 2.42133 -0.767886 2.54971 -0.280819 -1.20558 -1.19636 -0.465638 -1.34926 2.34659 -2.03049 0.868417 1.05123 1.58239 -2.4239 0.118457 2.06675 -1.83969 -3.21621 -1.16069 1.3822 3.35519 2.48271 -1.13409 3.1011 -2.4751 -0.736207 1.34702 -1.24301 -3.27567 1.01349 -3.08077 2.45153 -2.40899 2.3233 2.17967 -2.42026 -2.71919 2.39248 1.84052 0.359281 -0.117129 -0.602345 2.83531 -0.885804 -2.02412 -2.51374 1.46846 -3.0429 -0.0959331 0.478603 -2.03684 0.768182 0.892829 -1.71733 1.58366 -0.00723858 3.13928 3.18848 -2.45242 1.60705 -2.43 -2.57376 -2.02947 -0.787643 0.518839 0.926043 0.74358 -0.331249 -1.29026 0.848586 0.612675 -1.09144 1.46593 -2.72931 -1.33802 -1.40928 -1.42811 0.716921 2.64917 -2.13003 2.82842 2.16635 1.205 1.70007 1.05776 1.8831 -3.39264 1.93237 -0.236273 1.79727 1.98552 -1.85958 -0.185003 3.39627 0.624847 -2.49757 1.54823 0.0265848 -0.161196 -1.75507 0.771004 -2.89274 3.11261 -2.02748 2.47463 -1.44321 0.0114777 -0.857789 2.41587 3.06948 2.7613 -3.00061 -3.22169 0.0666868 1.24951 1.10482 1.96391 2.68297 1.81271 1.43666 1.53585 1.74339 2.696 -1.75679 -3.34718 1.15894 3.38639 3.41897 -0.183014 -2.99243 -1.80894 -3.45303 -1.0949 1.84857 0.350196 -0.20262 2.6616 3.416 -1.04707 3.47586 2.99455 -3.49965 1.79467 2.48908 3.4032 3.41364 -2.57887 -1.98459 -2.50455 3.08552 0.117336 -1.23197 -1.73362 1.13904 2.81864 0.173565 2.25091 -1.69404 -0.0912924 -2.52394 -2.66479 1.70663 -2.30425 1.91743 -0.524385 0.663538 1.2905 -3.41927 -3.04374 -2.30514 -2.17321 1.17556 2.65192 1.46761 0.0529434 2.7377 -2.92913 -0.961399 -1.13555 3.04218 0.881487 -2.30096 2.10136 -1.69627 -3.27854 0.507484 -2.98011 2.87483 -1.05276 1.37524 -1.334 
-0.323443 1.55727 2.49652 -0.663675 0.852753 -2.24442 0.217145 1.87395 2.49088 2.41482 0.104242 -1.18141 -0.526965 0.321518 -3.33988 -2.51515 2.41865 -1.44817 -3.26524 -3.45386 0.157004 0.271707 3.04406 -2.28756 0.298142 1.53331 -3.09732 3.38146 1.4489 2.02649 -1.85849 1.45211 -1.61406 2.19231 1.51212 -1.99729 0.844455 2.04327 0.914647 2.42346 -2.03321 1.61517 -3.17149 1.75481 1.69961 -2.40917 1.32293 -0.835239 -3.26155 -0.816279 1.67372 -2.94278 -1.58256 2.90669 2.31688 -0.209994 2.28691 -2.48062 -3.3218 -3.07879 1.01672 -1.5795 2.34923 -1.77663 -1.94229 3.38444 1.90648 2.63418 0.813278 -2.48624 0.371012 0.480252 1.0214 1.11633 0.196297 -2.3646 2.68307 -0.0526654 2.85884 0.143075 -0.922212 -1.41713 2.85474 -2.81772 2.59217 3.29818 1.0002 -2.12111 3.2393 2.8648 0.432545 -1.14862 2.1735 1.14791 3.03058 2.83346 -1.31847 -3.28135 -1.30161 -0.840983 -0.902875 -3.35702 -0.917818 0.424964 -1.7158 0.592786 1.51916 -1.76396 -2.94269 1.72499 -0.702852 -2.92606 1.80904 -2.6946 -1.80675 0.00501377 -0.675318 1.11329 1.84064 2.25039 1.32801 -2.20479 1.08464 3.04003 -3.38036 3.0008 2.32355 2.60511 1.6344 -0.243432 -1.84075 -2.6593 -0.11373 0.603868 -1.80234 2.00761 2.19737 -2.47752 1.18116 0.309214 -3.28216 -1.64524 2.23634 2.73774 2.54949 -0.311356 -3.22925 -3.39539 3.22624 -1.79098 3.35346 -1.15864 -1.01102 -1.83398 -2.15408 3.25363 1.95143 0.539404 2.14135 1.04903 -2.76577 -2.08342 -0.832023 2.32913 -2.4781 -2.08683 -0.918719 0.882242 -3.38224 0.621856 -1.35688 -0.472038 -1.77494 -0.49656 -0.792591 -1.62226 2.9253 -2.54145 2.18609 -0.814639 -1.99245 3.49324 2.64575 1.33519 0.0912412 1.06599 -2.3386 1.24936 2.54431 1.0365 3.30905 -3.39686 2.8659 -2.99084 0.31022 -2.71457 3.20792 -1.71178 -0.0865187 1.38562 1.51333 1.6275 -0.489697 -0.96263 -1.13877 2.88571 -1.16386 -0.197808 1.69145 -2.11108 -3.49784 -0.845965 -0.508613 -2.04284 2.09614 0.757321 2.37286 0.460433 -1.77803 -2.41073 -3.42359 0.365103 -1.07825 1.60815 0.22008 1.33072 -1.47559 3.38576 1.20847 -2.56288 1.85679 -3.4141 -2.22692 0.0934936 -1.82145 -3.45318 0.786843 2.78264 0.802523 1.17507 1.08338 -1.2571 1.18116 1.04049 3.05806 -2.19781 3.44103 -2.15404 2.48723 2.66202 1.27569 -2.50843 2.86005 0.478425 2.7272 1.2376 -0.688875 -2.89874 0.119333 0.76253 -0.57273 1.07864 1.54616 -2.68748 2.00671 -1.353 -0.918909 -1.89296 2.1638 -0.458925 0.515554 -1.73312 0.674427 3.08418 1.57095 0.476613 -3.31407 2.63428 1.32797 1.95269 0.125794 -3.12806 0.159065 -1.29633 -0.358127 0.228593 -3.44278 2.08329 3.06549 -1.43031 2.00125 -3.28503 3.46606 3.22979 0.707469 1.12646 1.48164 -1.873 -2.27645 0.469123 -1.41519 0.00557755 2.65534 1.97576 0.274682 -3.37546 -1.78262 -0.643171 -2.06501 -3.0446 2.05797 -0.11269 -1.44302 1.68749 -1.652 2.82636 2.85922 0.899287 -1.46299 0.744888 2.78221 -0.515807 0.278745 -2.82545 1.51389 1.60188 -3.05336 0.131492 0.213048 -1.19232 0.484737 1.41736 3.36883 -1.8714 -1.72458 -3.02206 -3.24869 -2.07194 -1.19689 -2.37259 0.245892 -2.82148 -2.23198 -0.776939 -1.28375 0.787461 2.47111 -1.62205 -1.05541 0.162278 2.60303 0.253185 -3.25602 -2.40839 0.229614 -0.15141 -1.75022 -0.269354 -2.42785 -2.91564 2.9954 -1.96882 -2.42921 -0.837618 0.0667338 -2.75088 0.686936 1.52937 1.88301 1.33109 -1.67003 -2.61576 0.94308 -0.407264 0.401244 0.0816117 0.0141128 1.87491 2.11286 2.40367 0.199868 -1.39779 1.20575 1.32508 3.32119 -1.71768 -0.638282 -1.41027 0.199081 -1.47368 -1.61577 0.517751 0.117685 -0.593593 1.63363 -0.96141 1.20701 -2.7766 -1.74868 2.01257 -3.26859 3.04435 -1.07786 1.98152 2.76259 -1.89009 1.49273 -2.54895 -1.30954 -0.418092 -2.65857 1.28756 -0.199558 -2.77893 1.16502 0.0166289 -1.53036 -1.32452 -0.55087 -0.342463 3.27272 -0.71997 -1.09501 -2.93808 2.87858 1.81265 -1.19478 2.38725 -0.166352 3.33543 2.94296 2.23713 -2.95848 0.0475444 -3.40041 3.30832 2.61229 0.933825 -0.302682 -2.61174 0.226768 1.6962 0.51785 2.81479 -2.25479 -2.01558 -2.52099 -2.70012 -0.843999 -1.95192 3.1903 -0.387829 2.30876 2.53758 -1.73537 2.26897 -2.56846 3.3847 1.04954 0.2574 -1.88735 1.5076 -3.06216 -2.86006 3.47934 -1.15387 -3.0833 1.99186 2.85702 0.975949 2.6813 3.05904 0.216226 1.33783 -2.15306 -1.07748 0.397288 -1.40632 -3.31526 0.352409 2.05451 -2.9912 2.99686 0.000520723 -2.53246 -3.45744 0.72399 -3.4746 -2.47059 2.21359 2.90513 1.6201 -2.40375 3.23673 0.282486 2.00772 1.59346 0.472433 -2.99728 3.45063 -1.45929 0.237537 2.91656 3.13701 1.49905 2.9896 1.64953 0.716336 0.660433 -2.7471 -0.592029 3.29799 -2.7721 -3.28056 -0.761576 -0.804554 3.12428 -0.903773 1.22571 -0.932358 2.38072 -0.158981 1.52433 -1.08987 1.32863 3.14852 1.59099 0.60135 -3.22288 -3.12499 0.103191 2.68207 -1.44538 2.27991 -0.618028 1.90112 -0.115886 -0.049561 -2.8928 0.342529 -1.46296 2.62961 2.93123 0.40333 -0.118076 3.13766 0.449995 -3.46155 2.39279 -1.09149 1.92425 -2.5383 1.50868 0.202106 -0.210564 1.61925 -0.541842 -1.22117 0.496313 -2.65195 -1.66643 0.831856 -1.11257 0.514878 3.01706 3.03648 1.05721 -0.00503084 1.14519 3.45757 -0.76251 3.02466 -2.34321 1.28089 -2.3812 -3.46083 2.71634 -2.6794 -1.57649 0.344294 -1.26863 -2.53748 -1.95531 -1.38797 -2.74811 0.957731 2.93968 -1.29808 1.23263 1.12116 -3.01275 0.657744 -1.85579 2.57448 3.0003 -1.00802 2.81617 -3.09392 2.57976 -0.873127 2.3278 -1.83895 2.30679 0.0400226 -2.22057 0.143742 2.23751 0.457026 -0.645353 0.522532 2.46673 0.902923 -1.5769 3.05386 1.46212 2.50016 -2.25651 -2.05738 -0.473947 -1.11871 3.27802 0.917513 -2.09493 -2.62034 -0.922372 -2.87865 -1.18279 1.6672 -0.769409 3.40815 1.64274 2.50909 -3.25605 1.46364 -3.18336 2.90989 -0.385868 -1.48248 -1.71769 1.70585 0.244222 -2.5297 -1.35386 -0.670264 1.92757 0.843987 3.00231 -0.488436 0.933421 -2.98448 1.06723 0.0726898 2.73686 0.414314 2.14547 0.0863115 3.1915 0.309585 -3.3304 3.17053 -1.57526 -1.84847 -0.37578 -0.335001 -0.798984 -1.92844 2.21784 -3.30127 -0.0482534 -2.40893 -2.3389 1.099 -1.62807 -3.09303 2.40181 -3.2079 -3.28074 1.54962 0.363233 -1.46589 1.6971 -3.0108 1.88502 1.86962 3.02928 -0.634795 -3.28328 -0.408738 3.14446 -2.87892 -2.7652 -2.52495 -0.621291 -2.70928 -2.45619 -2.13034 -0.55757 -1.06802 -0.953466 -0.875533 0.215895 -2.35108 3.24378 -1.40809 2.75868 1.44337 -3.34465 -1.06984 -1.04353 -1.435 -0.940712 -0.652473 -1.70668 0.440595 -1.15867 -3.14316 2.82257 -1.38277 1.25252 -1.96214 -0.0540654 -2.54185 -0.375193 -0.355366 0.377193 1.41802 -1.8558 2.81645 -0.291263 2.72257 -1.07365 2.82339 0.859538 -2.97047 3.47541 -2.62299 1.33977 -3.42503 -1.76275 3.13324 -2.0708 -3.45798 3.12165 0.488475 -2.53564 1.35421 2.07714 0.50553 1.38129 1.54436 1.409 -1.3846 2.32955 0.963964 -1.59002 -2.73225 1.64847 -0.587426 -1.96465 1.18353 0.788104 1.10171 -3.23201 2.30193 1.58325 -2.47 1.02213 -2.2419 -1.66423 0.443989 0.303075 -3.41508 -2.36646 -3.22192 -1.57898 1.82747 3.45152 1.73233 -1.03642 -0.796825 -0.884786 2.11236 -0.12143 1.7586 
-0.560129 -1.53991 -1.87883 2.81475 -1.95749 1.5764 3.44211 2.40355 -2.83306 -3.07716 1.17013 2.98915 -0.140815 0.461837 2.45577 -2.04791 -0.923032 -0.379101 -1.5428 -0.047152 2.23052 -0.036755 1.52743 -2.06627 -3.07618 -1.22996 -2.01742 -2.80124 -2.32062 -2.42048 1.98351 -0.792287 -1.0562 -2.20841 -0.86524 -2.59929 0.379115 -1.76839 -1.57635 -2.76703 -1.97809 -1.89885 1.21611 -2.65375 0.963161 -1.31312 -2.54261 -2.35322 3.27679 -2.69782 -3.31719 0.237793 0.933165 -2.10285 2.34085 -0.162054 -1.86687 1.31445 3.26099 -3.1197 2.04243 -0.17083 3.03823 1.18386 -0.0856784 -3.45706 2.1788 0.0991664 2.20102 2.1209 0.070718 -1.85937 -0.831835 -1.51088 -0.141145 -1.32469 2.07918 3.27254 -0.524474 0.927514 -1.33648 -0.513017 1.07942 3.12725 2.8142 -0.822339 -0.532262 1.32484 2.35843 -1.98214 -0.488002 1.1878 -1.31154 -0.673078 -1.91013 2.45007 2.48759 3.26434 0.0714665 3.35893 -1.12433 2.28822 3.3581 3.05515 -2.9398 -1.21217 1.34412 -2.49392 3.35908 -0.992901 -1.27094 1.52264 -2.89948 -0.324033 0.680491 -2.35764 0.839805 3.49531 1.22699 -2.90266 1.0807 0.606702 3.02228 -1.57332 2.7704 -1.13782 2.5104 -0.790863 -0.439053 -1.35919 -1.2684 2.97746 1.39119 -2.8092 -2.49637 -3.26043 -2.83151 2.5009 -3.46559 -1.72826 3.15045 3.26636 2.04536 0.571738 1.67766 -0.141462 -2.19307 1.5943 2.56268 -2.64831 3.14301 -1.6337 -2.7915 1.33834 1.22539 -1.97381 2.46356 -2.99846 2.34845 -3.4283 2.09823 3.48641 3.23587 -0.798357 -2.46049 0.33816 2.39412 -1.08312 -2.6134 -0.950092 -1.96971 1.19746 -1.19902 -1.8809 0.826436 0.51222 -1.97986 -0.111203 2.04859 0.506658 -0.872237 3.14726 2.84189 1.51013 -3.07045 -2.20619 -1.82299 -2.41724 0.723316 -3.07867 2.7279 0.88593 -0.579625 2.90889 1.94391 0.108985 -0.733732 2.6481 0.40557 1.95903 -3.07512 -1.57957 0.655637 1.03699 1.41697 2.84302 -0.717183 1.86395 1.27633 -0.369741 -1.09567 2.54804 0.308404 -1.85583 2.33872 -0.617433 -1.04083 -3.30327 2.80281 3.06673 -1.49228 1.33256 -2.60772 -0.0417334 -0.909015 -3.4818 1.00661 0.435437 0.645765 1.91747 -2.73388 1.30698 -1.32431 -2.0534 -1.96774 -1.29501 0.581158 -2.16235 2.36002 3.49953 2.76179 1.85901 -2.39166 1.51192 1.12372 -2.50411 -2.47398 -0.653695 -1.4586 -0.931165 0.850438 -3.41458 1.44215 -1.02959 0.847763 0.0308425 -0.943861 -0.268641 0.574982 2.96569 1.63759 2.013 -2.29491 0.934904 1.89035 -0.193041 0.616963 -0.570021 -2.19025 -2.2886 2.67122 -3.0999 0.723829 3.46428 1.65175 -2.94325 1.40275 -0.390207 0.589653 -0.489642 -3.13872 1.66619 0.832936 2.29771 0.395064 -2.65919 -3.49316 3.09477 -2.2036 1.98834 -2.42471 0.163026 2.86524 0.602437 -1.81652 -2.35461 1.81471 1.77529 -2.78659 2.20496 1.67535 2.74213 0.13266 -2.33817 -1.86728 2.71029 2.21006 -1.1806 3.39665 1.49791 -2.82188 3.2097 -0.947002 0.193691 -1.95034 3.49958 -0.188574 -1.7178 -1.52645 2.70441 -1.3823 -0.721555 1.29943 -1.59839 0.253468 2.95117 0.0882635 -0.561796 0.552934 1.27452 -3.15995 2.58167 0.478631 0.196449 1.41784 -1.95668 -1.27348 -2.90381 -1.12775 0.174182 0.716059 -0.814239 2.15413 1.76279 -2.18334 1.68179 0.793873 -1.69679 1.58174 3.30613 -1.24029 -2.22401 1.01473 1.65073 -2.71099 -3.33723 1.359 0.754 -2.09888 -2.64518 1.99773 -2.65271 1.53185 0.505958 -2.7809 2.58361 2.01753 3.13867 3.0686 1.51729 -2.99128 2.30186 2.09127 0.813684 2.04478 -1.44389 0.770766 3.33857 -1.42498 1.9369 0.631245 -1.29101 2.36731 -1.9991 2.24649 -0.684035 1.44721 2.52916 2.53341 -0.69623 -3.24954 -1.55369 2.79502 2.74031 1.60272 1.56457 -2.04422 -1.24207 -0.395956 -2.74246 -3.30844 0.8558 3.00073 1.31387 -3.10945 3.11068 -0.584308 3.46646 -2.3634 -0.691841 0.280921 2.72262 -1.67624 -3.11541 -0.191853 -1.22591 -2.35776 -1.29185 -1.91274 -0.321699 -1.05489 -1.0108 -0.954852 -1.63631 0.0594959 -0.409306 1.17903 2.58988 0.0382574 -1.47281 -1.10237 -0.20838 -1.20888 -1.74167 -0.560604 -1.24094 2.02784 -3.36375 -3.18703 -2.82408 -0.376643 0.102505 2.876 0.985426 -1.38918 3.11968 -1.71113 -2.51955 1.43417 2.6886 -2.95984 0.266464 -2.74702 0.946404 1.66801 -2.23401 0.0599829 0.202986 1.48734 2.35966 -0.0811781 1.91512 1.82724 1.36219 -1.71172 1.81679 1.02714 2.70181 -2.14688 2.77835 0.43723 2.43041 -0.274381 3.38281 0.268303 1.05982 -0.601324 -2.27283 -0.302033 -2.11783 0.684751 3.22565 -2.47518 -1.94791 -2.50634 1.51667 -2.61194 -3.35107 -2.98957 -1.15275 -1.95882 -0.20687 -1.63994 -1.44183 2.63374 0.510137 0.553618 1.46623 -2.56621 -0.653118 1.08926 -1.02589 2.57445 3.20556 -0.698985 1.89851 -3.10109 -1.71177 1.11438 3.22807 -3.26461 -3.46919 -0.375571 3.35036 1.36735 1.1141 2.64926 -2.6543 -3.01232 -0.297867 -3.2323 2.89797 0.848169 -0.576465 0.791347 2.12766 0.507407 -0.87741 -0.00554151 -0.34703 1.1757 -0.228881 0.0200632 2.00963 1.76747 -3.25825 1.03072 0.888386 -0.205076 -0.214975 1.79238 1.6227 -0.883936 -3.08374 -3.13734 2.29836 -1.38094 -1.1238 1.90533 0.986835 1.99537 1.70187 -3.33541 1.34869 -0.479858 -1.11238 -0.42574 1.00386 -1.66286 -2.30949 0.604193 -2.16398 0.0728314 -3.41282 -2.96132 2.14054 -1.55325 -0.878836 -2.7684 1.58486 -0.266226 2.10276 -1.79129 -2.05723 -0.164101 -1.29111 -1.95943 -2.77323 3.33331 -0.510431 -0.0653126 0.704108 -2.95212 -3.10352 -0.361544 -2.09468 -0.271803 -1.42641 0.232514 2.11231 -0.956188 -1.23943 3.43079 -1.51369 -3.24386 2.53576 -1.14545 -1.43236 1.35087 -2.89151 -2.18631 2.40466 -2.14585 1.16161 0.322875 -2.85756 -3.16804 -0.697183 -1.14138 2.8421 0.785897 -0.753902 1.51373 -2.66223 3.38161 0.964435 0.143134 1.14748 -0.0653039 1.27457 -2.01873 1.62396 1.25972 1.34707 -1.01584 -3.24998 -2.43323 0.406425 2.88777 3.36576 1.64795 1.34125 0.564062 0.590328 1.26269 -1.00479 2.51365 1.47687 1.45803 -2.65379 -3.4433 0.86682 -3.01464 2.92987 0.719765 1.543 0.011223 0.588751 1.85775 -1.22565 -3.04478 2.91368 1.38064 -2.32775 -0.134509 1.88199 -0.399912 -2.50366 -0.404024 -2.30058 -1.21489 -3.47158 -3.21423 -1.79651 -1.74334 1.19053 -1.75343 3.37827 -1.4526 -2.42794 0.199337 -1.71301 3.46624 -0.603358 -2.70602 -1.51548 3.24104 -1.61677 -2.03901 -1.03656 -2.94194 1.58183 -2.79595 0.820854 0.198618 2.38526 -0.48429 -1.01629 1.33193 -0.836151 1.02445 0.939895 0.338052 0.222626 2.46989 -2.65862 3.47863 -3.09525 2.20881 0.0440342 -0.12532 2.76042 2.99738 1.07692 -1.90278 -1.35892 0.772183 0.190945 -1.35485 -3.48348 -1.65833 2.24725 3.39813 0.936198 -2.21976 0.985873 -3.38864 -2.96488 -0.524165 -0.21332 -2.45918 -1.85329 0.370739 0.841599 -2.4578 2.05029 3.47398 -2.27428 2.60668 1.96295 -0.683477 0.176279 3.19102 3.46248 -0.184119 -2.64214 1.74805 2.37466 3.03964 0.344375 -0.544766 2.62418 -3.17605 -0.384018 -1.10541 -0.111027 -1.79253 -2.36308 -3.42904 1.69874 2.50139 -2.75648 1.8363 2.86826 -1.34745 -3.37341 -2.1073 2.41096 -0.396049 0.565026 -1.63952 -3.29016 -0.963358 1.4156 -0.978811 -1.00557 0.455218 0.729648 1.89321 0.167478 -3.31054 -1.63287 -2.53848 -0.200655 -3.3376 -0.935897 -1.44173 1.40918 2.8793 -3.2975 -2.43912 0.338303 -1.0651 1.68586 
-1.16586 2.69897 -1.89422 -2.89423 1.37567 -0.367241 0.360567 -2.6904 2.02919 0.707394 -3.42435 -1.7666 1.30795 -1.75781 3.17285 -1.83137 1.797 1.8151 1.86217 1.12393 0.804217 -0.951126 -2.79431 2.96709 -0.741108 -2.73199 0.679369 -3.02894 -3.10348 0.860378 1.23041 0.11504 -0.222081 3.21862 3.13947 1.8221 -2.33372 1.60847 -2.91476 -2.95153 1.25004 -0.821329 3.18211 -0.41673 -1.63701 -2.06192 0.468854 -2.39482 0.607104 -2.77519 -2.956 0.690266 -0.370522 3.41775 -3.3743 -3.44115 -1.5528 3.05375 1.11274 -0.5205 1.24759 2.11716 1.25939 2.40738 -3.12542 2.11307 2.77986 -0.871138 1.60207 2.93563 -0.158996 -2.60349 -0.141741 2.94464 2.12482 -0.502068 2.54851 -1.58907 -0.130914 2.17469 2.17892 2.33776 0.0910876 1.10915 -0.497783 3.16954 -3.42162 2.36693 -0.924718 -1.31293 1.7792 2.9222 0.933633 1.1362 1.50752 0.820866 0.599081 -1.64225 2.87273 2.3877 -3.29993 0.518048 -0.823304 3.28137 -1.20127 1.29704 2.90934 -0.308214 1.73042 -1.40752 -1.2553 -3.42438 1.88704 -2.54367 -0.823955 1.1199 3.47898 0.343939 -1.02938 2.54905 1.22028 -1.7106 -1.06556 0.972103 -3.46187 -2.55172 -1.12751 -3.08295 -0.52527 0.756771 -0.0397526 -1.97424 -0.0111784 -0.823324 2.44438 3.27097 0.218492 0.794284 -0.000390189 -0.579651 -0.646978 1.18215 -2.0715 -1.25103 -2.87074 0.450857 0.371196 2.93509 -1.24436 -1.42689 -0.140611 -0.352069 2.68095 -1.66131 -2.94152 -2.62786 -1.80095 -1.79543 1.09113 3.00543 1.57016 -3.36061 2.37339 -2.32295 3.0535 0.306235 -1.43979 -0.0340627 1.80768 3.29125 0.380008 -1.28383 2.75248 -2.60387 -2.66895 -0.775857 2.0468 -2.70024 3.4091 -1.05081 1.74962 2.64558 1.98899 0.30648 -0.850802 -1.51272 -2.50293 -3.44463 -2.42749 -2.12438 1.15238 2.32598 -0.0197043 0.631928 3.00807 2.93558 3.01891 0.9425 -1.31087 1.8389 -1.33863 -3.43466 -2.6949 2.13975 -2.46419 3.17668 0.0891473 -3.35465 0.0209132 -0.145112 2.08527 0.773678 -1.63799 3.17821 -2.9847 1.63298 -1.40854 1.17018 1.43641 -2.20676 0.576649 0.528819 0.4418 0.851111 0.820227 -0.0298532 0.476661 1.10797 2.57925 -1.56084 2.30419 2.89917 -1.27919 -0.834663 -0.473532 3.0952 1.37469 1.63477 -0.604709 -2.38567 -0.0173158 -0.811245 3.16127 2.57123 -2.69934 -0.855235 -0.372844 1.66878 0.810913 -0.819779 1.95342 -2.25094 -0.603264 -1.68426 3.02057 -2.45397 -2.85034 0.0105728 -1.64008 -1.29818 3.22336 -2.36923 2.31083 1.69458 -2.98438 0.867485 -3.04654 1.2172 -0.160281 -1.22922 3.42157 2.64842 -3.41659 1.81633 -1.80679 -2.38075 1.74969 -1.67663 1.68736 -0.280061 2.43408 -2.57301 -0.877659 2.0077 -3.29223 0.667358 -3.37482 -2.56719 -2.58878 -1.37608 -0.557157 -2.42622 1.37287 2.82765 -0.51309 0.714206 -0.843204 1.32292 0.118036 -2.75576 -3.05605 3.17894 3.26132 2.70779 -3.12065 -3.14213 -0.736973 2.40199 -2.62632 -1.70444 1.423 -2.51215 2.23923 0.508289 -0.189681 -2.34217 -3.20951 2.60751 0.69531 1.70521 2.37505 -0.530258 3.37795 1.76375 1.19723 2.12444 -2.42619 -1.37214 -1.49832 -0.0230611 1.62873 1.40315 -0.850175 -0.714884 -2.42472 -1.94494 -0.306744 -0.961976 1.83385 2.75887 -2.6947 2.09298 2.54203 -2.77415 -1.88057 2.17331 1.57893 -1.27451 -0.706256 0.512434 -0.947918 -0.934562 1.45079 -1.46841 1.1063 2.7645 2.09334 1.91739 1.3251 1.69996 -0.426141 -3.12757 0.546804 1.0076 2.85666 -0.841587 -0.558702 1.48687 -0.172805 1.76553 -0.132988 -1.64507 -2.44914 3.31858 -1.22194 3.37365 1.96566 0.0987267 -0.462431 0.245231 -2.73906 -0.0553761 -2.90271 1.7682 0.936025 0.856503 1.07767 3.28004 2.49868 0.209097 -1.22054 1.79808 3.1157 2.25141 3.11503 -3.27588 -0.134355 2.11976 -1.32259 2.56089 0.402194 3.25968 -2.45975 1.45938 2.69617 -1.67686 1.72946 -0.240375 -1.87606 1.39486 1.42161 0.28473 1.01556 -1.10798 -2.81599 1.09176 0.136093 1.27301 0.502165 0.45427 0.97991 0.214657 -1.93924 0.713482 2.8249 1.74632 -3.36894 2.352 -0.984454 -3.25822 0.122046 -0.0766895 -1.77518 2.77093 -0.663191 1.89357 1.80711 -0.891829 -2.63872 -0.608482 0.187424 2.67374 0.862463 -0.957958 -1.51717 -2.10568 1.49419 -1.98708 -3.43604 -1.93745 1.13943 -2.05371 -2.58997 -3.27649 -0.949811 -0.0847127 -2.68934 -1.23089 -0.820256 -1.90251 -2.88564 -0.536826 -2.68464 0.493567 0.284368 3.01901 2.86929 -0.967103 -1.01834 -0.181756 1.06752 -3.11943 -3.01732 0.299436 -3.00155 2.62916 2.6552 -3.20404 -2.1232 0.828895 -2.76286 -0.416 1.99571 -0.686518 -2.08726 1.4742 -1.11681 3.40589 1.92113 0.919042 2.33064 -0.346644 -3.22619 3.28634 -0.277275 -0.778108 1.02752 1.68999 2.52683 2.54482 -3.229 -0.767387 1.61969 -1.45041 -0.891934 -1.46092 2.43345 1.32149 1.72397 -0.449882 1.76429 1.47512 2.36282 -2.32329 -2.04801 2.50542 -1.89198 -2.61939 0.394466 -0.123318 -2.97812 1.11278 3.22447 -0.512821 0.0769718 3.43587 2.12322 -1.14166 1.09654 -2.39296 -1.32656 -1.41802 -1.17652 3.2315 1.08417 2.9797 1.29831 2.38328 -3.05396 -2.51928 0.305197 1.47195 -0.380828 -3.43755 -2.58321 1.10665 0.160944 -0.188634 3.0147 -3.03237 3.11504 -1.18411 3.10975 -1.98348 2.93187 2.28958 -3.45268 -2.17256 2.8816 -1.79899 -0.918715 2.36447 1.94782 -2.53644 2.34377 -2.15329 -1.07586 -2.91363 -3.3629 3.3447 2.39082 -2.54053 2.39727 -2.68399 3.27677 0.184162 -0.433998 -1.88541 -1.62042 0.320343 2.95988 -2.42529 -2.3107 -1.23149 3.2407 -1.47558 -3.21999 -0.988514 -1.72629 0.409254 1.14314 -2.2666 3.2641 -0.365923 1.54657 1.80819 -3.2104 -1.55467 2.57327 0.715279 0.372281 -0.944521 2.66706 2.15784 -2.15771 -2.48637 -3.29676 -1.30597 1.84625 -0.902635 2.37416 0.911624 -3.43448 0.617541 1.75526 -1.31502 0.00080012 -2.21227 -0.701316 -0.115229 -0.0461695 -2.5497 0.300946 2.86872 -1.97518 2.06762 2.99116 2.97637 1.95351 1.91378 -1.4128 -2.37922 -2.05012 -0.617126 -1.96808 1.97853 -3.28894 -1.82363 -1.38007 2.22783 1.4468 -0.729785 -0.252137 -0.32287 0.252205 -2.37872 1.95724 3.03573 -2.22036 3.1358 0.824735 2.67 -2.67458 0.680951 -2.14985 -0.40378 -0.176955 1.02238 -1.36421 -2.67307 0.0307548 -3.2818 -2.70604 2.48849 -2.90591 2.08009 -0.261198 0.816839 -2.24708 -3.4966 -0.88788 1.03739 1.57756 1.50723 3.43255 1.00495 -2.13302 -2.07291 -0.00743866 2.74432 -3.19788 -3.11063 2.60673 -2.88476 -1.93267 2.22939 -3.34213 0.359806 1.85573 0.809856 -2.5188 -1.82406 2.54003 2.46989 -1.46443 -1.95955 3.05783 -1.12138 -2.00871 -3.48526 3.41414 -3.23947 -2.03483 -1.12544 2.00831 2.20139 -0.249562 -2.17894 -0.9197 -1.86003 -2.88234 -0.0485984 -1.91211 -1.10636 1.68516 -0.84447 3.31431 1.3339 -0.696551 -2.25372 0.890975 -0.24251 -1.4805 0.446399 -0.0703123 -1.2876 2.63134 -1.89739 2.50491 -1.43596 -0.56355 -2.29666 2.84904 2.23249 -2.59 2.75045 1.94243 1.13096 1.89501 2.32336 0.383894 1.41855 1.44648 -0.544532 2.80376 -1.14514 0.753255 0.247937 0.0723721 -0.154274 -3.46731 -2.6468 -2.38075 1.82947 1.85 2.73766 -0.763687 -1.74912 0.47215 2.66155 0.774145 3.14326 0.24842 1.6297 2.37162 2.98317 1.17593 0.746244 2.40516 0.830729 -3.22849 2.98904 0.724604 2.70234 0.0318237 0.972683 2.17055 2.33337 -0.507132 -2.73977 -2.24065 1.71703 0.852898 3.47326 
-1.53898 0.513213 0.87238 -1.75965 -1.24043 -2.79374 -2.82589 2.07822 0.882359 -0.415419 -1.37465 -0.768247 1.87812 -0.0318882 1.44854 -2.48907 -0.809134 -0.755003 -3.00454 -3.2785 -3.47665 -2.01722 2.83866 -0.798984 1.50702 1.61051 0.869588 -2.99699 1.36403 -1.97872 -3.03402 -2.3001 0.470084 -2.02467 -2.06976 0.719598 -0.875403 1.34895 -3.33225 0.435074 -3.36233 -0.720954 -0.924334 3.47963 3.24681 1.60094 -2.92615 -3.12399 -3.45614 -3.37086 -3.45183 -0.57231 -3.32727 1.04129 0.56919 -0.998802 -0.0219433 -1.16345 -1.9377 -3.23464 3.10143 -0.965346 -1.73661 -2.4238 -2.238 -0.218655 -2.88512 -3.01705 2.71222 2.37192 2.0347 0.212939 -1.59048 -3.00293 2.51946 1.7127 -0.573124 -1.14846 -3.26737 -0.502508 2.36693 -0.695188 -1.51213 0.964444 -0.770584 -0.505766 -3.20708 1.36194 2.09509 1.32574 -0.102428 3.23544 -2.21645 -2.98532 0.95617 0.489184 -0.708996 -1.57513 -1.3964 -2.94514 2.37628 -1.47236 0.670182 -3.38048 0.199304 -0.379578 -0.744761 -0.977282 0.998935 1.44503 0.450439 -1.7782 3.11859 3.38056 2.39295 3.1824 2.77728 3.35195 0.489305 2.71227 -0.938896 -0.990301 -3.20687 1.1449 2.43033 2.65172 -1.037 -0.548363 0.792322 1.65814 -3.24646 0.954456 2.49521 2.47119 0.538942 -0.172867 1.2753 3.16141 3.13097 -1.68802 -3.39618 1.44179 1.78809 -1.56301 -2.40248 2.26602 1.06122 -1.17309 -0.526675 3.04091 1.82774 -2.54326 0.877 0.569259 -3.02962 2.55827 3.12127 0.327603 2.49317 -0.490809 -1.61136 -0.0447474 2.47788 2.73007 1.36236 -0.569432 1.98388 -2.79282 -1.81743 -3.36958 2.15123 -0.735577 2.95036 -3.18365 -2.95352 -3.33911 -2.93133 0.237511 1.10178 1.41381 -1.73405 2.13981 1.57981 -3.09036 -1.3223 1.24506 1.89351 1.74955 3.03908 3.28413 -1.60638 0.0583213 -3.00684 2.94712 3.26148 3.0726 2.84146 1.71818 3.17271 -0.848095 0.750853 0.972894 0.564561 0.481648 -0.654703 -2.59611 -3.38697 -3.29546 -2.94455 -0.00766037 0.0967681 -0.710063 -1.29984 0.391788 0.229296 1.96803 -3.32123 -0.115451 -2.16662 -0.488912 0.865468 -1.58503 2.23943 0.149879 -0.633265 0.898218 3.23179 -0.189225 -0.532456 2.0115 -1.8068 1.73525 -3.4311 2.01484 2.45748 1.42949 2.0939 0.559936 -0.905294 -2.52152 0.879699 2.26675 1.51838 1.64124 -3.02291 -2.80476 -0.636049 -2.96296 2.90224 2.67013 0.483248 -1.67073 0.100145 3.40179 -2.96385 2.51962 2.33414 0.947717 -0.24261 2.40968 2.74578 -1.1067 -2.76083 -0.448442 -2.04953 -0.536962 0.199527 1.60136 0.933756 -1.3197 -0.439192 -0.738156 -1.60976 3.12872 -0.776537 1.6344 0.252941 -3.40911 -3.31793 1.69249 3.4905 0.909992 -0.909864 0.527422 -0.532684 -2.24653 -2.17062 0.228996 -1.1723 2.15766 1.88896 -1.9714 3.0283 -1.67444 -2.27919 1.19613 2.05608 -2.45776 -1.1558 -1.31669 1.32352 2.64672 3.05316 0.276432 2.72147 -2.68085 2.70784 3.23515 -3.04476 1.57078 1.23174 -0.541154 -1.41769 -2.77577 -2.46648 0.742745 0.670007 -0.262305 -2.75485 -0.944904 -2.98597 -3.10367 -1.30935 -0.928836 0.705995 2.61829 -1.7909 1.752 -2.6424 -2.26147 1.61781 -1.89891 2.892 -2.49483 -2.71859 0.626551 -0.0610081 -0.874977 3.0135 2.15862 0.768303 2.16403 -0.959406 2.25781 -1.43917 1.71479 0.526424 1.8291 2.27613 -2.09185 -0.785724 -0.206508 2.90809 2.16997 -2.86136 2.66392 2.14021 -2.69832 1.74703 -3.18798 2.48942 -2.74521 -1.51897 -2.95039 1.91556 -1.80858 -0.726987 0.0145394 -3.08012 -2.57274 -3.04089 -2.57078 -3.04806 -1.25622 -3.23221 -0.984655 2.34807 1.73399 -1.3272 0.658726 2.71979 2.41139 0.98598 -0.0750442 -1.11881 -2.99156 0.868552 -2.32475 -0.328852 -1.71799 -1.0246 2.27844 2.93407 0.239437 -1.71565 0.476854 3.39078 -0.879955 -1.81919 -1.42864 0.114679 0.102728 2.98787 1.39732 2.50775 3.36821 -2.33137 3.39581 2.68249 2.49621 1.0555 -1.81945 2.37051 1.82053 0.169161 -0.137331 -0.681784 -1.25503 -2.66486 -3.48492 2.26696 1.7031 -2.01322 2.83779 1.75044 -2.07793 1.32069 -0.243447 3.11405 0.877227 -1.82165 0.0643366 -1.24739 2.67208 0.455401 -2.09671 -2.51566 -0.318734 -1.8967 2.22886 -1.49336 -2.95327 -1.20703 2.99228 1.77308 -0.599842 -1.38052 -2.60591 -1.97249 3.04838 0.943306 1.67114 1.92755 1.00082 -1.63903 0.480541 0.52468 2.45239 3.13796 -2.54108 2.31482 -1.50476 -0.31996 2.80708 -2.39195 1.21726 0.509559 3.30147 -1.37879 2.75847 0.517685 -2.66314 -3.16046 2.77116 0.0510173 0.694632 -1.46921 -2.54719 2.805 0.556899 0.736303 1.53002 1.17041 0.179764 2.12694 -2.0577 -2.6545 0.191299 -2.83647 1.61485 -1.2894 1.73411 -1.01656 1.01653 -2.6576 -2.00467 -3.35145 1.14422 -1.3643 0.0601235 -0.750988 -2.62847 -3.35881 -2.2423 2.26332 -2.09351 -2.67071 -2.77909 -1.14406 0.494215 1.87781 0.218111 2.54374 -2.73621 -2.6697 0.394785 -1.427 3.34198 2.31082 0.472011 2.42895 1.12496 2.93763 1.79789 -0.706602 0.883345 1.28809 -0.807388 2.454 -0.729692 -2.85255 -1.55659 0.639135 -2.07246 -3.4853 0.560999 1.64602 -0.543636 2.10031 -1.64567 1.12865 -1.88411 -0.124719 -2.73937 2.74589 -0.709813 1.07566 -2.89892 -0.186468 -1.20653 0.521828 2.58565 3.45039 3.23501 -1.96818 1.35394 -0.413349 2.01 2.4342 -3.12218 -1.22308 -0.274203 -2.6012 0.545355 1.10541 -2.92046 -0.0023887 -0.277739 -1.63062 -2.00096 1.40026 3.19865 3.10025 2.35459 -2.96829 -0.230584 2.28304 2.98477 0.143386 0.680445 1.78539 2.86299 2.10337 1.74476 -3.15785 -0.337238 -0.106012 -2.86611 1.73938 1.73617 -0.191421 1.878 2.43059 0.407088 -1.41342 -0.30978 -1.18062 1.49191 -2.81488 0.0249898 3.48468 0.0327778 0.382501 -3.31387 1.09059 3.31614 3.48249 0.307247 -3.08091 -1.47418 -1.79542 0.695011 1.46067 -2.76442 -1.91891 -3.2537 3.14644 -1.99042 2.68131 -2.1717 -3.31209 1.60185 -0.208535 2.19313 2.61855 0.78576 -1.95284 0.391913 -0.163652 0.693632 2.43856 0.466158 -0.253375 -2.13687 -0.751804 -3.20626 -2.80126 0.358112 3.21569 -2.79958 -2.71845 3.24661 1.56448 1.08571 3.29384 0.312459 2.22383 -0.825558 3.2731 1.86587 0.254212 1.1027 2.88283 -2.56544 0.511836 -1.43189 1.94957 0.901515 1.3156 1.73502 0.245501 3.32983 -2.8514 -1.4436 -0.126367 3.15802 1.38294 3.4361 -2.2213 -3.36412 -0.866643 -2.4634 2.47449 2.8303 -1.85314 1.40135 3.12892 1.10827 1.92058 1.60824 2.36154 -2.42753 2.02691 -1.01009 1.36527 -3.48127 -2.16987 1.55379 -2.30736 1.43398 1.95235 -2.782 0.585256 -0.562737 -2.94226 1.05281 -3.43721 2.04819 2.34405 -2.71225 0.432549 -2.44118 1.63823 -0.247518 1.36773 -1.11157 -1.02031 -1.40025 0.783898 -0.611418 -0.633936 2.02997 1.64468 2.53554 0.141756 0.708273 -0.939063 -3.17958 0.128439 3.02759 -1.60252 -1.3157 -1.03278 -0.728398 -1.17893 2.04286 3.00401 -2.38405 1.1509 1.63726 3.16679 1.85629 -1.97433 3.18709 -1.44732 0.0989362 -3.35386 2.17264 0.63056 2.70332 -0.740858 -0.122382 1.81897 1.39351 -0.42873 -0.763627 -1.86593 0.700337 0.641513 -2.44304 3.10211 -1.63867 -0.456605 0.342582 3.21239 2.89668 -0.792081 -0.698115 2.02549 2.08092 -1.62232 -2.54372 1.95157 -0.328516 0.131486 -1.18192 1.81352 2.68955 -3.13191 3.35731 2.57803 3.29755 -2.27305 -2.48116 2.58725 -3.24976 -0.400184 -0.697822 -2.03754 -1.44484 -0.297889 1.90262 1.94734 0.881544 
0.624307 0.923561 3.49284 3.07245 -1.21678 -3.06444 3.1157 1.01361 1.60769 -2.36764 2.73776 -2.31426 -2.93924 -1.64707 -1.80906 -2.96584 3.26747 2.13571 -1.11052 -2.02621 -0.261773 -2.63133 -0.904855 -3.39335 1.85636 -2.65777 2.57346 -0.629783 2.18892 -3.39929 1.30546 -2.93134 -3.25454 0.833238 -3.27521 3.19236 -0.950098 3.41445 2.46862 0.867493 2.06878 -1.91912 1.4973 3.15495 -1.32575 -0.684191 2.41938 0.204144 1.68258 -3.03898 -0.396828 1.49477 1.55502 -3.20188 -1.21701 -1.34863 -0.594635 0.928037 -2.31665 2.27815 0.137231 -2.77362 3.07787 1.23053 0.515144 -2.71824 -0.000845251 -2.2589 -2.12223 2.07951 2.53015 -3.12503 -3.1959 1.71671 1.13626 2.15595 3.4582 0.330228 0.90633 0.795519 2.32994 2.33345 -0.726775 0.386655 3.05312 2.68824 -2.39431 -1.70805 2.86635 -0.602754 0.419628 1.7757 0.686272 -3.41189 -0.16603 3.01408 0.721172 1.32676 2.93987 0.796959 -0.679437 1.07737 -2.29638 1.66568 -2.7083 2.1673 -1.52456 0.00553476 2.54852 -0.303433 0.624834 -1.71052 -1.66503 -2.79395 1.2507 0.0978887 0.0760975 -1.50418 0.458463 0.539391 1.93514 2.79626 -3.14954 -2.17053 -2.71921 -1.4124 -2.29096 -1.1893 -2.65896 -1.55918 0.576947 2.34282 2.83354 -3.02558 0.0138669 -2.95945 -2.77159 1.9087 1.55749 1.11919 -3.0532 0.620757 -2.15494 2.30117 2.29482 -1.72648 -2.02186 -0.0207425 0.913471 -1.1472 -3.11129 2.87634 -2.86227 1.30475 -1.86349 -1.69504 1.45936 3.27226 -0.621315 1.4375 -2.4145 2.29374 0.219669 -2.30306 1.85974 2.06048 0.556916 0.353914 2.72187 0.839114 -0.581124 -2.50363 -1.35298 2.14607 -0.829098 1.40405 3.22316 -0.702943 2.50895 -1.0756 -2.95533 -2.34207 -1.07374 -3.42724 0.86882 1.40886 -3.28408 3.49093 2.67156 -3.12584 2.19129 -3.23479 1.24189 -1.85344 -3.44335 1.12192 -2.56585 -2.91241 2.65768 -0.434259 0.116047 1.44432 2.20023 1.08217 -0.0316559 -1.332 -1.76524 0.63598 -1.49356 3.26923 1.92113 0.867046 -0.823122 -1.0871 3.12879 0.00640609 -3.34404 3.16448 2.89678 -3.41503 1.4496 -1.62314 -2.31444 -2.73026 1.23356 1.76434 -3.3788 0.622078 -2.86885 -0.73263 3.28723 -2.19169 2.21245 -1.71701 2.57118 -0.976148 -2.87849 -0.209338 -1.33465 2.04695 -1.92329 -2.21202 2.92311 2.5791 -1.08017 1.25824 -0.520571 0.54933 1.76044 -0.831906 0.408215 1.32767 -0.933976 1.49883 -1.01274 -1.396 -0.303648 1.29401 -3.00234 1.96569 -0.134377 -1.48996 -3.11235 3.43729 0.82312 2.23115 2.60681 -0.993392 1.60942 -2.29945 2.54084 -2.06234 0.357755 2.56038 -0.187717 0.467257 0.700072 -1.02859 0.501283 1.711 1.71357 2.53888 -0.448518 -0.807182 2.57612 -1.13658 3.32935 -0.949127 3.06348 -0.0179754 -0.987451 0.123362 -2.42557 2.04454 2.12698 -0.729286 -0.633605 -1.1017 3.35615 -3.13074 1.5376 -0.522976 -0.448797 1.55421 -1.48701 3.29764 2.04126 -0.677372 -1.06299 -0.414859 2.92944 3.48076 -0.96056 -1.17283 3.00732 3.23968 -1.57252 -2.39982 1.77794 -2.05932 -1.97831 2.26346 1.80907 -1.49968 -2.11025 -2.50799 -3.09641 1.62332 0.100056 1.39683 -0.0785813 -0.624337 -1.38897 0.216727 -3.47709 -2.91757 -0.659325 2.52061 1.07486 1.79461 2.4751 1.23502 3.30476 -2.64016 -2.15022 -2.97421 -1.61997 -0.404178 3.17066 2.699 -2.90954 -1.59732 0.254334 -2.52518 -1.15409 1.02246 -1.62233 2.23934 -1.58786 -1.32426 -1.87533 2.50891 -0.921662 -3.01993 -0.0728111 -0.195481 -0.790619 -3.09117 2.42355 -2.36852 -2.95409 0.228567 2.13682 2.5441 -0.281469 -0.478253 1.19452 -2.16533 2.44846 2.66911 0.406834 -2.00696 1.17507 2.25476 -0.214054 -0.149853 0.999592 -0.782714 -2.8455 -3.36861 -0.180813 -1.83117 -3.38389 3.45009 -2.21839 -1.34589 1.97685 -0.308859 -1.47632 -3.21966 0.147775 -1.38298 0.321373 0.782719 -1.9835 -2.78042 -0.993663 -0.0356504 -1.62441 -3.19416 2.6277 -2.94814 -0.897615 -0.697049 2.32661 -0.60769 0.331405 0.0987402 0.69931 0.259113 -1.47567 1.38716 0.666068 3.35053 -1.41486 -2.65194 0.61237 -1.59727 -1.88404 0.456524 2.78695 -3.17069 -3.04483 0.211769 -0.635745 -2.94567 0.0290595 1.11918 2.29637 -2.95362 -0.471746 0.705823 -0.753722 2.64091 -1.11742 3.38467 0.602618 -3.46313 2.86227 -0.399561 0.640409 -2.11704 -0.688342 -1.33701 -0.638125 -3.11177 -2.92891 -2.21516 -2.60604 -2.85876 -0.945621 -0.622784 -2.32094 -1.68254 0.79236 -1.65805 1.98176 -2.02895 0.0222059 2.09729 0.714625 1.78688 -2.05749 0.372105 1.91158 -1.43934 2.49049 -0.911052 -2.65509 -3.00459 1.21565 -1.31848 1.51548 -2.28629 3.29476 2.18477 -2.61748 -0.638322 0.986917 -2.36367 0.781373 2.28285 2.41397 1.09725 2.3021 1.46343 -1.76087 -3.15804 -2.64805 1.27906 -2.87135 -2.90293 -0.391256 -3.18799 1.07074 -0.760519 2.37947 -1.57969 2.67182 2.80181 -3.19365 -1.41441 0.0379048 -1.24202 3.07304 1.59977 2.48795 -0.907223 1.07602 0.764158 2.72056 0.466324 -0.993577 -2.82868 1.16732 1.62261 -2.87531 2.36709 0.657243 -2.06611 -2.6438 -2.6581 -1.14653 0.974683 -0.720075 -0.802167 -3.19641 1.49514 3.29092 0.897614 2.93783 -1.81691 2.07239 1.72768 -0.778972 -2.90905 -0.396078 -1.53698 -2.17471 0.270128 -0.735394 -2.81935 2.30637 1.14031 -1.60419 3.01337 -1.0137 -3.34438 -2.02462 -2.28741 -1.81921 -2.77861 -0.320453 -0.316398 3.38759 -1.90279 1.6613 -1.04065 2.05394 2.54447 -0.695813 1.20306 -3.34874 -1.28188 -2.55969 1.23228 -1.8121 -3.12854 1.35501 -1.14694 0.529288 -1.84894 -0.811707 2.61932 -1.61216 2.99432 0.182818 -0.563157 1.69876 -1.9552 -1.95914 1.66427 0.202244 -2.39406 1.27461 2.78559 -3.1094 -0.434113 -0.498717 -3.26835 1.24197 0.971779 -3.45862 1.46117 3.39931 2.44065 3.10427 2.13116 1.89729 1.32422 1.10363 1.4378 -1.70258 -1.17715 -1.46868 0.857786 -0.258528 -0.590475 3.34993 -1.88167 -1.94844 -1.57946 -1.39313 -1.32949 1.29279 -2.94185 -3.24676 3.12147 -2.78919 0.196015 1.75941 -3.44947 2.87622 2.2449 -2.58467 2.46737 1.43217 2.61516 0.796006 -2.655 3.14045 0.943498 -3.01828 -0.874727 1.34084 -3.0752 -2.11757 -1.61522 -0.0593826 0.731435 -0.951482 -0.195183 -0.234291 1.75815 -3.28996 -3.10698 3.02554 -2.34065 1.10846 1.35391 0.786537 2.05503 -0.449785 -0.892568 -0.515547 -3.18018 -1.28358 -0.391157 2.72288 -2.5736 3.04549 1.95179 -2.739 1.6086 0.508465 -2.79592 -0.389993 -0.690072 -1.50375 1.36858 -3.18629 -0.00649509 0.942872 2.50228 -2.54017 -2.6813 -0.258793 -1.15444 -1.92615 3.34806 2.22577 -0.226369 -0.482938 3.45911 -2.49999 0.511982 2.37214 3.15559 0.919615 3.47701 -0.229501 2.04556 0.290788 -3.48511 2.46139 1.15034 2.4697 0.299206 2.29597 -1.4402 -1.57997 3.4793 2.474 -0.269686 -1.79261 3.35389 2.90176 -2.50842 -1.60024 1.90992 -2.32212 1.74762 0.93606 -0.745597 -2.30367 -1.02236 0.645175 -0.840824 0.6363 -3.01679 -1.3534 -0.946818 1.27325 -0.449788 2.44755 -3.43502 1.92156 -2.55829 0.230466 2.58527 1.99697 -2.91784 -1.10909 -2.26333 1.36729 0.672246 1.15236 3.47687 1.57365 -1.79862 -2.78632 1.79112 -3.41599 -0.562345 -0.660682 -2.67565 -3.2551 1.79981 -2.35217 -2.60959 2.34325 -2.9401 1.40081 2.42123 -3.34363 -3.49567 -2.45437 0.336327 2.6399 -2.51434 -0.546216 2.45823 -0.283496 1.16551 -1.32117 -2.8551 0.0568966 0.160025 1.71217 -0.932176 3.30153 0.68579 -2.71464 -1.12625 
-1.92079 1.65511 -1.8306 -2.76832 1.37138 1.24975 -0.708939 2.85697 2.90005 2.22355 -2.09824 2.66802 0.58357 -0.655679 -0.875927 -1.65274 -1.92253 -1.76372 -0.421201 -2.36722 -1.46587 0.985137 0.721821 2.94065 -3.3591 -1.23409 1.31992 -0.357125 -0.255925 -1.7017 -2.79474 -0.428566 3.1623 -1.4704 3.22432 1.87608 -0.454589 3.36501 -3.20333 -1.29828 -0.969857 1.51977 -2.93449 0.693261 2.8897 0.822265 2.2494 -3.40171 3.44312 1.99519 1.70972 0.857637 -3.23249 3.34072 -0.0283104 2.49825 0.171382 3.28794 -2.39492 2.79628 2.87616 0.469062 1.36938 0.0372507 -1.74288 0.979935 -2.40372 2.11692 2.56022 1.57203 -3.09665 0.0866985 1.0883 -2.8739 0.357169 -1.75235 2.30482 1.35977 -2.60768 1.47061 -3.42725 -0.80316 -0.788121 0.967178 -1.37772 -2.43687 3.10949 0.742407 -2.39821 0.681008 -2.2865 2.48605 1.18643 -1.2315 -1.73464 1.14751 -1.65441 -0.49663 -1.36722 2.2911 0.503653 0.219749 0.28027 -0.767539 1.11543 -1.89115 0.440151 0.939768 -1.23335 -1.91933 1.37709 1.13743 -1.51045 1.97424 -3.09786 2.12262 1.99307 -0.213388 3.30367 1.39413 2.51805 -0.741502 0.707085 -1.05432 0.378654 -1.38503 2.56209 1.26783 0.672122 3.48653 -0.451003 0.425673 0.962905 -1.2254 -1.59979 -1.60137 -2.43642 0.0700937 0.533973 -1.54525 0.651504 -2.62931 -1.96801 -0.289315 0.139164 2.89418 2.31554 -3.14696 -0.330835 0.45671 0.0517112 2.57049 0.927062 2.11848 -0.248228 2.35714 3.12011 -0.573062 -1.78385 0.748566 -1.10604 2.66019 3.33075 3.21858 3.18119 -2.09294 2.2197 -2.17691 -0.259602 -1.05695 0.905448 1.45013 -1.34367 2.02315 -3.01244 -1.69554 2.76762 -0.639474 -3.08632 -2.70916 0.592337 2.56179 2.54985 -2.29152 2.06223 -3.1728 3.40541 3.41208 -3.25623 -0.832814 -1.05072 0.00721884 -3.3897 2.92305 1.03817 -2.3155 -0.022182 -0.839407 -2.51234 -1.75632 3.15996 -0.328596 2.75853 -0.650751 -2.0228 1.92908 0.633858 3.47793 2.61542 -3.41811 -1.3879 -1.48989 0.0415685 -0.389094 2.35404 0.20029 -0.240772 -1.30951 0.651929 -2.16637 -0.053407 -2.23808 -2.4677 -1.10759 -1.51281 1.62863 3.3996 1.085 -2.32503 -2.6704 0.461473 2.97519 -3.18529 -0.347491 -2.81164 3.03171 -3.07717 0.200181 0.53308 0.0537409 2.45435 -1.2657 -1.46796 2.30989 0.749354 1.56858 -0.572884 -1.84825 -1.74138 0.697231 -1.38284 -0.599466 1.86993 -3.1464 1.85119 -0.621413 1.56447 -2.80169 -1.03913 -0.0363726 -2.83602 -2.73222 -2.3894 0.462424 3.57926 -1.76649 -1.13733 2.56641 -3.01313 1.98755 1.94513 2.21801 1.11197 -2.97602 3.01565 -0.243709 1.13568 -2.36455 0.768077 0.816142 0.373264 2.15066 -1.70398 -1.2782 3.12402 -2.88504 2.16096 1.40512 3.01068 1.81985 -0.515889 1.30826 1.73277 -1.65792 2.94301 -3.06758 1.9037 1.47231 2.94016 -1.33486 2.36264 0.515829 2.32112 -0.661963 -2.82122 -0.687625 1.01737 1.57568 2.06119 -1.54519 2.44498 1.21322 3.02787 -0.753181 -1.7869 -1.39549 -2.86843 1.66486 0.31405 -3.36682 1.39234 -2.87264 -2.51814 -1.33608 -0.819355 -2.51326 0.743853 0.623293 2.95426 2.65122 3.50177 -1.83898 -2.4308 1.04935 2.2805 2.27903 1.62987 2.33069 2.79033 1.84368 -3.23788 -0.0227691 -1.22134 -0.617657 1.99254 1.9141 0.370202 -1.18485 0.323336 2.05567 -3.22485 2.62036 -2.35892 -2.11062 1.64684 -1.90679 -1.42654 1.80628 -2.54431 -3.33009 2.18072 2.95957 -1.91878 1.71726 -3.10522 1.08051 0.852123 -0.92164 -1.4471 -1.54904 0.132758 0.936786 1.98436 -0.706947 -1.50632 2.13005 -2.15854 -2.60369 2.41223 2.95152 1.21191 -1.25825 0.54694 1.83166 -1.77488 1.55135 -3.29712 0.0288789 1.60214 2.75054 -1.39407 3.47448 -2.77737 -0.92021 -0.212064 3.38444 -0.664436 -3.30956 3.4205 -3.09925 -1.37826 0.253865 0.0126472 3.06161 -0.889911 1.52802 0.182731 2.77809 0.672878 0.887938 0.354509 -2.05704 1.94163 -2.07712 0.0365677 -0.0457115 2.90225 -2.67559 -0.462734 -1.14599 0.876473 0.387307 0.363398 0.173691 3.0206 -1.73789 1.69385 0.771449 -2.25454 -1.81794 1.1893 0.351329 2.27198 -3.33767 -1.39337 0.821167 0.292112 -3.24478 -0.39331 1.53981 1.08057 -3.27829 0.0641543 -2.78582 -3.42081 -1.18199 3.09363 -1.55618 0.902311 0.891621 -2.68296 -1.47594 2.49398 -3.35394 -1.35759 3.03161 1.06417 1.66999 3.44905 -3.33041 -1.94598 0.966867 2.76042 3.61172 0.591342 2.57122 2.4051 2.55044 -1.7167 -0.754561 0.125849 2.05314 3.09436 -2.20398 1.05318 2.75095 -3.23864 1.2651 2.46129 2.26749 -1.98534 -2.48657 -1.64796 2.13243 0.325989 3.17469 3.23414 1.62992 1.94243 -2.07214 2.54129 2.66873 -1.41878 -0.806902 -1.35178 -3.31265 -0.833045 -0.689822 -0.357397 2.53414 -2.18754 -1.02301 -0.32511 1.10756 2.77819 1.54299 1.29671 0.237044 -0.801746 -3.29907 0.849738 2.22235 -2.10681 -0.723175 -2.11653 3.25324 -1.84105 -2.59013 3.39075 1.09054 -0.0718288 0.70891 -2.96856 -0.744896 -1.97739 2.59914 0.422388 1.01868 -0.642748 1.60648 1.60482 0.228495 -1.9451 -2.35735 3.31013 -0.682019 2.29629 -1.38844 2.28416 -2.07875 -2.86326 0.0403247 -2.36626 -2.28812 -2.70446 -2.31328 1.96159 -0.923433 2.24588 1.98594 3.25061 2.00449 -0.400921 -0.305559 2.16841 3.3668 -0.204546 -1.44786 -0.980259 2.32606 -0.9136 -1.30638 -0.5025 -2.95949 -2.22174 -1.09702 -0.409018 -0.320848 -2.90948 0.0849293 3.33345 3.42622 -3.1635 -2.42445 -1.48004 1.25015 2.77996 -1.69446 -1.26162 -2.36568 2.59287 1.96317 3.14733 0.472239 3.09857 0.852322 0.441713 2.68957 1.874 1.08645 -3.19903 2.51211 1.20928 -2.10569 2.00194 2.61399 -0.970768 0.717801 -3.22918 3.5383 -1.42773 2.37152 1.4635 2.36639 -3.18302 3.25978 -2.10998 1.8497 3.00582 -2.32073 1.50548 2.47676 -2.34991 3.28763 0.630554 1.67535 0.398704 0.745202 1.87253 -1.51456 -2.92419 1.04428 -3.45 -1.35713 3.394 -0.851888 -1.49906 -0.326124 -2.87301 -2.56359 -3.30878 2.36142 -1.2292 2.0567 2.62359 1.22624 1.31379 -0.11033 1.59964 -0.773865 -1.72838 -2.78302 1.61242 -0.238246 3.40507 1.19337 -0.200059 -0.0474748 3.09045 -1.0535 2.1651 0.784061 -0.990162 -1.18734 -2.30338 -0.482842 -0.152359 -0.383672 -3.01608 -2.87767 -0.0154662 2.73453 0.626878 -1.66751 1.37211 -2.40111 -1.53212 3.44771 0.521051 -1.67934 3.18649 -3.49793 -2.08639 -1.72108 1.05816 -1.08199 -1.73669 1.32109 -3.0819 2.56581 -2.23619 0.968277 -1.08541 2.87067 2.10443 1.05833 -3.22447 1.6945 -1.43342 3.48105 -1.00883 0.0951518 -1.35832 1.61411 -0.909081 -1.89315 2.13873 3.43096 0.243168 -1.40194 -0.276014 -0.587719 -3.47474 -1.86951 -2.13498 -0.421478 -2.89469 2.40484 -1.92073 1.71461 -1.16501 2.50669 -2.92605 3.10186 1.69638 -1.98104 -3.42211 -1.98439 -1.34545 -1.32089 2.19914 -3.12828 2.25528 -2.35015 2.55119 -0.0118664 0.651921 0.0644413 -1.41674 3.27861 0.637976 1.55623 -0.880587 -0.466947 0.400379 2.20711 -0.027853 -0.687602 -0.374077 -2.96426 -0.0955597 3.1649 1.97504 -0.826049 -2.87947 -2.98999 2.40551 0.582649 -1.08998 -2.0101 2.83766 0.588673 -2.5581 1.65299 0.820716 2.35981 0.593435 1.66376 -1.75405 -2.46013 -3.12469 -1.15119 2.99675 1.81631 -2.78344 -2.07709 -1.04788 1.4885 0.445378 -3.03933 0.758775 2.18237 -0.423853 0.420621 2.85104 -3.31154 1.33107 -1.00594 2.69658 -1.41455 -3.1509 0.600889 -2.65739 0.804752 
1.73088 -0.868867 2.24323 0.341868 3.39736 -1.34499 0.143236 1.72414 -2.11927 2.30212 2.05233 3.29587 0.208309 -2.402 2.48615 2.46848 0.050839 -3.20669 2.88858 -1.46115 0.811046 -2.03435 -0.462665 2.42859 2.98857 -0.39778 -1.44739 3.24413 -0.590404 -1.0214 -1.85288 -0.293582 3.32722 -0.697788 0.0488274 2.00174 -1.46507 1.81416 0.794575 1.00967 1.97346 -1.82405 1.60109 -1.57654 0.214303 1.76805 -2.58782 -0.470906 2.0619 -1.63083 -3.32763 2.9706 -0.668658 3.22043 2.0275 1.74638 -2.13755 -0.421807 1.6386 2.43014 1.09629 0.420087 2.75982 2.59914 -2.05969 3.43245 0.862541 -3.18001 0.687807 -2.99443 0.130546 3.21627 1.31124 -2.50673 2.13643 1.30274 2.13505 -3.41682 -2.61382 2.71659 3.24592 3.06082 2.05208 2.13966 -2.14128 1.9552 2.87491 1.03992 -1.80955 0.135984 -1.48352 0.178689 3.16155 -1.51344 -2.61146 -3.44888 -3.37906 -2.9653 -2.24837 -1.16886 -3.23715 -3.16175 -1.29742 3.30066 -0.750233 0.0532248 -1.37537 -2.35233 -0.32742 3.31229 -1.0958 1.79626 -2.77087 -2.906 -2.86761 2.41324 -0.203264 -1.72173 2.78048 1.10821 1.45903 -2.26446 1.39335 -0.370765 1.48419 -1.15749 -3.44269 -0.0514867 -0.716358 0.73882 0.0395091 2.69506 -1.72581 -1.74003 -2.43696 -1.03839 -0.510134 -3.23039 -0.91964 0.124258 -0.285307 -1.48055 -0.739819 2.94574 -0.992991 -1.54346 3.33311 -1.26877 1.65088 -2.56799 2.35805 -0.981553 3.41144 1.27182 0.816645 -3.22535 2.68365 1.33421 2.74921 1.38318 -0.956725 -1.26661 0.157155 -2.35328 2.04565 -2.39588 1.52766 0.271673 0.593938 2.26576 -2.93906 2.51109 -3.20846 -2.03835 1.11946 -2.69225 -2.83651 -2.87185 2.99666 -1.30041 3.14622 -2.44628 -0.0750391 2.61609 -0.757014 2.08079 -3.37305 2.32045 1.43443 2.03671 0.772384 1.13346 -1.68844 -3.10271 -2.2313 -2.72665 1.10214 -3.05262 -0.889366 -1.85082 0.0411419 1.8493 1.5242 2.99732 -1.52435 2.01315 -2.7626 2.40579 0.151604 -2.13615 2.91349 -0.761019 3.03666 1.69576 2.48014 -2.07133 -0.479163 -2.43583 1.09045 -1.46047 3.46603 -1.41134 -3.12008 0.179313 -2.32525 -2.15593 0.177117 2.25297 3.23195 -0.135272 -0.493201 1.2294 2.63176 -2.97138 2.09624 -2.83722 -0.906886 1.28732 1.06148 0.30116 -0.277275 -1.62268 -1.8659 0.177773 -0.832365 0.311488 2.51754 -2.29149 -1.70777 1.87176 2.6949 2.36676 -1.95687 0.625947 1.62798 -2.91245 -3.37771 2.37542 -1.42257 -3.3525 2.8584 0.0722384 1.70901 -0.0286235 0.622937 0.218456 3.10551 3.43032 -2.73758 1.09219 1.47819 -2.7876 -1.54243 -3.09993 0.711496 1.71196 -3.1181 -1.94648 -0.648896 -1.24542 -0.369789 1.09811 0.555769 1.53902 -1.56893 0.67629 3.12161 -0.891195 -1.62661 0.620163 3.43909 2.40453 -0.620471 0.888 2.82897 2.55071 -0.0920179 3.18102 -1.15935 0.45465 -0.340529 -2.27192 -1.09864 1.11817 -0.152716 1.56352 -0.571861 3.15498 -1.32771 -2.4558 -2.67651 -0.352682 -1.63886 3.43366 1.23838 2.02983 -1.52657 1.53128 -0.467943 -1.85325 -0.890288 0.711652 -0.382907 -2.6434 0.918416 2.37494 -3.10768 -2.86793 2.74635 -0.544392 3.18879 2.06128 3.37573 0.341146 -2.74536 -0.955904 2.10546 -1.59753 2.03338 -0.705765 2.35614 -3.02842 2.29707 3.20602 1.68771 2.02814 -2.82804 2.59251 -0.686869 -3.03766 -1.62078 -0.0595319 2.17136 2.72263 -2.41832 -0.142677 -3.00335 -3.23212 -2.05878 -3.34547 -3.18839 1.62364 2.46978 -1.71354 0.149898 3.0892 -1.74924 2.00585 1.32254 1.10852 1.15653 1.50721 -0.917284 -2.46446 -0.679666 -3.2204 0.683177 2.88236 2.06698 2.81691 2.35001 0.482919 2.05239 -1.00839 -0.219486 0.114995 3.36351 2.03584 2.86193 -0.252023 3.30171 -0.405545 -1.31657 -0.136821 0.877303 2.08704 1.84453 -0.318716 1.56354 -0.278183 3.44044 3.15469 2.01356 0.584248 2.69334 -1.41565 -0.802103 -2.97054 -1.60577 1.99924 2.55962 2.20792 3.16148 -1.30451 0.352881 3.00803 1.97587 0.100912 0.861912 1.86895 1.52124 -2.54542 -1.60858 -0.95511 1.63622 -2.20036 0.0463049 1.60053 -3.43505 -0.936252 0.983457 -0.585184 -3.10825 3.45778 -1.36157 -0.518004 -1.61304 -1.72096 1.59079 2.93438 2.13235 0.422775 -2.54306 1.88645 -1.42836 2.76583 3.26009 -1.8797 0.532681 3.33778 -0.158754 1.2918 3.42843 1.48721 2.18699 -1.24556 2.55647 2.99765 -0.192686 0.578583 -0.699079 0.546004 -3.18498 3.33122 -0.751645 2.1266 -0.0298437 -2.6779 2.93014 1.47734 1.58708 -2.4366 -0.89125 2.24311 -3.31918 -2.70289 -2.66402 -0.986829 2.15478 -2.58106 -0.488379 0.314031 1.1257 0.476815 0.158019 -2.1732 -1.17463 -2.383 -3.03719 -3.14295 -0.449504 3.38436 2.09294 -1.9725 1.6922 0.153286 2.26125 -2.69871 3.46049 -0.443042 -1.62972 -1.86366 -0.225908 -1.37511 -1.88415 2.63384 -3.38043 -1.95308 -3.39393 2.72099 1.47947 0.266051 3.34244 -0.125979 -2.63456 -3.41572 3.19464 0.0801343 2.53742 3.18281 2.47818 3.25815 -1.33687 0.832367 2.13693 2.81683 2.92819 -0.35727 -2.54768 2.57353 1.05597 -2.45801 0.78007 0.65599 -0.486754 0.739125 2.65609 1.82333 -2.20863 1.72491 -2.70803 0.966934 0.630552 1.41473 -1.79917 -1.35644 2.97779 0.105992 2.85567 0.0769524 -1.09569 2.80733 1.31089 -0.749105 -0.284543 0.865113 0.01555 -1.63163 3.14675 -0.312575 0.0217166 -0.811838 1.99128 3.25534 -1.67512 1.1839 -0.643235 3.02942 -1.61437 1.97832 -2.74593 1.40189 1.17164 3.41225 -2.56556 2.26673 1.89578 2.0912 0.493967 -1.7259 1.67327 1.43867 -3.40303 -0.770527 1.2464 3.42273 -2.08252 -3.26499 0.847261 0.561045 3.39214 -2.50497 -2.4008 -2.16956 -2.93693 -1.55554 -3.30621 3.43188 0.471531 -1.22845 -3.43596 2.21327 2.47573 -1.77079 1.64891 3.23809 1.65925 3.32618 -3.33666 -3.45163 2.39152 -0.382221 -1.0065 1.91496 1.00548 -3.1861 0.803673 2.9696 -0.372949 -3.10073 -0.0740974 0.0612486 1.58048 2.2927 1.88524 0.692201 -0.248249 -2.97148 1.38388 -2.72925 1.03774 -3.33111 -0.812371 1.61991 -0.542077 3.20581 0.5584 -2.34812 -3.15453 -0.0556477 -3.37915 -2.30828 -1.81457 1.38461 3.1732 -2.07844 -3.02887 2.55266 -1.20994 -1.52625 1.89439 -2.36716 -0.999162 1.09094 2.35504 -2.18536 1.89413 -2.36167 -2.78191 -3.4004 0.859804 3.16604 0.387701 -0.730539 -2.89203 -3.34986 -3.48872 -0.238052 -3.43327 -1.64395 2.4782 -1.02016 -1.33302 1.07658 -0.128074 3.0701 -2.95549 1.37685 1.45524 1.44145 0.861486 2.12853 0.00718369 -1.83824 0.201089 2.2296 -0.319226 0.0485672 3.13085 -2.26761 -2.10287 -0.747788 -1.07344 -1.40139 0.731134 3.3756 0.63437 2.4457 -0.878228 -0.58572 0.771092 -0.257713 2.56478 2.74214 1.43218 1.95571 -3.34624 -1.59235 1.32558 -3.45266 -2.34011 0.152225 -1.83244 0.11392 3.3843 -0.289427 0.0150409 1.74595 -0.853341 1.27637 2.49742 -2.32003 -2.43532 -3.26335 -3.4061 -2.32168 -3.03567 -1.71387 1.573 0.577611 -2.52854 -2.11396 -1.41323 -1.62406 1.34837 1.05206 -2.63251 2.68944 -0.284469 -1.83076 -2.16451 -2.43337 -3.12694 3.06771 2.47557 -2.65787 -1.01188 -0.548017 1.63194 -1.19167 1.5725 3.3261 -2.11582 -2.27283 1.46835 -2.59084 1.25603 1.83304 -2.17144 2.08291 -1.54606 2.65112 -2.51262 -1.48305 1.87121 -0.124867 1.41844 0.648715 -2.46653 2.43454 0.0251274 -0.567739 -3.04959 2.16413 -0.301517 -2.86804 -1.98782 -0.905514 -1.7183 1.64499 -1.56328 0.0332307 1.72083 -3.01598 
-0.103486 1.12223 3.4759 1.40977 0.590749 1.24652 -0.820936 -2.73984 -2.63372 -0.309192 2.53392 0.941544 0.224048 -0.0789161 1.65672 -2.63223 -1.54541 -1.88882 -1.94444 1.0468 3.37249 3.42746 2.90788 -0.0021846 -2.81266 2.89363 -2.26556 2.44377 -1.30995 -0.934489 -2.11758 1.22688 -0.321192 -1.68431 -2.91429 1.30083 1.52443 3.48021 -0.395582 2.97392 0.293776 -1.55481 -2.70272 1.54895 -3.02127 -3.47934 -2.55016 -1.80186 0.82191 1.63699 2.71727 3.02298 -0.666093 -1.67402 2.9856 0.769914 0.0154768 2.33871 -2.82331 3.23087 2.8711 0.483448 0.916418 1.29261 2.27147 1.97453 -2.36741 -2.23045 -1.00071 -0.595176 1.5524 0.265682 -0.189818 0.786069 2.99206 1.85776 0.227176 0.784424 1.12647 -2.88188 -1.50662 1.38668 -2.85392 3.40753 -0.521597 0.840943 -1.86779 0.141866 0.211019 1.57074 1.44487 -2.06623 2.26964 -2.81556 -1.42765 3.29405 0.0537666 3.30825 -1.29713 3.26411 0.218999 -0.393551 1.71001 -0.643892 -1.46322 1.62408 -2.14315 1.08014 3.04095 0.808899 2.59315 0.402885 1.78369 2.0548 3.42702 -1.40102 2.42058 2.23188 2.32981 2.55158 -1.5905 -3.20118 0.866516 1.14719 -1.17646 1.37653 2.55153 2.91154 1.99333 -0.420948 3.29096 2.06222 0.119062 2.8406 0.170659 2.74301 2.5687 -1.99406 -3.22444 -0.340502 -1.59586 1.17165 3.49444 -1.49615 2.06083 0.400659 0.244264 0.55982 -3.25695 -2.81153 1.79426 1.68926 0.998607 -0.797083 3.30614 -1.63175 2.85675 2.07613 3.38509 -1.32765 -1.98636 -0.292612 0.693732 -2.59329 0.756367 -0.375508 -0.461458 -3.40633 2.24394 2.1803 -1.83348 -3.48331 3.0982 0.527637 2.12301 -1.42333 0.0870662 2.84405 -2.57335 -1.22288 0.351023 2.3705 0.157318 -2.2648 2.99633 0.974698 1.24551 -2.49624 3.01354 -0.326968 1.38422 -2.24342 3.47692 2.24399 -0.0255491 -2.37993 -1.57044 1.17715 -0.0381561 0.641733 -0.887806 -0.835464 2.57176 -2.98091 2.8628 -0.216725 -1.56441 2.21486 0.554396 -0.592555 -0.934918 0.935712 0.737275 0.738305 -2.07355 -0.288387 2.98676 1.59284 -0.957281 -0.63987 0.887977 -1.06119 3.32142 0.498985 -0.725474 0.949474 -0.566746 0.643129 -0.521442 -2.06433 2.74275 -2.03855 3.47916 0.786486 -1.20403 1.26181 -2.2771 1.05359 2.0704 -2.4907 2.65028 -0.947701 1.81442 -1.01652 2.97368 1.43101 1.92535 0.940532 0.108772 2.83459 -3.14587 3.41663 -2.89929 -0.528603 -2.52272 0.793325 2.92761 -1.38031 -3.35255 -0.0861231 1.96585 1.55175 1.5108 2.30266 -0.702933 2.91524 -2.22878 2.26236 -0.300856 3.10646 2.30606 0.991759 2.13775 2.9862 -1.27093 -1.3192 -1.09977 -0.120303 -1.84329 0.701386 0.531832 -2.90023 2.96584 -0.849941 -0.984655 2.61005 0.829356 -1.52713 -2.48941 1.46999 -0.578241 -3.48774 2.13132 -0.801137 -2.54675 -3.04977 -1.61939 2.31286 0.604219 0.853776 0.0918018 -1.38729 0.0824063 0.38512 0.437544 -2.84049 1.11912 -2.72869 2.95574 0.237623 -1.51333 1.54069 2.19723 -0.715865 -3.48828 0.901811 1.55194 1.01919 -1.687 0.711032 -3.23205 -3.18241 2.86704 -0.621766 -2.42271 0.827566 -0.617501 0.0665989 2.70329 2.11202 -2.36212 -2.77472 1.79538 -2.03936 1.66223 -2.14228 -2.79145 2.23903 0.721939 -1.01562 -0.185824 0.0843116 0.702575 0.105894 0.943482 2.61507 -1.70577 0.223381 -2.14913 -0.0280881 -1.50923 1.68821 0.483376 -2.9493 -3.28437 0.845738 -2.31622 0.765336 1.08596 2.92142 -3.08167 1.82662 0.390723 -1.32552 0.78784 2.84881 0.0071527 3.0702 1.49034 -1.68832 -3.00944 -1.24033 3.47334 -1.33194 -2.85102 -3.06301 -2.77268 0.256819 -3.46069 -2.22086 2.94502 3.02897 2.61417 -3.42516 1.61809 1.87745 0.653914 -2.95636 1.6308 -1.67684 -1.56695 3.46615 -2.66284 -0.527117 -1.8205 3.33841 0.804134 0.697952 -1.93699 0.52388 2.25009 -1.17773 2.03619 0.00644388 -1.4205 -1.14898 2.94955 0.353066 1.36429 -1.21027 0.130906 -0.923114 0.416669 0.850952 -2.25528 -2.41065 0.268756 0.398401 0.738035 -2.4377 -2.11698 1.69063 1.21886 0.188305 -2.94062 2.24782 2.47588 0.507966 1.31109 1.75005 -2.71853 1.07167 -0.737219 1.79308 1.8774 -0.176348 0.824688 -2.05436 -0.405955 1.1156 -0.166376 -2.92363 -3.03364 2.03213 1.28299 0.90185 -0.930867 -0.00440123 3.42358 -3.17063 2.50792 2.29921 -1.70076 1.85844 3.12411 1.96992 -2.81765 -2.42809 -1.31304 -3.19011 -1.23536 3.10542 -2.5692 0.340505 1.40738 0.798568 -3.35136 -0.224389 -0.451848 0.17859 -1.55783 -3.36631 -0.0346746 -3.235 3.26388 -0.452908 -0.0278932 3.17672 -3.17713 1.57324 -0.0545196 -1.48825 1.94722 1.48486 0.315765 2.4798 0.309797 2.75156 -1.14094 1.68802 1.90743 -1.92491 -2.20917 1.04229 -1.60414 -2.95511 1.4687 1.5912 2.67645 -2.31441 1.23873 1.3609 -0.133449 -1.8894 3.09737 2.18082 -2.23233 -3.45777 -2.1785 -2.83064 -0.0964994 1.96811 3.25253 -1.47641 3.13694 1.92048 1.5837 2.41368 -0.406556 2.97611 -0.889997 -1.48929 -2.24981 -0.557967 2.45384 -1.23783 -2.19789 -0.611149 3.2652 0.879285 -2.38065 -0.273548 -2.57758 2.17952 0.00342522 -2.95741 3.34306 0.525595 2.42143 -3.04773 -0.993629 0.418745 0.494905 1.64384 -3.12017 3.14902 -1.83387 -2.47807 -2.62404 0.378374 2.82478 -0.0141541 -0.77802 -1.26122 1.64311 1.07248 1.59674 2.32827 -2.51928 2.34704 2.99131 -0.635278 -1.93611 -2.20718 0.738176 0.191674 2.39757 2.70726 0.766798 -2.87917 -1.27476 1.54784 -1.94255 1.45758 0.828857 3.0829 2.3197 1.6575 3.34407 -1.80288 -2.9219 -0.619992 -2.21797 -1.4994 0.292593 1.89223 -1.33268 -0.943932 0.311346 0.738345 2.71762 1.49035 0.572481 2.28549 3.49067 0.975854 -2.59665 1.23804 -1.41701 -0.796276 -0.114049 -3.28591 -2.6427 1.21875 3.14139 -0.587029 -2.29128 0.390067 1.72461 -3.2759 3.26428 -1.12605 -2.34401 -0.179824 -1.59631 -1.97578 0.172645 -3.15827 -2.48387 -2.24434 2.843 -0.96762 -1.42661 1.01602 0.52168 1.36547 -1.53745 2.64524 -1.35429 -0.650863 -0.316117 1.15586 -0.876162 -3.27673 -1.69116 -1.97705 1.36863 -2.6827 -0.801941 2.4468 -0.986873 -1.60505 2.79866 -2.91082 -0.0784076 0.095843 -2.68176 0.864473 2.06951 3.42808 2.67323 -1.30709 -1.35948 -3.33466 -0.686882 3.47579 2.58449 -0.708128 -2.34498 2.53975 0.173104 -2.80029 -0.385911 -2.91087 0.818263 2.72649 1.253 -0.529255 -1.02392 1.27608 -2.64883 3.38464 2.84886 0.133265 -0.696739 -0.608739 1.81039 -0.218213 -0.0817356 1.15996 2.47547 -0.885719 -0.927411 2.82903 -1.78807 0.155462 -1.87266 2.67136 0.626156 2.91865 1.98055 -2.1846 3.44193 2.49054 2.0393 -0.917145 -0.535452 -1.24331 -3.21771 3.39986 1.20355 -2.42763 -0.0945126 0.808605 -0.903083 2.04111 0.250451 -3.17001 -3.13585 -0.208771 2.30504 -2.70272 -2.92892 0.814573 -1.01141 -0.645315 -0.753592 -1.80236 -1.17044 -1.5643 2.84073 -1.45492 -0.838427 3.27681 3.28457 -2.14942 1.1115 -1.43625 1.77262 3.18664 2.93464 1.51347 -3.40363 -1.03714 -2.42977 3.1488 -2.71413 -1.35545 2.22976 -0.526839 1.11783 0.607004 0.515682 -2.76984 -0.778218 -1.57836 -2.78749 0.402047 -2.91032 -0.265789 -0.544262 -0.107479 -1.01887 -3.31096 -2.59518 -1.76295 3.01406 2.44233 0.913206 2.31793 -0.668035 1.90539 3.49046 2.64664 -0.246623 -1.24087 -2.82703 -0.549283 2.81128 -0.0945259 -0.698042 -2.11946 -0.727423 -0.241781 -2.77365 -3.33261 2.95717 3.39721 0.54544 2.3484 1.95629 1.58295 1.43763 -1.62922 
-2.49248 2.65536 0.0812165 3.40262 -2.3366 2.44927 -2.70411 1.55194 -0.519876 -1.60891 0.493 1.85738 -0.546589 -0.232603 -2.07256 -2.73312 0.0855654 0.755555 -3.16329 -0.975421 0.802568 0.110146 -2.20657 2.16796 3.11124 -0.291758 0.734182 -2.55352 2.08947 3.26499 -1.14795 -1.72707 0.886581 1.40029 -3.14079 -2.54976 -2.30041 0.450038 -0.821995 -0.233413 -2.89487 0.537469 -2.67431 -1.40982 -2.37712 -1.9258 0.172912 1.25858 -2.63549 1.60936 -1.53459 -2.71964 -3.31903 1.34196 -2.28768 1.07426 2.10055 -1.81159 -1.20272 -2.53863 0.896221 -0.104903 -1.11731 2.12863 -0.52235 -2.52908 0.897115 2.39193 -1.4184 -1.35718 -1.80927 1.88862 0.543166 -1.68468 -3.42163 1.82573 -1.68775 1.88699 -3.29411 3.05786 -0.753604 2.3734 0.335668 -2.36687 1.49922 1.96015 2.65548 -0.21831 -0.548997 -1.44454 -2.6263 -1.28849 1.7009 0.119106 0.191089 1.81162 -1.76133 -2.58015 1.98924 -0.312007 -1.64576 3.28644 -2.65388 -0.540121 1.87921 0.182207 1.75528 1.81955 -1.14617 1.45119 1.61563 -2.28195 -0.447545 1.97911 -2.83964 2.34717 1.14656 -1.86777 -2.08131 -0.0207133 0.893237 1.46603 1.67644 -2.59189 -1.69857 0.697365 0.362305 3.27155 0.88247 3.23737 -0.472445 -1.16589 0.618103 1.98718 1.95795 3.15794 2.21062 -1.9997 0.909558 3.20401 1.66027 -2.47368 3.30002 -2.74493 -0.391608 -0.772338 0.9198 -2.60074 1.504 -0.733324 3.09953 2.84132 -1.47644 2.22005 -2.37045 -1.46147 -2.14123 2.68161 -2.63324 -2.60642 -0.698035 0.540389 1.8983 -3.16574 0.728317 3.36424 -0.79033 2.12976 -0.49019 -1.23037 -2.71427 -3.48489 3.32124 0.0248896 -0.842468 -2.16358 2.64059 3.18234 2.34653 -0.924763 -3.21824 3.46875 -3.38086 2.93863 2.92594 3.47681 -3.2496 0.0525683 -2.36881 2.23573 -2.75117 1.30146 0.0972529 -2.93065 0.33186 2.01365 1.17725 0.616464 0.435587 -1.633 -0.532903 1.84158 -1.37864 -0.0788778 -1.92588 0.0340864 3.20316 3.08767 -2.27444 2.32645 2.95313 2.79003 2.72011 1.78471 -3.20934 2.96025 -1.30698 0.749825 3.09501 3.01893 3.12232 2.69772 0.888346 2.62539 1.26604 2.35884 2.12197 1.18593 1.43566 0.887271 2.73612 1.58087 1.49269 -3.32417 3.13318 2.64583 -2.32122 -1.98789 0.632557 -2.95185 2.61035 2.53319 -3.37164 -2.41233 -3.00177 2.63886 -0.1328 2.88355 -3.01355 -2.7134 2.05151 -1.89257 -0.12721 -0.732359 1.66975 2.53788 2.07572 1.928 1.67528 -3.39136 -0.768479 -0.0146809 3.23119 -2.48854 -2.03954 -1.77991 0.104344 -1.58493 -0.68028 0.948198 2.63549 3.21131 -1.3911 3.17872 2.46551 -0.848162 -2.06376 0.636386 -0.278944 0.992515 1.40686 3.06071 3.11123 -1.66084 -0.0218682 -2.72918 -2.4787 0.241113 0.421879 0.050543 -2.93061 -2.5892 -1.71265 -3.21108 -2.86035 -0.885597 0.201087 2.36797 1.74266 0.153423 3.04869 -0.777023 1.67846 -2.40859 -0.925075 1.48384 -3.33194 -1.90455 -0.358714 -0.125848 2.48303 0.606686 1.54756 -2.37634 3.36357 1.40301 1.78239 1.37275 3.23413 -2.02726 -2.68903 1.04975 -0.603017 0.700121 -1.02507 -0.689119 -1.73974 2.77514 0.828144 3.09303 0.563547 0.0288155 3.16663 -2.3024 1.65863 0.00225662 -0.900408 -3.42269 -0.433373 2.54716 1.32345 -1.64662 -1.21702 3.01125 -2.46665 -2.65979 0.0979927 1.90634 0.617483 -2.57706 -1.48521 3.20048 0.241404 -0.387982 0.16361 -2.06951 -2.82528 -1.04535 -1.12905 -2.5862 3.16798 3.1296 -0.948425 -2.98354 -2.18236 -0.274659 1.2118 2.65691 -2.93135 -1.90614 -2.66729 -0.954408 0.781669 2.60588 2.61298 2.03987 -3.39569 -1.95251 3.21093 -2.31596 0.206801 -1.95877 -2.54167 2.67381 -0.811242 1.57398 -1.56871 -2.03275 1.02876 0.758615 -2.82422 -2.39263 0.903542 0.15739 2.39289 -2.36999 -1.77746 -0.280942 2.11478 -2.88839 0.475884 2.9636 3.45272 0.925169 2.69182 -1.04495 -0.838693 1.33779 1.02043 2.41664 -0.450206 2.28571 2.17881 -3.07627 -1.97734 0.219649 3.43435 -0.995441 1.1754 -0.860473 -0.0391329 2.26012 1.97087 2.79244 -1.35538 2.65043 -2.88049 -0.554785 0.476886 2.29746 2.66154 1.439 2.25484 -2.3935 -0.703543 -0.0610979 1.88928 -1.74677 2.42416 3.12378 2.73446 -2.07304 -0.187144 -0.117582 2.81157 -3.11656 -1.42889 1.05223 -3.42281 3.49547 3.37411 -1.51278 -2.58673 -1.9045 -0.886195 1.8051 0.290326 -2.1688 3.07455 1.1812 -1.13747 0.910112 -1.69197 2.85251 -1.82426 -2.36987 2.95643 3.43191 0.30459 -0.0512335 3.33621 -1.25486 2.27234 -0.600604 -2.23112 -0.687965 2.49644 -2.58177 -3.39299 2.49888 1.1332 0.0671599 -1.84032 2.58007 -1.76663 3.29868 1.04833 1.78363 -0.916795 1.65802 0.634594 -3.05606 -0.24215 -0.299907 0.602118 2.05822 0.740339 -2.20835 -2.0361 1.1691 -0.436476 1.92521 -1.98257 -1.24407 -2.49843 2.65024 1.66071 -2.63757 -0.987342 2.22131 2.34139 3.26663 -2.76906 2.10754 3.304 1.67564 -0.673059 -1.63233 0.266197 2.20318 -2.1927 2.35285 -0.020149 2.44175 -0.925645 -2.67514 -1.80005 2.79399 0.907249 2.40254 1.13389 -0.867954 0.59277 1.0222 -1.9174 -0.0273562 0.957846 -1.0623 0.300614 -2.08141 -1.0437 -0.932047 0.274228 -0.41223 -1.60295 -1.74389 3.4674 -1.03582 -1.63343 1.39547 -1.70605 -0.723319 0.160256 0.260189 1.85616 1.6223 -0.168318 2.30311 2.8486 1.53352 2.11889 0.261561 2.51264 -2.50007 0.00432523 -0.802702 -1.58442 1.10126 -3.38521 2.25796 -0.109919 -1.20836 -2.85112 0.808195 2.91278 3.32402 -2.0198 -3.36241 -1.29563 1.85683 -2.74639 3.17655 0.743798 2.66193 1.99715 -2.55018 -1.67716 -2.49572 -0.374964 3.34019 -1.99072 -1.14122 3.0897 1.72647 0.0870256 2.42159 -2.57752 -0.104931 2.80989 -0.562973 -0.626971 -3.28566 3.607 -3.39384 2.18107 0.128753 -2.85427 1.21212 2.31003 3.45266 2.94127 -1.66976 0.825588 2.03337 -1.21151 1.2865 -2.35728 0.809152 -0.0648359 2.72836 0.592926 -2.77738 0.530338 2.50465 3.46384 -1.60442 1.29042 -1.37081 -1.61043 2.22016 -2.57607 1.396 -1.05109 0.386035 -2.92039 3.32297 -2.39046 0.0197301 3.08225 2.22603 1.42194 -2.30187 -0.265866 1.20428 -0.226961 -1.40632 3.21363 -0.883174 -1.41094 -1.92991 -0.835225 -0.878628 0.862857 2.6668 -3.34556 3.47661 -1.69971 -0.410869 2.47986 -0.494064 -1.47053 2.06691 -1.17263 1.98893 -0.685351 3.43287 -2.16768 -1.24719 1.71154 3.45044 -1.73224 2.92088 2.06018 2.03134 1.55706 0.194215 -0.963283 0.742556 -1.69124 1.22062 -3.14918 -0.38465 -1.93761 1.37071 -2.00258 1.78766 -1.13303 0.260563 -1.08529 -0.714249 -1.32811 2.19035 -3.16003 0.927858 2.16439 0.227859 3.30189 0.132741 2.2703 1.94501 2.75509 1.04558 1.43105 0.0968295 -0.0821575 1.66871 -1.7204 0.201713 3.29258 2.73275 3.27878 -0.270828 -0.0847157 -1.34719 -1.87217 -3.14709 -0.0201203 -1.52345 -1.99096 0.472538 2.4318 -3.48339 2.5003 2.03265 1.31457 0.748606 0.723927 -0.672381 -1.42349 -3.16435 1.81245 -0.923587 -0.00429322 -3.28377 0.567346 0.568405 2.39776 0.151591 -0.736786 -0.190115 -3.44836 -3.14393 1.9584 -1.48127 -2.33621 3.17788 -0.457149 2.48125 3.04851 2.4567 -2.52134 -3.11501 -0.0768446 -2.81675 -1.95037 -2.86506 0.445587 2.57102 2.82529 2.28587 1.69791 2.31018 2.56521 -2.61651 -0.0564586 2.22958 -1.09828 -0.496693 1.61095 -1.98879 2.82031 1.96006 0.362831 -2.16988 1.58337 -1.34963 2.91949 1.93635 -1.45123 0.598418 2.62606 -0.58549 1.17258 1.39947 
0.895628 2.84486 1.24211 3.48184 -2.33599 -1.29306 -3.10747 0.200651 -2.80249 -1.01166 3.18986 -2.26142 -0.938073 2.54026 -0.429089 1.39419 -0.327989 1.54065 -2.04396 3.17503 0.174208 1.29931 0.110775 2.30864 -0.136961 0.166988 1.43037 -2.14274 -1.77531 -0.979102 -1.62274 0.0291142 -3.11233 0.0208207 -3.09226 2.53623 0.663941 3.04814 -1.8355 -0.18798 -1.67708 -1.79928 2.78337 1.9759 1.62503 3.26308 1.82829 1.6985 -1.36196 -3.09691 -1.41517 -0.720686 -2.46869 -2.85383 -2.12561 2.77665 3.39677 -3.41013 1.51796 -0.238822 -1.34103 -2.89076 3.29409 -1.10994 -2.80858 -2.11027 -2.84001 2.80286 -3.09978 -2.61289 1.69849 2.02839 -2.96494 0.77545 0.324226 -0.626465 1.01609 -1.33458 -1.10646 -1.96626 -3.15137 1.13879 3.40748 -0.800075 2.59832 -1.23264 -1.80251 -2.39207 1.69891 2.25143 0.681693 0.188396 2.89507 -2.50803 0.467482 -0.916568 -1.55078 -2.60846 2.5042 -0.958014 3.33147 -2.38607 1.95979 -2.89377 0.951646 2.18093 -1.02307 -3.33117 0.392314 -0.919667 3.31348 -0.978649 0.391595 -2.82257 -3.49918 -0.983911 2.4863 1.44823 -1.16023 -1.10301 -2.48719 -0.245238 2.15332 0.430113 2.423 3.42338 -3.1773 -0.0907284 -0.969795 -2.959 3.21405 0.80006 -0.322663 3.13554 -3.08479 -0.0965399 -0.52253 -2.08224 -0.418188 -1.72146 0.358687 -1.56287 2.51093 -0.118872 1.07218 -0.956001 -0.0317474 2.96661 0.493378 1.84074 3.34001 2.15262 -2.27532 -3.04088 3.23175 2.01679 2.87606 -0.149896 -1.74518 -1.87339 -3.3431 -0.0986782 -1.08885 0.234836 -2.16746 -1.66039 -0.513059 2.37148 1.04295 1.98956 3.17118 0.887705 0.614693 0.957002 -1.29598 1.68736 -2.17755 -1.02262 1.34257 1.33657 3.33623 2.04089 -3.30899 3.13807 -2.81593 1.63896 -2.15784 -1.54173 -0.0698582 -1.62722 1.83512 2.50743 -1.60068 -0.278985 -1.28546 -2.97075 1.13651 1.46275 -2.39618 -1.81848 -2.72709 -0.685476 -2.5036 0.635025 -1.22377 0.4286 2.06594 0.0682179 2.99244 -3.09762 -1.93799 1.90661 0.608722 -0.564731 -0.935203 1.19641 2.34194 -1.54265 -0.60252 -0.418615 0.942116 -1.38681 0.306886 3.20035 -1.80167 -0.537615 1.93431 3.38713 -2.25169 -2.03063 -2.84366 3.35138 -1.62304 -3.04752 -0.0649258 -0.543001 0.866333 0.572373 3.44198 0.952328 3.08121 2.00092 0.399805 0.554829 -2.31716 -2.32514 2.29762 3.36184 0.0695061 2.64967 -2.87623 -1.15836 -1.66046 1.3588 1.93106 -3.26923 0.24492 -3.00227 -0.118388 3.25272 2.61471 0.628074 0.768619 -1.81286 -3.34749 0.975832 0.712735 -2.92049 -0.284177 0.430507 3.12179 0.2535 1.93985 0.449324 3.27199 -0.992523 2.26782 0.289246 -2.05503 0.310963 -3.09213 1.15083 3.36751 2.62845 -1.40981 2.40308 3.23178 -0.827637 -2.35342 0.246244 1.52866 -1.03023 2.79096 3.28422 3.45294 -3.23199 1.35924 -3.28356 1.53918 -1.36983 -1.97301 0.41863 -2.92073 3.35009 -2.56319 -0.432123 -1.25494 0.829754 -2.77396 1.90173 0.684654 -2.22887 2.58401 -3.2375 -0.954931 0.0387284 -1.37472 -1.10013 1.735 2.59763 -1.05137 1.35125 -0.981489 -2.82144 -2.78025 -2.9622 2.93302 -1.99261 0.228978 2.58698 -2.85123 -0.638935 -3.08565 1.5702 2.75434 2.09974 -0.214229 -2.58659 -2.13189 1.48117 -3.17715 -1.38148 -2.65594 -1.08409 1.63368 0.620789 2.81368 1.71186 -3.01075 0.218365 -0.442282 -2.54765 -2.26898 -1.86949 -0.0556942 -2.31268 0.811511 2.33717 0.068072 2.88298 0.119619 -2.63921 -1.22263 1.8359 0.635724 2.99892 -0.859773 -1.76898 -0.202134 0.51713 0.0190443 -0.0330318 3.03152 -0.814532 2.29837 1.25693 -0.194106 1.88448 1.28884 -2.13594 -2.23455 -2.9686 -0.200348 2.7169 1.39819 -0.684584 2.5713 -2.26911 3.09067 1.67411 3.30383 0.824367 -3.3401 1.41079 -2.88346 2.98575 -1.70652 1.23416 -0.227053 -2.3183 -0.195983 -3.05111 0.214962 1.35486 -1.42586 -1.67411 2.50857 1.2546 -1.68931 -3.40012 2.69808 -2.7433 -1.87348 -2.81368 0.925443 0.232455 1.13398 0.410312 1.62629 1.16111 -1.31794 -0.783007 -1.89869 -2.61477 1.14631 -1.21603 1.92746 -1.24603 -0.911678 -2.39612 -2.18022 2.97658 -2.40987 1.21599 1.70339 -0.0517574 1.73693 -3.24388 2.89268 0.203779 -1.41596 0.885856 -1.87999 0.138111 -2.68762 1.12446 1.66185 1.20325 -0.467763 -1.13483 -1.21808 -1.59346 2.12257 3.02718 -0.243996 2.05362 -1.19935 1.49506 -1.54301 -2.31815 -0.624772 -2.09467 -0.521216 2.95709 2.24219 3.19145 -1.78355 2.84352 2.60235 1.92633 -2.13622 1.01833 -3.42172 -2.88833 0.64199 2.253 -1.72427 0.133991 -0.730525 -3.33435 0.0925867 2.88648 -0.752984 -2.29509 1.12707 -2.71596 -1.1599 3.14581 2.78546 -2.57106 -0.700494 -1.1686 -2.2417 1.28193 0.893054 -2.45333 0.569513 -2.84969 -0.574376 -1.1985 -2.34122 -1.49809 -0.663749 1.14589 0.0940567 3.30711 -1.61575 -3.29078 -2.34256 3.34626 -2.1464 -0.706098 0.593824 -0.554506 1.68979 -2.88072 2.19427 -0.534055 -1.9711 -2.73153 -1.93689 2.93762 0.0807903 -0.453554 0.245215 -2.1313 -2.56633 -1.61785 -2.86815 -0.851486 0.429048 1.56482 1.14342 1.94927 -0.313124 1.73131 -0.271173 -2.34489 -0.377506 -2.76296 -3.05269 3.02627 0.717993 1.80648 3.32511 -1.09823 2.91509 -2.8186 -1.27509 0.18776 2.51105 -0.384536 -3.064 -3.11244 -1.9769 -0.543538 0.243786 -0.143472 1.19944 -1.02552 -1.07115 -1.25048 1.33132 -0.990554 -1.8958 0.732727 3.05221 -0.174121 0.338963 -2.53138 -2.12083 0.358015 -3.13056 -3.30702 2.44298 1.88444 3.02424 0.450458 -0.19751 -3.45781 2.59654 -2.99962 -1.8442 -1.28529 2.94409 0.994783 3.41124 -0.470025 -1.81974 0.405289 1.16642 0.722457 -1.87026 1.49673 -2.61985 0.674094 2.20437 0.384927 -3.31555 2.73917 -1.9675 0.882327 -1.53953 1.45823 1.64463 -0.612696 -0.600959 3.49424 -2.50641 -1.06763 -2.97572 -3.31178 1.91091 -2.22139 -1.83385 1.02858 1.66811 2.20544 3.2307 -3.1004 2.01074 0.672161 -1.56382 1.60348 2.15336 2.16637 0.927503 3.31277 -2.15021 -1.07871 -3.4734 0.794323 -0.497924 -1.35641 -3.13832 -1.60093 1.17554 -0.798168 -2.94501 -3.2748 -1.59174 3.22994 -0.398942 -1.83971 1.56489 -3.02907 -1.52258 3.18404 3.32658 -2.25388 2.01193 -1.16997 -2.65883 2.41828 -0.862406 -0.191648 -0.645799 1.44624 -2.95482 -0.0737351 2.73416 2.57927 3.44282 -2.7686 -3.29619 -2.74324 1.87424 1.51476 2.3408 -3.10071 -2.6439 -2.1504 -3.20137 -0.808751 -3.41198 0.170301 0.495763 3.36958 -1.46949 0.183421 -0.654268 3.06905 3.31809 0.0316411 -1.54175 -1.87327 -2.92899 -0.448811 -0.597982 1.79561 2.14722 -3.17178 -1.17823 -3.07489 2.17146 -0.409646 -2.69503 1.84482 -1.07706 -1.18702 -1.52308 -3.28698 0.069654 0.0755452 1.50327 1.23734 -0.306453 -2.79836 0.455085 0.641583 -2.13221 -1.94116 1.02281 -0.357194 -2.16072 -1.19383 1.11927 1.14021 -1.24252 -1.8608 -3.06954 2.89918 -0.504784 1.36067 -1.07309 0.0673081 3.03413 -1.04379 -2.28815 2.66624 2.93778 -1.14409 1.38255 1.69471 3.49592 1.87178 3.16314 -2.93001 -3.46614 -1.10871 2.7947 -0.752493 3.18136 2.8905 -3.19361 2.92397 2.43764 3.16274 2.85041 -2.94513 1.41295 2.41179 2.58552 1.22501 -2.65536 0.0955679 -0.00978647 -0.778891 2.64434 -1.66065 2.22611 1.46923 -1.65292 -1.48393 -2.48942 0.349661 -2.24479 1.46896 -1.11469 -0.384317 -1.52771 -2.22012 -1.32795 1.22864 3.16839 2.81018 -0.474036 -3.05824 -1.91138 3.13028 1.97122 1.30317 2.74139 2.04633 
1.9661 0.626146 2.91054 1.5313 2.34528 -1.21077 2.14924 0.40816 1.30036 1.25023 -1.00856 0.612547 0.86045 0.1958 1.18786 -0.457933 1.17279 3.14776 -0.430345 1.3218 -0.439008 -1.28929 3.05353 -1.71152 -1.66384 -0.565639 -0.342257 -2.15219 3.09391 -1.30455 1.09013 -0.435721 2.84656 -2.84623 -1.26255 2.55253 3.20061 -0.789805 -2.03926 -0.108031 1.96308 -2.87551 1.85186 -0.0080395 0.375696 2.22753 -3.07508 0.228734 2.74673 -2.19855 0.243004 -2.21084 -1.5929 -2.69775 2.00197 -0.335265 -3.47945 2.77038 1.23848 -3.27707 -0.591013 3.08 -1.16785 -2.58773 2.8837 -0.923872 2.53736 -3.07032 2.63536 0.762215 -1.57473 -1.60467 -0.81015 -3.38529 0.151378 0.16351 -1.66381 -0.907951 3.04985 3.24874 1.2823 -2.06025 0.307323 -0.949915 -0.398639 -0.580024 -2.81001 0.0257999 3.05518 2.16541 -3.07211 -0.448579 2.0675 -0.57296 1.35207 0.550685 -0.990837 -2.953 -0.74383 -0.745705 2.11785 -3.1121 0.00967458 -1.54208 -3.04635 -2.76607 -2.53753 -0.359735 1.07336 -2.72268 1.25359 -1.56144 -2.38502 0.0487135 -1.42106 -0.767394 -2.11656 1.46527 -0.0191925 -1.68444 -3.22252 -2.19062 -0.666228 -3.35935 -3.47434 0.671462 2.35177 -3.50116 3.2229 0.858696 0.824341 1.20903 -2.01762 1.56635 -2.1813 -1.60798 0.700705 -0.662759 2.84747 3.11144 -3.11456 0.564584 2.50975 -3.22151 -0.578976 -3.42316 2.23465 0.84389 -0.299853 -2.79807 2.15429 -0.874909 1.20751 0.714684 2.05031 -3.40245 -0.637223 -0.185746 0.974432 -1.87922 -0.476649 -2.96991 -2.93348 3.47063 2.72422 2.21393 0.168681 -0.735341 -1.14489 -1.91897 1.79738 1.40782 -2.23979 2.04037 -1.45788 1.299 -2.23066 -1.16553 -1.09327 1.38367 -0.422563 1.64334 3.15328 -1.97253 -0.443233 0.50387 -2.1909 1.06835 0.036484 -0.61187 -0.06027 3.44762 2.68337 0.450957 -2.22291 0.581455 1.95555 -3.16806 1.19751 2.51501 1.94104 0.267579 1.56533 1.46689 0.99163 3.10524 0.458959 -3.41516 -0.752163 -3.51508 -2.22037 -2.07335 -2.87242 2.16751 -3.34594 2.03281 0.832599 -2.31754 0.201105 0.549391 -2.34155 -2.27995 3.24997 2.50743 -2.43696 -3.31804 2.97856 1.6931 -3.49937 -2.7723 -1.74627 1.47208 0.169919 -1.59112 0.464729 -1.71408 -2.36962 -2.29242 -2.61323 2.39364 -0.240265 -2.65878 0.518305 -1.9689 1.18044 -0.396827 -2.57313 -2.08805 2.11819 3.16015 2.23297 2.03296 -1.694 3.04253 -1.96263 -2.21065 0.765199 -1.78283 2.02282 -1.97489 1.3542 2.64217 0.575885 3.126 -1.49202 -1.98902 -0.693207 -1.20745 -1.27401 3.01264 2.66323 1.77616 -3.10207 1.30997 -0.321794 1.34877 2.10682 2.16397 -1.85967 2.0481 -1.23674 3.44367 0.950189 0.737902 1.82872 1.83604 -2.12269 -1.0502 0.169247 -3.34324 -2.19968 2.18797 -1.71642 -0.0222244 -2.78929 -3.36263 -2.5751 -2.45833 -0.920051 -2.1779 3.42924 0.236454 -0.64487 -0.255054 0.116948 -1.39955 1.15152 2.99169 1.04402 2.89306 -1.55809 0.829771 -2.50831 0.587118 2.85511 2.59458 3.18367 1.35087 -0.716163 -1.25326 -1.6727 -3.02989 -2.76804 -2.18393 -2.03592 -0.670889 -0.828346 0.642888 1.17267 -3.21882 -0.513106 -3.40155 -1.71242 -0.590101 2.937 -3.14527 -0.940724 0.435422 1.68858 0.51451 0.662838 -0.294677 2.58227 1.23265 2.19354 0.804606 3.23443 -2.97914 2.02582 -0.363764 1.83848 -2.60103 -2.70661 2.9495 -2.15763 1.04381 -1.17224 -0.737165 2.30159 -0.562291 2.92764 0.255736 2.13177 -0.693749 -3.25245 2.11836 1.0583 -0.911275 0.692832 1.08452 0.42421 -2.09199 -0.0479774 -1.89767 -1.32551 3.33833 -0.323516 -3.44382 -3.38047 -3.15567 1.59609 1.1355 2.8663 2.94629 -2.5291 2.89555 -2.74293 1.04792 0.800177 -1.59032 1.8298 -2.80023 1.5875 1.06923 -3.33063 1.01096 2.35751 -0.734209 -0.825663 -1.87271 0.723917 -2.84204 -2.81062 -2.76465 3.24137 2.08852 -2.34162 0.188088 0.597266 -1.84539 1.9784 2.00803 -1.49948 -2.65136 2.88536 -2.18105 2.28865 -0.0984911 -1.85483 -1.63199 0.118162 -3.27765 -1.74851 -2.73773 1.35236 -2.94689 -0.304284 0.721503 0.665619 0.603581 0.824514 0.141351 0.704966 -1.2773 -3.16125 0.716928 3.05466 2.04507 0.559082 -0.311436 -2.37496 1.79613 1.15893 0.957184 -2.38763 -1.89976 -0.870419 -2.90209 2.39419 -0.757901 3.45843 1.73162 2.06613 0.963585 1.69397 1.11955 -1.02462 3.22579 1.96101 0.513386 2.2375 -0.622113 -1.05626 1.23388 -0.679272 -1.98997 -0.097079 0.154162 0.49878 -1.33018 -2.45071 -2.76944 -1.87914 2.15794 3.17401 1.19319 -1.63981 -1.58969 1.80155 2.6111 1.39272 -3.01483 1.21117 -0.128172 -0.818121 0.435522 -0.377402 3.18534 2.16142 -2.6105 1.01783 -0.346533 -2.12628 1.83969 -1.29025 -2.8267 -2.04437 0.634123 -1.98138 -1.47881 2.20606 2.53679 1.60601 1.34236 -0.596137 -2.14145 0.724885 -0.851224 0.819473 -3.21297 0.206476 1.25767 1.30337 2.00542 2.67554 -2.5918 1.86383 -0.498616 -0.393919 0.239867 -2.28138 2.57309 -1.3917 -2.30244 -2.68511 0.789057 0.975956 1.63846 0.460282 -2.06679 -0.114531 1.01163 -2.75079 -1.99625 3.28872 -0.542707 -1.20986 -1.52041 3.07982 -1.26058 2.26865 1.66096 -0.619787 2.00095 3.38964 -0.7503 -1.7719 2.01874 3.17605 -0.594626 2.78681 1.49398 -0.773077 3.07685 3.31156 -2.61953 -2.90221 -1.81658 -0.56927 -1.08404 -0.93245 0.547079 -0.00212524 -0.146682 -3.14428 -2.69223 1.83883 2.97892 0.229433 -2.97292 3.39956 -2.1307 2.81922 -2.87198 -0.807872 -0.439813 2.18635 -0.894903 0.0335299 1.86039 -1.76395 -2.2001 -1.79064 -2.70933 0.729524 2.02976 -0.767629 3.45863 1.06844 0.066451 -3.19995 0.0383846 -1.48384 0.593228 1.90448 1.27178 0.0673986 0.231637 -1.6401 -0.374186 1.59816 2.96825 2.98199 2.50566 2.19231 2.36731 3.04416 -0.382407 3.34238 2.63128 3.43662 1.93471 0.384278 -1.86878 1.63743 -0.858001 -1.08822 -2.17161 3.30582 -1.18748 -0.304683 -0.486804 2.56336 0.98111 1.75735 0.684123 -0.603413 1.68704 -1.3567 -2.99301 2.26877 -2.79343 0.604226 -0.562813 -2.66004 2.49683 1.79639 2.82115 0.328326 3.3 -0.448778 0.309453 -3.15493 1.95522 2.13957 0.446269 1.71669 -0.853937 1.08805 -2.8471 -3.05049 -3.11917 1.35166 -2.25557 2.68911 -0.344427 2.48133 0.654943 2.57487 3.10584 0.521717 2.19436 -3.30957 -1.16897 0.939709 -1.08549 -2.37608 -1.84698 3.13747 -1.93015 2.58913 2.08773 2.81746 0.306436 -1.9617 3.23404 -0.0887197 1.3215 -1.54935 0.767621 2.98787 2.94758 2.5041 2.08439 1.87764 1.03066 2.72414 -2.64815 2.44135 0.534287 2.89131 -3.45633 2.23616 2.86328 0.266326 2.78202 -1.9856 1.6488 -0.104471 -3.22455 -0.815324 -2.99913 -0.465118 2.16761 1.52999 0.34932 -2.98333 -0.404694 1.56305 -2.04435 -3.43397 1.60706 -0.0757726 2.90473 -0.0573704 -2.18734 3.44963 0.932427 0.286004 3.34421 2.30813 2.73621 0.498954 -0.0153606 -2.91501 -0.431814 3.32147 1.21111 1.81891 0.0535774 3.29007 2.70411 -0.403767 -0.16063 3.23772 2.50576 0.190954 0.321955 -1.4003 2.7793 -2.38194 -0.124059 -1.76242 -2.08869 1.97349 -1.93518 -0.871376 -1.50634 -1.2764 1.96318 1.67163 -3.06091 2.71551 2.5676 0.254618 -1.40811 1.5587 -1.33996 2.86734 -3.40246 2.07092 -3.10438 -2.97692 -0.717444 2.77769 -1.76744 -0.153037 2.81969 1.22843 3.47286 -0.234534 -0.619605 2.91313 -1.61436 -1.88822 -0.121289 -3.35445 3.40145 0.836386 -0.0846969 -3.30125 -1.06358 3.18049 -2.82284 
2.27056 -2.39197 -0.676656 -0.798332 -1.47114 2.37025 -0.429511 -0.318509 2.2172 3.11534 0.83885 3.16767 1.55217 0.59439 -1.11452 -2.14158 -2.71292 -2.39017 -0.54512 3.47936 -2.1012 1.87562 1.34114 -2.81467 2.41409 3.11194 -2.13005 0.393037 -0.0108505 1.41489 -0.904657 -1.01045 -1.09002 -0.00716067 -3.08913 0.151396 -2.33613 0.721044 -0.721147 -0.235624 -2.46573 2.88817 -2.62716 1.278 -0.768634 -0.263382 -2.74936 -1.79087 -1.17446 -1.97451 -1.78456 2.45392 0.652925 0.797965 3.21068 -1.0093 0.881148 3.27219 -0.178681 2.64632 0.243087 -2.62061 0.683533 3.33182 2.70951 -2.62158 0.432237 1.61475 -1.25046 2.45923 3.44652 3.13824 0.366503 0.835965 -0.459941 1.49202 -2.89178 -0.195473 1.52409 1.9333 1.83362 1.72767 2.63037 -3.35102 -2.25514 1.34197 2.27879 -3.0289 0.389268 -3.1895 -0.346746 -1.55224 1.79414 3.31389 -1.77493 -0.551745 2.80203 -2.37406 2.12693 -2.3053 -1.02858 3.07878 -1.13508 -2.45926 -2.97195 -2.37321 -3.33039 3.05735 2.17317 -1.44274 -1.11834 0.556821 -0.774062 -2.35278 1.65684 -0.273042 -1.32123 -2.50719 -2.45896 -0.479955 -0.11538 1.75198 3.29781 -1.54455 0.70573 -2.36731 1.53865 2.27208 -2.34193 1.69813 -2.2161 3.25207 -1.79802 2.51329 0.211442 -2.69214 2.34637 0.272627 -2.24934 -0.576627 1.35609 1.22447 2.4334 -1.64548 -1.01147 1.86647 -1.77395 3.30453 0.357824 -0.819394 -1.79202 -0.873052 0.988679 2.80528 -2.97145 -2.6032 -2.77496 0.266703 -0.286412 3.1122 -1.68402 1.0752 -3.06011 -0.0409892 3.19637 -0.469335 -0.90857 -2.16366 2.51582 1.6018 1.30374 2.877 -1.1243 -2.40741 1.46725 -2.76595 3.46045 3.13054 1.22881 2.93422 0.568627 -2.39035 1.29488 3.38919 2.61474 -2.19449 -2.12733 1.01746 1.28099 -1.24699 1.87694 -2.38427 -0.854444 1.34355 1.67246 2.98747 0.658522 0.167743 2.99362 2.17118 -1.43441 2.35764 2.61337 -3.42885 -3.2086 3.10323 -1.6707 -3.38481 0.53824 1.18037 2.08667 0.954038 2.62133 1.19079 -0.974397 0.578037 -0.686608 -2.59394 -2.72181 0.203042 0.207574 -0.519821 1.78468 0.946906 1.69738 0.939055 -2.67433 2.90974 -2.86522 -0.200235 0.265677 -2.87722 -0.0976043 -0.784254 1.075 -1.70826 -0.744443 3.20167 2.80044 1.45098 -2.56581 -1.08392 0.690238 0.0174718 1.09817 0.428363 -0.940637 2.32133 -1.8015 0.418915 0.649954 -0.560333 1.00006 -0.571255 -0.772263 -1.17205 -0.76753 -1.73914 -2.89977 1.43186 -1.93052 1.8461 -1.55764 -0.39271 -0.187816 -2.72594 -3.07535 2.44769 0.0699767 0.902831 1.44427 0.72351 -0.81694 0.0785202 0.69763 0.70972 -3.2934 -2.05877 3.14126 -1.34845 3.43373 0.811005 -0.421913 -0.126823 2.63852 1.2137 2.96679 -2.68263 0.88876 -0.489735 0.830148 -0.619474 -0.224545 -1.94316 1.82249 3.37972 -0.339152 1.32509 -0.268965 -1.24591 2.35948 3.48291 0.90489 -2.10965 -1.96095 -3.29618 0.402171 3.25461 3.24645 -0.568754 1.52955 3.2628 0.989931 -2.78482 -2.40003 0.741748 3.07608 -2.98151 3.48172 -2.12677 -0.778352 1.1135 2.53356 1.96937 -2.48287 0.326047 -2.7851 2.55723 -1.03466 1.6172 2.3732 1.18901 -3.0739 -2.34281 2.40476 1.34735 -3.01778 0.947477 3.25836 -0.719225 1.79081 -2.88921 1.0056 1.44204 -0.19709 -1.93246 1.97116 1.04692 -0.368918 1.02651 0.954582 2.62245 1.30426 -2.31113 2.87329 3.33393 0.597324 -2.22962 1.11452 -0.13944 -3.23438 0.428833 1.80825 -3.12612 1.26984 1.54353 2.89942 -2.53582 0.581153 -1.62948 -1.02932 -1.02521 0.656274 -3.15414 3.4797 -3.038 2.02819 -1.25493 -1.34877 -2.42627 -1.45688 -1.26151 -1.10242 1.59095 -1.78342 1.64405 -1.13298 -0.944229 -2.42681 -3.49302 0.503865 -2.04976 -3.0595 -2.77568 -0.81982 0.180519 2.34632 3.29365 1.89509 -1.71764 1.09293 3.07167 2.5478 0.476067 1.16209 -0.236521 0.0654953 0.69823 -2.12631 0.639008 1.70977 -1.89626 2.27156 -0.507226 -3.07041 0.848816 2.08387 2.83894 -0.834602 2.54164 -0.253164 0.0758405 1.71818 3.34362 0.567939 0.00779338 -1.14424 -2.75768 0.134672 -0.51412 -1.94948 -0.289776 -1.73071 -1.62856 -2.89231 -0.971337 0.199409 3.58923 1.87516 2.26419 -0.236952 -1.13031 -0.679511 -1.28996 -0.167353 0.50048 3.25934 -2.75459 -0.506242 -0.65122 1.666 -3.20314 -2.8601 -0.0472449 3.03415 0.0836361 -1.05588 -1.13629 -1.56857 -2.48846 -0.750612 0.494586 -0.291502 -2.00853 0.716272 0.961203 -0.896179 -0.541028 -0.260178 1.51869 -2.90265 -3.07334 -2.8106 2.2045 -3.18413 -2.70169 0.795881 1.04482 -2.85285 -2.06177 -2.39202 -2.30338 3.49335 -0.18328 3.46739 0.0742811 -3.26258 -3.27926 0.410603 0.0312215 3.37433 0.596388 -2.3239 -1.66778 -1.1495 -1.69688 -3.23095 3.47529 -3.38967 -3.49418 -1.85606 -2.71847 -3.17888 -0.754868 1.08253 -0.088552 0.0108843 1.44688 2.19678 0.622692 -0.01962 -0.02645 2.88302 -2.98508 0.184297 2.65037 3.07657 0.211871 0.947953 -2.71348 -1.64202 2.90564 3.52937 0.63165 -0.459807 -2.08247 0.0677098 0.270938 -2.11219 2.21488 2.7664 -0.77664 3.17573 1.53465 1.85234 -2.53409 0.15364 1.75939 -2.65368 -2.29567 -0.0661265 0.178762 3.04997 -3.0573 0.236814 -0.325051 3.19232 -1.70642 -2.04176 -3.33881 -0.561166 0.531369 0.81622 0.88778 1.1077 3.08218 0.568981 1.32529 -0.151717 1.68073 2.71788 -3.30171 -3.21408 -1.67322 -1.37093 -2.24295 0.474237 2.74657 -1.48482 1.22048 -3.25074 -0.238159 0.551805 0.508571 -2.46205 1.0636 -0.63616 0.641957 -2.33188 2.24387 -0.296555 2.22613 0.1978 2.04342 1.58307 0.798275 0.506129 -1.76185 -2.69716 1.66571 -0.827861 3.46752 3.47067 1.91498 -2.83183 -2.56889 -1.55294 -0.429186 2.83379 3.52313 -2.18226 -2.18282 1.89952 0.311401 2.7604 2.80011 1.13311 1.58645 3.31315 3.39229 -0.563674 -2.31152 0.286672 0.386796 1.78483 -0.413304 -1.09425 -3.27505 -3.1608 -0.467284 -1.95391 2.41539 -2.43777 0.615029 -0.393064 1.42281 -2.89764 3.17835 3.03469 -2.77184 -0.287611 -1.74765 -2.33493 0.896669 -1.55302 -0.894046 -1.04608 3.09821 0.276136 2.24522 -0.69158 -1.65689 0.330428 -3.41721 1.2409 1.06491 2.45971 2.98873 0.913076 3.39149 1.66901 2.57022 -0.611298 -2.67346 -2.3113 -1.5365 1.60842 -3.20258 -0.989214 -1.68352 -2.31209 -0.280693 2.15449 -2.66185 -0.137419 2.05719 3.35394 1.00888 -3.27514 1.38044 1.66782 -1.68046 2.70928 1.66655 1.01668 -2.44689 -2.67112 -1.19343 -2.5495 0.856481 -2.89722 1.00737 -0.512159 3.24409 -2.20872 -2.43444 -0.582358 -0.119748 2.03838 0.00870921 1.68547 -2.90001 1.70374 -2.16287 -0.948874 3.44018 2.43304 3.11476 -2.92354 3.26934 0.473284 2.01509 2.82526 0.854362 0.444967 0.858248 3.3069 -2.98529 -0.843206 2.28149 1.18084 -2.15502 3.13122 -3.06379 1.13091 0.707679 1.56325 2.65937 1.3519 -2.19956 0.868091 -0.426302 3.31609 2.18539 -1.56003 2.46846 3.15256 -2.8287 -2.89416 1.8383 1.72698 -2.11552 -1.7335 -0.634013 1.28289 -1.38226 2.39138 2.82589 -1.72041 2.87531 -2.46016 -2.50828 2.96901 -1.39335 -0.729645 2.88064 2.26304 2.225 2.7676 0.0820041 -2.19258 -2.70144 3.27287 3.29144 0.0386058 1.27371 -1.01051 1.11149 2.11897 -2.84005 2.24256 -1.80625 0.215669 -1.50213 3.39025 0.0337592 -3.04824 -3.1668 -1.26252 -0.814382 -2.12499 -0.299897 2.37009 -0.113703 0.419263 0.338181 1.67385 -0.167419 2.67567 1.37279 3.25361 -1.14875 0.64174 -2.12295 
-0.273795 -3.20539 1.52543 2.03429 1.41667 -1.38459 -1.60174 -0.99776 0.367193 1.66511 2.83473 2.10878 0.944442 1.89018 0.573084 3.49044 -3.45047 3.24567 -3.20112 1.87142 -0.427948 2.95373 1.47877 -1.80529 1.61667 1.38883 3.0083 -0.0397304 3.25514 -2.03892 2.44304 -1.1751 1.7252 -0.369404 2.70072 -2.5441 -1.99683 -1.65836 2.44932 1.82157 -3.43405 -1.51739 -3.208 3.39509 -3.48703 -3.29136 0.463376 -1.32358 -1.88723 0.114886 0.433804 -0.716623 1.15682 2.40624 2.33864 -0.672136 -0.438207 1.71504 -0.246639 3.10935 0.044137 2.66373 -0.367181 -2.69609 2.18029 -3.34236 1.96996 1.54473 -2.93397 3.23296 -1.17864 0.549065 -2.58401 -1.7567 0.370138 -3.08748 0.760201 -0.92391 -2.72594 -3.39486 -2.92917 0.520318 -0.296209 -1.02592 -2.51601 -1.50279 -1.16392 1.81176 -0.808431 -3.09974 1.4475 1.59349 1.41382 -3.3597 -2.63074 -2.04256 2.9934 -3.46187 1.13347 -3.00946 -1.73827 -0.336208 -3.08353 -3.18538 -2.2434 -1.56754 -1.9437 -2.39656 2.16699 -0.496173 2.01383 -3.36377 1.60735 -1.2966 0.813911 -2.88495 1.83875 -1.9716 1.87987 -1.78831 -0.907483 -0.781 2.9867 -2.72692 -1.95472 2.96159 2.25345 1.95522 2.63611 -3.12896 -0.60452 2.50622 -2.22224 0.306333 2.64223 1.19343 1.95468 -2.90588 1.65794 3.11684 -1.82333 0.548376 1.91135 0.927514 2.26347 1.0353 -3.00029 -1.74646 1.06587 -2.29904 -0.698967 -0.288431 -1.98703 -0.606005 -1.81048 0.179425 2.71867 0.615098 3.22178 2.2087 -2.15891 1.35903 3.35917 -3.33317 1.68414 -1.13411 2.10848 -1.48911 -1.06157 -0.689997 2.27014 2.95127 -1.67031 -2.74356 1.73531 -3.47759 -1.29635 1.98486 0.954056 -2.1077 -0.48296 -1.54005 -1.14743 3.07258 -1.62604 1.45276 -1.28493 1.84036 -1.15051 -0.851592 2.63777 -3.19543 -2.16111 1.59056 0.00860973 -2.27779 3.38764 -3.01163 -3.28629 -3.17021 -2.95363 -1.69626 -2.15503 -0.0676703 1.22575 2.5909 -1.72416 -0.812838 0.450298 -0.0213151 2.51526 -0.989733 -2.64077 -3.50542 3.03364 0.171718 -0.855381 3.1806 -2.00251 -2.71373 -0.680269 -0.0795205 0.575745 -2.77096 -3.26106 1.51747 -1.5555 1.26488 -2.89118 2.97908 0.822872 -1.50828 1.59623 -1.08108 0.984952 -3.33219 2.06264 0.549861 -0.813868 -0.274992 -2.67025 2.80883 -0.712688 -1.32238 -1.86334 2.50168 0.454696 -0.771318 1.75079 -2.15347 -2.13661 -0.916127 -1.85732 -3.37989 1.32226 3.15177 1.80099 -1.10354 3.10919 2.5187 3.15682 0.562894 -2.10568 2.16946 3.14789 -3.13099 2.78139 2.51737 1.94193 -0.328092 2.46927 -0.289792 2.39719 3.25534 -0.252241 -3.48304 0.363477 -0.0428227 1.89789 2.80268 -3.07545 3.41276 -2.89595 0.050131 1.3849 1.19473 0.276591 -1.21442 -2.80766 -1.2884 -3.29444 2.93574 -1.8362 2.56684 -1.74368 -1.82255 -0.855011 -0.232882 0.614469 -1.63158 0.532937 -2.45534 -0.719092 -0.0800859 1.12571 -3.04126 2.60687 -1.05738 1.98181 1.12767 2.07041 -1.50543 -1.13315 -3.06502 -1.92905 -0.364106 -0.429234 3.34795 2.9395 -1.16108 1.25918 1.45524 -3.20043 -1.35864 2.62848 -1.9271 -1.91867 0.593739 -1.59028 -1.30664 -1.35244 2.47151 -0.947585 2.90276 2.2565 0.966231 1.22277 -0.428748 1.48763 -2.5461 0.672158 -1.96263 0.764737 -2.02872 -2.82004 2.29282 1.45176 -2.45227 -0.118432 -2.83583 -2.41849 2.3295 2.64688 0.93737 -1.10184 -1.43986 -0.971797 0.743369 -2.46708 0.530424 -2.6034 -2.43637 0.598862 2.98352 3.19857 -3.04636 -2.56552 2.17057 1.25729 -2.49846 3.19812 -0.548713 0.241886 2.34106 -0.593875 0.992756 2.18875 0.226613 1.25788 -0.058341 1.98209 -3.11266 -1.52689 2.855 -1.43225 -1.57593 2.2862 -1.74514 -3.40538 1.76822 -3.47654 -0.185327 2.70437 -1.4963 0.191516 1.50764 -1.05058 -3.33016 2.82518 1.76749 1.08934 1.82179 -1.94702 -2.44116 -0.705877 -2.36978 3.43171 -2.88263 -3.01122 -3.20292 -2.35875 -1.91004 -2.29284 2.40253 -0.939941 2.33157 -0.549146 1.94128 -0.750681 -0.842116 -1.58105 -2.08103 2.20453 0.715768 -2.2621 -1.35508 1.5976 0.965299 -1.49064 -1.98614 -0.618716 0.943561 -1.52411 -0.209475 0.222907 0.107633 0.644021 -3.44937 0.123858 1.06242 -1.09115 -0.00547158 -2.17951 -3.03847 0.896245 -2.57436 2.31957 2.67166 2.94584 2.51986 0.305101 1.56957 1.38675 -0.405138 -2.17265 0.457279 0.399695 2.36464 1.45279 2.72964 -3.4971 -0.447717 -1.93985 -2.58435 2.34209 1.02707 0.704241 -0.255047 0.622699 0.195288 2.10555 2.54259 1.17191 -1.62684 -3.34342 1.51939 -2.73728 2.03104 -1.4576 -2.46793 2.62167 3.02317 -2.671 2.01525 0.334389 -2.65779 2.9028 1.42846 -3.15553 3.2103 0.477394 2.70288 -3.19793 -0.876791 -2.36243 1.41224 -3.34125 1.3634 0.751531 -2.26895 2.15057 -0.0549658 -3.09262 2.18777 1.12275 2.14399 3.21116 1.33382 -2.64978 0.480169 -2.02302 -2.96112 -2.99186 0.719248 0.683003 1.28671 0.899984 0.923138 -2.89815 3.20224 1.55748 2.0933 -3.27807 0.625529 -2.19578 0.305691 -3.1443 2.44546 0.561232 2.83204 -2.69644 -0.642725 2.01678 -0.634747 1.22898 1.92796 -2.21437 -0.620346 0.499347 0.733684 2.41117 -3.408 -0.880729 1.18518 -2.02033 2.6543 -1.1996 1.3026 1.37451 1.05924 2.23892 -1.9829 0.106858 2.93653 0.307592 -3.36984 1.29109 1.34745 -2.05378 -0.0263323 -3.11393 1.74929 -2.51892 0.523077 -1.51516 3.05801 1.17694 -1.35413 0.499847 1.91354 0.880293 -0.136971 -1.60703 0.849535 0.49911 0.661081 0.0440423 0.887375 -2.05278 -3.04946 3.10814 0.33528 -0.622224 2.13413 2.38584 2.01834 -2.46516 -2.06294 -0.070668 0.698044 0.31365 -0.7137 0.339992 3.01052 3.10382 2.34897 -1.70849 -0.0458206 -0.947705 3.35374 2.72083 3.036 0.544457 -2.34898 1.01703 -1.26184 -0.91861 1.76854 0.0903994 -0.0960311 -0.34334 -2.43352 -1.67938 -0.764836 1.14198 2.28536 -2.65355 2.17964 -3.4978 0.37284 -0.491003 -2.43837 0.0454448 2.62596 1.98519 3.29563 -1.76018 0.768546 -1.32039 -2.45166 2.2742 -2.85625 -3.06621 -1.2114 -2.51237 -0.615689 -3.16797 0.872517 0.262776 -3.35745 -2.71928 1.12185 -1.99825 -0.769898 -0.0778744 -2.15588 0.864155 0.35233 2.99092 3.46033 -3.11043 -1.47018 0.105606 -2.52262 2.29753 -2.69853 2.02069 2.4425 -2.23992 -0.32675 2.8996 -1.21482 0.446114 -0.687793 -3.10122 -1.93059 -1.21919 -1.98662 2.23989 1.71309 -3.32747 2.6411 1.13376 2.44621 -1.34127 -2.18905 -1.73122 -1.02434 1.45098 2.13077 -2.3724 0.246466 0.451502 -1.4218 -3.22795 -0.275394 -0.483314 1.43831 -1.03308 -1.50358 3.14651 3.12163 -0.0807261 -0.0672377 -2.35782 2.58456 2.76122 1.2998 -1.59749 -2.42475 2.34465 0.881528 -2.13099 -0.961366 -2.71466 2.03207 2.64584 0.245064 2.29182 0.748585 2.50457 -2.37728 2.69932 1.51801 2.90207 -2.11307 -3.12824 1.07301 1.82038 1.42098 -0.993464 3.40015 1.60694 -2.86587 0.460933 1.56458 3.46741 1.24767 0.617899 -3.44609 3.16646 -1.74703 1.55534 1.05564 1.35445 -0.911404 2.42461 2.48134 -0.958836 0.943446 -1.97744 0.892463 2.94926 1.10253 1.3848 -0.0774294 3.10889 0.34685 -1.1445 1.03994 0.379118 1.34685 2.76162 3.34539 2.18714 -1.63823 -3.29687 -2.60942 -1.17082 -2.8135 1.26121 -0.106942 -1.21534 2.03432 -1.85629 1.35878 -1.52497 -1.54419 -3.03969 -1.00604 -2.17842 -2.39141 1.67496 -1.22153 -1.7131 1.90143 3.42593 0.344411 2.46216 0.00110354 -1.953 3.05385 0.565511 0.764552 
