0.631891 -1.17102 0.707816 -1.4444 2.72966 2.3542 -1.42111 3.27907 0.707263 0.158067 -1.97088 2.91211 0.685554 2.19577 0.815352 -0.23207 -0.291905 1.07437 -1.75287 1.17897 -2.69709 -2.72895 -2.61019 2.04041 -1.93454 1.00401 -0.0806533 1.08525 -1.06894 -2.20185 -0.0744677 -3.33153 0.337018 1.36609 -3.42467 -3.07243 -2.57823 3.23996 1.3094 -1.50588 -0.478855 -0.149359 -2.92601 -1.32572 1.01563 2.37924 2.4615 -1.45648 -3.11668 1.38841 1.86763 2.16311 3.26222 2.63428 -0.183448 0.81556 3.15004 -1.22181 -2.19953 -3.07099 -2.5751 0.805269 -0.661007 -0.835107 1.58431 3.31903 -3.18435 -0.897799 0.385207 -0.518185 -0.672226 -1.23097 -2.29868 2.8983 -1.5003 0.713364 -0.919535 -2.11199 -0.280377 1.85822 -1.67061 -1.81663 0.159386 -0.801528 -2.74651 -1.11325 2.65346 0.240998 1.29698 2.45032 -2.10861 -3.37267 -1.18231 -1.10869 1.43176 3.32735 1.1441 0.95725 -0.859199 -1.84999 3.07815 0.0267482 1.8111 0.185033 -3.404 -2.39984 -2.29815 -1.54076 0.757175 1.44316 -2.11635 -1.7913 2.91456 1.06406 -1.00749 -0.377976 2.37359 2.81809 -0.666367 -0.281744 -2.13671 -2.58302 1.45413 0.915464 3.26957 0.89468 0.119791 -1.66008 -1.94621 3.31595 -2.12213 0.033669 0.595662 -1.67906 -2.35403 -1.833 -1.14239 -1.92561 -1.53971 1.30777 -1.69944 -3.20242 -1.39949 -1.37197 0.566757 -2.7872 -1.38328 0.192735 -2.17278 3.24219 -0.330964 2.0132 -2.49397 0.567937 -3.28447 1.84096 0.578601 -3.32918 2.88993 -1.8299 -2.37083 2.66544 -0.433099 2.23556 -1.22262 0.134158 -0.0528416 3.03028 -2.59485 -3.0748 1.98108 -0.361505 -2.9628 -1.05426 1.35886 2.32867 -0.493173 -0.48415 0.838026 -0.0407335 1.19696 -0.112599 -2.30976 -0.285981 3.25762 0.294719 1.28928 0.794738 0.836391 3.12464 1.2411 -2.4176 3.43452 -2.65783 -2.1339 -2.83081 2.86634 -1.08794 -2.59143 -3.10608 -1.25569 0.568748 0.564167 3.30529 3.22158 -0.0809328 -1.37411 -2.68697 1.91878 -2.06389 1.04018 0.397364 0.856771 2.08384 2.8758 2.28438 1.60298 3.18078 -0.70404 0.0641201 -2.3961 1.37627 2.65807 1.56959 -2.38738 -1.63935 1.54822 -0.312838 0.0132971 2.34282 -0.589905 3.50356 -0.460996 -0.850219 -2.65771 1.59862 1.04552 1.80934 -0.0480834 -1.30378 0.0146336 -2.34269 -1.45613 0.462598 1.55315 -0.842228 -0.426179 0.838741 0.519983 -2.08325 2.58801 -1.20833 3.17533 -0.345705 2.89695 -2.13404 1.06686 0.992121 -0.127411 0.504716 -0.7656 -0.34443 -2.22264 -2.13361 2.83708 2.36589 0.868249 -2.0866 3.09138 0.262726 -0.557948 1.91992 3.37286 0.650152 -0.874102 1.69373 2.49198 -2.848 -3.18988 0.401974 -2.14386 0.976444 -2.87068 0.0821675 1.9739 1.48221 -2.7492 -0.649021 -2.83301 2.61302 2.41126 1.8167 -2.86666 -2.62492 -2.63587 1.58242 -2.33382 0.790375 2.11395 -0.657542 1.2365 3.11271 2.03559 -3.1226 1.57054 -1.54641 3.09754 1.95358 -1.0627 1.50326 0.604921 -1.47906 -2.15342 -1.09253 -3.16837 1.34985 0.365129 1.37587 -1.26973 -0.289339 -3.29323 3.32503 1.70535 -1.84713 2.84109 2.96404 -2.93152 2.8842 3.23251 -2.36399 -2.22763 0.317954 1.18748 1.53871 2.74298 -1.74823 0.151899 1.91609 -3.36523 -1.13531 0.100904 2.69573 1.55892 -1.12744 -2.56503 -0.712947 -0.197426 -0.378296 2.74749 -0.312618 -0.255795 -1.02167 0.131109 -2.26258 -3.18088 -2.73643 0.501253 -2.8265 0.508846 -3.36199 0.422919 -0.846162 1.58287 -1.99452 3.16901 2.80206 -0.866984 0.32666 3.24188 -1.01475 2.49164 -2.71759 -2.18468 1.56652 -2.47475 -2.22828 2.02714 0.00308789 0.854862 0.913246 -0.808836 0.449148 -0.511724 2.68155 3.33921 -3.19203 -0.451652 1.85349 0.93342 1.81877 1.36264 -2.81049 -0.176457 3.44418 -1.33498 -1.52577 1.05261 -0.334344 2.7131 1.82967 3.22385 1.40911 -0.404976 2.83186 3.21552 -1.24478 1.72082 0.923288 -3.39992 2.90308 1.72146 -3.39601 -2.88887 -0.838488 3.24456 -1.15626 -0.687487 3.1517 -2.33645 -2.46239 -0.0848225 3.08588 -0.802349 -0.162243 -1.36607 1.93452 -0.480134 2.33563 -2.05301 1.93607 2.34461 1.27365 -2.15854 0.645198 -3.36072 -3.04184 3.31421 1.75232 3.13903 -1.32711 1.4523 0.559957 -1.59471 -1.79062 2.57562 1.93206 -3.33127 0.94023 -0.615328 3.00458 1.17083 -0.452869 1.6599 -1.62487 0.600453 -2.27599 -2.71634 -0.513933 -2.24015 -0.944449 -2.52406 2.74526 2.58721 0.858946 -1.75023 0.191719 -2.89727 -0.408835 -2.85611 2.347 1.48331 -2.01942 0.471045 1.51251 1.33543 0.537016 -1.84509 2.73849 -3.44747 -0.620746 0.476797 -1.12211 -1.45663 -0.960469 0.0672436 -0.733872 -0.932362 -2.24481 1.79634 -0.62681 2.72388 -3.50681 0.94929 -1.98987 2.853 -2.57911 -3.44755 3.19387 1.73262 2.16491 -0.473852 3.35553 -2.15442 -2.83144 -2.37793 -0.0644122 1.12958 -2.68347 2.78924 -2.96478 0.296478 1.94092 2.24281 1.61651 2.31908 2.28901 -3.17344 -0.70324 0.726598 -2.28138 -3.47549 -1.21878 -2.38295 3.18666 1.58184 0.307144 1.18809 -2.13957 -0.404075 -0.406851 0.527691 1.99051 1.32235 2.03379 -2.71636 1.69226 3.1421 -0.331685 -3.3482 -0.225393 -2.66068 -3.33548 2.80239 -0.277682 2.23057 2.40568 3.356 -2.97409 -0.0709548 -3.25583 -2.30725 -2.01892 0.8635 -0.490247 2.35564 2.15924 1.24511 -1.86769 0.487609 -0.240329 -2.83246 -1.98574 -0.0508 0.400092 2.9524 2.9391 -1.62737 -0.207591 0.304982 -3.20875 -1.39811 0.659218 -0.388392 -3.18787 1.16689 0.0895999 -2.5646 3.22034 0.0262336 2.75277 -0.29071 -1.24152 -0.164323 0.900988 2.139 3.10761 2.49786 -2.68273 -2.81064 -0.248976 -2.29337 1.00712 2.41908 -0.500211 0.837957 1.93084 1.98329 -3.02331 -1.11831 -2.59124 1.05038 3.28925 -2.48934 -2.93206 1.35284 2.27518 -0.0309115 -1.51966 -0.51265 1.39028 1.76776 2.48868 -2.99279 2.37301 2.45275 -0.372138 0.166523 0.0553267 -2.6498 -0.928846 2.66395 0.63623 2.98642 -1.6222 0.663928 -1.35852 -2.83108 2.66082 -2.37658 2.92559 -3.0149 -1.32586 3.47806 2.29887 -0.879052 3.13052 -2.94519 2.72336 2.41633 -2.44835 0.355899 1.99629 -0.669859 -2.01149 -2.69388 0.873217 1.25794 1.86292 -0.094873 0.365524 0.405856 -1.00604 -0.254602 -2.29912 1.08111 -2.23629 1.5731 -1.12321 -1.91708 -1.78102 -1.08111 -3.29114 -1.35627 -0.0688394 -2.32455 -2.42039 0.428119 2.5971 -0.155161 3.36009 2.64591 -2.6556 2.84876 2.94239 3.39801 2.34474 -0.372277 3.30715 0.286302 -3.1885 -0.31738 -1.85495 2.03729 1.43645 -2.33895 3.40431 -3.41101 -2.20413 -2.83996 0.493898 -2.86488 0.212681 -1.47215 -1.46717 -3.39738 -0.873804 -3.25453 -0.952346 0.174831 0.473325 -0.167734 0.513602 -2.95774 -2.80453 -0.859108 -1.53789 2.63435 -3.46296 -1.76838 -2.35888 -2.56999 -1.87541 -2.47207 0.602571 1.70276 1.66336 -1.48016 1.94038 -1.39095 -3.23657 1.04212 2.47384 3.02505 0.78319 0.36248 2.96329 2.89009 -1.77319 -0.672907 0.9971 3.48445 -0.762591 1.33507 -2.4023 0.445911 -1.48083 -3.41254 1.66902 2.88405 0.731012 -2.11096 -2.70489 -1.54244 -3.34567 3.3528 -1.09593 0.00232372 -1.3018 -1.06145 0.563437 -2.34284 -2.99969 2.48942 -1.69443 0.1164 -1.62088 -2.62533 -0.205876 1.76913 2.87627 -0.894894 -1.46128 2.32586 2.23083 -2.96584 1.40144 1.3376 -0.564119 -2.06757 -2.20094 -1.18679 -0.900069 1.13023 0.976468 1.15778 1.02137 -0.824821 -2.94991 1.74184 -3.04723 -0.982664 3.01502 -1.84979 2.6473 
-2.33769 2.60134 1.67005 0.336598 -1.10736 2.19964 1.66581 0.817809 2.20172 -2.14593 1.95229 1.65057 -2.64182 -1.75522 1.24472 -1.40899 -2.25075 -0.106882 0.511742 3.22108 -1.75655 0.384233 -1.64172 -2.41298 1.46976 0.78699 -2.75206 2.85701 -0.103137 -2.88551 -2.01476 -1.43026 -1.30483 1.18631 1.98062 3.43567 2.8281 -0.159519 1.52194 1.31325 0.131409 -2.91376 -1.0378 1.27736 -3.38301 -2.48879 -1.45737 -2.66328 -1.95618 -1.07877 -1.25698 0.673967 -1.33434 1.55489 -3.40599 2.34799 1.46838 2.92087 -0.532527 -0.14711 1.36111 -2.31331 -3.05494 2.08067 1.82618 -1.94792 -0.673876 0.168237 -3.45538 1.36449 1.09127 -3.40037 1.97112 1.56307 -0.0184017 2.92197 0.848766 -0.697445 3.21219 1.9149 2.43756 -1.12153 2.98472 1.61965 -3.0129 2.80146 -3.19662 -3.16383 2.01984 -0.677612 -2.94261 -3.41668 -1.83551 -0.695228 -3.39252 3.08336 2.96751 -1.94855 1.99006 -1.90235 3.04225 2.11247 -0.400355 -0.912905 -3.00798 0.956985 1.69002 2.74198 1.48778 -1.57324 -2.54734 -0.209823 -1.86692 -0.977963 2.21195 -1.87456 -0.574943 0.998624 -2.26727 3.39365 0.00123893 -0.72978 1.71887 1.71027 -3.41244 -1.09639 -0.962475 0.95085 3.43973 -3.18645 1.32632 -0.418751 2.04526 2.87558 3.33166 2.58661 -0.119869 1.52416 -3.28007 -1.55625 3.03099 -2.13727 -0.450274 -3.29662 1.56039 2.56816 -1.03243 1.28771 0.910648 0.377788 -3.4413 -0.587884 -2.8005 -1.91891 1.81629 -2.26542 2.5907 -1.86678 -0.50732 -3.45863 1.1289 1.4499 2.01357 1.7343 -3.39722 -0.165987 1.5967 3.38234 2.84049 -3.45048 -1.73191 2.55218 3.09249 0.385626 -2.55096 -2.15207 -2.87032 -2.35963 2.79995 0.779122 2.66655 2.52266 -1.73674 -1.69218 0.705677 -2.23652 -0.33803 3.27711 2.17335 -0.00915519 -0.508671 -1.41187 2.25336 1.24554 -0.817493 0.809914 -3.01005 0.797618 2.30606 2.26336 -0.590443 1.97622 -2.27012 0.826716 1.90579 -2.2183 2.96705 2.27724 0.329306 -3.35052 2.10341 -1.13163 0.564852 2.87491 0.978437 -2.33004 -2.58028 -2.46232 2.56814 2.3005 0.626996 3.4317 -1.09132 -1.8746 -2.28385 2.60935 -2.35106 -2.48197 2.26265 2.1772 -3.38695 -1.25049 -1.84709 -0.331535 3.45621 -1.91994 0.109662 -0.688686 -0.509545 2.7025 0.892573 0.299729 -1.97912 -2.48704 -0.997107 -0.486481 -2.22533 3.35922 1.92353 -1.45822 -2.76718 -2.51202 -1.6965 -0.545027 2.35026 1.61905 1.4081 2.83024 -1.06534 0.7097 -3.06251 -2.97835 -2.91703 -2.3073 -2.93825 -3.19419 0.208568 -1.57308 -1.97679 -0.587042 1.883 0.575297 0.609702 3.18409 -1.71623 0.231629 1.58766 3.05369 -2.54328 -2.36773 2.18024 0.806538 -0.892096 -0.685179 1.10469 -0.264308 0.0397247 2.69495 -0.653278 2.2907 -2.72096 0.1913 -2.16816 1.87119 -1.57234 3.31937 2.86853 2.6105 3.08087 -3.11006 1.08434 0.100636 0.711156 -1.74386 -1.65516 -0.223156 -3.03661 -1.76104 -0.0485 -3.02022 -0.854178 1.88487 3.43924 -0.452733 -0.750242 0.128157 0.0270034 2.98164 3.04692 2.13965 1.74062 -2.06704 2.67691 -3.00465 0.468752 0.890676 1.90103 -1.49091 -0.203857 1.27712 2.07996 2.78891 1.61228 2.83445 -3.42402 2.27122 0.243366 2.88892 1.17489 2.14373 1.42718 -2.93962 -2.22293 1.56932 2.95413 -3.34735 0.770808 0.140508 -1.39063 3.46733 -0.882269 -2.97237 3.10506 -0.484635 1.31329 2.3856 2.16964 2.46631 2.7775 -3.32809 3.36474 0.224017 -2.40091 2.93637 -3.28814 1.65571 -1.61984 1.78657 3.50278 -1.93352 -1.50238 -0.442198 -2.605 1.11456 3.45754 0.631983 0.636804 -0.385713 -1.16661 3.36694 -2.67781 1.67463 2.66843 2.04134 2.23171 -0.386591 -1.28551 0.417281 -0.251078 -2.31806 2.3867 0.00360675 0.272846 -2.52511 0.246077 -2.41566 0.355789 -0.328619 0.4661 2.11477 -2.82455 2.98883 -3.30792 1.06738 -1.3206 -0.242393 -2.7627 -3.20159 0.733396 1.06639 1.16293 -0.414181 0.476529 0.957356 3.10874 0.156872 -2.05214 -3.0891 -2.9659 1.95717 0.501428 1.05502 -2.50682 2.87328 -3.06383 -0.615704 -0.328535 2.1869 -1.74406 -1.74546 -2.67931 0.349626 -1.50024 3.16643 0.599825 1.85755 0.366248 0.890474 0.180027 -2.5244 -0.633761 -0.438892 -0.662644 1.77761 -2.25267 -0.299103 1.98658 -2.70707 0.543943 -1.0237 0.429014 2.15175 -2.21451 0.0799245 -3.22712 -2.12428 -2.22954 1.30021 -1.68067 1.83226 3.16417 1.90977 2.77073 -1.61605 -3.39398 0.920126 -2.00901 1.10146 -2.55647 3.11213 -0.274287 2.62905 0.806548 -1.89357 0.021806 -2.9116 -2.32861 -1.28594 2.38407 1.3607 2.10471 2.67359 1.78564 1.33735 -1.48301 3.07721 2.68784 -0.740468 -2.65222 -2.48157 -2.81497 2.39384 -3.16594 3.2523 3.06947 -0.91075 3.33813 2.28516 0.350916 -2.45953 1.10588 -0.0484374 0.792732 0.331948 3.41742 -2.65023 -1.24152 -0.931625 1.6366 -3.03357 -1.78353 -2.89963 0.488936 -3.29098 -1.83646 -2.67843 0.796236 3.24821 0.0530736 -1.48597 -2.87158 -2.68781 -2.19802 1.56544 0.7755 1.51021 -1.57989 0.696408 2.58302 2.93476 2.6966 -0.320807 1.33718 1.56039 0.124126 1.27775 0.288243 0.161645 0.575134 -2.8162 2.85559 0.43603 -1.76689 -3.0056 1.64898 -1.69773 1.09041 0.843973 2.10487 -0.249807 -2.00619 -1.78574 -1.99979 -1.27114 0.14885 0.445265 1.38711 0.475384 2.08202 0.473358 2.41356 1.06302 0.768676 -2.34717 0.765219 1.62148 -0.595429 -1.52399 -1.81747 1.61928 -3.33776 -1.54339 3.01505 -0.794258 2.00549 -1.82015 -0.0408493 -0.87686 1.22803 -0.195159 -2.2999 1.24824 1.6587 -1.95481 2.04211 1.96547 -2.17577 -3.0536 -1.992 -3.26235 1.69899 1.36166 0.942346 2.50704 1.91512 0.711565 0.965221 0.0627998 -1.2792 2.65178 2.16205 -1.62324 1.08332 2.43247 1.58538 0.0261005 0.269496 -1.54271 0.113469 3.42422 3.20463 -2.74458 -2.63761 -3.33557 1.3356 0.212089 -0.0710658 -0.722702 -3.09245 0.746125 -1.90406 1.00445 2.21419 -3.43229 -3.0749 0.881204 -0.517751 3.50908 -2.89453 -0.0469304 2.24195 0.701972 2.11331 -3.51165 -1.13284 -2.93605 -1.54575 -1.73336 2.96906 2.60408 -1.52942 -1.8038 -0.129658 1.69897 1.55594 0.365922 -2.02375 -2.65588 -2.54303 -2.40405 3.39812 -3.21221 -2.28042 1.7053 -3.06107 -0.714392 -0.763812 -3.18999 -0.852712 -0.52641 -3.14421 -2.72006 1.97161 -2.32816 -1.03129 1.1872 3.07298 2.37158 -2.34248 -0.101141 1.37781 -3.08932 3.46351 3.10813 0.656147 3.20979 -0.994008 -1.95632 -0.808626 -0.475368 -2.01941 -2.7414 2.62789 -3.39067 -2.21101 3.34793 0.918331 -2.27702 -2.21776 -1.69786 -1.99325 3.16911 0.339914 2.45308 2.40969 2.98851 1.09047 2.52193 0.399256 -1.5543 -2.51332 -2.70482 0.852305 -0.830215 3.35261 -2.44227 -0.437774 1.33875 -0.221254 -1.873 -3.15769 0.0987252 -0.173751 -0.963392 1.55832 -3.18514 0.424703 -0.514715 0.364756 -0.846138 -0.374034 -2.06604 1.8981 1.58952 0.196656 -1.27467 -1.43065 -0.727244 -0.441427 -2.17571 -0.704888 -2.57753 0.751115 -2.40643 0.937181 1.33735 3.07309 2.16688 3.34445 -0.0651607 0.226189 3.41375 2.69099 -3.26242 -2.33362 -1.6366 -0.299277 -0.668015 -0.306382 -2.16627 2.82701 -2.55478 3.39882 -0.30705 1.39035 -3.20365 -1.72293 3.27773 0.265813 -0.549063 -1.47858 2.13794 2.8998 2.82825 -2.3804 -0.949745 1.49404 0.575385 1.18233 -1.09576 1.26009 -0.691395 -0.420515 0.398299 0.00942785 3.28576 -3.13303 -3.26586 1.22966 2.23901 -0.588628 -1.81747 3.19328 3.47552 
-3.27529 3.44828 -1.87069 0.518399 1.1088 -2.97753 1.86406 -2.60624 -1.187 -0.529916 1.46621 -2.52673 -2.45768 0.637503 3.23705 -3.02656 1.68431 0.547725 -0.114524 2.3462 -1.98282 -2.34156 -1.08703 1.84397 -0.319898 1.19069 -1.64281 -0.340941 1.06161 -2.75145 1.59147 0.311012 1.75286 -3.33078 -1.92486 -3.09071 -0.500716 -0.754568 -3.38007 -0.36177 1.47243 -1.98608 1.76988 0.21573 3.30546 0.130158 1.74519 1.17271 -1.29991 -1.86543 -3.18047 -0.132453 -3.38841 -1.76893 -3.48556 3.46845 -0.183159 1.07322 0.781545 1.28453 0.756134 -1.98394 -1.85585 2.49938 0.660137 -2.88053 2.32095 0.521796 0.400004 -1.97785 -0.921425 1.84131 0.39404 -3.06283 -0.70789 1.76815 2.25684 -0.463186 -3.40997 0.268447 0.327375 -0.910717 2.66196 -1.3577 0.223241 -3.44753 -1.78186 -2.24926 1.20785 -3.36508 2.64903 3.37543 1.88779 2.01854 3.30124 -2.36734 1.93704 -2.7755 -1.21216 -0.669892 -0.482944 2.57118 2.39512 0.932841 3.13515 -2.01992 2.43425 -0.19003 2.23398 -2.61981 0.995565 2.16372 -1.26627 -0.52946 2.0752 0.411716 1.79677 -1.29734 0.818995 0.801612 -3.03181 2.73911 1.21797 -2.78636 1.63788 1.98475 3.388 -2.0831 2.0684 0.119954 0.275998 -3.21229 0.0413822 -2.77487 -3.24026 1.3148 -2.89801 1.23813 -3.48146 0.565761 -2.43414 -0.750862 -3.20153 -3.49157 1.90835 2.45744 -0.681736 -0.770781 -3.17657 1.58191 -0.125973 2.18363 3.4441 0.112181 0.425927 1.5205 3.22167 1.69202 1.5929 1.21812 -1.86269 -2.23197 2.36905 3.24463 3.03353 -1.46518 0.727569 2.67579 -0.0811187 -0.613009 0.0116215 -3.42179 0.967166 2.71784 -3.34762 -2.61102 -0.670905 0.69972 0.810259 -1.59517 1.75568 -0.0433094 3.15975 3.13446 -2.03357 -0.359415 2.40152 1.72824 1.84667 -2.54274 -1.45526 -3.4183 2.95816 -1.65759 1.07932 0.623931 -2.79847 1.87019 -3.31012 -2.29513 -1.87427 0.28911 2.85148 0.749443 3.03832 -2.99498 -1.43371 -3.16155 -0.0306638 -1.20236 -1.11385 -0.563872 2.29713 2.72459 0.282167 0.446358 -0.793571 -3.09919 2.8823 1.34955 0.119282 3.45531 0.218282 2.39994 0.867493 1.33687 1.81148 2.22106 -0.643653 2.89551 -3.2086 3.2431 0.711223 0.503006 3.12102 2.51072 -2.78173 -1.42408 2.01018 -3.27475 0.16101 1.23189 -2.92492 -2.88552 -1.71291 -0.972451 -2.13957 -1.78482 -0.0555022 -2.99922 -0.712397 3.03844 1.09871 2.85801 -1.10194 2.68197 0.0291575 3.45629 0.653086 2.75811 1.45926 0.145727 -0.965708 2.94077 -0.868031 -0.804891 -1.13645 1.35065 -1.22294 -1.97446 3.21344 -0.211073 1.55685 2.66516 -2.83333 1.0953 -2.16999 -0.90803 3.23512 0.581943 -2.86393 -2.01928 1.56213 -2.56432 -0.7317 -1.42588 -1.96038 0.382285 -1.60705 2.30133 1.48387 1.66171 -1.29198 -3.3703 2.98824 -1.52265 1.59295 -2.89814 -3.52518 2.33071 2.73298 -1.19391 -1.88518 1.31251 1.13619 -0.927464 -0.0748661 2.85085 1.81747 -2.21339 3.01395 0.251552 -0.149907 -0.928568 1.43491 0.709684 -0.220998 -2.02074 3.41258 -2.17092 -3.53089 -0.324702 2.14394 1.22483 -2.32621 1.75951 -0.273551 2.86542 1.62224 -0.395222 0.239685 0.325809 3.0015 2.54226 2.08381 -0.575125 0.633591 2.02126 0.452843 3.30584 3.29821 0.97663 0.249505 0.262658 -0.847184 1.46208 -1.83715 -1.60592 -0.735215 0.685444 -1.71764 1.1899 2.03873 1.51327 -3.16449 -1.87598 3.06344 -2.84737 3.22678 1.76298 0.28771 1.61797 1.63133 -3.32581 -0.188914 1.50622 -1.88097 -0.685029 -2.51867 3.13993 0.237665 -1.46947 0.73129 3.12978 -0.487054 0.936505 1.13977 -2.82601 2.20567 -1.72702 3.01384 -0.941967 -2.46045 -2.10871 0.313346 3.47394 3.15559 0.408431 2.23714 0.891602 1.5186 3.35135 -1.07677 2.09124 1.69109 2.3325 3.3528 -2.87066 1.20097 0.137537 -3.15113 -2.1477 1.5155 -3.30571 -2.69924 -3.06054 2.42412 -3.49779 1.79815 -3.5557 2.11779 1.42125 -2.00442 0.759768 -2.2597 1.21586 1.04918 -1.19579 -2.36285 2.93689 -1.51178 2.10068 1.71387 0.64566 -0.429222 -0.252374 -2.91638 1.13036 -2.54553 1.04079 2.80333 3.15285 2.06588 -3.08129 -1.88949 -2.57794 1.24607 -0.382037 -3.05862 -3.22124 1.5633 -2.57186 -1.64871 -2.3955 -2.11054 -1.95362 2.24491 1.82469 -2.50308 -1.84721 -0.273833 0.576063 1.85667 1.1705 1.88526 -1.34547 -0.831094 0.961789 0.559741 -3.1532 -3.37658 -0.688661 -3.3013 -3.05031 0.212964 -3.02843 2.07261 -2.21042 0.95618 -1.85587 0.720991 -2.85436 -0.0618367 -0.487715 -0.221128 3.34223 1.69512 -2.14908 2.94391 -0.120136 2.89844 0.30442 3.1889 -1.96843 2.32719 -0.0703799 -3.50012 -1.14347 3.20104 -0.736322 1.61954 -0.122903 -1.08485 -1.3406 0.245862 0.149739 -1.06935 1.16027 2.97425 -1.41256 3.42608 -1.39899 -0.858355 -3.42944 0.594652 0.560106 -1.1304 2.20237 -2.75736 2.57817 -1.44004 -2.71657 -3.27331 -3.25257 -0.049958 -1.1032 2.55083 3.27969 -1.53479 0.455423 -0.437586 -0.895891 -1.72874 -0.156829 3.05676 -0.487165 -1.97226 -3.49166 0.0553829 -0.953561 0.843168 3.48425 0.973737 3.38227 -3.06234 -0.993486 -1.53717 1.41708 1.40983 -0.68919 0.722816 -2.03299 -0.903991 -0.994615 1.63503 0.887397 0.319023 2.37264 0.675421 0.270352 -2.82318 -0.257492 -3.17237 0.537978 -3.19778 2.05351 2.38291 -3.15759 -2.526 0.61799 2.48417 -3.25438 2.50624 -0.766349 1.07529 -0.0585649 -2.39085 -1.19151 -1.97778 3.06725 -3.01422 2.00915 2.13106 1.47726 2.24201 -2.05481 0.178146 -0.739854 0.409813 2.48626 -2.55756 1.86488 -2.84921 -3.48276 1.26967 -2.92115 1.27524 -2.54763 -3.22979 -1.23693 2.77203 -3.36837 -1.41623 -2.26066 2.03042 3.34946 -0.353726 -2.58825 -1.36405 -1.02949 2.02724 3.21794 1.79092 3.27742 -2.96245 0.131784 0.795188 -1.71964 0.585181 0.573898 1.73246 -0.206506 2.19587 -1.71133 1.72122 2.55022 3.03288 0.197791 1.15626 2.99871 1.17272 2.78364 3.17548 -0.717454 1.43266 2.82611 1.65415 -1.83647 -2.38921 -0.477333 -2.7079 0.801179 1.77323 0.0486561 -1.13641 -0.0382672 2.70756 -0.78118 0.312866 2.65477 -2.75845 1.48568 -1.64841 1.41188 3.19939 -1.01476 -1.2878 -0.980368 2.94389 -2.52905 -0.59484 2.87045 -1.91707 2.12511 -1.74219 0.388046 3.34575 1.82836 1.62617 -2.05336 -1.62667 0.216517 1.40477 2.4868 2.23748 -1.42731 0.57983 2.6374 0.962465 -1.14883 -2.67533 3.49823 -0.0823064 -0.613115 -1.67879 3.1746 2.15603 -2.70851 -1.09353 -0.924914 3.19546 2.5988 3.06667 2.69771 -3.15399 3.16913 -2.07421 -1.38042 1.59452 0.385803 -1.11849 3.0719 3.45445 3.33734 0.479121 0.879363 -3.10158 -0.490243 1.84469 3.36433 -0.145808 -0.2807 2.79001 -0.77796 0.145183 0.657867 -1.22582 -1.04372 2.48568 2.18789 1.59888 3.18541 3.14654 -0.510305 -3.45743 2.95661 -3.43298 2.23678 -1.40649 0.0965958 0.678695 2.81284 -0.985403 3.08223 -1.2166 -2.98954 1.41556 -0.570903 2.85258 -2.5596 1.39455 -2.83889 -1.7791 -0.528644 -1.09224 1.21773 1.33882 -0.191131 0.892207 -2.36302 1.56186 1.44174 -1.04369 -0.557273 -3.07835 -3.15391 1.63319 -2.28829 -0.568477 -3.09787 3.44218 3.42802 1.38519 0.186987 3.35494 -0.894047 0.902566 -0.898078 0.876337 -2.31215 -1.04686 1.4252 0.958862 2.59235 -3.03043 -3.18624 3.02531 0.794491 3.21463 -3.19182 -0.0314832 0.988302 2.93561 -2.86512 -3.32905 -0.76544 -0.143324 0.0559557 2.40414 2.62952 1.3385 1.40718 1.93002 -1.77432 
3.18315 1.21422 2.05201 -0.648686 0.588902 -1.79956 -1.69107 1.29385 -1.25564 2.93658 0.498105 2.09436 0.881852 -2.70043 -2.20321 0.956517 2.44089 -1.601 -0.87326 2.48052 -2.26349 -1.88011 3.34508 -2.28895 -1.02377 1.2605 -0.291621 3.35848 -3.3564 0.485341 0.0336644 -0.445979 -0.112595 3.46746 0.796671 2.44802 -3.22805 0.0147221 0.50209 -0.673853 0.5292 3.04774 1.78921 -1.99429 -1.96513 -0.205223 -0.421492 0.973355 2.69818 -1.51994 3.38879 -3.05502 1.29609 2.68998 1.87341 -3.32404 -1.79819 3.22343 2.27799 -1.73301 -0.69736 -2.74192 2.58944 -1.65294 1.15609 1.78248 -0.140841 0.661726 -0.907236 -3.23511 3.21553 1.68329 -2.43087 -1.60108 -3.12442 -1.95204 1.77237 -1.44064 1.40924 2.64943 2.76646 0.11022 -2.2694 0.844227 -0.623648 2.45729 -0.138481 -1.8529 2.04725 -0.278317 -3.28815 1.99346 -3.42432 -2.42232 3.02767 -0.398907 -2.50365 1.70142 1.2811 -0.949634 3.123 -2.25388 -0.562308 -2.33523 -0.550816 -0.766432 1.34154 1.89948 -2.69398 2.59944 -2.39354 -1.01577 -0.00746932 -2.67023 1.76284 -3.19326 0.0268705 -1.15128 -2.53396 -3.16915 2.59533 -3.42374 3.19547 1.70274 2.64501 -1.11108 0.30056 2.93081 1.32504 1.57598 2.2127 -0.997691 -3.22798 -2.82759 2.13015 -1.8457 -2.93184 -1.66236 -0.0926607 1.51675 -0.667269 -0.776219 1.2547 1.27577 2.3179 -2.20565 -0.662093 3.29649 -1.84637 2.64995 -1.61994 1.7016 -2.76587 -0.179816 3.22259 2.073 0.807151 -1.37269 3.07616 -1.18453 2.01151 -2.94614 3.08306 -3.06372 1.86535 -1.90594 -3.20935 1.03691 3.47229 -1.83222 2.91166 -0.0984504 3.29932 2.31354 0.603227 -1.28444 -3.3733 1.79032 3.47072 -0.886615 -0.0687813 1.81674 -2.92271 2.2314 -0.584209 -2.58404 -1.03934 -0.237095 -0.646411 0.183638 -2.53551 0.344137 -2.21758 1.8534 -3.49876 0.516239 2.03298 3.34386 -1.6972 -0.804543 -2.67944 -2.25855 2.55031 1.0019 1.51532 -0.924872 -2.6788 -2.94645 -3.4283 0.0396291 0.515641 -3.49778 2.9024 0.473583 -1.95514 3.36495 -1.20437 -1.31251 1.11228 3.41096 -3.50463 -3.18953 2.12287 -0.551148 -0.41797 1.96625 -1.19018 -0.025876 -1.78552 -1.71916 1.83656 -1.31914 0.246024 3.24934 1.39514 -0.528286 0.50591 0.554999 -2.8268 1.181 1.72121 -0.723827 -1.63603 -0.0572241 -1.26311 -0.128499 3.35251 2.59416 -0.551524 -1.48815 2.04 3.37477 2.18826 -1.71299 1.58694 1.23526 -2.56547 2.76553 -2.63746 -0.579263 -1.06808 -3.47423 2.10335 1.03276 -1.44263 1.11164 -1.02868 2.51134 1.43188 1.17861 0.134356 -2.88826 0.857563 -3.39652 1.44826 -0.387106 1.15577 -3.44517 -2.90658 -2.44245 -0.011993 0.787892 -1.07808 -0.74208 -0.552313 2.08599 -0.902918 3.40493 0.107716 -1.79715 0.245062 -0.592242 -2.53869 -1.20356 -1.50819 -2.75203 -0.226132 -2.57097 -3.35261 0.323158 -1.7571 -1.10626 -0.378441 -0.92 -0.800589 -2.0442 -1.36498 -2.48263 -3.13801 2.29558 -0.313823 -2.66223 -1.57513 -1.81129 -1.50875 -1.82454 -1.05308 -2.42387 0.398802 -1.94024 -2.54796 2.2821 -3.07733 -0.76394 1.42786 -0.377686 -1.10583 -2.28698 1.2228 0.58908 2.72834 2.49244 1.83825 1.71003 1.21606 -3.48484 0.578943 -0.622571 0.0421038 -2.86711 0.943611 -3.24983 2.74179 -1.22086 2.62342 3.18975 -0.764722 2.11899 0.0918578 -1.33864 -0.481924 -1.55849 -0.117397 1.1906 -0.065805 -1.62551 0.294317 -3.0573 3.40072 0.0231037 -2.58347 -0.89914 -1.94641 2.39145 -3.4014 -3.36675 1.54503 1.43742 0.0993669 -1.76985 3.22734 1.16513 1.25479 3.04911 1.44665 -0.24237 2.83081 0.383231 -0.662524 3.31399 -3.04427 0.897695 -1.14486 -2.69386 -1.52715 1.37638 -0.855119 1.27744 -3.27123 3.28531 0.454747 -1.82793 -1.09931 1.07864 -1.49623 2.30437 0.612783 2.05264 -2.10813 2.95052 2.18761 -1.39226 3.35355 1.62369 -0.0222723 -0.942472 -1.46801 0.23174 1.4417 0.76171 -2.27112 -0.46893 -2.83808 1.08613 -0.262757 1.56633 1.39065 1.99973 -2.09307 -0.947975 -1.60532 -2.56108 1.12015 -2.08101 -0.649452 2.04918 2.46041 -2.2612 -1.5384 -3.24285 -0.423379 -0.762588 0.716851 -3.09983 -2.93435 1.40936 -2.41364 -0.559189 3.29816 2.58526 -2.0081 3.34633 0.155389 2.75656 1.95521 -3.47858 0.28669 0.641314 -3.46143 -0.358175 0.733432 -0.369083 2.28321 -3.13387 0.0475818 -2.55815 -3.38353 -3.01877 -1.02745 1.71961 -1.26436 -1.83036 -2.43558 2.55385 -2.70051 -1.75527 1.21634 -3.05126 3.03068 2.08998 -1.39687 -1.63897 0.0505876 1.30972 3.42372 -0.529993 1.24266 2.72862 -1.31178 2.5559 1.23018 0.395087 -2.92736 -2.46089 -2.59943 -2.05505 2.17911 1.76082 -1.34408 -3.31064 -2.61689 2.42783 2.65739 0.515915 -3.48424 -1.00984 -0.388774 -0.161123 1.30918 -2.26995 0.16138 -0.891384 -1.01117 1.10207 2.22631 -0.121225 -1.24872 1.68741 -0.749255 0.93709 -1.78672 -1.94416 -3.31109 -1.97804 1.19212 -1.5198 -1.56472 -0.226732 1.55547 1.40246 2.21227 1.61785 0.609158 0.40484 2.02052 -2.09922 -3.28678 2.47107 2.63168 0.709574 -1.68777 -1.7095 -1.13698 -2.32773 -3.26363 -2.99005 -1.80878 1.98782 0.924154 -0.310182 0.268906 3.24806 2.92127 3.15417 3.16706 -2.4127 -2.60449 1.07538 -2.57917 2.92154 0.177612 -0.828736 -0.0361523 -0.933528 -1.72289 0.412435 -0.137086 -2.0616 2.38966 1.64341 -2.08382 3.41461 -1.1707 1.40778 -0.959381 -2.54354 3.25544 -3.16902 2.65548 -0.770047 -1.84274 -2.90151 -1.34343 -1.55142 -3.1969 2.24854 0.216243 2.91823 -3.23836 -1.62906 1.67969 -1.83595 -0.531743 1.23484 -2.0814 0.596426 3.16667 2.36885 1.44331 1.23163 -0.0856101 2.87145 2.21735 -1.7216 -3.15376 2.60589 -0.536989 2.7467 2.42762 0.722968 -2.51696 -1.45855 1.30565 3.12658 0.695319 -0.410514 -0.916 -1.11714 2.07354 -1.57189 -2.68702 -3.04488 -1.65449 0.756123 -2.80915 1.63825 -2.85867 -0.464018 3.38541 -3.4791 -1.02582 1.39809 0.135967 1.55665 -1.87004 0.42106 -0.355922 0.722102 2.26 -2.63564 2.96565 -3.43528 0.30533 -3.06847 -0.498174 0.798256 -3.42291 -3.46367 -1.21157 2.28688 -1.17751 -0.605503 -2.70799 0.00816373 -2.85397 3.10234 3.34289 1.23561 -3.37635 0.356102 0.345258 -1.90759 -3.36314 -0.352902 3.38098 0.613688 1.84502 2.57998 -2.60536 -2.57207 1.704 -0.804008 -1.67066 -1.70409 -2.84252 -1.92149 -3.21455 -3.46441 -2.18199 -0.62753 2.93235 -3.15295 -2.48765 -2.34515 -1.34078 -0.0105961 0.0694736 1.09247 2.85403 -3.28715 1.35673 -1.88863 -2.02927 -0.637389 -2.16008 -2.80242 2.50099 2.87383 -1.18498 3.07869 3.12631 -2.07093 -0.403798 1.43592 2.45995 1.95439 2.93171 -1.38798 2.19593 -2.17078 -3.28859 2.4441 -0.402224 -0.314051 0.0392828 0.612961 2.98203 -2.86138 2.34729 3.14364 -2.02038 1.62394 -1.94174 2.90001 -1.553 1.4895 -3.04314 -0.132532 2.25401 -1.53257 0.339326 -1.95889 1.32943 3.20719 -2.11756 1.48397 0.948899 -2.09002 -2.61984 -0.0268506 3.08547 -1.98132 -1.95253 -2.57398 -2.56044 -2.99983 2.75207 -2.72113 2.77898 0.758232 1.77883 2.03303 1.84865 -2.11828 -2.12686 1.62623 0.162452 0.840951 2.22141 2.82152 -0.521492 0.681609 0.280063 0.355095 -2.33104 -0.955583 -3.35553 -3.33825 -0.114565 -2.67559 0.601024 -0.453758 -0.909381 2.87846 1.20964 0.912635 -1.02133 -1.50472 -1.49697 0.86043 -2.97314 -0.938203 -1.30608 1.03431 2.73266 -0.162066 -1.01173 -0.59716 -1.91053 -1.5519 -2.17559 -1.35131 -0.55878 -0.998309 
1.21584 2.38376 -0.174753 0.01765 -0.598416 -2.90147 1.26187 -3.16476 -0.179361 0.694706 -0.237538 1.71007 -1.21114 2.11005 -2.41741 0.325676 -1.4671 -0.822228 -2.53141 -3.12268 1.89184 -2.9609 -2.08769 1.9273 -2.88758 0.856946 -1.36862 2.03825 -2.1284 -0.84968 0.256667 -1.17905 -0.384796 3.36562 2.84116 2.54603 2.01246 0.886709 1.13259 -2.8672 1.93602 0.145285 2.79117 -2.38439 -2.83184 -2.46537 0.90943 1.31228 2.14571 0.710428 -0.666205 2.71987 1.76338 -3.27882 2.92059 3.41613 2.87017 -1.16125 2.24495 -0.0809026 -3.27972 1.1653 2.69069 1.98337 0.15548 -2.82327 -2.45025 0.000351318 2.14971 0.109596 2.42523 2.92783 0.0716244 -0.47348 0.617073 0.400562 3.08055 -1.10267 0.551769 -0.110971 2.27984 -1.52894 -1.47737 -1.94373 -1.30846 1.69739 2.07905 -2.02901 1.71247 0.998279 -3.02332 2.75979 -2.98135 1.38177 -3.44857 -0.741084 -0.928402 3.45652 0.297215 -2.54114 0.426605 1.81552 1.83687 -1.21007 2.8532 -2.41186 0.106159 1.48593 -2.03411 -3.12063 0.86043 -0.710933 -2.63031 0.691755 -2.57152 1.03595 -0.452019 2.06153 -3.24634 2.37075 -1.96124 1.47943 -2.9557 1.6526 2.33154 3.46723 1.62116 1.4497 -1.3877 0.170178 1.89179 3.45016 0.614028 1.15407 -1.77265 -2.95556 -1.30743 -2.30218 -0.403364 -2.25006 -1.73262 2.43202 -2.90293 0.636022 -2.58767 1.17686 2.06322 3.33312 3.1377 3.02213 -1.01504 1.64366 -3.43644 -3.10707 0.866398 3.01155 -0.590595 -2.52569 -2.40033 0.719739 0.485177 -2.47542 -3.01045 -1.70887 3.30002 0.563081 0.220053 3.13216 2.65802 0.463266 -1.04518 2.70192 -2.01693 -1.55358 1.34979 -2.42049 0.645818 -0.878928 0.198187 2.8084 -0.333087 0.786921 2.04644 -0.720793 -3.19926 -1.33086 -1.1815 2.29013 2.2164 0.598573 -2.62424 -1.89997 0.917031 -3.43934 1.84486 -1.13592 -2.63143 -2.69365 -2.41174 -2.46355 -1.00595 2.79243 0.781805 -1.85031 1.96199 -3.08272 -1.97574 -0.881112 -0.770752 0.474589 0.0208389 -1.28579 -0.127511 -0.420869 0.286536 -1.1446 -3.16533 3.48305 -1.98976 -3.43424 -0.776864 -1.55093 0.986472 -2.12995 3.22939 -0.81953 0.78889 2.48627 -2.51001 3.42565 2.29684 -0.62296 1.40646 2.36053 -2.45464 0.333688 1.76667 2.43903 -0.839344 1.0156 -0.230453 0.339745 0.37538 -1.97204 2.21506 2.2345 -2.83761 -2.92064 -3.48548 0.623899 0.565527 2.15621 2.86403 -1.65413 -2.22355 0.725468 -1.00223 3.50742 -0.376083 -0.811998 -0.245181 -0.116936 -2.43752 0.300617 -1.35117 1.29284 -1.93466 0.732636 1.11322 1.44388 -1.59196 2.24887 3.24391 0.459265 0.718504 2.75587 -0.828863 0.553615 -2.38586 2.15093 1.83356 2.06155 3.4795 1.53843 1.68317 -0.939677 1.68293 2.27778 -2.05788 1.55579 0.488305 -0.27423 0.11088 -1.15787 -1.67381 2.75271 -3.24986 -0.254454 0.5893 -0.867555 -1.312 -2.0531 1.50227 0.921007 0.0852783 -2.78842 3.3384 -1.96812 -0.27139 2.60832 -2.82506 -1.90482 3.20641 -2.29635 0.407473 -2.65979 1.34773 -1.19388 1.98311 2.81089 -1.16783 2.69471 -1.69573 0.962053 -0.758354 0.354146 1.89561 2.60584 -0.963075 -2.01338 -1.05635 -3.03898 -2.3339 1.76558 2.79412 -2.98303 3.33875 1.31186 3.41009 3.47792 -2.34187 -0.782625 -2.6456 2.42701 1.37262 -1.4329 -2.13065 1.24447 1.60157 -1.77448 0.769904 1.30947 -3.47016 2.08668 -1.45746 0.505097 2.4011 -1.05794 1.23365 -1.65207 0.884689 -1.55967 -0.494252 0.342475 -2.50341 3.08501 3.34884 -0.367387 -0.0583942 -3.1834 -1.10173 1.70104 -1.54779 1.60954 -2.76865 1.84996 -2.87437 -3.01409 2.8738 1.96178 1.93736 1.62537 -2.51785 1.58862 -1.05773 0.435436 1.49829 -2.15032 -1.42172 -2.34441 0.0853729 0.689242 0.742804 -2.77535 -0.0772181 -2.00179 2.81966 0.354744 2.15697 -0.841991 3.26076 1.71431 -0.0943773 0.819078 -0.717282 -2.05117 -0.490464 0.176781 2.92423 -1.34899 0.73415 -1.6183 -3.52259 -1.94643 0.421163 1.81348 -0.565859 -1.52433 0.501436 -2.03553 2.08652 2.00513 -3.33487 -0.263455 -1.74611 -2.33471 -1.43519 2.57312 2.29611 -0.116317 0.175876 -3.02182 -1.94807 1.38335 -3.47451 0.0936573 -0.57009 -1.06577 0.874011 -3.19209 2.88294 1.6205 2.39669 2.2509 1.73349 -0.521933 0.662038 -2.77721 1.05465 1.56411 0.627096 2.96465 0.387086 -1.53858 -1.84143 -0.45061 3.12034 2.02469 2.75533 3.27877 3.09669 2.93367 -0.410531 -2.9466 -2.95597 2.3603 -2.71171 -1.261 -2.39061 -0.904327 -0.452988 -1.92389 -3.3648 -2.17894 1.31752 -0.176404 -2.29864 1.20835 -1.91591 0.547162 1.55005 -1.43509 1.24042 0.29836 -1.94418 -0.803159 -2.47797 2.47385 -3.2312 1.4591 -3.17676 -1.95618 -1.31474 1.05982 0.211159 1.04935 -1.09539 -2.56729 1.68164 2.39039 0.505522 -2.46984 -2.36785 -1.80799 -2.61377 -3.0813 -1.4694 -0.690918 -1.18446 2.53804 3.40551 -3.24161 -2.69063 -3.27592 -1.61589 0.939705 -1.83925 1.55123 -1.42046 -2.74367 -3.19809 -2.79617 0.300434 0.416694 1.68925 2.9546 3.13343 -2.57291 -1.48133 -3.16485 0.95192 -1.70243 -0.560351 -3.42552 -3.1858 -2.44414 -1.4799 0.547555 -1.63595 -3.35322 0.481431 -1.52542 -2.07306 -2.50223 -2.91175 -3.14537 2.71404 3.05873 1.08549 1.70842 2.11786 -0.194823 2.37804 1.95621 -1.72767 0.388132 -1.15188 -2.37806 2.41683 3.20209 -3.45371 2.10477 0.614264 -2.50991 -1.17974 2.49638 -1.45363 3.49008 -3.40487 -0.936743 -0.343248 0.257873 -3.1887 1.07483 -0.566273 0.321713 -0.142116 3.16157 0.605354 -2.47031 2.95337 1.63892 -0.611641 1.2817 0.0864585 2.07461 -3.44468 1.79627 1.60272 1.64468 0.232668 2.62954 -0.935978 1.10139 -1.01434 3.37169 1.47904 -1.46637 3.09447 -2.62981 -1.41147 -0.150484 -0.105193 -0.912302 1.31253 -0.324418 -1.05073 -1.91474 -1.7602 0.0211857 3.05651 3.26478 1.42008 3.16192 -0.377094 0.813902 3.40798 3.05404 2.8213 1.63063 2.99288 -2.18001 -1.3543 -2.47744 -0.0966955 -2.41409 2.39403 0.70248 3.32528 -1.42957 2.59255 -1.97204 3.14422 2.47665 1.94743 3.09617 2.55865 -1.98047 2.378 -0.0411596 3.48471 -2.13078 -1.09222 2.73965 3.21524 -1.14542 -2.8761 1.36489 -1.1158 -1.48373 -0.978674 -1.0248 2.88866 0.473723 0.47987 0.726862 2.9429 2.84418 -2.22846 1.46086 -2.75556 -0.768557 2.20863 1.15398 -2.4812 2.91576 0.232299 0.0186197 -3.46741 1.36326 1.00618 -0.916939 -1.45442 -0.995202 -2.39511 2.07569 1.58344 -0.288963 -1.44564 0.149393 0.60045 -0.40188 0.000777658 0.420781 -0.932682 0.394285 -0.414891 -2.38081 1.62829 -2.00407 -2.33517 -2.17777 3.40654 0.717978 -0.416073 1.78585 0.411857 -1.83051 2.60508 0.393639 -0.558388 1.93338 -2.1594 -2.79084 -0.672225 0.809606 -1.86842 -3.42194 -1.95834 3.12136 -1.5152 -3.38057 0.0903258 -2.33945 -0.481847 2.72223 0.0376722 -1.97788 -1.96258 -2.4848 -2.56038 2.14014 2.78161 -2.70351 2.69996 -0.109017 -0.250934 2.60352 1.69695 3.06155 -0.650674 -3.19941 -3.44292 2.88695 2.94514 -1.04146 -1.66758 2.9418 -1.73223 2.18592 0.96506 1.62761 -2.28633 -1.57824 2.17103 2.64774 3.42442 -0.0108318 -0.524398 -1.77283 -1.26957 1.9766 2.49357 0.383515 0.0499941 -1.67645 1.36267 -2.24629 0.554443 -0.623249 1.46247 -2.04719 -2.11818 -1.25427 1.45581 -2.61286 -2.34019 2.16112 -2.501 2.06879 1.61323 0.07367 -0.0589235 3.12039 2.64356 -3.33885 0.0146304 1.99293 -0.444061 1.27533 -2.77422 -1.12527 1.47765 -2.94816 
-2.33104 3.02965 -1.76219 3.42016 1.92327 -2.43448 -3.28419 1.67287 -0.659363 1.9316 -3.41295 3.00331 0.0951106 -0.801568 -0.414979 -2.05141 -1.76668 -3.19028 -1.18437 -1.84998 2.65099 0.674475 -3.05778 -2.23399 -2.51313 1.32057 0.372509 -1.61324 -1.45246 -2.04038 2.66454 -1.11345 2.17284 -0.96009 0.414168 -2.96485 -0.0945258 -2.00033 -2.48666 3.36945 1.3999 -0.42588 -2.01389 -2.24003 -0.953936 -1.83379 1.37219 1.0497 -0.250968 3.40223 1.31986 -0.230292 3.0064 -1.06669 -2.96494 3.49286 2.12616 2.63725 2.45787 0.606409 -2.15769 -0.0302829 -1.88744 -0.0749143 -3.08977 -2.80354 -2.84423 -2.32402 -1.76445 -0.843699 0.826857 2.09423 -1.25527 0.0930967 2.60877 -0.12498 -3.13968 1.29635 -1.23525 -0.165522 1.34841 -1.73466 -2.50289 -3.04328 -0.449389 1.99674 1.22354 0.729266 1.82246 -2.69202 1.52183 2.1977 2.97227 2.68864 -1.36531 -1.53254 -2.32322 -3.40637 0.325867 2.09347 -3.33658 2.05155 1.18121 -0.0390047 -0.103112 0.434853 -2.04804 -2.78646 -2.6266 2.22782 1.32925 -3.20564 -0.0275483 1.47859 -2.56166 -1.12867 -0.662232 -3.45845 2.46094 -1.34702 2.7285 0.688996 -0.914372 -2.79632 1.95283 -0.529917 1.7886 3.43545 -3.34831 -2.16024 1.50153 1.32921 2.97945 -0.488534 1.26643 -0.999819 -0.117418 1.77146 -1.66427 1.07285 -2.59297 3.39464 1.84435 -2.69057 1.23779 -0.607158 1.15121 1.36583 -3.18664 2.56208 -0.188481 1.45172 -1.74793 1.34437 -0.781971 -0.0197105 0.539966 0.786291 -3.21592 0.579946 -1.25836 0.26324 -3.05656 3.09356 3.42978 0.221623 2.20655 -0.427027 1.38907 -0.371723 0.67822 2.05761 0.325498 -0.0577669 -2.75436 -1.05559 1.78685 -3.01932 -2.83455 0.652779 1.29021 -2.85017 2.57133 -0.364686 1.64997 -2.52912 1.23924 -3.43162 -0.398681 1.68231 0.69199 0.327645 0.444879 0.281703 -2.43825 -2.56625 1.76324 -0.157933 1.79309 1.19611 1.37124 -2.15623 -1.41211 -0.559931 2.18883 -1.57288 1.37989 -1.65887 -1.66591 1.63194 -2.82278 0.959417 2.68576 -1.86441 1.6584 -0.740139 -3.37174 2.11484 1.59173 3.26553 -1.29336 -2.99489 -3.2695 0.909228 3.19982 -2.18533 -3.09335 -0.271548 0.588218 3.06972 1.87365 -1.66383 -3.23873 -3.12053 -2.78378 1.60338 -0.651762 -3.1646 2.30219 -1.9633 -3.0698 -0.933 0.300883 -1.40509 0.0408948 -2.98968 -1.29969 -0.187624 1.44659 2.42459 -2.76339 -1.41663 -1.46871 -0.549634 1.86785 -2.12088 3.30728 0.759228 0.955793 -0.950595 -3.1712 2.90584 -1.69453 2.22419 3.05647 0.552254 1.52675 2.27358 -3.01718 3.22738 -1.85925 -2.9244 -1.35331 1.83237 -2.38165 -3.36089 3.23172 3.09952 -2.34649 1.16815 -2.76058 -0.517554 -0.0317188 -0.213022 2.04515 1.06366 1.64523 2.10894 -0.713274 -1.91815 -3.00999 1.81864 1.15618 -0.762122 3.05999 1.7646 0.164496 -3.01762 1.52758 3.29821 3.20774 -0.436735 1.33312 0.854546 -2.93481 -1.69678 -1.13387 -1.84301 -1.24608 2.13818 1.10406 -3.09087 2.60718 -1.34814 -2.4136 -0.641659 -1.87248 -3.27985 -0.118238 -1.69456 3.56668 2.16297 3.40969 -3.30007 3.17797 -1.88391 -2.31052 1.99314 -0.61171 2.09263 -0.870986 -1.62765 -0.327432 2.49642 2.14565 0.127154 -0.739624 -3.27143 -2.75115 -1.76922 1.59482 -3.10115 -1.7118 -1.88172 -1.28285 -1.91049 -3.11742 -1.43534 1.58175 0.553798 1.29022 -2.27096 2.95282 -2.58982 -1.66619 -0.979781 1.12373 -0.217221 2.16178 -1.67285 -2.58794 2.18719 -0.204474 -2.23762 0.652111 1.92865 3.3616 -0.392334 2.85313 -1.39918 0.405835 0.906546 -2.99303 -0.747643 -3.23893 -1.67395 2.61759 1.1564 0.596154 -0.970619 -2.50693 3.13643 -0.18986 -1.65918 3.02791 0.65448 2.00384 1.3909 2.62601 3.23255 -1.13918 1.22584 -1.77472 -3.01474 2.14937 3.49907 0.0109031 -0.143122 3.09347 3.34215 1.45212 2.47453 -1.94475 -1.44137 -2.50892 3.49539 2.63626 -0.338079 -3.42664 -3.14022 0.492072 -3.3403 -2.748 0.724628 -1.82809 -1.40508 -0.940022 3.15063 -0.73613 -0.451625 2.27591 3.45384 1.579 2.22853 0.274915 -0.203523 1.61803 -1.17577 -0.0431631 3.19663 -2.40956 -1.62566 1.5024 2.81062 -2.34858 -1.87721 -0.0390118 -2.49981 2.31422 -3.24217 -3.16339 -3.27458 -0.054764 -2.09459 -2.93816 2.06045 2.85186 -1.73697 1.52772 -3.00106 -0.693069 -1.61552 -3.39102 2.51234 1.98087 -1.17976 2.26552 2.89539 -2.00689 2.46759 -3.1766 -3.27469 -1.13077 3.48643 -2.49044 3.22494 0.916442 -0.529329 1.96281 2.94655 1.78969 -1.9967 -1.67013 -2.79053 2.83296 -1.67359 2.70166 -1.65704 -3.0873 3.1385 0.95082 -1.89116 -0.559547 2.60247 -1.99111 2.91928 -2.63553 0.83535 -2.74132 -1.00697 -1.75701 -1.10071 -0.653217 -1.3754 0.925643 -2.40114 0.38532 -0.138786 3.33023 -3.47505 1.23317 2.1286 0.793606 1.21055 3.02387 -2.17701 1.4372 -2.34308 -2.68847 2.46311 -1.2957 1.93408 -2.25314 -2.60182 1.32403 0.446597 -1.9703 2.9304 -1.92727 2.92089 2.9204 -2.80852 1.42606 3.00409 1.9631 0.646596 -3.30251 1.43094 -1.12505 -0.652135 3.1462 1.46107 0.125948 -0.902049 -1.51439 -0.114165 -1.76616 1.70421 -1.11461 0.224977 -3.02117 2.85851 -3.37342 -1.40934 -1.30699 3.48525 3.22491 -2.51653 -2.23847 1.92639 0.291694 1.2286 1.45237 1.64554 -0.525169 2.15642 2.69113 2.92837 2.25245 0.112948 2.91594 -1.0276 -1.47382 -2.33107 0.105637 -0.569416 -2.68325 -2.31731 1.18921 -3.18826 -2.30672 1.76793 -3.3327 -0.552932 2.11321 -2.11575 0.844506 -0.448438 3.36705 2.53377 0.0421224 -0.281555 -1.37092 -3.39077 3.11239 -0.692025 1.50427 -3.46956 0.116852 -0.00457068 1.30985 0.0781618 1.91878 0.863289 -3.40064 1.72455 3.04441 -2.64078 1.15282 -3.33774 2.26155 -2.5939 3.11036 1.6466 3.25383 1.80346 -0.275917 -3.12555 2.43491 -0.457633 -0.38207 -2.28871 -0.637286 0.752097 0.559539 -2.46434 1.22316 -2.96402 -0.764151 0.383607 2.63373 1.51057 0.521482 1.65174 1.68083 1.85864 0.805895 -1.81815 -1.98329 3.20082 -3.21001 1.92467 0.233032 -1.74122 2.38915 -1.46081 -0.797423 -0.941372 0.607217 0.768243 1.14683 -0.742982 3.14299 3.26023 1.77719 -0.82348 1.46448 2.56988 0.551334 -2.6418 2.97927 0.995098 -0.0370373 -1.50463 1.0547 -2.84075 1.46059 -0.448972 2.85154 -2.72811 -3.12978 2.64122 2.77492 -2.78327 2.5364 -2.7591 -2.55612 2.25187 -2.12528 3.33489 2.66808 1.71017 -2.93036 1.61804 2.47188 -3.31406 -0.930236 -3.19786 0.689839 0.064875 -0.909162 1.7518 3.08327 2.67969 -0.755707 -1.21257 1.77313 -0.505922 1.66647 3.40172 3.00257 -2.74754 -2.17029 -0.660507 -1.47008 -2.54392 0.00409083 -2.41135 1.19204 1.176 0.527892 1.9118 1.87197 3.43195 1.06081 0.671795 3.04784 -1.00397 2.38802 -1.04647 -2.3546 -2.76727 -0.818742 1.93425 3.25385 -0.504524 -1.99455 -2.52682 1.34478 -0.402669 -2.29181 2.96723 0.995232 0.0585006 2.13868 -0.241761 1.22067 -3.3797 1.19501 -0.602888 -1.35562 -1.19184 0.0247152 -0.217264 -2.67705 -0.273559 -1.69769 3.30733 -0.213878 2.57329 0.998591 3.38381 -2.32087 0.772169 -1.51864 -0.952244 -2.48266 -2.72473 2.36304 0.376185 -0.0620648 3.01087 0.390859 0.946501 -2.688 2.95643 -2.83484 -2.37956 -2.55468 -1.68536 1.02618 -3.44758 -1.28169 -2.51621 2.11432 -1.68577 0.0423006 0.433054 -0.516833 -1.03747 -1.39934 -3.37828 -3.3096 2.39678 1.90926 -2.9376 3.21975 -2.94428 2.05748 1.14618 1.35288 2.84819 0.528594 -1.82834 
1.1608 0.750263 -3.35971 3.29432 -2.88638 -2.03359 2.77324 0.731084 0.85636 -3.49444 2.13585 0.0856389 -0.472559 1.38392 2.71507 2.04658 2.57807 -2.936 3.42539 2.10708 1.42142 -0.607409 -2.11185 -3.18766 -1.51385 -2.38205 -0.822704 -0.138438 1.90152 2.29642 -1.23461 1.49245 -0.139837 2.75045 0.158769 -2.87699 1.9982 2.27486 -1.32289 -0.0782624 1.64461 -2.98645 1.428 0.262575 1.14724 0.946102 -3.40198 -2.69453 -3.36699 -0.107044 3.30251 1.60595 2.96843 -2.41076 2.34333 0.128065 -1.44933 2.95525 2.7394 2.70685 2.27681 2.7685 2.5915 -2.22062 -0.408007 -2.48426 -1.8117 -2.01122 0.971026 2.07145 -3.411 0.30229 1.81403 -0.73766 2.97536 -1.44007 0.0974734 0.430971 -2.6716 1.64748 -1.47925 -3.29012 -1.22195 1.07108 2.72332 -2.00733 -1.84204 -0.494642 2.06716 1.20949 -1.17682 -3.29469 -3.35814 0.463272 2.87725 2.10934 2.74248 -0.647286 -0.200289 2.6576 1.36106 -2.05843 -3.47436 -3.35916 0.285378 -0.0840306 -0.218223 2.73649 -0.104379 -2.6061 1.81051 0.338136 -3.11489 1.51743 -2.70413 -2.7398 1.83958 -0.268283 -0.35131 0.355458 1.1961 2.09889 0.318188 1.49075 1.03639 3.40576 1.81371 0.400074 1.22949 1.2439 -2.59088 -0.99726 1.78083 2.74446 -1.39299 -2.76883 -0.0394028 -0.503412 2.7031 -0.780198 -2.59088 3.0839 0.926769 -2.33019 -1.89865 2.58679 -0.555586 -1.92009 1.34953 0.968273 -0.764828 -1.83101 -1.60384 -1.16012 0.830076 1.04751 2.62653 -0.820994 -0.611579 -2.20753 -3.2263 -0.00112584 -1.37841 -2.61832 3.08576 -1.97058 -0.324268 -1.15408 -2.63733 2.73758 0.757229 -3.38656 0.914363 3.43617 0.363456 -0.538433 -3.43822 0.370259 -2.46143 -0.543119 -3.07455 2.39854 2.81802 -1.83017 -2.36872 -1.92085 -1.35108 3.00766 2.51756 0.293385 1.58725 -2.96987 -1.37214 -2.84187 -2.83075 -2.38024 -2.40148 -2.30799 1.32862 -0.173213 1.7088 3.32295 0.405145 1.82631 -2.26896 2.30202 -2.94461 1.88839 -1.60606 -1.1511 1.11611 3.35411 -1.31003 -1.72931 -2.79446 2.83629 0.499045 -0.558731 1.98253 0.321889 -0.999501 -1.11028 -0.892522 -1.26999 -0.717867 3.44605 -2.4595 1.84245 -1.94984 2.91616 -1.97455 -2.24728 -1.40235 -3.37482 1.6981 -0.632538 -2.81827 3.14396 -1.23873 -2.71567 3.33664 -0.286662 -2.45827 -2.56035 -2.20395 2.16207 0.726579 3.16024 0.220854 -2.01834 -3.24144 -1.10224 0.908236 2.78161 -1.65035 0.612564 -1.16817 0.277785 -3.03429 1.04434 -1.31937 2.42465 0.624274 0.680275 1.62268 -2.75169 -1.85288 -0.428421 1.09624 -1.41337 1.7152 0.736983 2.93182 3.00869 -0.351159 -0.702208 -0.262011 -0.215896 -1.706 1.72246 -0.08904 1.19132 1.32979 1.20499 1.33021 -1.67266 1.14314 2.42155 -3.41045 -3.03608 2.49018 -1.9272 -3.361 -0.130083 3.03966 1.39722 2.82935 -1.56904 -0.70332 3.09067 -1.89057 1.57987 0.157809 0.1114 -2.43584 0.330093 -3.38796 -0.672667 -0.90572 -1.31939 -2.65746 0.0728884 1.80402 2.64311 0.918308 -1.05012 3.48537 -2.35357 -3.13129 0.217167 -2.11302 3.49562 -2.80205 -1.75208 -1.46703 0.657665 -2.28317 2.61912 -2.36823 -3.10543 0.485021 -2.60772 -3.28654 -0.616165 0.425975 -1.4893 -1.37533 -1.04478 -2.14745 0.890252 2.37229 -0.74495 -2.27474 -1.7553 -1.61345 -0.936935 2.01657 2.57171 -1.50185 1.22543 0.521391 0.973402 -0.691418 -2.57042 1.3189 2.96411 -1.50713 1.34796 -0.0574461 -1.42883 0.963021 0.270414 -2.40739 1.28304 2.52848 -2.33914 1.71716 1.43945 1.82444 1.75056 0.474818 -3.3245 1.4113 -2.26658 -0.774299 -3.14015 -2.55824 -1.21849 -2.74914 1.87705 1.50887 1.32832 0.527585 -2.13329 -3.27585 -1.98705 1.59898 2.23788 2.98283 -0.979011 1.19903 -1.99958 -0.528702 1.72265 2.22314 -1.56002 0.813339 3.45624 -2.15325 0.186403 -2.48349 -2.18271 0.485152 0.0928965 1.92836 -0.227482 -1.68926 -3.38352 -1.94778 2.00254 1.70828 -0.900491 -2.9431 0.356073 -2.95576 0.0269156 -2.71751 2.52192 3.13415 -3.17011 -0.186611 1.18882 2.12746 0.596312 2.67945 -1.24841 -2.65654 3.40293 3.01264 -0.195295 0.802667 -0.906387 -2.43591 -3.21685 -2.54215 -0.132338 -2.78567 1.11062 2.39745 -1.98912 0.801579 -2.45861 1.8884 2.05407 -2.62207 -0.367441 2.47792 -3.43931 -1.20286 -3.48585 2.54618 2.97633 -1.44068 -3.2493 2.28538 1.90906 1.47817 -3.03747 -3.2283 -1.26538 0.348106 2.27343 2.90881 -0.738618 -1.865 -0.852422 -0.84327 -2.7477 -0.91361 2.62101 -0.7367 -2.78974 1.89655 -2.07946 0.424035 -0.477681 -1.47814 0.0964648 1.46093 1.49551 -1.5623 -0.745235 2.68308 -1.19381 -2.48988 3.30667 1.34391 -1.94174 1.4231 -1.36802 0.367389 -2.61592 1.10025 -2.72635 -0.0501238 2.38919 -3.07438 -0.519897 3.12608 -2.36373 2.02407 1.84533 -1.26013 -3.1102 -0.808473 1.02928 2.82586 3.01937 2.86151 -2.97944 -2.97581 1.02384 -1.49876 -1.31142 3.25929 -3.24212 2.34457 -1.65162 -1.87357 -2.7831 2.2456 0.359994 0.463853 1.99314 2.1298 -2.73648 3.33603 0.652154 -1.8091 -2.45974 2.14453 -3.34965 -0.289571 1.09229 2.76497 -1.34755 -0.694846 3.07473 1.58286 -0.983967 3.03331 -1.80972 -0.479237 0.705969 -0.931608 -0.354709 -1.86384 0.569631 1.71127 -0.819294 2.03969 2.48274 -0.371093 0.389322 0.118636 -2.16831 -1.592 -2.52315 -2.94289 -0.862749 2.89293 3.45232 -1.42364 3.416 2.1753 -0.603478 -2.90476 -3.44343 -1.6385 1.73598 1.70617 -1.4056 0.88262 -1.8679 0.164206 0.702935 -0.446653 0.815126 1.1718 1.50729 -1.46486 -0.55599 -1.69258 0.647516 -0.831378 1.5841 2.78681 2.33145 3.4249 0.490444 3.43174 3.13811 1.83999 2.25528 1.17972 2.85243 -2.3683 -0.0155124 0.407974 -0.385579 3.05113 -0.270367 -1.45952 -2.49678 3.30921 -1.47122 -0.679632 0.119905 1.56207 -2.03212 2.63257 1.88784 -1.29085 2.06125 -2.56737 2.93585 0.920302 0.951408 -2.31521 0.274214 2.94711 1.85833 -2.8611 2.65134 0.85141 -0.167901 -2.5648 -1.48588 -0.457384 2.05695 2.50185 1.64597 1.20025 2.30369 2.54751 -2.13621 0.823693 2.12308 -2.47048 1.11113 2.45694 -3.30694 -3.3345 1.87711 1.34279 -3.31972 -1.9193 -0.257641 0.555702 3.13224 -1.6365 1.59828 2.26027 -2.64834 -1.49743 1.05194 -1.53822 -1.97216 2.15738 -1.66301 0.78379 0.335395 2.94697 2.32009 3.1538 -3.10699 0.219836 0.25229 1.42726 0.210431 -3.16015 -3.37875 2.12155 -2.57125 2.20747 0.77089 -2.22341 -2.19316 1.70085 1.67509 2.96668 -2.6449 -2.48702 2.16666 -2.29705 3.34249 -0.135567 -3.15585 -1.57159 -3.0357 -2.96527 3.27036 -1.41362 3.36004 -2.97729 0.969005 2.81695 -2.13025 3.01131 2.21843 3.17344 0.267358 1.775 2.07365 -2.15171 -0.126897 1.91594 3.30568 1.86077 -2.94397 -1.20071 0.282033 0.528263 2.32563 -3.20506 -1.84458 3.10006 2.69499 2.03882 1.21971 -2.87798 -2.30752 1.24386 1.12348 -1.77891 0.942681 0.980427 -3.49728 0.136744 1.54571 -3.35917 2.72774 -2.00817 -0.829174 3.19137 -1.23753 -3.39549 0.363273 -2.15824 0.743966 -2.05377 -3.41353 2.91477 -1.03909 2.23335 2.89351 2.48102 1.54892 -0.543982 -1.53619 0.926972 -2.8047 -2.81876 -1.9618 1.15472 -1.91416 0.892412 2.74356 1.74499 -3.35163 2.87337 2.5703 -1.36639 2.84358 -2.9973 2.14572 0.153482 -1.24673 1.11838 -0.949254 2.4143 1.98203 1.19435 -0.110359 1.5112 3.41739 -2.70712 2.73896 -3.1069 -2.48388 2.9623 -3.02848 2.58001 -2.58803 
-0.483743 -2.47149 -2.9007 -2.70475 -2.17912 -0.0343843 2.7771 1.07489 -2.43946 2.55773 -2.39638 -1.15057 2.67121 -1.47447 -1.45425 1.94961 0.599779 -1.33604 1.87462 -0.595525 -3.3559 0.744054 -0.581685 -1.11722 -2.13279 1.56751 1.71656 -2.88786 3.39712 2.63899 1.42482 -3.28937 2.0097 -2.02508 -1.6662 -0.938048 -3.25051 -0.655091 -0.00104597 3.35335 -1.94726 -3.16301 -0.638938 -1.0516 -3.4132 -1.88744 1.27919 3.36262 -2.80222 -0.173197 1.00831 2.49051 2.79335 1.09102 1.41791 1.42823 -2.36523 -0.0289911 -0.142115 0.0402221 1.27117 1.39334 -0.104465 2.33924 3.14366 0.3751 0.123686 -1.41079 2.51122 2.21142 3.44617 -0.288744 -1.22017 1.82501 -1.40341 -1.42836 -0.283455 -1.72541 -0.57762 -3.29459 -3.0771 -0.873251 3.0353 -2.61781 1.28585 2.47564 -1.46889 0.0434177 3.09323 -0.572802 0.214762 0.172149 -1.32279 -0.886108 2.46221 2.12169 0.850385 1.74022 1.78436 2.44255 -2.17946 -0.791504 -0.675903 -2.85587 -2.69925 1.26811 1.92976 3.41221 -3.33782 1.65296 1.47901 -0.839341 -3.26959 2.71508 3.43734 -1.11339 3.05513 2.28052 2.75051 -0.503924 1.56497 -1.36375 3.21226 3.24713 -2.07342 1.85584 1.68989 2.39267 -1.7718 2.9883 -3.24567 -0.330506 -2.51573 3.03354 -0.747598 -0.216922 -1.80905 -2.3073 -2.85664 1.07146 3.45482 -1.4842 -2.11108 3.07416 1.96465 2.08625 -3.17362 1.00988 -1.52834 0.45961 -0.575878 1.09565 -2.24438 -0.384571 -1.92265 3.06521 -0.879193 -0.0106234 1.41374 -3.39084 2.18375 -1.55828 -0.896128 -0.539794 -3.12089 -1.20185 -1.67191 -2.58993 -2.18597 -2.03867 -0.98218 -2.54138 2.60808 -1.40017 2.18515 0.360107 3.2772 -2.704 1.0133 3.10995 -0.720238 -0.777171 -3.02956 -2.79031 -2.87284 2.45254 2.99973 -2.26158 -0.513947 -2.56452 -1.47527 -0.0767864 1.3652 -1.92955 2.53988 -2.99863 -2.32995 2.20917 0.244242 0.198689 -2.94298 0.0626256 -0.56729 0.986855 2.54068 -0.307173 -2.99314 -1.74567 3.23793 3.31029 1.78391 -1.97634 3.08038 2.4909 2.29591 3.00162 -1.76517 -0.611192 1.88943 3.46156 -1.67506 1.43412 -0.665303 -2.0459 3.40399 -2.56748 -1.02087 2.19409 1.79587 0.391651 0.355464 2.29164 2.89884 1.01492 -1.01082 2.24252 -1.18323 0.433376 3.34928 -2.23515 -0.721567 1.36366 -2.38989 2.34514 1.26667 -1.23718 2.59697 -0.223162 2.98382 -3.23615 2.20819 3.21701 2.06127 1.85028 2.54651 1.61415 1.91806 1.51092 -3.03321 1.50336 3.05665 -2.34558 2.84817 -0.562186 -0.297347 -2.77336 2.32312 -2.46867 2.63786 2.75572 1.44711 1.46205 0.379676 0.700176 -3.26589 -0.623101 1.44645 1.48195 2.0753 3.0406 2.44293 1.4447 -1.34248 2.10125 1.26574 2.12539 2.20642 2.55631 -3.00095 2.43144 -1.84986 -2.08676 -2.51193 0.610112 -2.13936 0.0551025 2.49154 -2.33509 1.91442 -0.731342 -2.27662 2.38011 2.95464 -0.0557285 -1.13458 1.72915 2.02066 2.85881 -0.447179 2.16462 0.0625727 -0.250023 0.140397 -2.81548 -0.0799475 -1.68531 2.95978 -3.39165 -1.91811 -1.30613 2.47387 -2.59224 -3.38176 -1.98715 -1.9035 3.02801 -2.84797 1.02904 -2.33352 -1.52024 0.40286 1.33651 0.269251 2.25237 1.2201 1.82317 -3.17197 -1.13325 2.93268 -3.47028 0.341644 3.34436 -2.7196 -2.7136 1.17387 -0.506233 -0.425522 1.46348 -3.08673 -2.93857 0.296976 1.01229 2.25101 3.03934 -1.77568 -2.99998 2.5135 -1.81913 0.243365 3.28368 -1.80589 -2.96363 2.17393 -3.03056 1.04813 -2.61923 -0.303283 1.25218 2.25058 -0.728891 0.294849 -2.66286 3.16136 1.00376 2.12198 -1.23719 1.06763 -2.64759 -1.61832 1.51352 -1.18697 0.490961 0.777256 0.571272 2.55907 -0.0208404 1.54298 -2.08034 0.212919 -1.05184 0.295611 2.6333 -3.06682 -1.07905 -0.45734 0.352938 3.22871 -3.12592 2.56998 3.5004 1.45168 -0.862036 2.79475 -0.609379 2.54064 -1.71603 0.510788 -0.680603 2.63033 1.28056 -0.830891 -1.19148 2.49792 -1.04175 -1.00595 -3.10649 1.07782 -1.89782 -3.49905 -3.25971 0.713281 1.86981 2.32815 -1.30243 -0.815968 -1.04696 0.690579 -2.23877 3.16009 -1.11327 -0.822643 3.11704 1.29357 2.28801 0.510219 0.302606 0.0136536 -2.42133 1.25765 -0.256314 2.86797 0.24894 -0.100051 3.14188 2.30291 0.389391 -1.55074 -1.63507 1.46167 0.592594 -2.42937 3.20432 3.07654 1.27097 2.42865 2.88205 -2.86193 1.78165 -2.00585 2.77731 2.17792 -0.517762 -3.12593 3.04151 2.60164 -3.03252 1.0547 -0.392747 1.46919 -1.38706 3.27083 -2.06018 -0.338657 -2.16383 1.67532 3.24058 1.06274 -0.556361 -2.44062 -1.76593 -0.221584 3.02311 -0.568652 -1.82431 -1.59822 -2.29789 -0.501555 -0.522526 1.2226 -3.26009 0.64275 -3.21457 3.31198 2.40013 -0.343935 -0.174326 -1.91772 -1.82314 -3.17568 -1.0636 -3.48643 -2.72699 -0.808631 -1.41209 -2.49396 -1.39171 -0.691096 1.32468 -1.38324 -2.68285 0.889404 -2.30347 2.71432 -1.85726 0.949615 -0.161673 -2.83096 1.44728 -2.69089 -2.16618 0.549009 1.34271 -1.12694 -1.64272 -2.80838 0.84154 -0.312454 -3.00905 0.389555 1.86131 -0.848324 2.20192 -1.46922 0.36205 2.98734 2.3552 -2.59715 -1.22002 -2.76941 2.89268 -0.297622 -2.34168 -3.30971 -0.122353 -3.26375 1.51646 0.55398 0.841911 -0.327407 2.7478 -0.176971 3.39935 -1.713 -3.10432 0.540858 3.2126 -2.61421 -1.50912 0.448609 -2.67415 -0.169594 -0.864244 0.906296 2.76413 -2.88802 1.12936 0.0257026 2.501 2.10668 2.81387 -0.981521 -3.42925 1.05311 2.57788 3.13557 -1.68838 2.50817 0.582658 -0.750198 -1.11396 1.75174 3.30778 -3.18882 0.00317231 0.825975 0.849818 -1.7677 -1.97356 2.2703 -0.817626 2.82188 1.6869 1.64891 -1.60566 -1.97359 -2.57973 1.52002 -1.97348 -1.16144 -2.91747 -1.31992 0.362062 1.11512 -2.33153 3.44389 -1.69468 2.26831 0.989384 -2.13158 -2.83866 1.86542 0.885991 -0.891501 0.997191 1.42246 -0.601622 0.673607 2.29631 3.29492 -1.58114 0.895585 2.41876 -3.21466 -0.0144739 2.54999 -2.46446 -1.32829 0.712526 -2.77939 0.861856 -2.07093 3.48115 2.42558 1.05083 3.41806 1.87107 -2.43165 0.457601 0.669314 0.53043 3.39421 0.556397 2.91419 -3.48363 -2.97989 -2.91169 2.23332 0.895157 1.57903 3.30704 -1.04051 -2.28713 2.47943 2.17023 -3.26347 -2.78783 -2.17132 -0.859339 1.16854 0.348884 -1.68719 -2.19988 -2.58063 -1.55242 1.53259 2.15626 -3.02855 2.56348 -0.225438 1.59709 -0.386689 -3.15957 0.751616 -0.713145 -1.45788 -2.48153 0.768882 0.0884366 -0.785757 -0.495479 -2.985 -1.39972 0.134405 1.02595 -1.64174 -0.329215 -3.48177 -1.14996 0.580289 -2.62183 -2.90391 1.68979 2.79271 0.0226248 -3.41914 -2.40114 3.19844 -1.93937 -0.77007 0.180061 2.04156 -1.00892 -0.537494 2.78476 0.533249 3.14619 -0.015154 0.104193 3.09778 2.85963 0.646079 -2.44896 -2.09266 -0.18993 -0.329627 -1.80891 0.89902 -0.908561 -1.48234 2.54942 2.10212 1.95275 -0.0316007 1.42354 -2.19531 2.67922 2.60006 -3.22374 -2.5153 0.555496 -0.283733 -1.71615 1.68223 2.61916 2.8138 -1.68999 0.339813 0.0245245 2.19307 -0.0417434 2.27143 0.251268 0.848551 2.56421 3.38868 -2.70879 1.98411 1.35517 -0.0496589 3.3309 2.14312 -0.787856 1.64395 -2.90332 2.28468 -1.2305 2.16603 -2.42756 -1.45672 -2.87842 1.11148 -1.51782 -3.01215 -3.26192 3.34743 2.42951 1.10387 -0.997975 -0.54186 -3.0874 -3.34637 0.382626 2.29964 1.52698 0.801956 -1.60176 2.99261 1.50902 -2.49257 -2.06657 -0.863764 0.830548 -0.713448 1.21546 
2.22982 0.581845 -1.62076 0.588588 -0.274656 -0.676764 3.02096 2.99005 1.89811 -1.51833 2.27001 -3.23067 1.08098 1.60141 2.38975 3.04973 -0.119734 -3.19575 1.09605 -2.1609 2.39991 -2.44732 1.61619 0.934432 2.93643 0.904975 2.53765 -1.34022 1.19687 1.91306 2.2585 -1.20618 -1.59437 -0.618731 1.18628 -0.561131 -2.1173 -2.00705 1.44582 0.247782 -1.89424 2.58869 -1.78841 1.05053 3.37054 3.0719 -0.926386 1.00727 -1.68002 -1.71119 -0.905636 -2.95248 -1.78077 3.25642 0.901021 -0.608834 -1.15696 -0.22716 0.126438 2.43064 0.741282 -2.12601 -2.78062 0.688429 1.25929 -0.326932 1.17193 -1.68786 1.23895 2.67928 -1.44847 -1.43524 2.98564 -2.05079 2.94009 3.10906 2.98397 -1.84904 1.36836 -3.22522 -1.43708 -1.29258 3.33157 2.06171 0.924715 -3.21049 -1.02911 1.47862 -2.80813 -0.126832 -1.01084 -2.42959 1.47096 2.75939 3.3161 1.96697 -2.53676 -0.36219 -2.74 -3.43885 0.164893 -2.5379 -0.795075 -1.70875 -0.545921 -2.35142 -1.57147 2.05156 -2.05964 -2.38176 -0.295565 -3.12891 0.608287 -1.70065 -2.415 -0.0129935 1.28884 -0.273894 3.06741 2.18712 0.318229 1.67009 2.31955 1.43214 -1.53261 2.75492 1.16262 -1.1605 -2.37493 -1.61908 -0.997844 -0.365772 0.68665 -0.873414 2.62636 0.363811 0.59908 -1.33429 2.25555 -0.297823 3.08032 2.11633 1.93657 2.51384 -2.63809 -2.10154 2.26506 2.42794 -3.11527 -3.19901 2.86189 -1.6861 -2.09667 -2.87996 -2.28681 -1.14027 -2.73041 -2.60943 3.02316 1.9534 -2.27526 2.30645 -3.05112 0.470346 1.03961 1.40743 0.231739 0.362825 2.61359 3.18029 2.92021 -3.26737 0.576719 3.31719 0.500585 2.2814 -2.37608 -0.280026 -2.33 1.09272 0.918932 -0.271287 2.0935 -3.47949 0.376042 -2.6115 -0.503149 1.92235 -1.27689 1.15817 -0.0606728 -1.01059 1.04065 0.863302 -2.04033 3.23976 0.956736 -0.610494 0.644588 0.757658 0.248863 -0.817972 -2.24066 1.78583 -1.02981 -1.74535 2.90231 -0.0268101 -0.546076 -0.313868 -2.84643 2.04534 0.0653849 -3.36399 3.22099 1.70435 0.450449 -0.730174 1.81227 2.7095 1.96363 -0.432263 0.210367 -1.80956 1.34864 -3.3425 -2.17662 0.997748 -1.04462 -2.94959 1.46261 -0.785625 0.226785 -1.15686 -0.520159 -1.38105 -1.32117 0.350321 -2.27206 2.28714 0.778389 0.791019 -0.543523 -1.72476 -2.6707 -2.35447 2.32879 -2.56742 1.14812 1.09441 0.59002 -0.653161 0.789551 -3.44273 -3.16335 -3.18205 0.860837 3.40613 -2.31068 2.94251 2.75667 -2.10226 1.43528 -0.642202 -1.39254 0.753451 -0.71426 -0.398463 -2.43154 1.03951 -2.59249 -2.53615 -1.24582 1.30637 -0.5335 -1.53112 2.54498 1.37468 -1.30148 3.06539 0.255047 1.17657 -1.72544 2.47232 1.90679 -2.70895 -0.784154 0.901643 0.6548 -2.08366 -2.95865 -0.9767 0.246404 -2.48612 0.868679 0.722671 -2.39605 2.06755 -3.51293 1.22608 1.10244 -2.86999 2.16796 -0.416258 -2.48008 0.510808 2.61336 0.443082 -0.339563 -0.907652 -1.47976 -2.33379 -0.0680126 0.94494 1.99318 -1.95235 2.61555 -1.48346 1.59272 -0.607646 0.89773 2.50978 -2.60628 2.84566 -2.40884 -0.680064 -1.94043 -0.712397 -0.415679 -2.05383 -0.333073 2.00511 -1.82789 0.732763 -1.88783 -0.493193 2.45863 -2.79861 -2.4586 -1.0099 2.44992 -1.70431 1.15281 2.876 -0.573969 -0.477366 1.93551 -0.356737 2.46982 0.182302 2.41135 0.119523 0.156856 -2.96845 1.61401 0.482225 2.12618 1.44335 1.1032 -1.34749 -2.24919 -2.58421 -0.807313 0.949117 0.528304 0.637237 1.81131 0.844369 -0.226689 1.13401 -0.757913 -2.40555 0.302761 -2.66329 -1.1693 3.0819 -2.33587 0.590819 1.58339 -2.94646 2.66442 1.59024 -0.84114 -2.9901 -2.7331 -2.90884 2.24028 -2.87511 2.16329 -0.449003 2.54878 -3.24899 2.19946 1.02694 1.90342 2.44218 -0.50637 -2.0855 2.97161 -2.41504 2.19961 -2.19587 0.137358 -3.4841 0.102457 2.10916 -0.489513 0.519412 -2.24106 -2.97049 -2.01728 1.72568 -2.44724 -0.370736 -1.88703 0.623394 1.10963 -1.52653 -0.889942 0.0494679 -1.9414 -0.156763 0.564676 1.56899 -2.2677 -3.43559 2.95154 3.30803 1.97305 0.317261 -2.96467 -0.948715 -0.279985 -1.848 -0.508536 -2.16821 0.552218 1.32927 -3.00454 0.416871 0.437432 2.55639 2.01433 1.78788 2.54338 0.84747 -3.04586 2.58199 0.767438 -0.955407 -2.77552 -0.174259 1.90959 0.948338 0.902395 -3.18576 1.71827 1.2294 -1.10701 -0.732793 -1.64743 -2.18402 -3.38868 0.970234 -2.14446 1.87901 1.53319 1.2491 0.0570377 -1.35721 -0.0633873 2.29986 -3.28505 -2.01414 3.04654 -1.04249 0.801604 -2.3373 0.941042 1.29236 1.74064 1.00515 -1.72511 -3.21722 -0.952286 2.74218 -2.12075 2.77624 1.54621 2.76802 0.527367 -2.28692 -0.0372153 -2.01018 -0.935631 0.56326 -2.97446 2.44988 -0.323434 -2.98172 -3.24151 2.29106 0.265952 -0.26015 2.8993 2.95512 3.39049 1.29155 -2.8661 0.905872 3.10383 -2.97787 3.03816 -0.279802 0.570759 -1.16181 -2.00885 -2.21232 -1.51735 0.586503 2.00916 0.860076 -1.7838 -1.82762 1.95306 1.45095 -0.702811 0.636112 2.85652 -0.102248 0.673288 -0.288275 1.1672 -1.40595 -1.4383 -0.0987621 2.0342 -1.84719 -3.11137 1.4668 -2.90785 3.11813 0.322211 -0.376163 -1.19819 3.14655 -1.69285 -1.00134 2.42728 -2.04313 0.899579 -0.313345 -3.10103 -3.25213 2.33453 0.774959 0.638246 -1.8526 0.65397 -0.690009 -2.65719 -0.170058 -0.28985 0.209612 -0.0786649 3.08264 -0.895327 -0.413428 2.05473 3.19482 1.35774 2.60685 0.854392 -3.011 -3.18915 3.35726 -0.543644 -3.19628 1.19842 -0.0508965 2.1582 -2.25608 3.02904 -0.0485592 2.83258 -2.47546 0.236635 -2.73824 2.59361 -2.64646 2.44389 -1.12909 2.53104 0.320964 -0.731128 -1.50796 -0.0079482 2.41942 -2.95706 1.09372 -2.25623 2.97996 -1.70256 -0.0976557 -0.964701 3.07864 -1.74797 2.89553 1.53295 -1.00855 0.0884014 -1.65367 2.77858 -3.12719 -3.08749 -0.973663 0.840373 -0.816736 2.67214 -3.33909 -0.158197 0.0448763 0.126033 -2.68472 -2.66343 0.398983 2.68339 -2.85525 2.67606 0.697119 -3.21269 0.594429 -2.12484 -3.09603 2.32541 -1.43354 -2.35293 -0.889774 -0.918831 -0.638161 0.267462 2.82228 3.13879 1.46343 -1.12788 -1.07317 -0.331301 -1.39315 -3.07936 0.252536 0.423743 -0.888999 3.15445 1.73027 1.82784 -0.674817 -3.45444 1.59645 2.14258 -1.90659 1.72041 -0.611344 1.14721 -1.00791 2.99312 -2.63178 2.94617 -2.69346 -1.79948 -3.19282 3.3426 2.27317 0.333302 -2.89195 -3.43006 2.2469 0.777729 0.202757 1.36218 2.65182 2.46964 0.748114 -1.8325 1.01168 0.914304 0.256195 -1.07215 -0.555226 2.89941 0.381396 -1.24527 -0.98032 -1.9863 0.448098 2.39368 0.703793 -1.38352 3.28182 1.4416 -3.2917 -1.52911 3.11336 -2.57772 0.506375 -0.115441 -1.30677 0.0161609 3.38372 -3.47017 -1.85095 3.43173 -0.228522 -0.53071 1.00313 -0.819394 0.828492 0.84295 1.4496 -0.61028 1.89788 2.84379 2.08644 -1.99175 1.36242 -2.30197 -0.825774 -2.26812 -0.0489532 -1.06464 1.27114 1.8469 0.732536 -2.54148 -2.61052 -0.638104 -0.377486 -0.713051 2.84185 0.934075 1.16672 -0.417636 1.96974 -3.04679 -1.98458 3.07077 2.49545 1.85534 0.607532 -1.91012 -0.548589 -0.726451 -2.53012 3.39 -0.644298 -2.57623 -0.560115 -0.303503 2.17962 -1.04855 -0.461711 -0.419917 2.03701 2.68516 3.17209 2.36259 -0.143507 1.14675 1.02854 1.0456 -1.86082 3.48385 3.1157 -1.45079 0.137646 2.45953 3.11867 0.0565227 1.65471 0.800215 -0.336959 -1.54747 2.75184 -3.1541 -0.230961 
-1.95323 0.82153 -1.01271 -2.22444 -2.23256 -1.46285 2.96144 0.571535 2.7372 -2.25964 0.0530319 -3.20022 -3.07707 0.794712 -2.73245 -3.43086 -3.11745 -3.12276 1.18962 -3.09368 -0.709281 -1.11427 2.13805 3.18868 0.412045 -1.41267 -1.04493 -2.06557 -0.064956 3.35315 0.385961 0.483087 -0.5364 0.633584 1.95304 -1.6482 1.28379 -2.83305 -0.948277 -1.29709 0.970055 1.8254 0.322653 2.63697 3.25126 -3.18502 2.27414 0.140637 0.273952 1.03656 1.00148 1.38932 -1.94723 -2.20711 3.2441 -0.755832 2.71396 -2.72913 -2.97221 -3.42422 0.856232 2.86069 -3.27734 -2.44091 -0.275544 2.27829 -2.66223 0.06229 -0.889982 0.504977 2.27359 -1.34627 0.34583 -1.02082 2.44365 -2.53771 -0.55763 2.93007 1.39972 -0.386271 -1.84845 -2.95229 2.83218 -2.12015 -1.78398 -0.856241 -0.385937 -2.04512 -2.78183 -0.542224 -0.517679 1.525 1.47834 1.41028 2.82605 1.05333 0.961119 2.18524 -0.0183009 0.519115 3.43319 2.36367 -0.0754572 -1.04438 0.476162 -1.08331 -1.16655 2.06915 0.0633858 2.02294 -1.77599 0.563948 0.081891 3.0304 -0.0544812 1.90627 -1.41757 0.301358 1.6749 0.851747 2.93235 -3.1449 1.04337 3.24378 1.69348 0.49755 1.34677 2.70857 -0.309251 1.52701 -2.28283 0.348718 0.701274 -1.69415 1.99582 1.02723 0.980952 -2.02707 2.38618 3.13108 0.0375692 0.549127 1.18742 -2.80544 -1.99268 1.86047 -0.765671 0.975934 -2.85925 0.343115 -1.71084 -2.7773 2.05846 -1.20205 -3.06236 -1.49645 -0.972218 1.00571 1.80812 -0.167803 1.13715 -1.08134 -0.73337 -3.36977 -1.22735 -1.4477 -1.58322 -2.14026 2.04125 1.05434 -0.713838 1.24113 -1.12007 -0.360459 2.54845 3.2417 -2.54733 2.0869 2.88233 -3.36678 2.1777 -0.0369761 -2.04359 -0.369694 2.05596 2.21655 -0.502391 -0.949529 2.1982 -1.04693 -1.842 -1.42565 1.60629 -0.67212 1.96566 -1.58888 1.86855 -0.884417 0.325749 -1.01579 -2.6921 -1.63991 -3.18681 -1.29517 0.419984 3.13676 3.13535 3.15627 1.07759 -2.21629 0.871981 0.182516 1.9648 3.15926 -2.32043 1.16167 -0.404249 1.1907 -1.88703 1.98293 1.33664 -1.05882 2.67215 2.20769 -1.02547 -3.27421 1.24173 1.12568 0.993024 -1.96894 -1.45978 -1.31507 -2.40529 -1.9549 -1.49403 -3.09276 2.05162 -0.297515 1.36506 1.48246 -3.41245 0.787004 -1.18623 -0.856092 2.68317 1.97737 2.44733 2.49454 -2.28992 -2.14425 -1.38206 -3.11022 2.39085 1.1541 -2.41289 -2.63426 0.352877 -0.0298956 1.80591 -0.207605 0.220875 -1.64275 -1.98224 -0.526982 -1.57349 1.03598 0.91693 -2.86616 -0.534867 -0.0446693 3.14754 -1.80775 2.59134 1.5415 2.73775 1.89639 0.424346 2.13583 0.652608 -3.15106 -1.83004 -1.67909 1.34141 -2.53592 -1.60602 1.36994 -1.76541 1.27279 1.53419 1.7484 -1.06389 -0.231607 -0.180514 -0.371182 1.55127 -3.03094 0.739362 2.59513 2.29351 0.462028 0.718302 1.67281 -1.51841 -3.34023 2.2599 0.324552 1.75444 -1.30132 -2.93054 -2.77212 1.70364 -0.824025 0.0711307 -0.980689 -1.55799 -2.7857 -3.26824 -1.27035 0.400538 0.843069 2.70179 2.49761 -1.69698 -2.86217 -1.95533 2.10525 0.983638 2.58277 2.86346 3.44155 1.50584 3.19773 0.185763 -2.56074 2.05773 -3.2539 -1.0638 2.21067 2.52014 -0.441222 0.264138 1.14524 1.99773 2.32501 -0.297585 -2.29311 -1.49582 3.0852 2.94433 2.29251 -2.00915 2.78009 0.761762 2.37813 3.05307 -0.764767 -1.88798 -1.08787 2.13704 1.74691 2.17944 -0.738056 2.50992 -1.85282 2.45382 -3.44363 -2.64563 0.594109 0.659703 3.18522 2.31391 -0.0532795 2.35127 1.0774 -1.05381 3.43272 3.3744 -3.38017 1.0063 0.844062 2.38718 -0.929221 -3.47257 1.43274 1.00057 0.845984 1.56396 -0.51642 -2.04041 -1.40487 -0.938535 2.8279 -1.99013 3.17657 0.994137 -2.8984 1.264 1.40337 -1.83872 -1.84742 -0.458201 2.64426 -0.0939764 2.44342 -1.25619 1.75142 1.68259 3.02764 0.28955 -3.13077 -3.19189 1.16337 2.84628 2.1803 -1.90155 0.520883 3.21922 0.871898 2.84696 1.94689 -0.144784 2.83411 -1.2298 -1.96961 1.54156 -2.80397 0.617695 2.18652 3.01944 -1.15557 -1.39942 0.277363 1.35366 0.940117 0.966373 -1.31264 -3.06107 -2.92092 -3.00462 -2.30243 -2.98212 -2.27394 2.06285 -0.0643186 -1.82686 3.02313 2.87449 -0.834625 -0.956842 1.41228 1.14064 -3.01905 -3.37369 1.47213 -0.319922 0.409617 1.87096 3.38479 0.127409 -2.04902 1.16918 -1.67101 1.38402 1.2642 -0.77873 0.737251 -1.89611 2.6145 2.69498 -1.14003 0.85614 -2.81432 -0.730545 -3.17951 -2.66814 2.83125 3.28562 -0.867799 -0.0286195 3.47976 -1.29405 -2.72962 0.980453 -1.46355 -2.43224 -3.2011 -0.653671 -2.51719 1.72786 2.2591 -0.40571 1.21273 2.58753 -1.36042 0.714801 -3.41099 2.062 -1.69009 -1.00022 3.21498 2.24695 3.20961 1.91013 -0.773057 0.92387 -1.01036 1.09849 1.54527 0.807975 -2.80904 -0.740918 -0.0220729 1.88953 2.33562 -1.35581 -2.81255 1.4759 -2.98127 -1.24516 3.49064 3.28517 0.02053 3.24148 -1.06229 0.973911 2.05375 3.12569 -1.01171 0.278779 -0.916809 -1.90314 1.73917 -2.76966 3.23047 1.50903 2.70997 0.730647 -2.19073 -0.802937 -1.00142 -0.160979 3.48768 -1.62142 1.32518 0.868663 0.0557839 2.4648 2.60952 3.0092 2.26111 -2.05873 -2.31343 0.702701 -3.26238 -0.786699 3.28095 0.315434 -0.730117 -0.76838 0.343536 -0.75959 0.870516 2.16059 -1.4524 -2.32974 2.70101 -1.68061 -0.200828 2.54247 -0.389364 -0.723437 -0.755364 3.46054 2.99046 0.043673 2.32382 0.208109 0.526018 -3.17487 -0.541924 2.18497 2.91017 -1.27056 -2.74943 -3.07421 0.141748 -3.30912 -1.33892 -2.42001 -0.455762 -0.642801 3.26088 2.47706 3.21576 2.25606 -0.668398 -0.0028945 1.3074 3.19529 -1.56696 -0.175128 3.07067 2.64754 -3.25021 -1.71713 -0.523155 2.98976 3.21274 0.56731 0.624513 3.18767 0.265057 -1.37199 -0.963899 2.12902 0.326631 -0.778145 2.32913 0.7921 1.4858 2.29061 -1.37748 -2.29565 -0.247227 0.519398 2.18761 2.18315 -3.37381 -0.507342 -1.09576 3.41666 1.48536 1.32137 0.610698 2.38287 1.12107 0.60775 -2.96002 -0.0892883 2.26679 0.579184 -0.815753 -3.40581 2.78123 1.5749 -3.08357 -1.80631 -2.17638 -1.36853 -1.72994 -1.38574 1.4372 -1.84992 1.39772 -0.582386 -2.52378 1.13147 0.434439 0.586911 1.46229 0.0904494 0.129164 -2.10511 1.51796 1.60305 0.224819 -2.59907 -1.48237 -2.55924 -2.88821 -3.04336 0.84739 -1.79976 1.6845 -0.98438 1.02872 0.6754 2.96982 3.48209 2.74137 0.735664 -1.07356 1.14922 0.804353 1.94576 -3.34191 -2.09935 2.14414 -1.97475 2.77647 -3.46916 0.532139 1.48056 -3.4123 -0.989726 -3.04777 -2.11985 1.56013 -3.17794 3.43545 -2.51581 -3.09276 -0.485124 1.53167 2.05749 -1.91711 1.12962 -2.65845 -2.45118 0.572808 -1.72442 -1.66527 0.746941 -0.089238 -2.06887 -2.03384 -3.31434 2.20996 -3.35948 -2.7584 -1.05792 0.437245 -0.124738 -1.29771 2.16644 -2.51683 1.99109 0.735132 0.409563 3.15351 -0.855192 -0.0659598 -3.31397 0.969016 2.51755 1.59043 -1.40292 -2.26301 1.62337 -0.60358 1.93123 -0.680662 0.303552 -3.15565 -2.24324 3.19296 0.996522 0.267972 -2.03484 -0.483943 1.4644 -1.12787 0.602046 0.894983 3.45159 2.51522 -1.11897 -2.30514 -1.11169 2.13562 -1.26996 2.95336 -1.58751 3.07697 -0.958319 1.17475 2.13528 1.79005 -2.19349 -1.46274 -0.683592 0.5279 -0.173852 3.22508 1.29383 -1.14047 -0.189294 -1.33026 0.315162 -1.89916 0.968142 0.196203 1.87652 2.34075 
-1.17128 2.71509 -0.781457 -0.157436 -2.57603 -2.24085 1.74323 -2.93365 -0.475158 0.209326 -1.67114 -2.0638 1.68239 -2.24271 0.746253 -0.628918 -1.38696 -0.272399 3.087 3.12372 0.312355 -2.53289 -1.7459 -0.488103 -2.73044 -3.01138 2.80591 -0.0408699 0.335187 1.04721 3.36704 2.99897 -1.52013 -3.42242 0.201204 -3.27016 -1.41072 2.56914 0.769576 1.87768 -0.254674 0.901606 2.96425 0.548887 3.22605 -0.880875 3.27222 -0.847096 -0.151214 2.39949 0.315652 -0.865977 -0.972684 1.38299 2.99236 1.74228 1.14974 -2.80762 0.086361 -0.413423 -1.45261 -2.90551 1.67414 2.51718 -1.02212 2.17777 0.0863125 -3.06414 2.97887 2.80126 -0.707888 2.21572 0.18238 -2.47416 1.38238 0.0862189 -0.67925 -0.559837 3.24432 0.678759 0.993692 -2.10421 -2.40029 -2.139 -2.61549 -0.85039 -2.48379 -1.68085 1.09455 2.94499 0.0373446 1.81196 2.5229 3.07001 1.94882 3.03366 3.1053 0.522506 3.30471 0.381205 0.597177 -2.24736 -0.804115 2.25681 1.07824 0.875298 -1.23297 1.83218 -1.55906 2.52309 -1.65095 -2.9504 0.194609 -3.26183 2.63444 -2.42253 -1.3817 -2.82179 1.59338 -0.583833 3.28036 0.287181 0.646404 -1.27042 -0.033197 -2.23083 2.32711 -2.95258 -1.65999 -2.55593 2.83621 -0.507844 2.63408 2.90433 1.4077 3.39951 -1.44729 2.2014 -2.30606 0.799139 -0.262884 0.50009 1.17623 1.65556 2.6194 -0.0840032 2.16702 2.67537 -0.420433 -2.02931 2.0601 2.99323 2.07202 2.05181 1.62793 3.18867 2.36403 -1.11961 -0.206527 -2.9118 -3.4197 1.24921 -0.0941883 -3.38747 2.50925 2.33356 0.345626 -1.09226 -0.067444 3.38302 2.60908 -0.206804 3.38132 -1.62687 0.488236 2.85717 -0.529695 2.49232 1.02921 -1.14238 0.759141 -1.16372 1.76214 -0.144699 1.88116 -0.171547 3.06365 -2.59735 -1.6059 -3.08249 -1.7537 -2.51163 3.02958 2.8654 0.3708 0.622035 0.438315 -2.30947 0.469746 0.611618 -2.4005 -3.42239 -1.07154 1.51814 -3.16729 -1.26936 3.47467 0.113834 1.70274 -0.147194 3.43625 -3.36257 -2.53328 -2.72464 0.951304 1.75624 0.479254 -1.97155 0.713382 0.749107 1.02888 -1.7889 2.29245 0.555584 1.43253 -2.67161 -1.37574 -1.85096 1.06389 3.28594 -0.802143 -1.99479 3.3705 2.9008 -0.403649 0.945036 2.14002 -2.49018 -1.30251 -1.63018 -0.24226 0.480731 3.07145 -1.99183 -3.52555 2.78137 3.25901 -2.07705 1.74184 -0.254572 1.65691 0.0323746 0.545871 -1.35979 -1.95979 -0.918118 0.118397 -0.128988 0.418481 0.545047 0.151496 -1.12863 1.14649 -3.16304 -1.25779 1.48757 0.992921 -3.25645 0.488772 3.2901 -0.575148 -1.28034 2.18888 0.300078 3.2431 -3.08588 -0.786312 -3.33491 0.374732 -1.41058 2.72426 -0.856502 1.06775 -1.92044 -1.58095 -0.654839 2.61113 -2.59068 -3.05079 0.58796 0.280341 2.57984 -1.00336 3.03877 -1.99734 -2.88006 -0.597785 1.34011 -0.840089 -3.34244 -1.78356 0.766164 2.12668 2.1993 -2.85528 -0.968593 3.0335 0.866128 2.69372 -1.70705 -1.5151 -2.28106 -1.18797 -0.0992912 -0.126159 0.647907 0.103663 -2.64218 -1.47151 -0.554476 0.508785 -0.571059 1.49323 -0.68154 -1.92477 1.79657 -3.43438 -1.9486 0.853461 2.85139 -1.72199 -2.82705 1.54631 -0.648795 -3.19671 0.17206 2.53485 -0.456425 -1.95723 -1.41543 3.32069 -0.1256 0.484518 -0.660277 0.321289 2.42516 -0.12885 -0.539852 -0.305989 -1.14271 2.12669 -0.331936 1.73727 -1.98157 1.62019 0.489619 -3.17062 1.14864 2.60115 1.57905 -1.78658 1.56413 2.36575 3.45568 3.13099 2.49802 2.20725 -3.09768 -3.40488 0.820311 -1.2988 3.11778 -2.11228 0.984072 -2.65442 0.608283 -3.20577 -2.82484 0.653167 1.00089 0.115524 2.16444 2.76986 2.89378 -3.34686 -0.857823 1.72536 -1.9431 -1.33467 1.49317 2.06187 -1.34246 -0.869682 0.24319 -3.28846 -1.98878 1.45354 -2.39852 -2.53424 -0.00334386 2.12956 -3.39437 -1.38749 -0.719642 1.20916 3.05138 -0.927257 1.46179 1.51527 -3.35668 3.11347 -1.41347 2.46213 1.89107 2.08644 0.347087 -2.77208 1.10779 -2.04256 -3.35206 0.46511 -3.16893 -0.49971 2.98292 3.03786 3.45183 1.08412 0.293613 1.5269 -1.66349 0.579278 -0.91684 2.12091 -0.607409 0.18278 0.461318 3.31108 1.98537 1.42162 2.43473 -0.829559 -0.197092 0.231794 -1.97908 -2.70963 -1.9255 2.0652 3.20839 1.28232 -1.48751 0.620737 -2.29179 2.2701 0.892905 -2.33105 -1.23321 2.25918 1.47356 -1.97178 -0.840067 0.051484 -1.01914 1.94859 2.83201 0.831017 -1.40538 2.9304 2.01325 -1.00135 1.94765 -2.79382 2.93774 -1.10439 0.596862 0.959174 0.671389 -0.628064 -3.22207 2.30234 2.46711 0.0478236 -1.23948 -0.489282 1.22109 2.69038 1.23362 -2.88989 -0.108911 -1.71311 3.42825 1.98715 -0.274018 -2.37211 1.82281 2.53778 -0.836815 -1.18485 -2.09797 1.82423 3.11469 -2.99004 3.03149 -1.59353 2.8031 0.28824 -2.38711 3.4581 -1.56935 -2.47799 3.35211 0.755812 -0.624599 2.69114 0.0191221 2.48612 -2.09359 -0.616925 -0.934185 1.11545 1.83974 -3.03178 0.337238 -3.39395 1.64217 -1.88118 -0.388093 2.18954 1.03727 0.222032 -2.43215 -0.789108 1.27637 2.59227 0.019603 -2.3126 -1.79499 -2.75221 1.19967 -0.589955 -1.49802 -0.93445 -1.62253 2.82956 0.947139 0.159877 2.27807 0.845469 -2.4263 2.23807 0.291041 -0.844951 -2.90164 -0.782965 -2.70068 3.44557 -0.29392 -2.57176 -0.445852 -0.957578 1.56216 -1.36538 -2.15939 -0.559342 2.30227 3.385 -0.4318 1.22162 0.760922 0.337681 3.27797 -0.712631 1.09758 -2.075 1.61438 -3.11163 -0.675475 -0.209764 3.1875 -0.308602 -0.094785 -1.1276 0.868164 -0.305077 0.839107 -1.60387 0.99084 -0.810849 -1.99939 0.270307 2.24823 3.44071 0.740089 2.13031 -0.849075 -2.454 2.56873 -1.47 -2.47045 -1.64172 2.31565 0.335667 -2.04036 -2.12195 -0.627759 0.60116 -2.17105 -2.18568 -0.712145 3.33186 3.20665 -2.47007 -2.36175 2.23935 -2.12563 1.05321 0.0156174 0.927035 2.75073 2.42663 -1.80488 -2.60894 -0.156033 3.33667 -2.09095 -2.44431 1.92284 -0.622486 -1.86892 2.00292 -3.18704 1.34455 -1.22135 1.58506 1.80921 0.196751 0.106211 0.589967 -0.591572 1.12118 -0.0984165 -0.927918 1.39943 2.87036 0.788554 0.0638393 -1.1331 0.0552666 -0.342748 -2.69294 -2.20731 -2.31756 -2.25227 -2.6237 3.27396 -2.07043 -0.329236 -2.05423 -0.947051 -1.35615 2.79201 2.07425 2.8457 -2.75572 0.311634 -1.87077 -1.34856 -1.33748 0.0910155 -2.88671 0.624295 3.35652 0.756706 -2.48255 -3.19784 3.3203 1.64171 2.99287 0.555908 0.686828 -0.702714 -3.44831 3.16291 -2.21129 -1.71361 -3.28509 2.83005 3.10609 -1.47363 1.74301 -2.3919 -0.186324 -3.48675 1.5226 1.92138 1.41055 -1.26733 -1.14801 2.5272 -0.844888 1.2533 2.94614 0.219101 -0.717489 1.17935 -2.83168 -0.547132 -0.598626 -2.7157 1.02177 -0.883394 0.197023 0.269637 3.09992 1.12699 -3.48749 1.04555 -3.00489 -2.01387 -2.95268 -2.67991 -3.25074 1.79929 -0.259596 -2.46798 2.10591 -0.317977 -1.89491 -0.203123 -3.41439 -1.95526 0.216236 -2.83321 -0.787071 -3.41499 -1.04294 2.48853 2.30213 -1.12814 -1.81594 0.414237 -3.38496 -2.75034 -1.33493 -3.28331 0.777802 -1.16456 -1.25179 -0.709056 1.82028 2.27541 3.21737 -0.11192 2.11988 1.11923 -1.31821 0.853314 2.26569 2.98295 3.05681 -1.34968 1.00315 1.32325 -3.00838 0.786499 -2.67805 0.643753 -0.862324 -0.933933 1.98675 -3.41585 0.0866385 -1.00808 -0.872664 2.45281 -3.25644 -0.772627 2.8021 3.01209 0.673143 -0.0878512 -3.36532 2.24662 -1.48728 -0.209851 
-1.73372 -3.27898 0.894862 -0.672688 1.27809 2.197 -3.428 1.79412 1.58798 -1.51493 -1.60721 -2.11232 -2.33439 2.20017 0.539504 -0.29569 2.53572 0.593587 -0.86173 -1.69811 0.891777 -3.17435 3.36474 -0.0498731 -2.77468 0.213851 3.16759 -2.35442 3.18512 2.32364 -3.46461 2.49785 2.694 2.43091 -0.857714 -2.19555 -1.02413 2.56927 -3.33837 2.34159 -0.683943 3.49495 1.38162 -2.35351 -3.40396 1.29137 -0.296477 2.36889 -3.38066 3.04621 -1.92883 -2.48786 -0.111658 0.34183 -0.676264 2.56309 1.73887 1.71174 1.40741 -0.687224 -1.74239 -1.17993 2.26781 -1.52935 -1.34863 2.88683 -2.81731 2.73042 -3.43182 2.879 2.25561 1.96663 -1.00399 0.11327 0.745274 0.218911 -2.78083 -1.02653 -1.44766 -0.197104 -0.131432 2.57374 1.45863 -2.37772 1.37641 -1.99853 0.198816 0.626611 -0.646847 0.106501 1.54388 0.379785 1.72425 -2.37335 -0.462195 2.4682 -2.15439 0.0423708 -3.34722 1.50024 -0.681988 -1.35773 0.468152 -2.07458 2.72283 -2.50778 2.50649 1.59142 -0.793884 0.402652 3.03522 -1.84971 0.912799 1.80263 -0.812164 -1.98142 -3.3081 2.36459 1.81721 1.39257 3.12025 -1.80675 -3.28784 -2.85651 -0.362139 1.83984 -2.63109 1.58038 -2.08984 -0.810136 3.19581 -0.881755 2.61894 3.28151 -0.684586 -1.97738 1.57443 2.43154 -0.182267 -1.94415 1.54914 -0.443351 -0.469611 0.723902 -1.92151 -1.94116 -0.810853 1.1224 2.56722 -0.867734 2.07512 -0.0674495 3.11686 -1.51544 0.786282 -0.354714 0.236305 -3.01797 -2.83617 3.26575 -1.75597 -2.87775 1.02155 -2.49908 -1.39782 3.34216 -2.71204 0.128677 2.387 2.15346 1.6028 1.99057 -3.31095 -2.55495 1.72719 0.394227 0.510873 2.5469 0.247659 -1.63229 -1.41614 1.63454 1.3779 2.97187 3.39861 3.41437 -0.644423 3.34587 -3.41149 3.09232 -1.21469 -1.6161 -3.24835 3.2776 2.2233 1.66813 2.87835 -0.769373 -1.56491 1.00591 1.86411 -2.9809 2.83818 2.93854 -1.75617 0.871569 -2.53017 1.19834 3.18682 2.27466 -2.40913 -2.07077 0.19584 -2.56702 3.02707 -3.29744 -0.948497 -0.404799 2.10688 3.04102 2.39317 -3.3019 2.92629 -0.172697 -1.98581 1.00687 2.89231 -2.63894 2.36063 1.44559 -1.68055 -3.34216 -0.510642 -2.92883 0.0853606 2.92321 2.8543 0.35696 -0.306251 -1.45907 -3.0855 -3.1549 -1.9785 2.03276 -0.394738 -2.71487 -1.22144 -1.17837 -2.79299 0.821569 3.03535 1.89146 2.97875 -1.19048 2.86501 -1.9376 -1.48855 1.29662 -0.2738 -0.762808 3.34396 2.693 2.48685 2.768 0.945279 -1.28161 0.329932 -2.9675 -1.96534 -3.12737 3.18028 0.1413 3.04328 1.14167 -1.30438 -0.467512 -1.85985 -2.25218 0.0892078 2.72012 -1.70295 1.60923 0.0610482 -1.9434 1.65476 -3.24236 3.03004 2.5373 -1.39669 2.34718 -2.11317 0.307168 2.52619 -1.34276 -0.682435 0.200748 -1.04584 -0.995396 -2.88927 -3.03714 0.916279 2.39148 -2.6591 3.02525 -1.61549 3.20211 1.27802 0.618397 -2.64021 2.96862 -2.49068 -2.17466 1.52073 -1.03377 2.52221 -1.92645 3.29044 0.355814 -2.24356 -3.0307 1.80311 -0.545928 2.73995 -3.46426 -3.14821 1.65928 -2.61373 2.04522 0.0104038 -1.48911 -0.14706 -2.46668 -0.69843 2.45112 2.75855 -3.25987 1.17556 -0.68343 -1.42742 2.33018 0.0123749 -3.09291 0.909071 -3.21585 -1.2486 3.4476 1.11161 -1.38311 -1.78845 -1.2636 2.2471 2.0374 1.20787 0.35192 -3.42221 -0.224437 -3.23615 -2.50885 1.46894 -1.5763 3.4333 0.610015 -0.433964 -2.8641 -2.28629 -3.21819 -1.59548 1.01383 1.10835 2.08311 -0.616818 -0.926437 2.12164 -1.01677 2.16787 2.80481 -0.626934 3.11942 -1.92128 3.17325 3.0307 1.70898 -1.29785 -0.572645 -0.641057 3.4059 -1.46586 1.62035 0.763287 0.175978 -1.73707 -1.51704 2.89321 -3.40826 -0.167098 1.95193 -2.62519 0.975068 -2.94038 -2.81098 -0.710558 1.35149 0.0505498 2.27207 -2.103 -0.245478 -1.94805 2.62739 -2.97806 2.57786 -2.25668 -2.84267 -1.23439 -1.80425 -1.8828 0.7516 -0.331463 -1.2786 1.55608 1.18438 2.49225 -0.496891 -3.16629 2.23427 -2.2944 -2.1528 2.38088 2.44465 -1.82605 -0.785455 1.84973 -2.81037 -0.144031 2.53772 -0.661264 1.78069 1.60671 0.530783 -2.02669 0.407257 0.605236 1.88006 -0.560718 3.10125 1.56524 2.59771 -1.93217 -2.10204 -2.493 0.25748 -1.40153 -2.75402 0.951652 -0.885264 -2.56769 -0.313108 -0.34284 -2.68807 -3.05038 3.26124 -2.6979 -1.04812 0.741964 3.10635 -0.811389 -2.91122 -2.02152 1.74458 -1.96068 2.47146 0.416009 -0.715514 1.49976 1.65052 2.16662 -2.13419 0.311505 -2.43902 2.77818 0.875317 2.03464 2.24496 -2.43389 0.0542674 -3.12801 1.9136 -1.83346 -0.804107 2.51856 0.831569 -0.419152 -2.59094 2.62484 -1.78542 -0.0737192 1.97669 -2.93895 2.68759 1.21443 -2.77614 1.76326 -0.867303 -0.352226 3.39843 0.597806 -0.587543 -0.233959 1.65466 1.10198 1.29287 2.60031 -3.30452 -0.501621 0.400091 1.72772 -2.54194 0.884223 0.0571641 -1.61223 -0.672979 0.715268 -3.13843 -0.841121 0.320746 -1.22779 -3.13444 1.39117 -2.34943 -1.93148 -0.0979603 -2.43864 0.156707 -2.54705 -1.07298 0.206045 2.77583 2.92023 -1.8848 0.203941 -2.19737 0.337947 -1.74349 -1.27592 0.118692 3.32429 3.34251 2.80696 -2.14975 -0.265509 2.51105 1.37676 -1.40151 -0.710366 1.06134 1.99162 2.32438 -1.61215 -0.570674 1.14886 -2.59618 0.916254 -3.26467 2.49188 -2.18454 1.55149 -3.21016 3.01153 -0.22514 -0.887378 -1.1115 1.07023 -1.74451 -0.531793 2.04413 -3.03401 -2.67006 -0.145581 -0.684405 -0.776962 -1.88741 -0.572289 1.75359 2.69893 -0.277465 3.2987 2.97549 1.32079 -0.0636555 3.48647 3.47014 3.31477 3.37335 -1.5079 -2.57568 -3.40147 1.1158 2.56684 0.551712 -1.37183 1.8187 -2.25459 -2.0658 2.49456 1.84315 0.737073 -1.99705 -0.942504 0.497425 2.40834 -1.2203 -0.560883 -2.81064 -1.68655 -1.38847 0.687346 -0.703663 1.0813 -2.92969 -1.33324 -2.62739 3.10502 2.63203 -2.96654 -2.96626 -2.7232 0.714307 2.987 -2.93623 -3.41581 0.711593 0.505838 3.47654 0.679541 1.71545 -0.700277 0.585209 1.97272 0.826719 2.843 -3.33995 -0.988492 -1.84575 0.586509 -1.70067 -2.03836 -1.05392 0.394567 -0.695023 -0.435158 -3.09831 -3.27841 1.41989 3.40117 3.19283 -2.5627 1.29621 -0.104534 0.50603 0.865442 -1.18224 1.16007 2.00275 3.24308 -2.65272 -1.63789 -1.3065 -2.43807 3.17569 1.46244 1.58372 2.4265 -0.531437 -2.54877 -3.2194 -3.29222 -2.8936 3.10445 2.5373 -0.626115 -3.03887 -0.444654 0.172657 -0.0779077 -1.71921 -2.73747 -2.06028 -2.7309 -0.708691 0.111585 -1.70486 1.29727 0.885701 2.50028 -0.261694 -1.61644 -1.88596 -0.64707 1.43534 1.92585 2.243 -2.9543 -2.83078 3.33818 0.392477 0.441007 -3.38 3.17579 -2.65684 0.681226 -1.80803 2.71015 -0.864701 2.23997 0.537498 -1.97324 1.84623 0.0893098 -0.0562572 1.20323 3.39049 -2.53668 -3.3857 0.536231 0.891085 1.94279 0.0352484 2.88008 -1.01101 -3.19989 -2.3166 0.896929 -3.06009 -1.8399 0.9136 -0.0717449 -1.19436 -0.57794 -1.31562 -0.106502 2.3385 -1.41706 3.16872 -3.28272 2.41468 -2.29614 -1.1264 -1.89415 -0.67932 0.302799 3.27717 -2.39734 2.96958 2.03762 -0.583063 -2.99158 0.693405 -1.79532 1.67005 1.10972 1.04252 1.81602 3.09891 -2.85538 0.444208 1.87132 -0.026023 1.18593 -0.240752 -0.280646 -1.86767 -0.245384 0.663008 2.95713 0.109686 2.91779 0.472699 3.32111 1.44399 0.349843 -2.33466 2.10959 2.98983 -1.85629 3.01907 
-0.554394 1.90917 -0.447805 2.84049 1.40523 0.471782 0.60238 2.05684 1.01609 3.09998 1.88903 -0.0870972 -0.795327 -0.294132 2.8075 -1.28855 -1.19993 -0.661676 2.26989 1.55267 -2.95234 0.998153 -2.96893 0.47821 -3.05583 1.85096 -2.01283 -1.94347 -1.51498 1.95978 2.0508 0.68438 -2.94605 1.39847 1.34822 1.89107 -1.47559 -0.855273 -2.44422 1.42955 -1.41167 -3.4449 -1.71856 2.73267 0.625977 0.556022 0.940779 -2.42751 2.58646 2.10277 3.27712 1.23523 -3.38306 -2.19724 3.42399 -0.827329 -3.40729 -1.26017 2.6606 1.35939 1.68529 2.46336 -3.15581 -3.0129 1.71685 -2.67695 2.10951 -2.74669 -2.50269 -0.819856 1.57071 -0.262367 -2.41945 -3.10387 2.01536 -1.3666 -2.87866 2.82672 1.72083 -1.27675 0.455285 -1.43166 -0.865884 -1.05737 -2.12228 2.29526 0.0244061 1.67099 -0.580126 -0.523843 2.2381 -2.79614 -2.22041 0.651236 0.962477 0.378922 -2.38168 -0.482209 -2.4879 -3.11579 3.4171 -1.30421 0.969009 -2.38537 0.750044 -0.644624 -1.29966 -1.1049 2.06362 0.461302 -0.184124 0.943863 -2.65081 2.31337 2.96634 2.75095 -0.34092 2.82503 0.0303403 -2.85906 -1.11962 0.268527 3.44445 -2.43934 -3.13159 -1.54126 0.232099 2.37208 -0.408142 -1.03092 -3.12261 2.75428 0.837515 1.27324 0.289716 1.64824 0.635995 0.328608 -3.2902 -2.58852 -2.16859 2.73347 3.10074 1.80113 2.80585 3.3759 3.11471 2.39126 -1.20988 1.32334 -0.79425 -2.90953 1.38051 2.01141 2.50106 0.589597 1.71669 0.0807892 1.43937 -1.33344 -1.21775 3.17784 0.337471 -1.28428 2.23216 3.04586 -2.0731 -0.962352 2.19174 1.1339 -0.577959 -2.37074 -1.55805 -0.128833 -0.836863 0.247533 2.66787 -2.88159 1.99102 -1.05164 -3.27316 0.261109 -3.04075 -1.80257 -0.695415 2.93044 1.16486 0.0705478 0.763352 2.22913 1.65857 -0.156363 -2.39833 0.326037 0.21481 1.61125 -1.97015 -1.83978 -3.07719 -3.26207 3.08607 1.53235 -1.00716 3.48973 1.80805 -3.3683 -1.18521 -0.779628 -3.06057 -0.965884 -2.47766 -3.26832 -0.951589 2.46876 -1.77295 0.789377 1.43531 2.11569 0.438314 -0.715482 -0.814892 2.20551 0.615366 2.09508 -0.603985 -3.47332 -2.16227 -0.550359 1.3648 -0.146232 1.76131 -0.987091 -3.27219 -2.13982 -1.68712 -2.44584 3.45588 1.02299 0.659115 -0.744059 2.68759 -0.849825 0.467121 -0.9704 0.91776 -1.47257 2.04615 2.38633 -2.05361 2.02854 -0.393844 -2.7588 2.14051 -0.906687 3.3856 0.545442 -2.38224 -0.416329 2.78151 -1.20273 2.48031 -2.89028 -1.62901 2.84729 -2.81094 0.435913 -2.34756 -0.0425442 -3.46007 0.287058 -2.61595 2.42232 2.22441 0.848527 -0.71932 1.71677 1.22253 -0.722298 -2.88759 -3.03696 1.44083 -1.90328 3.16131 -1.29194 -2.90467 2.97862 2.40778 0.0100953 1.2426 2.64495 2.91228 1.64859 1.96877 3.49471 2.44579 -0.0481555 2.99698 0.671747 -0.412827 -2.27964 -0.0393636 1.83172 -0.168215 -0.0961017 -2.70262 -3.35231 0.095235 -2.74718 0.369382 -3.42274 -2.25711 3.18417 -1.93716 -0.906978 -2.32682 2.16764 -1.44669 1.32352 2.33542 3.01234 -0.644283 0.160496 0.872545 -2.80286 2.1326 0.536859 2.70825 -2.63812 -0.576643 -3.49259 3.23045 -1.78107 -2.6552 2.79002 1.01191 -3.02676 1.66378 2.4044 2.57711 0.258623 -0.942977 -2.10191 -1.02168 -1.30067 -1.2838 -1.00581 3.46333 -2.18816 -2.36907 0.614558 0.294547 -1.54334 -3.30504 -0.974956 -2.16765 -0.0964147 2.03446 3.27214 3.4375 -1.1592 -2.37879 -2.23151 1.4353 -1.44927 2.41049 -0.199527 -2.18275 -1.14478 -2.19672 0.873948 -3.35511 -0.478092 3.16556 1.43804 -1.31362 0.820833 1.25417 2.53411 0.482609 2.99604 -2.52658 -2.07648 -1.44257 3.20191 1.84814 -1.0035 1.55659 -0.0876797 1.72847 -0.817275 0.609823 3.24641 1.18038 -1.03501 -2.75073 1.03747 -0.213029 2.98951 2.83791 1.79757 -3.27638 2.88658 0.798316 2.5512 0.994594 -2.07777 1.50104 3.46133 -0.597319 -0.82733 1.51828 -1.63308 -1.48126 3.39782 -0.315914 -2.01063 0.988979 1.42445 0.867106 0.818212 -0.333674 3.45994 -1.22765 -1.00667 0.912061 -1.68319 0.201557 0.663286 -0.939887 2.51526 -2.24611 1.35853 2.42845 -1.52388 3.25875 1.65929 1.75895 1.92392 1.53145 1.30974 -1.25584 -1.35456 2.80848 -3.15254 2.56557 -1.50467 -3.19817 1.05977 2.14363 -1.91573 1.44161 1.98183 -1.67422 2.67023 -3.32315 -2.13546 -3.46019 -2.54107 2.02049 -3.00893 0.874176 -2.40054 -0.368277 -2.67875 2.57503 0.929997 1.1855 0.199707 3.30131 -2.55094 3.34256 -0.699729 -1.19878 2.57138 -1.94116 -0.799408 3.10059 3.37695 -3.17764 -2.50152 0.173425 -2.7381 2.81686 -0.699113 2.29988 -2.23211 -0.940939 1.93983 -2.67171 -1.83996 3.10066 -0.418639 2.36377 2.68245 -2.85915 0.779112 1.59748 -0.887275 -2.93943 -0.0347882 -1.34668 -0.373385 -1.6996 -0.919552 3.31919 1.99282 -1.90743 -2.10446 -2.72409 -2.78954 2.94505 -1.64709 -0.0700342 -1.95363 0.619982 -1.24733 0.753872 -0.738748 -0.427267 3.33045 -0.92385 3.16831 0.751845 -0.0844444 3.04681 -2.05814 2.94017 0.0301295 2.72664 2.51502 -0.481952 1.80994 -1.88429 0.188318 0.713027 -2.56732 -1.83836 0.970455 0.494924 2.5371 0.436861 2.53077 -1.30942 2.88823 -1.06877 -0.391012 -2.16552 -2.78314 -1.25083 2.87595 2.99933 -0.100176 -0.662617 0.410628 -2.1396 1.19594 -0.563015 -2.46812 -2.81155 -2.40797 -0.264083 1.92801 1.50302 2.98527 -0.685412 -1.22451 -0.791451 1.50155 2.40034 2.61405 1.3612 0.126218 0.560229 -0.290345 -0.954201 0.256029 2.00514 0.159572 3.40227 -2.76113 1.99361 0.755468 -1.82128 0.73115 0.669144 1.76507 0.182545 -0.457746 -0.990126 -0.620013 3.44856 -3.16457 3.05464 1.95143 2.95315 0.0277002 -1.69536 -0.728862 -3.04422 -0.738947 1.31657 2.24175 -0.885955 -2.24437 3.45661 0.331713 0.245378 1.84302 -3.31102 -2.7535 -1.51727 -0.705036 -0.0581143 -3.21684 -2.89568 3.30753 2.94391 2.22523 -1.2511 2.21326 0.348343 1.09932 2.52792 0.393466 3.2454 -1.59126 2.41773 0.959076 0.225244 -2.07419 -1.12404 -0.340635 -0.431429 -0.907926 -0.0533581 -2.8911 2.14593 -0.991681 3.42714 -0.0161079 -1.02015 0.927505 -0.40682 2.41162 -2.56547 0.25877 2.86529 0.759871 -3.16998 -1.47847 -1.27847 -0.107128 1.34532 -1.11259 -2.4696 0.948902 -2.73669 3.43292 -0.256335 -0.277115 -3.33052 -3.02497 1.13637 2.48528 -1.94112 -0.528858 -1.32939 -3.15121 1.73069 -0.445548 -1.89665 -0.69929 -3.26423 -0.783912 2.9733 -2.85202 -1.60668 1.99362 2.64659 -0.0615737 -1.44882 0.804741 -1.2224 -1.9468 1.22961 0.164694 -0.281782 0.759664 1.48947 -0.08024 2.60325 0.263256 1.7993 -3.46094 -3.24091 -2.03328 0.611463 0.470741 -3.29329 -1.29218 -1.32139 -0.632547 2.31272 1.66408 -2.92611 1.2668 -1.17372 2.74254 -0.289262 -0.421506 -2.72612 1.22198 -1.78874 1.67345 -0.616099 -2.60091 -0.918909 0.0473654 1.11898 -0.033702 3.45457 2.57641 -2.83174 -0.602365 1.02112 3.15147 3.47717 0.0823428 2.56531 -3.35394 -1.22016 -1.61787 2.18573 1.86848 -3.37679 -0.350689 3.20177 -0.960814 1.24537 -2.15552 -2.58584 2.51159 -2.68144 -0.832954 -0.850591 1.42614 3.1392 -0.708587 1.20947 -1.6302 -0.979165 -0.91829 1.40847 -3.21597 3.44078 -1.42129 -0.178315 -1.58918 -3.02957 -1.1035 -3.10652 -2.45067 2.07365 1.07065 2.23632 0.869701 -1.18198 0.397187 -0.166345 1.74478 1.98456 -2.63353 0.100322 1.52112 3.14358 0.00993974 -1.65426 -1.99582 2.11988 0.011024 -2.26732 -0.571691 -2.66872 2.53976 
1.08203 2.94219 -0.4506 1.72947 -2.79842 0.180817 -2.37522 -1.6921 -2.65137 0.757384 -3.25438 2.12745 -1.64913 -1.971 -0.168018 -0.152908 -1.79529 0.816646 1.67081 -2.79682 -2.29671 -3.41124 -3.16839 -1.7014 1.79126 -0.0910113 3.22719 0.0673367 -1.4176 -2.19417 -3.04909 2.83567 1.94218 -0.0902822 2.69843 1.08222 -2.36473 2.66707 -2.5968 0.852889 -3.32726 2.43369 -3.16236 -0.930777 -1.03937 2.66558 -1.97203 -1.93285 2.15357 -0.527202 1.41023 -2.84714 2.60288 -2.30809 -2.88269 2.58774 0.604878 -2.26439 0.522463 -1.3472 -2.82012 -2.15029 2.51403 -1.70636 2.60626 2.51959 0.342991 -0.791455 0.380946 1.14556 -2.76052 -2.47365 1.75457 -0.132768 0.933133 -0.339015 1.99262 1.54542 -3.07244 2.17424 1.98535 -2.69519 -3.06057 1.77421 3.08619 -3.20515 -3.15306 -2.21211 -3.41669 -0.184968 0.324587 -1.10309 -3.01329 3.32385 2.40029 1.26442 3.19192 3.21396 0.443391 2.68636 0.903076 2.37635 1.07785 -1.9688 -3.43604 -1.8444 -2.67775 2.57783 -2.096 -1.27676 0.899778 1.88192 3.00081 -3.3442 3.08409 -3.47954 -1.43737 -1.05305 3.45001 -0.0098117 -1.67561 0.146679 1.3015 -3.04531 -1.63094 0.887192 -3.37552 3.10207 -0.884621 2.80449 2.0068 -0.940746 1.65026 -2.45271 1.52284 -1.48455 0.81673 -0.551811 -0.855751 -2.01613 -0.917355 1.50794 2.18604 0.142831 -0.58751 0.0137474 2.24281 2.52507 -2.96325 -1.9983 -0.452943 -0.701422 -1.6387 -3.42043 -1.37311 1.41252 1.27189 3.00754 0.579837 3.05218 2.63074 0.255072 -0.520921 -1.75901 0.754785 0.969231 0.223118 -2.45211 2.88898 -0.789992 -0.719156 -2.97031 1.68446 -2.00862 2.17229 -3.42513 1.10784 -2.67981 2.93766 1.5966 -1.20921 -1.45394 0.696435 3.18681 -2.71292 -0.880014 -2.76407 -1.93037 -2.81509 3.22259 2.01201 2.81217 -3.28582 -1.23514 2.87431 -2.95953 1.94101 -1.94069 -1.22051 2.81148 -2.17753 0.307102 -0.484157 -2.35619 -2.67112 1.28667 -1.68211 -0.780468 2.51045 -0.715665 -1.32118 2.48264 1.06747 -2.45196 2.57099 -2.62314 1.97709 -2.62893 1.72508 2.24596 0.0698864 2.01659 -0.601801 -3.19131 -1.25627 1.5445 0.574027 2.37901 -1.39408 0.360772 -3.12093 -1.69088 -2.4973 -0.482806 2.33981 1.55025 -2.67779 0.702229 -2.81096 -2.91829 0.80279 3.25466 1.55427 -2.87059 3.51633 -3.29532 2.85386 1.10897 2.38846 -2.51446 0.766476 0.187278 -0.647005 -3.30561 1.20126 0.590142 -0.263045 3.28523 -2.36401 -1.15427 2.52578 1.79076 -2.55143 -0.136917 1.0387 -2.63037 3.27418 -1.73249 0.226167 0.439663 0.849168 3.44828 1.36702 -2.77538 -2.37043 -2.41706 1.48232 -3.27658 0.15027 -1.95405 -2.6473 2.86838 -0.51319 2.82434 -2.62887 2.1671 -0.718385 0.986456 -1.71411 -2.13115 -0.72374 -1.94557 -1.74959 2.78644 -1.74892 -3.07872 2.41199 3.36275 0.0980445 -0.0520704 -2.30728 2.61749 -0.8143 1.57579 0.385506 -3.12573 -1.2824 -3.43064 -3.43294 1.54574 -0.460065 -2.57345 0.0798852 -2.23663 1.51127 -2.79155 -1.1074 -3.34291 2.06945 -0.956293 1.75284 -0.0480041 2.27139 2.61759 2.73534 0.445782 1.84923 -2.4325 1.87065 -1.97193 0.0991219 -0.220985 3.19574 -3.22685 1.68554 0.551359 1.37417 2.94272 0.556963 -2.36224 -2.7059 2.89014 2.22469 -2.80116 -2.98345 -0.306816 -2.57751 0.941607 0.776381 -0.526844 -1.40151 -2.37248 1.72006 -2.87905 0.466253 1.99068 1.05998 0.61258 3.22088 -0.320787 1.29006 -2.51808 1.36647 2.75527 -0.627135 1.1494 0.829184 -1.3125 1.90644 1.1893 -2.52431 2.0052 1.10245 -3.26566 2.4453 -0.013628 0.862016 0.68498 2.55269 0.97805 3.25086 1.7341 2.18936 3.0219 0.223081 -2.85947 0.336799 2.8411 -0.277534 -2.02136 -2.8531 -2.98634 1.09136 -2.51862 0.0900647 3.22494 -2.03035 0.313605 -0.837526 1.30525 0.605204 -0.327724 1.8069 2.15481 -2.35025 1.38997 2.7845 -1.94454 1.04172 -0.377255 -0.921015 0.86454 1.52086 -0.142862 0.995746 -3.4812 -1.9137 2.3552 -0.00344299 -2.34871 1.71015 -0.593257 1.02137 -1.27246 -0.0600288 3.10652 -1.80273 0.542013 1.71638 -2.2076 2.02084 0.695827 2.63529 -0.557176 0.585231 -1.38462 3.22951 -3.15574 -1.11594 -2.71008 2.62094 2.18109 -2.74495 -0.851372 -3.26497 -0.0115664 -1.87804 -2.11271 -0.141342 0.0328854 2.20777 2.88045 -0.0280326 -2.53639 -3.45979 2.35339 0.604757 -0.0449572 0.186021 -0.624659 -0.543231 1.67767 1.40505 -3.33096 -2.93164 -2.10161 1.40884 0.024607 -0.579699 2.59166 0.870287 3.18075 2.39484 -1.19804 0.745824 -2.42905 -2.54686 0.288669 -0.804986 1.8463 0.149923 -1.96326 1.99415 3.05014 -1.15886 3.06962 -0.0716506 -3.43756 2.56373 1.51231 -2.92776 1.2284 -0.912794 -2.4195 1.58386 2.01761 -1.25971 -3.36585 2.55744 -2.25185 -1.53076 2.22504 1.10636 0.52055 3.28111 -3.46337 -2.39392 -1.31542 2.51133 1.62796 -0.989964 2.39446 -0.721176 1.91606 1.61934 -3.48058 -2.52537 1.29465 -0.771712 0.372836 0.292678 3.36882 -1.39049 -2.54777 -1.45714 -1.01301 -0.819566 -1.17609 -2.16526 -1.27305 -0.311848 3.48572 3.42738 2.98591 -3.0161 1.39596 0.0536065 -2.44278 -2.50792 -1.78384 -2.11895 2.87306 -2.7225 0.928449 0.202295 1.69958 3.51794 3.39106 -2.88613 -0.677064 2.5881 -2.21395 -3.34831 -0.590309 -2.60092 2.80155 -1.652 -0.622706 -2.77546 -2.19357 0.266274 3.46256 2.0002 -0.0856661 2.63889 -0.291737 2.77321 0.932849 -0.127635 1.42523 -0.410144 0.407614 -2.93114 -2.82668 -2.52998 -1.66733 1.89978 3.03455 1.4368 -1.83631 -0.396989 2.36597 1.07554 -2.26556 -1.3164 -0.396716 -0.975329 -0.231021 1.84168 -2.67546 -1.17606 -0.29155 -2.5397 -0.0261843 3.0157 1.11357 0.411652 -3.07678 3.27721 -2.678 -2.01297 2.81541 -0.384701 3.46544 2.5975 -3.22044 -0.024816 -3.4281 3.32858 -3.06156 -1.77291 -2.75902 0.662983 -0.214174 -0.640339 1.55682 2.51034 -2.1989 -0.386036 1.66059 -1.28351 3.3359 -1.31234 -0.338637 3.17758 0.499416 -0.557776 0.186269 2.07628 1.69079 -3.26671 -1.89052 0.567546 1.67206 2.71533 -0.524804 1.20556 -1.81655 -0.0997043 -0.163496 2.04343 -1.2347 -0.407904 -0.3535 1.75862 1.67929 -1.79696 0.334855 0.653885 3.39528 -1.91101 0.417131 -0.73957 -2.10271 -0.845525 0.649001 -2.96983 -2.05625 -3.24313 -2.33759 -0.955745 -3.08774 -0.602218 -1.64375 1.9444 1.13676 -1.94567 3.47573 0.286418 -0.0666645 -0.91801 -0.59345 -2.58642 -0.248167 1.52726 -0.378662 3.11237 -1.70517 3.34764 -1.43287 1.40787 -2.10377 0.669049 2.54302 -0.757766 -2.10045 -3.31084 -2.0131 -1.79176 1.25497 1.3742 -2.31204 1.57332 1.18842 -0.362831 3.21298 1.71301 1.57085 -0.484783 3.27011 -3.2045 2.88057 -1.04353 -1.90962 -0.200797 2.70487 -1.28301 -2.53674 -2.00497 0.812274 2.91331 -0.619553 2.36306 3.44325 -2.82849 -0.540065 -1.54194 2.0569 1.3615 -1.97923 -0.102745 3.13647 2.70101 0.748638 -2.45052 0.132082 2.02251 2.93064 -2.98486 0.216171 2.59059 1.32168 -0.722522 3.28449 0.308055 0.171325 2.97275 1.79954 1.99199 -3.36004 -0.56421 2.75033 -0.795512 3.47091 -1.55063 -2.54165 -0.958965 -1.32631 0.252699 0.269598 2.8743 0.956063 -0.192934 0.970715 -1.78887 3.10183 -0.870484 1.45099 1.06004 -1.93327 1.60568 -3.29046 -1.40433 0.757401 2.22765 -2.21033 1.43983 -0.423912 2.41454 -0.304888 2.24919 -3.06209 2.27234 1.27912 -2.43333 2.46242 -0.720503 -3.10919 3.36996 0.282454 1.39319 0.199488 -2.15918 0.965785 
