0.631891 -1.17102 0.707816 -1.4444 2.72966 2.3542 -1.42111 3.27907 0.707263 0.158067 -1.97088 2.91211 0.685554 2.19577 0.815352 -0.23207 -0.291905 1.07437 -1.75287 1.17897 -2.69709 -2.72895 -2.61019 2.04041 -1.93454 1.00401 -0.0806533 1.08525 -1.06894 -2.20185 -0.0744677 -3.33153 0.337018 1.36609 -3.42467 -3.07243 -2.57823 3.23996 1.3094 -1.50588 -0.478853 -0.149359 -2.92601 -1.3249 1.01655 2.37919 2.4615 -1.45648 -3.11668 1.38841 1.86763 2.16311 3.26222 2.63428 -0.183448 0.81556 3.15004 -1.22181 -2.19953 -3.07099 -2.57512 0.805265 -0.661007 -0.835125 1.58417 3.31915 -3.18625 -0.912132 0.349757 -0.554629 -0.697778 -1.24896 -2.30494 2.89705 -1.50477 0.711871 -0.919057 -2.11179 -0.280376 1.85822 -1.67061 -1.81663 0.159386 -0.801528 -2.74651 -1.11325 2.65346 0.240998 1.29698 2.45032 -2.10861 -3.37306 -1.18443 -1.10586 1.42079 3.28466 1.07821 0.896029 -0.907349 -1.89264 3.05852 0.0104528 1.79912 0.17138 -3.41914 -2.41667 -2.30538 -1.54135 0.757168 1.44316 -2.11635 -1.7913 2.91456 1.06406 -1.00749 -0.377976 2.37557 2.82002 -0.663723 -0.296469 -2.16857 -2.62504 1.32238 0.75402 3.06502 0.639239 -0.121856 -1.85909 -2.14501 3.10981 -2.25873 -0.0547626 0.529406 -1.74426 -2.4082 -1.87281 -1.15399 -1.9258 -1.53971 1.30777 -1.69944 -3.20242 -1.39967 -1.37229 0.571859 -2.77541 -1.40469 0.0870284 -2.34888 3.03178 -0.631361 1.64432 -2.89688 0.0771153 -3.79561 1.26634 -0.086342 -3.90897 2.44662 -2.14285 -2.67394 2.27071 -0.717431 2.08461 -1.27038 0.130263 -0.0532033 3.03028 -2.59485 -3.07481 1.981 -0.366306 -2.97025 -1.09545 1.26118 2.12579 -0.800351 -0.806551 0.460735 -0.51009 0.69428 -0.731152 -2.969 -0.964761 2.57153 -0.362455 0.633103 0.160153 0.157577 2.45781 0.821179 -2.61255 3.35154 -2.68315 -2.13929 -2.8308 2.86634 -1.08811 -2.59146 -3.11327 -1.28678 0.445139 0.358811 3.04169 2.89265 -0.380713 -1.64492 -2.95927 1.67981 -2.30309 0.798223 0.0853415 0.506349 1.75928 2.58165 1.86636 0.96827 2.56565 -1.12418 -0.130109 -2.48102 1.35841 2.6493 1.56959 -2.38738 -1.63919 1.54842 -0.325025 -0.0656771 2.2168 -0.746766 3.31993 -0.626249 -0.985078 -2.72228 1.57786 1.09179 1.78829 -0.0597842 -1.33836 -0.0177119 -2.27784 -1.37372 0.275226 1.11935 -1.30801 -0.751638 0.66936 0.415389 -2.11943 2.57752 -1.20829 3.17533 -0.345684 2.89724 -2.15534 0.998968 0.965921 -0.178282 0.417099 -0.788579 -0.33517 -2.13939 -1.99817 3.01206 2.41374 0.750827 -2.23937 2.92781 0.178828 -0.614539 1.58968 2.93824 0.291239 -1.14123 1.49774 2.34531 -2.92508 -3.19676 0.402003 -2.14386 0.976444 -2.87019 0.0682263 1.95817 1.50336 -2.73488 -0.639163 -2.84158 2.57947 2.4893 1.98701 -2.81271 -2.81192 -3.03946 1.12986 -2.69443 0.528024 1.8907 -0.974587 0.880823 2.79918 1.83341 -3.27517 1.44598 -1.64216 3.0745 1.95358 -1.0627 1.50363 0.605296 -1.46861 -2.15863 -1.05261 -3.17337 1.2689 0.280772 1.34154 -1.21991 -0.34294 -3.60767 2.77978 0.993574 -2.46864 2.41558 2.72888 -3.0053 2.72433 3.05256 -2.49239 -2.2876 0.248845 1.10766 1.47431 2.71215 -1.74823 0.151899 1.91749 -3.36189 -1.11335 0.0937922 2.6642 1.4505 -1.32277 -2.78467 -0.81976 -0.367 -0.837511 2.09239 -1.12818 -1.18835 -1.79234 -0.274813 -2.36094 -3.19433 -2.78562 0.400707 -2.90281 0.476538 -3.4033 0.382668 -0.856309 1.58284 -1.99479 3.16901 2.80221 -0.858865 0.345496 3.22202 -1.07388 2.35752 -3.00848 -2.46897 1.24101 -2.93944 -2.9242 1.19225 -0.946998 -0.161093 0.128237 -1.2502 0.251357 -0.562992 2.54995 3.19404 -3.30115 -0.483693 1.81583 0.895712 1.80218 1.35972 -2.81164 -0.176457 3.4442 -1.3324 -1.51554 1.01772 -0.445519 2.51519 1.44604 2.72546 0.839888 -1.02501 2.01323 2.27877 -2.26554 0.727876 0.256528 -3.81725 2.47157 1.41395 -3.72262 -3.13246 -0.998777 3.18091 -1.20753 -0.739019 3.12113 -2.34132 -2.46252 -0.0848225 3.08588 -0.798432 -0.162023 -1.39787 1.79981 -0.752903 1.89311 -2.58512 1.32515 1.63032 0.529857 -2.98425 -0.367219 -4.26178 -3.48186 3.02923 1.29539 2.68106 -1.81749 1.06838 0.294086 -1.74286 -1.86846 2.51441 1.89952 -3.33795 0.940076 -0.615328 3.00458 1.17308 -0.473305 1.6121 -1.7785 0.319805 -2.63661 -3.13086 -0.996675 -2.84336 -1.62844 -3.22691 1.87414 1.93567 0.723881 -1.76814 0.0129945 -3.4277 -0.852541 -3.23735 2.05936 1.27816 -2.11187 0.39678 1.48003 1.32366 0.537016 -1.84509 2.73849 -3.44793 -0.650635 0.376998 -1.29602 -1.69416 -1.25708 -0.246923 -1.0947 -1.36062 -2.69779 1.30733 -1.14985 2.41499 -3.41504 1.14157 -2.107 2.3917 -3.05297 -3.87386 2.83177 1.45024 2.01346 -0.532747 3.34112 -2.1665 -2.83148 -2.37793 -0.0644122 1.1268 -2.74662 2.604 -3.19057 0.0319046 1.6181 1.90839 1.27118 1.94487 1.91074 -3.5799 -1.12908 0.525933 -2.16088 -3.39296 -1.42846 -2.78581 2.70777 1.14002 -0.118537 0.82505 -2.33777 -0.440282 -0.413988 0.525209 1.98982 1.32235 2.0338 -2.72428 1.58116 2.85119 -0.720596 -3.71122 -0.553383 -3.0065 -3.69581 2.38573 -0.686514 1.85645 2.09398 3.24786 -2.86502 -0.295799 -3.5851 -2.74921 -2.47837 0.4065 -0.926378 2.01546 1.996 1.23112 -1.86526 0.490144 -0.240865 -2.83246 -1.98574 -0.0758172 0.236313 2.59982 2.4669 -2.09863 -0.654761 -0.10727 -3.58146 -1.798 0.312194 -0.582991 -3.37723 1.071 -0.146889 -3.02885 2.75237 -0.515514 2.28354 -0.753016 -1.5939 -0.41607 0.800483 2.13124 3.10992 2.4979 -2.68273 -2.81064 -0.248976 -2.3147 0.891787 2.07551 -1.00102 0.256475 1.30983 1.41422 -3.49858 -1.54214 -2.93915 0.893617 3.05462 -2.84835 -3.48601 0.715326 1.65921 -0.613633 -1.97419 -0.848992 1.16337 1.63788 2.44963 -2.99914 2.36869 2.45221 -0.372138 0.166523 0.0553267 -2.65391 -0.964495 2.51528 0.290964 2.5146 -2.16852 0.0683275 -1.92419 -3.3135 2.35215 -2.61326 2.57015 -3.6046 -1.94213 2.85215 1.78496 -1.2423 2.88792 -3.10721 2.60846 2.34854 -2.50771 0.346996 1.98987 -0.670506 -2.01149 -2.69388 0.873217 1.25782 1.85316 -0.146908 0.2219 0.14342 -1.38262 -0.703241 -2.72592 0.757548 -2.42147 1.33304 -1.58954 -2.4069 -2.13334 -1.42706 -3.4823 -1.46737 -0.160038 -2.3622 -2.45007 0.393085 2.56611 -0.160353 3.36026 2.64621 -2.6556 2.84876 2.94239 3.39801 2.34753 -0.376242 3.28993 0.270526 -3.24208 -0.414787 -1.91105 2.22733 1.71857 -2.24997 3.18068 -3.64122 -2.37141 -2.94885 0.453977 -2.89038 0.179247 -1.49469 -1.48278 -3.41144 -0.889403 -3.25734 -0.952346 0.174831 0.473325 -0.167734 0.513602 -2.95774 -2.79943 -0.848785 -1.52917 2.63828 -3.45671 -1.66941 -2.0215 -1.98309 -1.26867 -2.13656 0.628327 1.6099 1.59378 -1.52011 1.91839 -1.39022 -3.24823 1.03394 2.46729 3.01536 0.778182 0.362534 2.96329 2.89009 -1.77319 -0.672907 0.9971 3.48445 -0.762591 1.3351 -2.40395 0.434337 -1.47772 -3.3256 1.89525 3.22824 0.982392 -2.01033 -2.67044 -1.53317 -3.36538 3.3163 -1.11808 0.00637484 -1.30505 -1.06299 0.562492 -2.34545 -2.9996 2.48942 -1.69443 0.1164 -1.62088 -2.62533 -0.205876 1.76913 2.87627 -0.894894 -1.46128 2.32572 2.23317 -2.9624 1.41221 1.36577 -0.548886 -2.06631 -2.20368 -1.18812 -0.901091 1.13156 0.978724 1.1579 1.02137 -0.824821 -2.94984 1.74205 -3.04718 -0.982664 3.01502 -1.84979 2.6473 
-2.33769 2.60134 1.67005 0.336598 -1.10736 2.19964 1.66581 0.817809 2.20172 -2.14593 1.95229 1.65057 -2.64182 -1.75522 1.24472 -1.40899 -2.25075 -0.106882 0.511742 3.22108 -1.75655 0.384233 -1.64172 -2.41298 1.46976 0.78699 -2.75206 2.85701 -0.103137 -2.88551 -2.01476 -1.43026 -1.30483 1.18632 1.98062 3.43518 2.8269 -0.161542 1.51739 1.3057 0.122169 -2.92571 -1.04965 1.26885 -3.38654 -2.49528 -1.45775 -2.66349 -1.95963 -1.08444 -1.25741 0.673967 -1.33434 1.55489 -3.40599 2.34799 1.46838 2.92087 -0.532527 -0.14711 1.36115 -2.31291 -3.05228 2.08525 1.82919 -1.93565 -0.675016 0.163314 -3.45888 1.3695 1.1188 -3.36943 1.95163 1.50637 -0.066515 2.90121 0.826721 -0.734385 3.19648 1.91173 2.43749 -1.12162 2.98472 1.61965 -3.0129 2.80146 -3.19662 -3.16383 2.01984 -0.67066 -2.93007 -3.39511 -1.78389 -0.618831 -3.32014 3.12591 3.01533 -1.88075 2.05334 -1.8509 3.10122 2.12321 -0.444575 -1.00377 -3.07078 0.906387 1.64074 2.72134 1.4839 -1.57405 -2.54734 -0.209823 -1.86692 -0.977963 2.21195 -1.8744 -0.566399 1.02867 -2.18069 3.54885 0.286863 -0.353708 2.14202 2.12566 -2.85902 -0.540414 -0.651105 0.986741 3.4186 -3.26749 1.18099 -0.669377 1.62876 2.39323 3.05959 2.4446 -0.175356 1.51698 -3.28055 -1.55674 3.03099 -2.13727 -0.450236 -3.28877 1.59705 2.67245 -0.837666 1.66841 1.53525 1.15977 -2.56232 0.244554 -1.67189 -0.717325 2.58683 -1.64114 3.23282 -0.952972 0.241845 -2.9872 1.11314 1.11108 1.85032 1.67295 -3.4565 -0.173141 1.59509 3.38162 2.84049 -3.45048 -1.73168 2.58713 3.17502 0.550796 -2.19212 -1.51757 -1.87464 -1.24736 3.66359 1.18991 2.8366 2.57883 -2.31188 -2.53949 0.423239 -1.81591 0.309707 3.79891 2.46199 0.056913 -0.54348 -1.37758 2.26062 1.20126 -0.826036 0.810148 -3.01005 0.79768 2.30891 2.29499 -0.451971 2.25656 -1.7425 1.66981 2.94589 -1.27614 2.76516 1.4071 -0.426563 -4.53371 -0.463603 -4.19274 -1.96843 1.64875 0.982986 -1.71229 -1.91523 -2.02441 2.60306 2.03204 0.390991 3.15929 -1.13037 -1.8746 -2.28385 2.60942 -2.34702 -2.40778 2.53296 2.48446 -2.76625 -0.386736 -1.20639 -0.680089 2.06276 -3.25103 -0.865768 -2.25524 -3.3673 -0.52356 -1.52966 -1.11359 -2.30224 -1.7931 -0.24867 -0.340257 -2.51374 2.80519 1.46196 -1.79754 -2.78554 -2.51201 -1.6965 -0.546852 2.37444 1.71868 1.6446 3.06814 -0.588914 1.1698 -3.1746 -4.29828 -4.45518 -3.02221 -3.46199 -4.472 -1.64577 -3.36074 -3.03011 -1.23408 1.42214 1.01266 0.954018 2.83381 -2.17534 -0.344122 1.13683 2.82692 -2.54224 -2.3677 2.18024 0.807841 -0.853723 -0.615663 1.21219 -0.128496 0.273421 2.56337 -1.6395 0.660835 -3.75538 -0.427188 -2.67266 0.803301 -2.55586 2.68882 2.71078 2.623 2.8317 -2.88027 1.24715 -0.308807 0.179059 -2.19104 -1.87001 -0.308331 -3.03407 -1.76103 -0.0485 -3.02087 -0.823457 1.92052 3.4834 -0.431626 -0.631157 -0.410323 -1.26907 1.73884 2.35367 1.64469 1.23414 -2.71037 2.36805 -2.91247 0.859653 1.22859 1.73547 -1.50924 -0.453024 0.603414 1.49021 2.53946 1.54233 2.79883 -3.40709 2.27168 0.243366 2.89094 1.19733 2.14782 1.41949 -2.86433 -2.08695 0.988646 1.9639 -3.84263 0.394241 -0.0412336 -1.55869 3.55997 -0.558434 -2.57908 3.68889 0.00955118 0.776362 1.89914 1.62223 1.81219 2.2348 -3.50887 3.37061 0.223906 -2.40255 2.93691 -3.28814 1.65945 -1.61186 1.77437 3.53 -1.7341 -1.14283 -0.593563 -2.79901 1.1223 3.40741 0.788916 1.26998 0.358365 -0.800888 3.59811 -2.20515 1.96303 2.30883 2.03584 2.23936 -0.7219 -1.57044 0.349506 -0.208315 -2.31524 2.38559 0.00374092 0.272846 -2.52327 0.249784 -2.41803 0.468817 0.12026 1.1616 2.61662 -2.20349 3.38335 -2.61213 1.88059 -0.35637 0.297566 -2.76671 -3.1162 1.2212 1.54609 1.5539 0.69445 1.29359 1.18403 3.08026 0.256812 -2.0039 -3.09308 -2.96811 1.95716 0.501428 1.05511 -2.50038 2.90946 -2.86918 -0.142277 0.531828 3.25114 -0.777462 -1.10267 -1.92566 1.23381 -1.09385 2.96242 0.225661 2.29838 1.47684 1.88463 1.39687 -0.815904 0.321847 -0.0617903 -0.454138 1.91473 -2.17095 -0.278661 1.99036 -2.70708 0.543943 -1.0237 0.441098 2.22234 -2.03274 0.418244 -2.44577 -1.06511 -1.48068 1.52297 -1.8281 1.4859 2.71229 1.6124 3.30346 -0.13522 -1.9126 2.05673 -0.725067 2.31131 -2.08141 3.33162 -0.147717 2.70591 0.823602 -1.90068 0.0260817 -2.91162 -2.32861 -1.28594 2.41104 1.48737 2.215 2.86462 2.14157 1.72897 -1.06334 2.9618 2.17044 -0.937873 -2.30959 -1.94815 -1.84366 3.47034 -2.26186 3.80142 3.51919 -0.493833 3.25536 2.17219 0.433566 -2.34726 1.0861 -0.0674833 0.794754 0.330635 3.41742 -2.65022 -1.20634 -0.755228 1.68744 -3.01872 -1.87602 -3.07603 0.326082 -3.55689 -2.13646 -2.65003 0.83304 3.32539 0.272194 -1.35823 -2.45445 -2.26128 -1.88975 1.78501 0.673851 1.49135 -1.49011 0.774796 2.5157 2.89908 2.69734 -0.321314 1.33718 1.56042 0.206043 1.398 0.360862 0.149657 0.234051 -3.30033 2.10777 -0.439259 -2.39458 -3.54734 0.951514 -1.89276 1.00262 0.722723 2.35847 0.329204 -1.50056 -1.30346 -1.75124 -1.13831 0.280386 0.45425 1.3136 0.440202 2.06591 0.473371 2.41356 1.06304 0.846471 -2.20281 0.846813 1.54887 -1.02121 -2.22735 -2.9602 0.378416 -4.44441 -2.59351 2.26542 -0.803063 1.83751 -2.16245 0.121268 -0.215768 1.87849 0.414338 -1.85718 1.54302 1.80587 -1.88841 2.06199 1.96336 -2.17997 -3.0536 -1.992 -3.26212 1.74052 1.49464 1.05397 2.42473 1.53607 0.234975 0.191128 -1.00389 -2.56756 1.37268 1.63962 -1.61395 0.588896 1.88065 2.02529 0.780586 0.88189 -0.883759 0.605785 3.69159 3.31376 -2.673 -2.61136 -3.34482 1.33544 0.212089 -0.0710658 -0.722702 -3.0614 0.844696 -1.76482 1.11403 2.20009 -3.43413 -3.18037 0.468865 -1.27021 2.81792 -2.92044 0.172156 1.58806 0.477673 2.95133 -2.58149 -0.411589 -2.40356 -1.24814 -1.60586 2.96619 2.63128 -1.50334 -1.80907 -0.130519 1.69897 1.55594 0.365922 -2.0212 -2.62096 -2.45434 -2.33294 3.48441 -3.06526 -2.2092 1.73959 -2.91058 -0.312141 0.0456057 -2.77545 -1.56763 -0.578371 -2.39944 -2.01469 2.38522 -2.09552 -0.925299 1.21456 2.99128 2.2933 -2.38561 -0.107444 1.37729 -3.08932 3.46351 3.10813 0.657631 3.21445 -0.972316 -1.90938 -0.742685 -0.424625 -1.97445 -2.63422 2.90375 -2.7293 -1.55956 2.93874 -0.222636 -2.71732 -2.17574 -1.69066 -2.10711 3.01365 0.337804 2.46903 2.35912 2.91789 1.05047 2.51658 0.399256 -1.5543 -2.51332 -2.70482 0.852305 -0.829487 3.35451 -2.45066 -0.521026 1.12443 -0.468083 -2.11742 -3.30259 -0.0613031 -0.57988 -2.14018 0.0558725 -4.11214 -0.244177 -1.18112 -0.374726 -1.29509 -0.543144 -2.11888 1.84842 1.55354 0.189882 -1.27547 -1.43065 -0.727244 -0.441427 -2.17571 -0.704888 -2.57753 0.750947 -2.42139 0.823409 1.18362 2.9588 2.06229 3.25204 -0.1284 0.0557478 2.92717 2.13995 -3.43178 -2.4065 -1.73804 -0.431562 -0.771338 -0.381163 -2.19928 2.82083 -2.55371 3.39885 -0.30705 1.39035 -3.20365 -1.72293 3.27773 0.265813 -0.549063 -1.47858 2.1381 2.89926 2.82709 -2.38127 -0.947368 1.49842 0.588718 1.2194 -1.07855 1.25085 -0.672365 -0.402302 0.40148 0.014546 3.29582 -3.13015 -3.26241 1.23147 2.23901 -0.588628 -1.81747 3.19328 3.47552 
-3.27529 3.44828 -1.87069 0.518399 1.1088 -2.97753 1.86406 -2.60624 -1.187 -0.529916 1.46621 -2.52673 -2.44986 0.654636 3.23705 -3.02656 1.68431 0.547725 -0.114524 2.3462 -1.98282 -2.34156 -1.08703 1.84397 -0.319898 1.19069 -1.64281 -0.340941 1.06161 -2.75145 1.59147 0.311012 1.75286 -3.33078 -1.91843 -3.07892 -0.491057 -0.729057 -3.30922 -0.312523 1.54171 -1.9239 1.85613 0.315736 3.37302 0.209515 1.81023 1.17929 -1.29747 -1.86464 -3.18032 -0.13224 -3.38841 -1.76893 -3.48556 3.46845 -0.183159 1.07322 0.781545 1.28462 0.761344 -1.98287 -1.85418 2.50481 0.665979 -2.85128 2.4068 0.640009 0.615562 -1.72925 -0.606371 2.12512 0.692784 -2.7481 -0.475312 1.9151 2.33761 -0.388695 -3.37051 0.275718 0.332066 -0.910634 2.66196 -1.3577 0.223241 -3.44753 -1.78224 -2.249 1.20887 -3.36365 2.68345 3.40629 1.87879 2.0018 3.31935 -2.25502 2.06195 -2.74517 -1.19297 -0.650352 -0.441126 2.75263 2.59422 1.20227 3.39316 -1.78513 2.55721 -0.161909 2.24934 -2.61743 0.995565 2.16372 -1.26627 -0.52946 2.07371 0.41165 1.79676 -1.26763 0.869013 0.829651 -3.04531 2.71359 1.27073 -2.73685 1.51331 1.65943 2.96105 -2.51177 1.5772 -0.193703 0.28126 -3.01573 0.426636 -2.43847 -3.09191 1.36823 -2.86377 1.24657 -3.48113 0.565802 -2.43414 -0.750862 -3.2015 -3.488 1.91735 2.49644 -0.584211 -0.643023 -3.11259 1.55552 -0.103679 2.10781 3.21015 -0.191302 0.0571182 1.08188 2.72664 1.13756 1.0594 1.15957 -1.46813 -1.86672 2.45811 3.10721 2.92296 -1.46156 0.737466 2.67585 -0.0811187 -0.613009 0.0120364 -3.41024 1.01909 2.80516 -3.16411 -2.41006 -0.624468 0.751976 1.02036 -1.25503 2.27591 0.594824 3.75838 3.62473 -1.92708 -0.954845 1.54658 1.30448 1.87106 -2.29093 -1.44892 -3.58616 2.79557 -1.68428 1.08219 0.626904 -2.79847 1.87018 -3.30844 -2.25574 -1.67955 0.427202 3.02764 0.938343 3.32965 -2.57351 -0.935025 -2.54191 0.741319 -0.242921 0.0253647 0.839133 2.97566 2.4275 -0.544171 -0.145993 -1.04029 -3.14667 2.65672 1.30963 0.202811 3.54605 0.234139 2.40112 0.867493 1.33687 1.81053 2.26508 -0.439371 3.05329 -3.01462 3.4687 1.08501 0.857841 3.24015 2.61504 -2.09218 -0.328291 3.52389 -1.78136 0.941834 1.12386 -3.5414 -3.47127 -1.94158 -1.05051 -2.15093 -1.62616 0.244204 -2.77365 -0.672864 3.03844 1.09871 2.85839 -1.11036 2.71007 0.148914 3.62818 0.886841 3.02011 1.85722 0.400295 -1.22451 2.81664 -0.120371 0.607204 0.606011 2.7462 -0.490976 -1.8416 2.90195 -0.64071 1.54071 2.86493 -2.48393 1.56109 -1.67498 -0.659044 3.26011 0.581953 -2.86393 -2.02043 1.55331 -2.5338 -0.628203 -1.20317 -1.65198 0.808307 -1.17344 2.29478 1.11717 2.15418 0.0499479 -1.59969 4.69048 -0.328219 2.04623 -3.04818 -3.78339 1.99505 2.66372 -0.984323 -1.50366 1.61108 1.36992 -0.829532 -0.0712854 2.85085 1.81747 -2.21356 3.01786 0.282673 -0.0327071 -0.700224 1.78272 1.14136 0.202446 -2.23342 3.34715 -1.40697 -1.86581 1.54322 3.80645 1.96148 -2.81284 0.915439 -0.848971 2.35897 1.44351 -0.282197 0.420728 0.414762 3.12467 2.56862 2.08367 -0.575125 0.633581 2.02104 0.453905 3.32364 3.40052 1.18031 0.559189 0.537584 -0.722075 1.17808 -1.60747 -0.639318 0.629883 2.14543 -0.591916 1.17887 1.03223 0.556254 -3.45587 -1.98804 3.07024 -2.69064 3.41723 1.8494 0.35023 1.62118 1.63183 -3.32579 -0.188914 1.50612 -1.87783 -0.668707 -2.50612 3.19173 0.364243 -1.47592 0.616316 2.80998 -0.413377 1.63859 2.05803 -1.99984 2.64707 -2.07586 1.98946 -1.68754 -2.44739 -1.94522 0.224621 3.5216 3.30505 0.476879 2.28542 0.89618 1.51453 3.35141 -1.07677 2.09162 1.69173 2.34034 3.29105 -2.99735 1.08651 -0.0518097 -3.28751 -2.64872 0.686834 -3.68733 -2.77753 -2.75886 2.77933 -3.4126 1.14698 -4.21212 2.25765 1.73513 -1.64226 1.22239 -1.69565 1.48446 1.16749 -1.16494 -2.37124 2.9369 -1.51178 2.10068 1.71627 0.61979 -0.600164 -0.533672 -3.34383 0.799931 -2.92121 0.26588 1.43861 1.88187 1.40377 -2.83335 -1.10773 -2.24255 0.634498 -1.09747 -3.02376 -2.92145 2.09192 -1.99077 -1.02685 -2.0536 -1.98016 -1.90123 2.23987 1.82469 -2.50308 -1.84721 -0.273264 0.535778 1.66105 0.774211 1.26238 -1.87623 -1.09231 0.672174 0.110182 -3.48332 -3.41287 -0.322348 -2.76033 -3.34855 -0.960106 -3.94205 2.0425 -1.72421 1.50468 -1.2868 1.19852 -2.4672 0.0253466 -0.469169 -0.230883 3.34224 1.69512 -2.14908 2.94208 -0.188284 2.62317 -0.222833 2.53883 -2.27537 2.54259 0.581845 -2.50619 -0.249439 3.57441 -0.852805 1.18434 -1.18597 -2.42933 -1.83328 0.759421 0.828066 -0.428723 1.60576 3.23316 -1.14503 3.47347 -1.37636 -0.868934 -3.42939 0.594652 0.560106 -1.11867 2.17037 -3.12063 1.98408 -1.9955 -2.89911 -2.73773 -2.06934 1.43985 0.0879775 3.32171 3.09474 -2.14566 -0.534498 -1.48646 -0.692593 -0.720733 0.395322 3.40582 -0.252614 -1.74653 -3.27978 0.0518864 -0.957811 0.841666 3.48427 0.973737 3.38227 -3.04083 -1.02457 -1.85448 0.822088 0.912673 -0.992439 1.06952 -1.11126 0.330208 0.158754 2.35525 0.898736 -0.0750386 1.89577 0.520216 1.01291 -1.8797 0.247927 -3.00603 0.605654 -3.05433 2.02964 2.31304 -3.17224 -2.53184 0.61799 2.48417 -3.25438 2.52546 -0.771837 0.789306 -0.558464 -2.76686 -1.41332 -1.84339 3.72983 -1.95022 2.98999 2.73302 1.87738 2.67766 -1.59009 0.79689 0.177998 1.22794 2.75557 -2.56699 1.8437 -2.90802 -3.64362 1.14775 -2.94341 1.27532 -2.54768 -3.22979 -1.23693 2.77823 -3.38406 -1.56941 -2.48764 1.84789 3.32831 -0.14989 -1.85837 -0.424683 -0.110727 2.54856 3.33059 2.16556 3.92884 -2.27333 1.08379 1.56781 -1.53036 0.409792 0.360953 1.53849 -0.410907 2.06269 -1.7417 1.72076 2.55022 3.03288 0.197791 1.15574 2.97905 1.08185 2.70056 3.20773 -0.442977 1.79715 3.53245 2.46633 -1.19267 -2.24985 -0.677847 -2.55131 1.36416 2.2756 0.773982 -0.694383 -0.0706022 2.53829 -0.910482 0.208794 2.54171 -2.82011 1.48157 -1.64836 1.41188 3.19939 -1.01476 -1.2878 -0.986338 2.9151 -2.5188 -0.359621 3.39015 -1.19453 2.81335 -1.23319 0.725006 3.22979 1.70344 1.98836 -1.37693 -1.20712 0.649102 1.5597 2.38741 2.05961 -1.50191 0.599327 2.64041 0.956134 -1.14813 -2.67521 3.49823 -0.0823064 -0.613115 -1.67879 3.17417 2.15832 -2.64283 -0.815936 -0.521398 3.50861 2.7317 3.14072 2.67831 -3.31141 3.29496 -1.68974 -0.891682 1.77259 0.650651 -0.922393 3.0693 3.35815 3.323 0.533603 0.913325 -3.09952 -0.490159 1.84469 3.36433 -0.145808 -0.2807 2.79001 -0.777961 0.147812 0.712101 -1.03949 -0.753961 2.63825 2.22742 1.59948 3.14167 3.15815 -0.114454 -3.09807 3.01399 -3.35074 2.44317 -1.06978 0.274555 0.724516 2.84467 -0.962464 3.09956 -1.21292 -2.9895 1.41556 -0.570903 2.85258 -2.5596 1.39455 -2.83889 -1.77845 -0.520255 -1.05194 1.30944 1.36313 -0.176098 0.903396 -2.35521 1.60629 1.56687 -0.945867 -0.58099 -3.0992 -3.14972 1.67114 -2.26561 -0.562037 -3.0844 3.45402 3.43019 1.38515 0.186987 3.35494 -0.894047 0.902566 -0.898078 0.876337 -2.31215 -1.04686 1.4252 0.958862 2.59235 -3.03037 -3.18577 3.028 0.813394 3.24007 -3.15286 -0.0106404 0.97001 2.93595 -2.85881 -3.29918 -0.75608 -0.145356 0.0551767 2.40414 2.62952 1.3385 1.40718 1.93002 -1.77432 
3.18315 1.21422 2.05201 -0.648686 0.588902 -1.79956 -1.69107 1.29385 -1.25564 2.93658 0.498105 2.09436 0.881898 -2.70032 -2.20321 0.956517 2.44089 -1.601 -0.87326 2.48052 -2.26349 -1.88011 3.34508 -2.28895 -1.02377 1.2605 -0.291621 3.35848 -3.3564 0.485341 0.0336644 -0.445979 -0.112595 3.46746 0.796671 2.44796 -3.22903 0.0139667 0.50074 -0.67328 0.534105 3.06262 1.80029 -2.00023 -1.96324 -0.205235 -0.421094 0.973512 2.69824 -1.51993 3.38879 -3.05502 1.29609 2.68998 1.87341 -3.32404 -1.79819 3.22343 2.27799 -1.73301 -0.69736 -2.74192 2.58957 -1.64713 1.16393 1.77154 -0.165208 0.63706 -0.900807 -3.21219 3.19277 1.63484 -2.4379 -1.58814 -3.10584 -1.92988 1.79233 -1.42565 1.41778 2.65241 2.7673 0.11022 -2.2694 0.844227 -0.623648 2.45729 -0.138481 -1.8529 2.04725 -0.27749 -3.29369 1.97122 -3.51279 -2.58307 2.85208 -0.534346 -2.63992 1.52699 1.06291 -1.14383 2.89603 -2.38072 -0.564573 -2.28984 -0.48675 -0.714049 1.3521 1.89635 -2.69168 2.59944 -2.39354 -1.01577 -0.00746932 -2.67023 1.76284 -3.1872 0.0580353 -1.08131 -2.48257 -3.1679 2.54412 -3.56261 3.02031 1.46097 2.25811 -1.60282 -0.265499 2.29071 0.758542 1.0901 1.95638 -1.03252 -3.15457 -2.71658 2.19478 -1.84531 -2.94869 -1.66553 -0.0924453 1.51675 -0.667269 -0.776219 1.25458 1.29382 2.38753 -2.07419 -0.546444 3.53314 -1.65987 2.68191 -1.63831 1.73477 -2.76867 -0.324757 2.90003 1.67404 0.426857 -1.89752 2.60095 -1.2536 2.20604 -2.79464 3.17051 -3.09884 1.81644 -1.91793 -3.2087 1.03691 3.47229 -1.83222 2.91166 -0.0476882 3.39842 2.51064 0.882856 -0.879467 -2.99337 2.06764 3.70112 -0.440401 0.641352 2.56428 -2.2637 2.82102 -0.0899807 -2.45495 -1.24058 -0.262425 -0.474668 0.275415 -2.5783 0.227102 -2.33147 1.80639 -3.49778 0.514651 2.0324 3.33982 -1.70144 -0.755209 -2.57025 -2.08593 2.7331 1.14114 1.53568 -1.0345 -2.71751 -2.6338 -2.83987 0.771825 1.28953 -2.72564 3.27873 0.535757 -1.90971 3.58802 -0.958259 -1.2539 0.86795 3.19589 -3.5977 -3.24027 2.11861 -0.551963 -0.420302 1.96055 -1.19763 0.0201678 -1.66353 -1.59623 1.91421 -1.46382 -0.260298 2.62495 0.93758 -0.843558 0.382189 0.639116 -2.64843 1.24016 1.43043 -1.10936 -1.53795 0.407934 -0.919691 -0.187765 2.95223 2.32499 -0.592156 -1.46578 2.03601 3.3753 2.18788 -1.71371 1.57981 1.24586 -2.53718 2.81342 -2.79306 -1.04957 -1.78689 -4.16791 1.47489 0.416277 -1.87222 0.911706 -0.947787 2.63618 1.37741 1.21633 0.506678 -2.32228 1.34192 -3.46574 0.951779 -0.737931 1.13445 -3.39927 -2.90545 -2.44247 -0.011993 0.788264 -1.07916 -0.72167 -0.540822 1.97898 -1.31972 2.74265 -0.536231 -2.4076 -0.450297 -1.15295 -2.79756 -0.875388 -0.779059 -1.94989 0.485425 -2.0266 -2.81087 0.90574 -1.52646 -1.27108 -0.947657 -1.36645 -0.905442 -2.03461 -1.36338 -2.48267 -3.13801 2.29579 -0.309247 -2.63427 -1.57068 -1.96427 -1.97673 -2.39071 -1.62147 -3.03059 -0.230751 -2.25005 -2.28305 3.2605 -1.66512 0.591365 2.43905 0.283332 -0.468035 -1.89119 1.11789 0.153343 2.07592 1.89613 1.67977 1.72091 1.22768 -3.47924 0.578942 -0.622551 0.0423764 -2.8575 0.944076 -3.43651 2.18105 -1.92477 2.04576 2.59915 -1.17351 2.21025 0.927358 0.380255 1.59421 0.307232 1.10455 1.84842 0.427913 -1.30655 0.089478 -3.6798 2.64723 -0.600091 -2.75485 -0.89505 -1.93359 2.39934 -3.4014 -3.36675 1.54472 1.43463 0.0633639 -2.01211 2.51457 0.428288 0.701316 2.58397 1.2542 0.259887 4.25531 2.53515 1.86248 5.43597 -1.70079 1.60284 -0.610202 -2.34495 -1.71384 0.733374 -1.6473 0.707798 -3.38653 3.29164 0.457914 -1.82638 -1.09931 1.07927 -1.50013 2.28621 0.513775 1.62182 -2.96849 2.13969 1.81212 -1.60631 3.43226 2.47134 1.5004 1.2275 0.882443 2.03262 2.39559 1.32912 -1.70441 -0.1211 -3.00861 0.504449 -1.00758 1.00646 1.28113 1.99702 -2.09954 -0.947975 -1.60532 -2.56108 1.12173 -2.09424 -0.778457 1.52204 1.53485 -3.10499 -1.91164 -3.31136 -0.0650439 0.148932 2.08529 -1.37751 -1.40811 2.41084 -1.87153 -0.115824 3.53236 2.72741 -2.22954 2.78889 -0.36037 2.32858 1.86684 -3.48537 0.288223 0.641323 -3.46143 -0.358141 0.751237 -0.345284 2.11928 -3.70863 -0.806777 -3.332 -3.92066 -3.25761 -0.81984 2.26265 -0.514335 -0.939354 -1.72314 2.6832 -2.67554 -1.5321 1.22373 -3.10761 2.67985 1.70577 -1.7199 -1.90361 -0.0619209 1.2775 3.41662 -0.530111 1.24266 2.72864 -1.28562 2.62412 1.08138 -0.139551 -3.65957 -3.14586 -3.33717 -2.61791 2.13382 1.97333 -0.931407 -2.98685 -2.68915 2.0293 2.24264 0.291321 -3.55372 -1.1639 -0.678754 -0.307403 1.23443 -2.36635 0.00516174 -0.961262 -1.02433 1.10194 2.22631 -0.121225 -1.18048 1.83548 -0.81079 0.571358 -2.3324 -2.65262 -4.06938 -2.60647 0.950342 -1.44556 -1.34205 -0.294122 1.16817 0.755356 1.5375 1.10416 0.353586 0.0748449 1.8292 -2.02652 -3.23417 2.38011 2.47062 0.645092 -1.68937 -1.70975 -1.13698 -2.32773 -3.16503 -2.76185 -1.67919 1.82504 0.439752 -0.908314 -0.463997 2.57474 2.46835 2.93242 3.0354 -2.61251 -3.07573 0.368603 -3.2719 2.37214 -0.161615 -1.0197 -0.0396398 -0.863108 -1.66986 0.202328 -0.310554 -2.10336 2.38888 1.64329 -2.08382 3.41461 -1.10474 1.61385 -0.693316 -2.48734 3.02256 -3.55015 2.01689 -1.41718 -2.39643 -3.28532 -1.66188 -1.79792 -3.54591 1.7086 -0.197522 2.56433 -3.32611 -1.68447 1.64862 -1.86272 -0.645502 0.9742 -2.24852 0.561437 3.15578 2.3693 1.44331 1.23163 -0.075595 3.0279 2.46913 -1.54467 -3.0357 2.69737 -0.777555 2.19329 1.77903 0.156468 -2.80719 -1.80817 0.921064 2.90919 0.735153 -0.217903 -0.555896 -1.00542 2.09417 -1.61293 -2.83941 -3.26141 -1.79137 0.723959 -2.81033 1.63825 -2.85867 -0.464018 3.38349 -3.39163 -0.786984 1.65624 0.565114 2.03393 -1.59259 0.501272 -0.490791 0.478332 2.15557 -2.83673 2.94253 -3.10643 0.740291 -2.57692 -0.156475 0.938233 -3.3 -3.4735 -1.37471 2.13663 -1.23529 -0.624617 -2.70784 0.00816373 -2.85397 3.10234 3.34321 1.25113 -3.26739 0.630479 0.884511 -1.09231 -2.5971 0.272477 3.87854 0.960772 2.04772 2.78881 -2.26752 -2.12921 2.00735 -0.485135 -1.34033 -1.49652 -2.83879 -2.01992 -3.31172 -3.50762 -2.19511 -0.627874 2.93296 -3.15295 -2.48765 -2.34515 -1.34077 -0.00649624 0.127013 1.24214 3.14889 -2.7775 2.00326 -1.09209 -1.28025 0.119788 -1.66045 -2.61123 2.53133 2.89118 -1.18342 3.1939 3.26333 -1.9858 -0.390028 1.40786 2.43298 1.95542 2.932 -1.38805 2.19593 -2.17078 -3.28859 2.4441 -0.402224 -0.314005 0.0466467 0.643077 3.05804 -2.73774 2.52903 3.35124 -1.86778 1.75161 -1.96007 2.77991 -1.65283 1.36185 -3.09927 -0.0801368 2.33909 -1.4603 0.380573 -1.95211 1.3307 3.20783 -2.11743 1.48397 0.948899 -2.09002 -2.61984 -0.0268506 3.08547 -1.9813 -1.94534 -2.55502 -2.52691 -2.98416 2.76728 -2.68119 2.76832 0.677617 1.61237 1.84176 1.66208 -2.31044 -2.23949 1.60827 0.172057 0.871624 2.24043 2.82394 -0.521533 0.681616 0.280063 0.355095 -2.33104 -0.955583 -3.35553 -3.33825 -0.114565 -2.67559 0.601024 -0.453758 -0.909381 2.87845 1.20949 0.911498 -1.02509 -1.5081 -1.50387 0.848789 -2.99022 -0.977162 -1.32169 1.02965 2.72784 -0.163901 -1.01173 -0.59716 -1.91053 -1.5519 -2.17559 -1.35131 -0.55878 -0.998309 
1.21584 2.38376 -0.174753 0.01765 -0.598416 -2.90147 1.26187 -3.16476 -0.179361 0.694706 -0.237538 1.71007 -1.21114 2.11005 -2.41741 0.325676 -1.4671 -0.822228 -2.53141 -3.12268 1.89184 -2.9609 -2.08769 1.9273 -2.88758 0.856946 -1.36862 2.03825 -2.1284 -0.84968 0.256667 -1.17905 -0.384796 3.36562 2.84127 2.54584 2.01138 0.885954 1.13112 -2.86749 1.93595 0.145532 2.79532 -2.38164 -2.83153 -2.46497 0.909561 1.31229 2.14573 0.710431 -0.666205 2.71987 1.76338 -3.27882 2.92059 3.41613 2.87017 -1.16125 2.24495 -0.0809026 -3.27972 1.16521 2.68998 1.97665 0.15002 -2.81642 -2.45872 -0.00856585 2.13219 0.0748841 2.38752 2.88133 -0.00429208 -0.531713 0.597435 0.389498 3.07626 -1.1021 0.552533 -0.111211 2.27984 -1.52894 -1.47737 -1.94373 -1.30846 1.69739 2.07905 -2.02901 1.71247 0.996228 -3.03177 2.72762 -3.02222 1.34699 -3.56252 -0.896115 -1.13223 3.14859 -0.0403996 -2.77747 0.287579 1.70372 1.77393 -1.21173 2.87712 -2.41865 0.0879251 1.48304 -2.03545 -3.12063 0.86043 -0.710933 -2.63031 0.692523 -2.57152 1.03596 -0.453235 2.06132 -3.26812 2.32394 -2.05022 1.24707 -3.20123 1.39165 2.10519 3.15986 1.02276 0.942962 -1.6263 0.0559421 1.93564 3.37285 0.518655 0.976321 -1.95897 -3.1108 -1.37333 -2.31301 -0.403351 -2.25006 -1.73262 2.43202 -2.90293 0.641043 -2.54993 1.21754 1.99438 3.14519 2.87319 2.75368 -1.10334 1.73522 -3.00621 -2.45864 1.08344 3.43431 0.22608 -1.90663 -1.9464 0.700464 0.205041 -2.81294 -3.35738 -2.07287 3.05934 0.500331 0.211137 3.13216 2.65802 0.463288 -1.04932 2.71381 -1.98094 -1.5552 1.25025 -2.51021 0.699691 -0.470322 0.949591 3.60508 0.512165 1.59337 2.56011 -0.117656 -2.10726 -0.43478 -0.626376 2.33559 1.83579 0.202506 -3.01989 -2.40321 0.531089 -3.5703 1.78989 -1.13602 -2.63143 -2.6928 -2.41847 -2.46717 -1.06028 2.68188 0.678849 -1.88155 2.08292 -2.62285 -1.27648 -0.193532 -0.395555 0.777246 0.294899 -0.89309 0.628506 0.277265 0.821504 -1.01341 -3.23238 3.16068 -2.45864 -4.05178 -1.26745 -1.78508 0.92083 -2.13016 3.22939 -0.818531 0.72488 2.34529 -2.8068 3.03078 1.93423 -0.950215 1.0799 2.07353 -2.7426 -0.330904 0.905242 1.79927 -1.13783 0.903982 0.0335355 0.453767 0.603588 -1.81405 2.17687 2.10134 -3.24223 -3.42874 -3.91579 0.350449 0.463464 2.15614 2.86403 -1.66499 -2.33718 0.45518 -1.51295 2.89718 -0.92236 -1.43165 -0.908353 -0.986893 -3.49239 -1.01607 -2.52956 0.525634 -2.10868 0.658484 1.10095 1.38748 -1.63857 2.2613 3.44582 0.753875 0.80287 2.66106 -0.994525 0.406641 -2.4419 2.15047 1.83356 2.05913 3.44655 1.33024 1.29018 -1.52649 1.00758 1.57913 -2.94271 0.362412 -0.822365 -1.52761 -0.570657 -1.11657 -1.12468 3.21833 -2.69004 0.0234654 0.498801 -0.956909 -0.834754 -1.34445 2.08921 1.24676 0.149214 -2.83479 3.33017 -1.96829 -0.27139 2.6373 -2.82911 -1.98158 2.99922 -2.70928 -0.0274803 -3.22325 0.421068 -2.29751 0.806116 2.11698 -1.11461 3.37236 -0.651893 1.59238 -0.0928176 0.459159 1.36952 2.23601 -0.516917 -1.24625 -0.276992 -2.52893 -2.19546 1.75504 2.79014 -2.98303 3.33896 1.34215 3.42596 3.46663 -2.43212 -0.986086 -2.91809 1.94646 0.594813 -2.08645 -2.68507 1.11688 2.0999 -0.968965 1.11862 1.17491 -3.78522 1.31646 -2.43098 -0.0673975 2.61867 -0.449549 1.95027 -1.12264 1.10197 -1.54568 -0.49477 0.342478 -2.50341 3.0884 3.35559 -0.379751 -0.0902263 -3.15475 -1.19356 1.19737 -2.16826 1.24152 -2.87615 2.03178 -2.3185 -2.87778 2.20614 0.646936 0.542904 0.318709 -3.4759 1.11596 -0.867134 1.01366 2.21839 -1.5308 -1.17169 -2.32143 0.0851056 0.689233 0.742804 -2.7754 -0.0817654 -2.02559 2.80715 0.568609 2.2443 -1.31327 2.61583 1.28493 -0.400884 0.760312 -0.81965 -2.6505 -1.72216 -1.11398 1.4501 -2.68208 0.0457256 -1.57093 -3.15577 -1.4033 1.12051 2.38883 -0.312534 -1.50224 0.501295 -2.03554 2.08652 2.00513 -3.32256 -0.255002 -1.63716 -2.09141 -1.22167 2.39241 1.77476 -0.764322 -0.63083 -3.94017 -3.19437 0.0417068 -4.48959 -0.51781 -1.08906 -1.85893 0.402013 -2.61836 3.50581 2.18688 2.90545 2.70835 1.95779 -0.504998 0.661876 -2.77721 1.05465 1.56411 0.651349 2.99139 0.434272 -1.18745 -1.5102 -0.290811 2.94892 1.16354 0.956112 0.803965 0.417278 0.672914 -1.92503 -3.61968 -3.04967 2.02508 -2.89298 -0.517117 -1.69233 -0.454906 -0.0993028 -1.64976 -3.27516 -2.16708 1.31727 -0.176405 -2.29864 1.22651 -1.88468 0.597127 1.63922 -1.09956 1.54026 0.845671 -1.27737 -0.842055 -3.74614 0.145951 -5.66878 -0.666698 -4.83287 -2.55593 -1.12009 1.01907 0.141618 1.69825 -0.454038 -2.1852 2.00575 2.5664 0.485111 -2.47332 -2.3696 -1.80644 -2.61377 -3.05441 -1.40117 -0.560593 -0.999491 2.89794 3.75085 -2.4214 -1.63861 -3.02128 -2.36061 -0.467293 -3.2236 0.290196 -2.42417 -3.05561 -2.73205 -2.61364 0.349535 0.931204 2.13883 3.14553 3.17149 -2.70044 -1.61207 -3.21178 0.956639 -1.70159 -0.560351 -3.40286 -3.106 -2.25005 -1.05777 1.04733 -1.28916 -2.56015 1.30351 -1.14541 -2.29786 -2.88704 -3.13689 -3.38528 2.34412 3.0625 1.40252 1.61093 1.95287 -0.0368578 2.36204 1.58681 -2.26737 -0.0286454 -1.36715 -2.4847 2.41214 3.20233 -3.45371 2.10914 0.671861 -2.29282 -0.652912 3.06685 -0.866858 4.03531 -2.85101 -0.489393 -0.10422 0.569239 -2.84 0.979492 -0.738548 0.388263 -0.267845 2.41763 0.125644 -2.69073 2.45632 0.78574 -1.46539 0.777829 -0.12671 1.99126 -3.45278 1.79627 1.60272 1.64468 0.250656 2.75847 -0.443501 1.64478 -0.470635 3.75334 1.696 -1.18899 3.32342 -2.4215 -1.23392 -0.196114 -0.102257 -0.867234 0.848156 -1.17411 -1.69962 -2.44316 -2.57689 -0.836343 2.40848 2.87112 1.24231 3.10478 -0.379729 0.813902 3.40798 3.05404 2.82966 1.67812 3.26021 -1.75338 -0.761184 -1.92636 0.333778 -2.10839 2.52182 0.80196 3.34931 -1.21331 2.86016 -2.00584 2.44593 1.82669 1.24459 2.46332 1.95411 -2.52817 1.98516 -0.255636 3.42096 -2.14155 -1.09241 2.73965 3.21524 -1.14542 -2.86973 1.38697 -0.942483 -1.15461 -0.438554 -0.349739 3.64517 1.15725 1.19393 1.26227 3.14511 2.97827 -2.18038 1.30971 -3.00594 -1.05705 1.84465 0.845968 -2.90942 2.52159 0.0196372 -0.0788831 -3.49153 1.36125 1.00618 -0.916939 -1.45442 -0.995202 -2.39703 2.08366 1.62786 -0.169031 -1.15254 0.558103 1.03306 -0.123756 0.220095 0.686157 -0.703024 0.653264 -0.395521 -2.49587 1.3562 -2.36403 -2.63653 -2.41849 3.1115 0.423719 -0.578277 1.7204 0.395349 -1.83131 2.60508 0.393639 -0.558388 1.93338 -2.1594 -2.79076 -0.671693 0.811696 -1.86536 -3.41001 -1.98933 2.89247 -1.75503 -3.48918 -0.0260472 -2.57577 -0.882937 2.32328 -0.471112 -2.38943 -2.25136 -2.67289 -2.75407 1.96695 2.71406 -2.71456 2.69996 -0.109017 -0.250934 2.60352 1.69695 3.06155 -0.650674 -3.19941 -3.44292 2.88695 2.94559 -1.04932 -1.74227 2.8048 -1.82046 2.1476 0.889334 1.44422 -2.52911 -1.76072 1.92055 2.44231 3.27438 -0.0832989 -0.581836 -1.82279 -1.27825 1.97588 2.49357 0.383515 0.0499941 -1.67645 1.36267 -2.24629 0.554443 -0.623249 1.46247 -2.04719 -2.11815 -1.27072 1.4162 -2.63274 -2.34597 2.13862 -2.58285 1.96422 1.48352 0.0234866 -0.118122 3.04801 2.5946 -3.34822 0.0125187 1.99588 -0.441506 1.27533 -2.77422 -1.12527 1.47765 -2.94816 
-2.33104 3.02965 -1.76219 3.42016 1.92327 -2.43448 -3.28419 1.67287 -0.659363 1.9316 -3.41295 3.00331 0.0951106 -0.801568 -0.414979 -2.05141 -1.76668 -3.19028 -1.18437 -1.84998 2.65099 0.674475 -3.05778 -2.23399 -2.51313 1.32057 0.372509 -1.61324 -1.45246 -2.04038 2.66454 -1.11345 2.17284 -0.96009 0.414168 -2.96485 -0.0945258 -2.00033 -2.48666 3.36945 1.3999 -0.42588 -2.01389 -2.24003 -0.95394 -1.8338 1.37219 1.0497 -0.250968 3.40223 1.31986 -0.230292 3.0064 -1.06669 -2.96494 3.49286 2.12616 2.63725 2.45787 0.606409 -2.15769 -0.0302829 -1.88744 -0.0749143 -3.08977 -2.80529 -2.84875 -2.33091 -1.77261 -0.860791 0.789488 2.04688 -1.28752 0.0624421 2.57213 -0.122553 -3.13966 1.29422 -1.23649 -0.165544 1.34841 -1.73466 -2.50289 -3.04328 -0.449389 1.99674 1.22354 0.729266 1.82245 -2.69225 1.51213 2.18963 2.96259 2.66627 -1.39208 -1.57181 -2.34283 -3.45329 0.226935 2.00076 -3.43204 1.94759 1.12728 -0.0724607 -0.11269 0.431626 -2.05029 -2.78795 -2.62662 2.22782 1.32925 -3.20564 -0.0275483 1.47859 -2.56166 -1.12867 -0.661721 -3.44776 2.4665 -1.33389 2.7309 0.677113 -0.870167 -2.70805 2.00802 -0.609347 1.44971 2.97638 -3.72017 -2.40221 1.37167 1.21555 2.90869 -0.523622 1.22327 -1.04933 -0.146944 1.77143 -1.66433 1.07285 -2.59297 3.39464 1.84435 -2.69016 1.26176 -0.568753 1.16925 1.39422 -3.16904 2.69416 0.0152067 1.73378 -1.55221 1.29471 -1.33754 -0.72393 -0.0276886 0.431085 -3.40637 0.330461 -1.50675 0.0615071 -3.18768 2.99028 3.3681 0.208588 2.20551 -0.427027 1.38907 -0.371723 0.676134 2.06072 0.353948 6.89812e-05 -2.69243 -0.985759 1.8957 -2.76493 -2.52799 0.856972 1.32361 -3.06722 1.795 -1.13477 1.25543 -2.7377 1.05956 -3.69737 -0.691241 1.39714 0.457812 0.160006 0.35534 0.255675 -2.44379 -2.56625 1.76324 -0.157933 1.78808 1.19405 1.37566 -2.11739 -1.38743 -0.564076 2.17776 -1.441 1.52414 -1.70884 -1.92451 1.05911 -3.8238 0.150888 2.25881 -2.07567 1.42187 -0.978911 -3.61703 1.86969 1.42496 3.10579 -1.40945 -3.02599 -3.26953 0.909228 3.19982 -2.18533 -3.11549 -0.330758 0.538034 3.02787 1.80499 -1.75767 -3.38694 -3.26459 -2.9968 1.17747 -1.21071 -4.09628 1.18244 -2.73081 -3.309 -1.02143 0.163917 -1.51831 -0.0566753 -3.09828 -1.40217 -0.317063 1.30662 2.36407 -2.76466 -1.41663 -1.46871 -0.553708 1.80157 -2.22843 3.20226 0.636519 0.768405 -1.27559 -3.50009 2.52264 -2.21184 1.55951 2.22061 -0.55622 0.26222 1.59854 -3.21033 3.09146 -2.03063 -3.14416 -1.55526 1.64288 -2.57817 -3.57818 3.07183 3.01581 -2.34817 1.16815 -2.76058 -0.529637 -0.0841937 -0.294065 1.98991 0.935138 1.40574 1.78703 -0.982684 -2.2388 -3.57309 1.08749 0.269793 -1.87028 1.91997 1.14201 -0.104595 -3.17958 1.19597 2.79404 2.77938 -0.681711 1.09451 0.626437 -3.03575 -1.72394 -1.13388 -1.84301 -1.24608 2.13509 1.0665 -3.14262 2.59983 -1.46016 -2.62068 -0.876872 -2.01893 -3.43456 -0.416896 -2.22152 2.81016 1.33511 2.47347 -3.85938 2.98915 -2.02586 -2.57407 1.56823 -0.979206 1.8341 -1.08309 -1.7394 -0.368471 2.49525 2.14563 0.127154 -0.739624 -3.27152 -2.76521 -1.77621 1.6086 -3.18524 -1.84577 -2.02166 -1.36298 -2.01735 -3.27415 -1.68693 1.24402 0.0573554 0.422648 -2.75754 2.69585 -2.79795 -1.8055 -1.20716 0.849049 -0.498539 1.94281 -1.77174 -2.62463 2.1875 -0.20448 -2.23762 0.652111 1.92848 3.36695 -0.398166 2.83561 -1.48693 0.243436 0.714741 -3.20415 -1.0098 -3.48767 -1.8018 2.47118 0.567891 -0.403042 -1.47633 -2.6721 2.9329 -0.399947 -1.87164 2.75767 0.316307 1.79061 1.31195 2.5913 3.23193 -1.13918 1.22584 -1.77472 -3.01482 2.14965 3.49498 -0.0272758 -0.234573 2.88114 3.03552 1.07852 2.07023 -2.33533 -1.72596 -2.88821 2.64795 1.53543 -0.86795 -3.59122 -3.2887 0.222448 -3.62015 -3.12848 0.402856 -2.01297 -1.48416 -0.966865 3.14998 -0.736131 -0.451625 2.27591 3.45384 1.57888 2.22389 0.235063 -0.36432 1.31493 -1.51421 -0.498171 2.7047 -2.87507 -2.08461 1.04143 1.88161 -3.38191 -2.2802 -0.065828 -2.55177 1.97961 -3.63056 -3.63406 -3.62056 -0.236722 -2.17283 -2.95938 2.05973 2.85186 -1.73697 1.52772 -3.00106 -0.693076 -1.62107 -3.46464 2.30868 1.66301 -1.51319 1.82343 2.41889 -2.49297 2.00078 -3.65639 -4.18948 -2.12588 3.11879 -2.52098 3.12393 0.631319 -1.02003 1.51174 2.67399 1.64461 -2.05929 -1.68024 -2.79112 2.8324 -1.67359 2.70166 -1.65704 -3.08731 3.13722 0.905684 -2.07353 -0.836676 2.34602 -2.25603 2.58062 -3.00459 0.418968 -3.17133 -1.89631 -2.72389 -1.55491 -0.778521 -1.60975 0.512433 -2.90599 0.03565 -0.346828 3.2705 -3.479 1.23829 2.13358 0.797471 1.21048 3.02387 -2.17701 1.43719 -2.34531 -2.75618 2.30039 -1.5179 1.75126 -2.38953 -2.83501 1.0554 0.174323 -2.37162 2.07502 -2.89586 2.2573 2.57403 -3.18394 0.913623 2.56235 1.73915 0.557563 -3.3038 1.42794 -1.12184 -0.647288 3.14485 1.45985 0.125948 -0.90205 -1.51487 -0.116943 -1.76248 1.61435 -1.29012 0.0646597 -3.13013 2.73036 -3.5243 -1.66471 -1.73249 2.58532 2.11028 -3.35777 -2.78184 1.42887 -0.265251 0.86579 1.34744 1.62942 -0.514188 2.14731 2.67689 2.92915 2.25232 0.111994 2.91594 -1.0276 -1.47083 -2.32323 0.131818 -0.648675 -2.79503 -2.4683 1.05611 -3.20698 -2.3668 1.52205 -3.83771 -1.64942 0.788497 -3.11782 0.192448 -1.00194 2.85809 2.29163 0.0357261 -0.233763 -1.34557 -3.40023 3.10451 -0.692631 1.50419 -3.46956 0.116852 -0.00457068 1.31252 0.0914022 1.93042 0.769341 -3.55201 1.53334 2.83151 -2.75971 0.976545 -3.6431 1.70819 -3.65586 1.80329 0.633703 2.64429 1.30918 -0.594563 -3.23046 2.52152 -0.389623 -0.380463 -2.29767 -0.636732 0.752009 0.559523 -2.46434 1.22316 -2.96402 -0.766387 0.39018 2.63735 1.42089 0.395182 1.44674 1.50362 1.75735 0.705139 -2.054 -2.56749 2.30077 -4.10551 1.40966 -0.0018478 -1.98725 2.20938 -1.44316 -0.69691 -0.922996 0.59861 0.760256 1.14711 -0.742947 3.14299 3.26023 1.77719 -0.82348 1.46418 2.57172 0.575998 -2.65015 2.90317 0.848075 -0.275564 -1.66412 0.955596 -2.94672 1.22686 -0.839446 2.42667 -2.91877 -3.19543 2.54226 2.7071 -2.75191 2.54628 -2.77231 -2.56688 2.2463 -2.12529 3.33489 2.66808 1.71017 -2.93036 1.61804 2.47188 -3.31406 -0.909418 -3.17169 0.684902 0.000770329 -0.98008 1.64523 2.9927 2.59389 -0.826272 -1.29284 1.68358 -0.579063 1.58463 3.29536 2.89668 -2.76667 -2.18381 -0.671602 -1.47311 -2.54533 0.00409039 -2.41138 1.19204 1.176 0.527892 1.9118 1.87197 3.43195 1.06081 0.671794 3.03986 -1.01589 2.37526 -1.04199 -2.38662 -2.80858 -0.838304 1.91388 3.19358 -0.587853 -2.08409 -2.62916 1.2683 -0.411643 -2.293 2.96293 0.991309 0.0573608 2.13868 -0.241761 1.22067 -3.3797 1.19501 -0.602888 -1.35562 -1.19184 0.0247152 -0.217264 -2.67705 -0.275199 -1.70545 3.29266 -0.225373 2.56506 0.993386 3.37035 -2.35896 0.723065 -1.57856 -1.02179 -2.53588 -2.73902 2.36167 0.372995 -0.0655959 3.01069 0.390859 0.946501 -2.688 2.95643 -2.83484 -2.37956 -2.55468 -1.68536 1.02618 -3.44758 -1.28169 -2.51621 2.11432 -1.6856 0.0439946 0.444097 -0.506767 -1.03437 -1.40068 -3.39104 -3.335 2.37097 1.89823 -2.94042 3.21939 -2.94547 2.05401 1.14539 1.35288 2.84819 0.528594 -1.82834 
1.1608 0.750263 -3.35971 3.29432 -2.88638 -2.03359 2.77324 0.731084 0.85636 -3.49444 2.13585 0.0856389 -0.472559 1.38392 2.71507 2.04658 2.57807 -2.936 3.42539 2.10708 1.42142 -0.607409 -2.11185 -3.18766 -1.51385 -2.38205 -0.822704 -0.138438 1.90152 2.29642 -1.23461 1.49245 -0.139837 2.75045 0.158769 -2.87699 1.9982 2.27486 -1.32289 -0.0782849 1.64459 -2.98605 1.42907 0.261981 1.13636 0.935682 -3.40515 -2.69453 -3.36699 -0.107044 3.30251 1.60595 2.96843 -2.41076 2.34333 0.128065 -1.44933 2.95525 2.7394 2.70685 2.2768 2.7685 2.59084 -2.22606 -0.416928 -2.49508 -1.81769 -2.00367 1.0159 2.13422 -3.32409 0.31235 1.73449 -0.815486 2.9178 -1.45554 0.0936732 0.431881 -2.67179 1.64737 -1.47925 -3.29012 -1.22195 1.07108 2.72332 -2.00733 -1.84204 -0.494642 2.06779 1.21291 -1.1714 -3.29271 -3.35509 0.483546 2.92403 2.16616 2.90549 -0.357707 0.0440323 2.8281 1.47482 -1.91482 -3.3436 -3.24483 0.344805 -0.0664378 -0.232093 2.71941 -0.103874 -2.6061 1.81051 0.338136 -3.11489 1.51743 -2.70399 -2.73866 1.8494 -0.255272 -0.322332 0.406644 1.31082 2.29616 0.576635 1.8512 1.55778 3.86807 2.21211 0.856771 1.69192 1.75772 -2.18186 -0.698547 1.9082 2.71289 -1.43632 -2.78294 -0.0492087 -0.506639 2.70293 -0.780198 -2.59088 3.0839 0.926769 -2.32799 -1.8984 2.60157 -0.489342 -1.76167 1.65543 1.40188 -0.181811 -1.12377 -0.844105 -0.608933 1.32617 1.52905 3.21157 -0.201997 -0.11924 -1.94772 -3.1882 -0.0421085 -1.44058 -2.65543 3.07107 -1.97081 -0.324276 -1.15408 -2.63733 2.73758 0.757565 -3.38531 0.934006 3.46988 0.497567 -0.266831 -3.05973 0.832965 -1.87828 0.110305 -2.56412 2.65102 2.9373 -1.53517 -1.88885 -1.30306 -0.755496 3.23538 2.53105 0.320493 1.59376 -2.95205 -1.36199 -2.84571 -2.83072 -2.38024 -2.40154 -2.30869 1.32742 -0.188676 1.70567 3.33678 0.52981 2.06441 -2.02308 2.5943 -2.64766 2.08313 -1.60506 -1.24921 0.885244 3.27476 -1.05115 -1.20633 -2.19829 3.04122 0.510412 -0.483819 2.1353 0.401481 -0.950042 -1.06811 -0.874612 -1.26999 -0.718095 3.44496 -2.46559 1.82312 -1.97718 2.90324 -1.95574 -2.16442 -1.33683 -3.28446 1.67291 -0.820425 -3.09227 2.80752 -1.52997 -2.8937 3.29781 -0.11937 -2.20262 -2.45954 -2.22633 2.1764 0.854867 3.22446 0.29416 -1.95166 -3.22743 -1.10224 0.908199 2.77768 -1.66617 0.602576 -1.16555 0.190685 -3.14763 0.980176 -1.42981 2.20289 0.290958 0.242697 1.21526 -3.09995 -2.29268 -0.847085 0.860837 -1.54936 1.62107 0.611073 2.87186 2.95585 -0.354441 -0.762201 -0.269117 -0.189443 -1.70382 1.72246 -0.08904 1.16982 1.29883 1.18964 1.28175 -1.84416 0.90302 2.24422 -3.63264 -3.4428 1.94685 -2.38972 -3.74548 -0.491001 2.63004 1.1694 2.6652 -1.77934 -1.1368 2.66662 -2.02985 1.46271 -0.0135991 -0.040339 -2.47902 0.333098 -3.38779 -0.672666 -0.90572 -1.33222 -2.67988 0.0431705 1.74068 2.38506 0.570336 -1.3258 3.14728 -2.89364 -3.63206 -0.103476 -2.33389 3.24613 -2.99386 -1.80598 -1.459 0.526536 -2.73361 2.23237 -2.50688 -3.26864 0.256491 -2.81036 -3.34471 -0.615167 0.425976 -1.48929 -1.37533 -1.04989 -2.15903 0.872845 2.3066 -1.01128 -2.64903 -2.09166 -2.05489 -1.51275 1.64749 2.41654 -1.56413 1.15619 0.558844 1.19229 -0.39923 -2.52372 1.03621 2.73903 -1.51435 1.24862 -0.335164 -1.66162 0.901899 0.27368 -2.40738 1.28305 2.52848 -2.33986 1.71385 1.42688 1.73968 1.4976 0.0898844 -3.73423 0.827835 -2.85451 -1.07995 -3.22131 -2.5454 -1.19597 -2.59922 2.29348 1.96106 1.53217 0.430272 -2.23068 -3.24443 -2.16966 1.32582 2.00999 2.93164 -0.971375 1.20199 -1.99948 -0.528702 1.72264 2.22235 -1.5669 0.712048 3.23414 -2.54776 -0.321917 -3.17032 -2.66303 0.380516 0.225755 2.0556 -0.178735 -1.54168 -3.07617 -1.5916 2.20401 1.70578 -0.925072 -2.98424 0.0706951 -3.26479 -0.194358 -2.72348 2.53326 3.13677 -3.17004 -0.186611 1.18882 2.12604 0.612263 2.59744 -1.44886 -3.02102 2.92651 2.46365 -0.509284 0.928356 -0.551411 -2.02213 -3.04832 -2.48088 -0.109606 -2.65233 1.14871 2.4888 -1.87354 0.750674 -2.78816 1.57284 1.90141 -2.58757 -0.356523 2.47861 -3.43933 -1.20286 -3.48585 2.54527 3.03425 -1.46719 -3.41866 2.09538 1.66222 1.2218 -3.17531 -3.0627 -0.92609 0.584822 2.20679 2.79726 -0.655186 -1.6239 -0.776249 -0.748714 -2.6293 -1.11894 2.25283 -1.00655 -2.88659 1.93594 -2.0684 0.425594 -0.477697 -1.47814 0.0964648 1.46103 1.56693 -1.50392 -0.672233 2.75827 -1.14887 -2.55566 3.24115 1.38694 -1.8044 1.44533 -1.38229 0.583725 -2.25171 1.50373 -2.5048 0.101465 2.47772 -3.23726 -0.726446 3.03582 -2.36876 2.06707 1.85647 -1.25943 -3.11011 -0.808473 1.02928 2.81673 3.08346 3.03196 -2.72406 -2.60722 1.33313 -1.33865 -1.21163 3.36523 -3.15204 2.42956 -1.28597 -1.3255 -2.19572 2.64983 0.480732 0.657738 2.07911 2.13776 -2.68235 3.43436 0.751628 -1.75702 -2.44383 2.14362 -3.34974 -0.289571 1.0923 2.73901 -1.28295 -0.491975 3.38861 2.13717 -0.351568 3.59496 -1.42428 -0.305114 0.865492 -0.600602 0.204451 -1.19693 1.01162 1.86269 -0.76222 2.3056 2.69663 -0.0611025 0.779595 0.431133 -2.00868 -1.53608 -2.50349 -2.93422 -0.862855 2.89293 3.45241 -1.43945 3.4676 2.37071 -0.289372 -2.39652 -2.73547 -0.92616 2.2581 2.07114 -0.977526 1.33193 -1.39318 0.5476 0.877282 -0.456445 0.872487 1.41834 1.90039 -0.926559 -0.0255123 -1.27798 0.884987 -0.729057 1.60753 2.79337 2.33145 3.4249 0.492224 3.43226 3.21534 1.97083 2.46736 1.55174 3.39988 -1.76679 0.460332 0.914284 0.0891222 3.39588 -0.0818691 -1.41445 -2.51528 3.24757 -1.47077 -0.561345 0.360023 2.06203 -1.57915 2.95461 2.09065 -1.20952 2.08982 -2.56606 2.93585 0.920302 0.951408 -2.31849 0.294317 2.99027 1.8952 -2.76261 2.8303 1.05516 0.0951947 -2.17795 -1.0494 -0.265711 1.96439 2.32989 1.50562 1.0476 2.0824 2.44143 -1.99005 1.092 2.35686 -2.29237 1.20429 2.5087 -3.29242 -3.3343 1.87711 1.34279 -3.31972 -1.92141 -0.255057 0.559176 3.09671 -1.77528 1.3604 2.12668 -2.64807 -1.35808 1.20761 -1.49163 -2.11908 1.9463 -1.8629 0.53056 -0.00649181 2.69328 2.26614 3.18142 -3.06385 0.271551 0.292724 1.45815 0.211437 -3.16015 -3.37875 2.12155 -2.57125 2.20744 0.778402 -2.19656 -2.20141 1.5508 1.43124 2.80447 -2.64127 -2.38793 2.24005 -2.29143 3.23212 -0.277564 -3.29121 -1.75273 -3.33149 -3.28025 3.0877 -1.50084 3.325 -2.96019 0.987506 2.82632 -2.13025 3.01131 2.21843 3.17344 0.267358 1.775 2.07262 -2.15822 -0.168561 1.80717 3.20283 1.83855 -2.92707 -1.17548 0.241516 0.44929 2.24802 -3.2591 -1.90484 3.00292 2.47165 1.78503 1.0912 -2.91679 -2.29354 1.24552 1.12346 -1.77891 0.942681 0.980427 -3.49728 0.136744 1.54571 -3.35917 2.72774 -2.0084 -0.83223 3.1756 -1.26149 -3.40161 0.363115 -2.16573 0.722096 -2.05506 -3.40928 2.89472 -1.05919 2.19301 2.75862 2.34523 1.50597 -0.546297 -1.51302 0.92939 -2.80481 -2.81876 -1.9618 1.15472 -1.91416 0.892412 2.74356 1.74499 -3.35163 2.87337 2.57028 -1.36641 2.84357 -2.9973 2.14561 0.153218 -1.24691 1.14017 -0.933332 2.39238 1.98298 1.18392 -0.124573 1.50115 3.40994 -2.71077 2.73835 -3.10543 -2.48388 2.9623 -3.02848 2.58001 -2.58803 
-0.483743 -2.47149 -2.9007 -2.70475 -2.17912 -0.0343843 2.7771 1.07489 -2.43946 2.55773 -2.39638 -1.15057 2.67121 -1.47447 -1.45425 1.94961 0.599779 -1.33604 1.87462 -0.595525 -3.3559 0.744054 -0.581685 -1.11722 -2.13279 1.56751 1.71656 -2.88786 3.39712 2.63899 1.42482 -3.28937 2.00938 -2.02603 -1.6662 -0.937343 -3.24692 -0.649051 0.00169789 3.36435 -1.92986 -3.14424 -0.627223 -1.05076 -3.4128 -1.88071 1.27991 3.36674 -2.79791 -0.172274 1.00844 2.49051 2.79335 1.09102 1.41791 1.42823 -2.36523 -0.0289911 -0.142115 0.0402221 1.27426 1.39273 -0.10598 2.34056 3.15265 0.385204 0.132283 -1.40123 2.49723 2.15246 3.37547 -0.340561 -1.23955 1.8158 -1.412 -1.43935 -0.302392 -1.72268 -0.562152 -3.2913 -3.06849 -0.866937 3.0353 -2.61781 1.28585 2.47564 -1.46889 0.043418 3.09303 -0.584639 0.199004 0.157434 -1.3575 -0.937001 2.38713 2.06443 0.702163 1.44215 1.41226 2.14411 -2.37625 -0.972024 -0.813121 -2.92587 -2.72708 1.26355 1.92972 3.41356 -3.31293 1.66533 1.47901 -0.839341 -3.26959 2.71508 3.4371 -1.1134 3.04977 2.23826 2.68954 -0.619613 1.39397 -1.59957 2.92269 2.90721 -2.60926 1.15253 0.974966 1.80439 -2.19502 2.7972 -3.29171 -0.272593 -2.35159 3.2117 -0.661578 -0.226791 -1.80714 -2.30845 -2.85666 1.07146 3.45482 -1.4842 -2.11232 3.0745 1.96273 2.02834 -3.30448 0.770998 -1.84732 0.0417445 -1.09769 0.539991 -2.9382 -1.15536 -2.78847 2.25683 -1.36746 -0.386563 1.1264 -3.60281 2.12436 -1.62747 -1.01423 -0.698204 -3.24837 -1.25567 -1.6867 -2.5914 -2.18597 -2.03867 -0.98061 -2.53465 2.60093 -1.47217 1.9359 -0.0443489 2.71813 -3.37728 0.342091 2.45385 -1.44309 -1.31561 -3.15629 -2.48144 -2.36841 2.72393 3.06699 -2.12504 -0.477231 -2.71423 -1.62767 -0.29744 1.18878 -2.00962 2.52009 -3.00721 -2.32995 2.2092 0.242108 0.190275 -2.96223 -0.0892653 -0.964084 0.356857 1.68606 -1.16747 -3.66374 -2.41909 2.6653 3.10202 2.43839 -0.99823 3.91261 3.03806 2.41465 2.97649 -1.81387 -0.709224 1.80732 3.39271 -1.80999 1.36523 -0.701336 -2.05204 3.40518 -2.56749 -1.04907 2.13282 1.64634 0.0673195 -0.256071 1.39453 1.89649 0.0718752 -1.81012 1.46956 -1.54542 0.453475 3.77826 -1.66653 -0.134152 1.62327 -2.32475 2.23201 1.2556 -1.1269 2.76842 -0.0341304 3.02007 -3.21001 2.17222 3.21629 2.06127 1.84703 2.49033 1.49352 1.67753 1.11206 -3.66383 0.71595 2.25542 -3.10897 2.1607 -0.76656 -0.297861 -2.6424 2.45732 -2.46811 2.4454 2.66776 1.4675 1.66675 0.733216 1.1062 -2.89306 -0.339297 1.55881 1.51796 2.05794 3.03903 2.44293 1.42758 -1.41082 1.99687 1.03415 1.76592 1.72202 2.21037 -3.15361 2.38066 -1.49163 -1.44659 -2.23972 0.67069 -2.08006 -0.161651 2.03431 -2.57462 1.86135 -0.268397 -1.63042 2.99413 3.41443 0.189199 -1.04308 1.72825 2.01374 2.85785 -0.447179 2.12531 -0.00347458 -0.349632 -0.0111053 -3.05368 -0.27791 -1.50425 3.43655 -2.5042 -0.742685 -0.43558 2.7052 -2.38526 -3.52418 -2.54723 -2.69271 2.25698 -3.05931 1.56654 -1.4226 -0.741687 0.917439 1.62985 0.3985 2.23809 1.21237 1.82242 -3.17197 -1.17319 2.88207 -3.53352 0.26117 3.32299 -2.53092 -2.13512 2.0225 0.73703 0.677335 1.93732 -3.07897 -3.14403 -0.232541 0.0810549 1.007 2.06407 -1.90261 -2.45268 3.09197 -1.1746 0.738626 3.63697 -1.63785 -2.9652 2.16252 -3.03057 1.04813 -2.62517 -0.315169 1.2272 2.20564 -0.647599 0.637485 -1.88819 4.28115 2.44068 3.00956 -0.988316 0.844828 -3.06817 -2.34726 0.325387 -2.62927 -0.404143 0.737411 0.686555 2.83152 0.494882 2.02467 -1.75243 0.307429 -1.06468 0.291822 2.6333 -3.06682 -1.07907 -0.458725 0.327933 3.21561 -2.9602 2.97174 4.27004 2.66362 0.445996 3.52215 -0.492682 2.22621 -2.22404 -0.248726 -1.90796 1.3825 0.706308 -0.978273 -1.46839 2.55069 -0.680425 -0.629446 -2.78703 1.11051 -1.9112 -3.50076 -3.25971 0.713281 1.86981 2.32794 -1.34276 -0.810561 -0.816376 1.03437 -1.49004 4.22037 -0.0831479 -0.428201 2.79981 0.628558 1.47225 -0.378395 -0.837967 -0.990698 -2.89059 0.961773 -0.487611 2.83881 0.471665 0.192205 3.41703 2.28381 0.342308 -1.55543 -1.63507 1.46167 0.592594 -2.42799 3.16283 3.05215 1.46212 2.63185 3.31796 -1.86125 2.74749 -1.64329 2.42485 1.48196 -1.27862 -4.01279 1.91608 1.5495 -3.61389 0.796918 -0.488125 1.57846 -1.14749 3.43829 -1.94854 -0.372553 -2.2094 1.65856 3.24058 1.06274 -0.556327 -2.44 -1.79476 -0.259279 3.18752 -0.476228 -1.52823 -0.937933 -1.56827 -0.126012 -0.785769 0.563303 -4.02797 -0.237352 -4.12926 2.34783 1.8454 -0.442018 -0.192937 -1.84951 -1.706 -3.21599 -1.12326 -3.55795 -2.76332 -0.830481 -1.4121 -2.49396 -1.3917 -0.688025 1.31081 -1.40009 -2.61693 0.923484 -2.09964 3.11353 -1.40496 0.924231 -0.702834 -3.55796 0.665285 -3.37195 -2.82668 -0.213774 0.960324 -1.32309 -1.7879 -2.91839 0.671026 -0.503201 -3.19325 0.296735 1.82504 -0.852224 2.20192 -1.46922 0.362276 2.997 2.34565 -2.64007 -1.2007 -2.79485 2.84383 -0.211565 -2.04665 -3.39132 -0.634765 -3.82733 0.918817 0.0435763 0.24982 -0.865673 2.35935 -0.42192 3.06233 -2.01048 -3.34013 0.298352 2.97792 -2.69958 -1.53245 0.447185 -2.67415 -0.169594 -0.863561 0.915833 2.7413 -2.92095 1.19506 -0.0699856 2.24208 1.90672 2.85152 -0.921427 -3.57327 0.774591 2.07447 2.57253 -2.06793 2.06666 0.188814 -1.01719 -1.63097 1.22793 2.93979 -3.48838 -0.236148 0.730159 0.832122 -1.76846 -1.97356 2.2703 -0.817656 2.82823 1.65529 1.64075 -1.45445 -1.81964 -2.74832 1.11976 -2.0886 -0.91669 -2.71557 -1.45944 -0.0683164 0.722905 -2.63906 3.03456 -2.07448 1.88307 0.357886 -2.66426 -3.22546 1.56396 0.732738 -0.96638 0.985143 1.42098 -0.601622 0.673607 2.29631 3.3005 -1.60182 0.831204 2.54593 -2.91811 0.00383565 2.24742 -2.72434 -1.24962 0.827271 -2.80822 0.644194 -2.25339 3.04605 1.82553 0.625793 3.02184 1.45918 -2.76928 0.127089 0.459576 0.46742 3.33392 0.55066 2.91419 -3.48363 -2.97989 -2.91169 2.236 0.879886 1.53859 3.3134 -0.873437 -2.17287 2.36905 1.96656 -3.40205 -2.96784 -2.38242 -1.06744 0.865977 -0.0258689 -2.00473 -2.25648 -2.5506 -1.63224 1.40584 2.0801 -3.04061 2.56207 -0.23841 1.59391 -0.386691 -3.15957 0.751616 -0.713145 -1.45788 -2.4851 0.749519 0.0845048 -0.724218 -0.486941 -3.02215 -1.73083 -0.313184 0.538747 -1.98723 -0.521091 -3.76916 -1.4297 0.524646 -2.45725 -2.65523 1.79156 2.81234 0.0434832 -3.3819 -2.37739 3.2047 -1.94004 -0.77007 0.180061 2.04156 -1.00892 -0.537303 2.78369 0.529971 3.15564 0.0369101 0.188712 3.17413 2.75671 0.436171 -2.49878 -2.01187 -0.184019 -0.438807 -1.81732 1.07697 -0.598461 -1.23709 2.62463 2.12147 1.94328 -0.0288667 1.44096 -2.18988 2.67922 2.60006 -3.22374 -2.5153 0.555496 -0.283733 -1.71612 1.68037 2.61869 2.82325 -1.70558 0.253198 -0.17279 1.9259 -0.259135 2.09158 0.0895928 0.772707 2.52678 3.36994 -2.72676 1.95914 1.38727 -0.0282218 3.30521 2.11376 -0.802817 1.64394 -2.90332 2.28468 -1.2305 2.16603 -2.42756 -1.45672 -2.87842 1.11148 -1.51874 -3.01522 -3.26442 3.34345 2.42243 1.08891 -1.02074 -0.551018 -3.09399 -3.3507 0.369411 2.26881 1.48414 0.783163 -1.60422 2.99245 1.5016 -2.49994 -2.06657 -0.863764 0.830548 -0.713448 1.21546 
2.22982 0.581845 -1.62076 0.588588 -0.274656 -0.676764 3.02096 2.99005 1.89811 -1.51833 2.27001 -3.23067 1.08098 1.60141 2.38975 3.04973 -0.119734 -3.19575 1.09605 -2.1609 2.39991 -2.44732 1.61619 0.934432 2.93643 0.904975 2.53765 -1.34022 1.19687 1.91306 2.2585 -1.20618 -1.59437 -0.618731 1.18628 -0.561146 -2.11735 -2.0081 1.43729 0.246391 -1.89405 2.58754 -1.79309 1.04951 3.37054 3.0719 -0.926386 1.00726 -1.68006 -1.71124 -0.905666 -2.95248 -1.78077 3.25642 0.901021 -0.608834 -1.15696 -0.22716 0.126438 2.43064 0.741282 -2.12601 -2.78242 0.682393 1.25053 -0.356658 1.13927 -1.7147 1.20638 2.64222 -1.42981 -1.3769 3.01429 -2.0464 2.95103 3.11019 2.97017 -1.85441 1.36898 -3.22377 -1.43701 -1.29258 3.33157 2.06171 0.924715 -3.21049 -1.02911 1.47862 -2.80813 -0.127873 -1.0155 -2.44534 1.40027 2.59534 3.12383 1.83279 -2.5684 -0.346595 -2.67974 -3.38692 0.184679 -2.53233 -0.801679 -1.75329 -0.599373 -2.36688 -1.58154 2.04071 -2.06045 -2.38177 -0.295564 -3.12891 0.608287 -1.70065 -2.415 -0.0130473 1.28962 -0.28098 3.07438 2.18361 0.276086 1.55281 2.26182 1.50496 -1.37256 2.911 1.22045 -1.13714 -2.4078 -1.7985 -1.30132 -0.697435 0.426982 -0.98292 2.58566 0.346269 0.599396 -1.33232 2.25575 -0.297638 3.08032 2.11633 1.93639 2.52018 -2.62254 -2.06919 2.34829 2.51103 -3.04827 -3.08385 3.04437 -1.38845 -1.70221 -2.49674 -2.01149 -0.979685 -2.70688 -2.89084 2.51385 1.3794 -2.64208 2.17103 -3.08474 0.481741 1.05654 1.42394 0.233357 0.363099 2.61359 3.18029 2.92019 -3.23389 0.658421 3.44869 0.677832 2.49086 -2.17519 0.0534989 -2.00665 1.43314 1.28364 0.193457 2.56641 -3.15746 0.448167 -2.96445 -1.11882 1.36984 -1.57621 1.1481 0.041763 -0.867554 1.1418 0.924545 -2.03065 3.24079 0.956736 -0.610488 0.644053 0.778837 0.368172 -0.657135 -2.05172 1.92189 -0.97502 -1.63236 2.95969 0.0323592 -0.344443 0.0209724 -2.39528 2.39678 0.175902 -3.47788 2.88734 1.55764 0.493237 -0.60982 2.01083 2.94997 2.13743 -0.339935 0.232947 -1.80773 1.34864 -3.3425 -2.17767 1.00117 -0.9699 -2.88716 1.51312 -0.816972 0.0816608 -1.29164 -0.646218 -1.4883 -1.25518 0.575623 -1.93297 2.51541 0.824783 0.775589 -0.526619 -1.55261 -2.48325 -2.24802 2.43983 -2.38536 1.34929 1.21936 0.622542 -0.653161 0.789551 -3.44273 -3.16378 -3.16666 0.891433 3.38857 -2.39369 2.70789 2.43332 -2.37001 1.2322 -0.752161 -1.29234 1.0256 -0.461394 -0.335579 -2.34565 1.05562 -2.54391 -2.44931 -1.21784 1.30462 -0.569005 -1.48222 2.66785 1.44522 -1.28082 3.06542 0.255047 1.17657 -1.72551 2.50179 1.90474 -2.77966 -1.0235 0.512141 0.282101 -2.35228 -3.09129 -0.870039 0.55656 -2.02302 1.11519 0.684358 -2.4884 1.83871 -3.67669 1.02543 0.924038 -2.99083 2.00107 -0.490281 -2.47071 0.523065 2.61557 0.443102 -0.339563 -0.907646 -1.47979 -2.37348 -0.123538 0.812572 1.68395 -2.27771 2.367 -1.58266 1.70623 -0.172002 1.44872 2.84022 -2.64279 2.59548 -2.82957 -1.18684 -2.26049 -0.965863 -0.608906 -2.27339 -0.577327 1.83266 -1.85762 0.727082 -1.88771 -0.493187 2.45863 -2.79861 -2.45855 -1.04483 2.38741 -1.82109 0.904049 2.61846 -0.727863 -0.479321 2.14139 0.0998987 2.97438 0.443242 2.30179 -0.13296 -0.215469 -3.25836 1.39245 0.23389 1.8942 1.19056 0.863056 -1.53259 -2.30793 -2.58764 -0.8073 0.949193 0.528304 0.637187 1.81101 0.833244 -0.279208 0.988847 -0.910081 -2.57589 0.18426 -2.65474 -1.05497 3.46336 -1.76822 0.859425 1.70815 -2.85434 2.84044 1.73469 -0.741647 -3.08578 -2.94838 -3.14905 2.01241 -3.05215 2.08345 -0.451915 2.54919 -3.24854 2.19946 1.02687 1.90291 2.4401 -0.522946 -2.22111 2.79121 -2.58644 2.06356 -2.24128 0.149568 -3.31766 0.300386 2.17073 -0.239161 0.891023 -1.75893 -2.57676 -1.6658 1.91326 -2.46887 -0.494623 -2.11037 0.429313 1.03034 -1.52989 -0.890892 0.0494885 -1.9414 -0.156763 0.564676 1.56466 -2.26614 -3.53599 2.71704 3.09749 1.80459 0.203929 -3.09244 -1.10641 -0.597552 -2.13608 -0.548875 -1.87674 1.11451 1.84094 -2.58029 0.742804 0.518032 2.4865 1.83177 1.62995 2.49432 0.846853 -3.04758 2.58199 0.767438 -0.955407 -2.77552 -0.182634 1.90053 0.879007 0.744533 -3.42688 1.53336 1.03249 -1.33407 -1.22112 -2.11452 -2.57394 -3.59309 0.980337 -1.83767 2.22415 1.82275 1.53057 0.119626 -1.37926 -0.144926 2.18373 -3.28237 -2.00822 3.04375 -1.04275 0.801604 -2.3373 0.941043 1.28877 1.73894 0.995029 -1.74564 -3.36099 -1.18446 2.46631 -2.55226 2.1384 1.00263 2.43511 0.387609 -2.27545 0.171596 -1.74664 -0.769257 0.701627 -2.90061 2.47824 -0.277155 -3.06386 -3.23573 2.31965 0.264012 -0.26052 2.8993 2.95512 3.3905 1.30652 -2.86316 0.936724 3.22618 -2.88346 2.87853 -0.603317 0.0419411 -1.73581 -2.4906 -2.37262 -1.47927 0.640363 2.10545 0.919655 -1.83257 -1.88617 1.93441 1.53632 -0.642913 0.5705 2.83613 -0.0854566 0.669996 -0.288589 1.1672 -1.40595 -1.43827 -0.0787752 2.05491 -1.80177 -2.9319 1.7903 -2.84207 2.87524 -0.149154 -0.791205 -1.32475 3.3427 -1.4276 -0.907173 2.40349 -2.18383 0.77819 -0.420499 -3.06506 -3.11285 2.42919 0.74958 0.637102 -1.83823 0.648751 -0.690289 -2.65719 -0.170058 -0.289828 0.222937 -0.0965818 3.11108 -0.734391 -0.108662 2.17739 3.04247 1.15052 2.45147 0.960256 -2.6557 -2.91405 3.40117 -0.70072 -3.28473 1.23028 -0.0183555 2.27897 -2.10733 3.07238 -0.0912492 2.78695 -2.48081 0.236096 -2.73828 2.59361 -2.64646 2.44389 -1.12954 2.51235 0.30588 -0.699745 -1.43757 -0.074369 2.06195 -3.26295 1.01946 -2.06765 3.22438 -1.49311 -0.00373017 -0.933367 3.19367 -1.60125 2.98132 1.60265 -0.934316 0.0441923 -1.73338 2.73078 -3.13885 -3.08752 -0.973663 0.840373 -0.816736 2.67214 -3.33903 -0.162173 0.0341569 0.14076 -2.72917 -2.85306 0.104073 2.46716 -2.79771 3.04629 1.10277 -2.80729 0.794731 -2.07895 -3.03883 2.34022 -1.4554 -2.31316 -0.863512 -0.954703 -0.675942 0.249555 2.81728 3.13879 1.46343 -1.12788 -1.07317 -0.331298 -1.38876 -3.07083 0.264826 0.500948 -0.861846 3.0662 1.59681 1.82178 -0.491909 -3.17901 1.97773 2.49249 -1.80808 1.71634 -0.654767 1.16175 -0.957867 3.02641 -2.62917 2.93695 -2.69461 -1.80004 -3.19282 3.3426 2.27317 0.333302 -2.89195 -3.43006 2.25317 0.786916 0.211176 1.42013 2.72981 2.56587 0.859384 -1.7026 1.1716 1.11353 0.443835 -0.952567 -0.583408 2.77879 0.314369 -1.23302 -0.961376 -1.98346 0.446309 2.39055 0.70348 -1.38357 3.28182 1.4416 -3.2917 -1.52911 3.11336 -2.57772 0.506375 -0.116558 -1.30992 0.0152104 3.38241 -3.45519 -1.80152 3.50506 -0.137035 -0.449238 1.06759 -0.753736 0.760726 0.676846 1.34904 -0.612177 1.92252 2.87102 2.10699 -1.97275 1.36433 -2.30197 -0.825774 -2.26812 -0.0489532 -1.06464 1.27114 1.8469 0.732536 -2.54148 -2.61009 -0.635767 -0.375541 -0.710645 2.84583 0.935925 1.16787 -0.418887 1.95943 -3.06382 -2.05758 2.92424 2.37817 1.81685 0.601298 -1.9135 -0.548765 -0.72659 -2.53014 3.39 -0.644298 -2.57623 -0.560115 -0.303503 2.17962 -1.04855 -0.461711 -0.419917 2.03701 2.68516 3.17209 2.36259 -0.143449 1.14691 1.0286 1.04487 -1.86088 3.47895 3.08686 -1.48389 0.114749 2.4581 3.11755 0.0562921 1.65465 0.800208 -0.336959 -1.54747 2.75184 -3.1541 -0.230961 
-1.95323 0.82153 -1.01271 -2.22444 -2.23256 -1.46285 2.96144 0.571535 2.7372 -2.25964 0.0530319 -3.20022 -3.07707 0.794712 -2.73245 -3.43086 -3.11745 -3.12276 1.18962 -3.09368 -0.709281 -1.11427 2.13805 3.18868 0.412045 -1.41267 -1.04493 -2.06557 -0.064956 3.35315 0.385961 0.483087 -0.5364 0.633584 1.95294 -1.64832 1.28383 -2.83302 -0.948277 -1.29709 0.970055 1.8254 0.322635 2.63696 3.25114 -3.18508 2.27414 0.140637 0.273952 1.03656 1.00147 1.38931 -1.94723 -2.20711 3.2441 -0.755832 2.71396 -2.72913 -2.97221 -3.42422 0.856232 2.86069 -3.27738 -2.44112 -0.275562 2.27819 -2.66236 0.0609485 -0.891658 0.505133 2.27951 -1.33501 0.349834 -1.01559 2.45769 -2.52639 -0.555695 2.93105 1.40076 -0.386277 -1.84845 -2.95229 2.83218 -2.12015 -1.78398 -0.856241 -0.385937 -2.04512 -2.78183 -0.542224 -0.517721 1.52488 1.47899 1.41065 2.82588 1.05113 0.958809 2.1925 -0.000468878 0.54856 3.46372 2.42568 -0.00402989 -0.975388 0.506634 -1.05376 -1.145 2.08755 0.0711047 2.02294 -1.77599 0.563948 0.081891 3.0304 -0.0544812 1.90625 -1.41762 0.316967 1.67697 0.852788 2.94637 -3.12496 1.06046 3.26468 1.73828 0.612154 1.54829 2.93842 -0.109281 1.67613 -2.14566 0.43454 0.759497 -1.63623 2.01413 1.03134 0.985239 -2.02683 2.38618 3.13108 0.0375692 0.549127 1.18742 -2.80385 -1.98939 1.8844 -0.740985 0.998491 -2.78566 0.468671 -1.51125 -2.40543 2.51651 -0.624115 -2.32341 -0.770105 -0.440113 1.33966 2.07746 0.0441906 1.26208 -0.992278 -0.62376 -3.28298 -1.20461 -1.4414 -1.58318 -2.14026 2.04125 1.05434 -0.713846 1.25293 -1.11827 -0.347636 2.53397 3.18349 -2.57966 2.19528 3.02761 -2.97611 2.76821 0.694225 -1.06631 0.502058 2.62395 2.60469 -0.0144514 -0.501716 2.52409 -0.842251 -1.67729 -1.31256 1.66125 -0.654112 1.96657 -1.58888 1.86845 -0.88578 0.299255 -1.05431 -2.75188 -1.76849 -3.37688 -1.63339 0.0174372 2.69505 2.76059 3.20076 1.38698 -1.75238 1.40331 0.684277 2.21943 3.05828 -2.28416 1.08069 -0.61965 0.986427 -2.0354 1.91525 1.3585 -1.04085 2.67243 2.20769 -1.02589 -3.27947 1.16905 1.03425 0.821714 -2.22309 -1.79667 -1.93726 -3.27499 -2.6285 -1.75842 -3.18883 1.72532 -0.89038 0.791487 1.04929 -3.95421 -0.0198212 -1.84253 -1.47795 1.8357 1.28313 2.04293 2.27648 -2.32803 -2.14178 -1.38149 -3.11022 2.39078 1.13858 -2.53264 -2.82986 0.0769817 -0.438514 1.24912 -0.926984 -0.620473 -2.09825 -2.00695 -0.821004 -2.30642 0.0674719 0.00242694 -3.4038 -1.49052 -1.38542 2.02026 -2.71249 1.51295 0.641583 2.28493 1.73943 0.44292 2.13973 0.655988 -3.15106 -1.83004 -1.72705 1.23162 -2.6818 -1.84875 1.00859 -2.25556 0.564643 1.06887 1.73288 -1.26387 -0.685491 -1.07218 -1.29835 0.911844 -3.2592 0.0116219 1.15317 1.03938 -0.473677 -0.296036 0.785003 -1.91427 -3.35994 2.30807 0.325132 1.75462 -1.30132 -2.93054 -2.77972 1.6159 -0.956505 -0.0707462 -1.15223 -1.86708 -3.12421 -3.17804 -1.03133 0.284676 0.326174 2.03573 2.15391 -1.39396 -2.38365 -2.26647 0.890202 -0.164685 1.69901 1.99373 2.82785 1.32455 3.2794 0.243866 -2.55938 2.05799 -3.2539 -1.06426 2.20824 2.48412 -0.542994 0.178015 1.08551 1.83749 2.19743 0.0956861 -1.69326 -1.29262 2.97261 3.05649 2.76193 -1.1479 3.57505 0.726685 1.65881 2.38006 -1.39254 -2.47032 -1.40182 2.12205 1.82494 2.24081 -0.733802 2.51276 -1.85281 2.45382 -3.44391 -2.68784 0.512747 0.654318 3.17527 2.32347 0.121327 2.99259 1.93787 -0.499175 3.9211 4.04849 -2.52353 1.90018 1.27973 2.36873 -1.00524 -3.48941 1.0217 0.579318 0.734693 1.60162 -0.445714 -1.98429 -1.39666 -0.924693 2.82798 -1.99013 3.17657 0.991086 -2.91412 1.31318 1.50225 -1.62773 -1.47818 0.214743 3.50318 0.74392 3.23922 -0.436536 2.63566 2.4685 3.26154 0.408026 -2.74844 -2.82245 0.989038 2.59427 2.19456 -1.78357 0.679952 3.31555 0.887878 2.85311 1.94689 -0.144784 2.83411 -1.23027 -1.9715 1.58922 -2.55504 0.924945 2.68623 3.76035 -0.118629 -0.170727 1.38224 2.48654 2.11668 1.82614 -1.03353 -2.98554 -2.43842 -2.40299 -2.14326 -3.02898 -2.2355 2.18946 0.0224162 -1.8034 3.03333 2.87499 -0.834199 -0.956842 1.41228 1.1406 -3.01783 -3.32437 1.72693 0.0747259 1.03152 2.63246 4.42628 1.63113 -0.405619 2.72859 -0.373869 1.97315 0.891902 -1.41951 0.847098 -1.31488 2.8874 2.77164 -1.08234 0.959336 -2.82002 -0.743002 -3.17695 -2.66755 2.83125 3.28562 -0.867799 -0.0287206 3.47987 -1.2538 -2.49759 1.44824 -0.810158 -1.67365 -2.28647 0.532453 -1.18629 2.80949 2.68998 -0.753631 0.0618584 1.63588 -1.25471 1.36918 -2.94501 2.35368 -1.41143 -0.804382 3.26863 2.27582 3.21063 1.91193 -0.773057 0.92387 -1.01036 1.09609 1.54522 0.823453 -2.55333 -0.322882 0.419011 2.35292 2.82894 -0.760313 -2.22155 1.67869 -3.37328 -2.37786 2.08569 2.45451 0.243403 4.01642 -0.357406 1.3993 2.44994 3.42418 -0.912993 0.318931 -0.918062 -1.90218 1.73917 -2.76966 3.23047 1.50627 2.70994 0.752434 -2.01687 -0.477399 -0.703805 0.148165 3.82378 -1.24944 1.31905 0.298416 -0.90169 1.04231 1.36395 2.5543 2.73817 -1.0132 -1.48051 1.1662 -2.89235 -0.457114 3.44817 0.366003 -0.740643 -0.768379 0.343536 -0.75959 0.870516 2.16059 -1.45162 -2.31295 2.80077 -1.43257 0.157468 2.88963 -0.075533 -0.652326 -1.13564 2.60497 1.86444 -1.12889 1.54585 0.349713 1.25702 -2.12785 0.0435027 2.56309 3.18588 -0.976561 -2.60816 -3.01532 0.142679 -3.30912 -1.33892 -2.42001 -0.455762 -0.642801 3.26364 2.48339 3.25114 2.42485 -0.354674 0.264249 1.32624 2.96748 -1.99789 -0.864441 2.20352 1.87816 -3.44209 -1.29172 0.2597 3.75752 3.59146 0.861444 0.856166 3.41274 0.410286 -1.33773 -0.962181 2.12902 0.326631 -0.778145 2.32913 0.7921 1.48599 2.29071 -1.32394 -2.16738 -0.0481745 0.59004 1.955 1.77429 -3.74631 -0.858477 -1.55812 2.89677 1.49099 1.69788 1.14032 2.86892 1.47738 0.863244 -2.72767 0.066328 2.39872 0.58323 -0.815733 -3.40553 2.78123 1.5749 -3.08357 -1.80631 -2.17521 -1.36604 -1.67833 -1.30833 1.44325 -2.06589 0.932401 -1.11921 -2.87601 0.816125 0.0681182 0.203255 1.52923 0.424108 0.44162 -1.70262 1.78955 1.81436 0.420039 -2.44394 -1.39654 -2.55731 -2.88798 -3.0422 0.84739 -1.79976 1.6845 -0.98299 1.03923 0.680588 2.98443 3.42424 2.50813 0.210055 -1.71893 0.442627 0.316911 1.4839 -3.90146 -2.48922 2.09437 -1.85017 2.87697 -3.19437 0.724155 1.65535 -3.26476 -0.88141 -2.99023 -2.11923 1.56013 -3.17794 3.43545 -2.51581 -3.09276 -0.483726 1.53258 2.05819 -1.92526 0.995751 -3.04971 -3.06652 -0.0810543 -2.4051 -2.2652 -0.0523203 -0.861103 -2.5774 -2.14516 -3.52098 2.08175 -3.28374 -2.63345 -0.974046 0.518313 -0.0607356 -1.27339 2.16675 -2.51683 1.99109 0.735132 0.409563 3.15351 -0.855192 -0.0659598 -3.31402 0.961938 2.44159 1.35369 -1.79711 -2.62264 1.32783 -0.888426 1.57088 -1.02712 0.00211457 -3.35604 -2.4437 2.94087 0.884691 0.222066 -2.02913 -0.483821 1.4752 -1.12614 0.602046 0.894983 3.45159 2.51522 -1.11897 -2.30514 -1.11169 2.13562 -1.26996 2.9533 -1.58795 3.07517 -0.965348 1.15983 2.10564 1.75654 -2.2349 -1.55217 -0.76702 0.472007 -0.25343 3.1505 1.24267 -1.17082 -0.213331 -1.33474 0.315208 -1.89916 0.968142 0.196203 1.87652 2.34075 
-1.17128 2.71509 -0.781457 -0.157436 -2.57603 -2.24085 1.74323 -2.93365 -0.475158 0.209326 -1.67114 -2.0638 1.68239 -2.24271 0.746253 -0.628918 -1.38696 -0.272399 3.087 3.12372 0.312355 -2.53289 -1.7459 -0.488103 -2.73044 -3.01138 2.80591 -0.0408699 0.335187 1.04721 3.36704 2.99897 -1.52013 -3.42242 0.201204 -3.27016 -1.41072 2.56914 0.769576 1.87768 -0.254674 0.901606 2.96425 0.548887 3.22605 -0.880875 3.27222 -0.847096 -0.151214 2.39949 0.315652 -0.865977 -0.972684 1.38299 2.99236 1.74228 1.14974 -2.80762 0.086361 -0.413423 -1.45261 -2.90551 1.67414 2.51718 -1.02212 2.17777 0.0863125 -3.06414 2.97891 2.80134 -0.707578 2.21611 0.183244 -2.47279 1.38297 0.086927 -0.669231 -0.548763 3.24798 0.678759 0.993692 -2.10421 -2.40029 -2.139 -2.61549 -0.85039 -2.48379 -1.68085 1.09455 2.94499 0.0373446 1.81196 2.5229 3.07051 1.95022 3.03546 3.10546 0.522862 3.31427 0.401633 0.627105 -2.20957 -0.763425 2.29899 1.10574 0.882569 -1.23091 1.83282 -1.55904 2.52309 -1.65095 -2.9504 0.194609 -3.26183 2.63444 -2.42253 -1.3817 -2.82174 1.59383 -0.583821 3.28077 0.28797 0.619189 -1.30324 -0.0635289 -2.24339 2.35299 -2.88691 -1.58637 -2.47808 2.91765 -0.426602 2.71977 2.95933 1.47776 3.42459 -1.4444 2.20022 -2.30599 0.799139 -0.262884 0.50009 1.17623 1.65556 2.6194 -0.0839906 2.16726 2.67795 -0.397735 -2.00083 2.08105 3.02454 2.1403 2.17502 1.79285 3.39186 2.67146 -0.750491 0.147052 -2.54215 -3.08261 1.41433 0.00782738 -3.35087 2.46677 2.33381 0.347053 -1.09226 -0.067444 3.38302 2.60908 -0.206804 3.38288 -1.62421 0.493742 2.87833 -0.475028 2.55563 1.13375 -0.994163 0.949633 -0.917389 2.1024 0.254855 2.33467 0.289678 3.47928 -2.2024 -1.20363 -2.75879 -1.56552 -2.41961 3.02392 2.85389 0.370234 0.621779 0.438315 -2.30947 0.471876 0.614353 -2.38351 -3.37906 -1.02904 1.56721 -3.05846 -1.11177 3.67102 0.323839 1.94815 0.254323 3.87595 -2.74512 -1.85953 -2.16019 1.43288 2.22294 0.972974 -1.54036 0.948576 0.86061 1.08544 -1.77123 2.28984 0.555243 1.43253 -2.6667 -1.35949 -1.78907 1.16622 3.42611 -0.652588 -1.84648 3.56626 3.15521 -0.0915455 1.33911 2.65419 -1.85237 -0.621069 -0.825588 0.452072 1.04423 3.69222 -1.32943 -2.93368 3.13577 3.41276 -1.97387 1.81443 -0.222462 1.65889 0.0339979 0.545871 -1.35249 -1.89877 -0.74867 0.347697 0.146075 0.679588 0.843047 0.561326 -0.675914 1.73285 -2.50497 -0.574171 2.18228 1.77793 -2.42225 1.18998 3.94273 0.205356 -0.412279 2.83997 0.594728 3.36787 -2.96635 -0.672358 -3.30107 0.380155 -1.40785 2.72426 -0.847842 1.09512 -1.78348 -1.3742 -0.369767 2.91746 -2.1844 -2.52314 1.20792 0.942788 3.23875 -0.37086 3.67659 -1.26722 -2.14148 0.0577542 2.13055 0.0980825 -2.43471 -1.20338 1.00926 2.25742 2.30724 -2.76473 -0.949398 3.03977 0.866062 2.69372 -1.70277 -1.50665 -2.18403 -1.04587 0.124063 0.172337 1.07166 0.593402 -2.10176 -0.908325 -0.0399407 1.01041 -0.0762711 2.03711 -0.119513 -1.33158 2.58444 -2.47445 -1.19196 1.26679 3.00291 -1.62838 -2.75586 1.59811 -0.641857 -3.18567 0.17206 2.53485 -0.455599 -1.93042 -1.31966 3.47596 0.0799773 0.725654 -0.348169 0.662739 2.81185 0.219676 -0.202699 0.0586822 -0.762484 2.56573 0.195156 2.28561 -1.36286 2.37136 1.11592 -2.74433 1.34827 2.71221 1.66772 -1.7469 1.55793 2.36575 3.45568 3.13099 2.49807 2.25761 -3.00415 -3.26279 0.984593 -1.09222 3.37235 -1.8106 1.3614 -2.29583 0.918653 -2.82595 -2.34165 1.22437 1.52002 0.556351 2.63542 3.29433 3.39576 -2.91889 -0.57535 1.8876 -1.84262 -1.2953 1.49518 2.06187 -1.34246 -0.869682 0.243192 -3.27281 -1.945 1.52478 -2.28016 -2.39262 0.194106 2.44133 -3.00064 -1.03455 -0.407751 1.63605 3.629 -0.321703 1.9456 1.84197 -2.92162 3.58519 -1.03962 2.87121 2.16866 2.25658 0.416625 -2.72803 1.10953 -2.04256 -3.35206 0.46511 -3.16893 -0.495785 3.0158 3.06237 3.51563 1.22435 0.48832 1.81255 -1.29487 0.915506 -0.512799 2.61144 -0.0634172 0.689225 0.860733 3.69467 2.42483 1.86804 2.78987 -0.423481 0.0840666 0.398854 -1.93083 -2.67835 -1.9255 2.0652 3.20839 1.28232 -1.48751 0.620737 -2.28151 2.26026 0.960273 -2.18019 -1.03693 2.48344 1.74128 -1.63881 -0.384403 0.519623 -0.572834 2.31462 3.19167 1.2133 -0.976083 3.31478 2.37793 -0.593915 2.22584 -2.65181 2.9547 -1.06763 0.600987 0.959174 0.671389 -0.628064 -3.22207 2.30234 2.46815 0.0392292 -1.14942 -0.339901 1.3885 2.84257 1.41236 -2.59188 0.305641 -1.28815 3.73823 2.26078 0.124725 -1.9881 2.17032 2.97616 -0.387027 -0.769795 -1.86173 1.8819 3.13383 -2.95307 3.04856 -1.59353 2.8031 0.28824 -2.38711 3.45984 -1.56655 -2.47358 3.43106 0.892704 -0.47074 2.83096 0.235436 2.76296 -1.74355 -0.289272 -0.642858 1.50208 2.2934 -2.65469 0.668109 -2.84376 2.15477 -1.55005 -0.235876 2.20326 1.06191 0.248963 -2.41487 -0.789108 1.27637 2.59227 0.019603 -2.30603 -1.79115 -2.72494 1.27411 -0.460951 -1.29086 -0.717478 -1.38033 3.09933 1.2758 0.415145 2.58902 1.37291 -1.83298 2.64236 0.699474 -0.280871 -2.42991 -0.563443 -2.63322 3.48331 -0.270398 -2.54955 -0.428666 -0.957578 1.56216 -1.36538 -2.15939 -0.550352 2.31076 3.43685 -0.386079 1.34765 0.98306 0.617184 3.56015 -0.425928 1.38257 -1.77236 2.14237 -2.38455 -0.020033 0.189939 3.58542 0.17268 0.211825 -1.02806 0.927765 -0.285145 0.855164 -1.58487 1.0022 -0.810849 -1.99939 0.270307 2.24823 3.44502 0.752707 2.18102 -0.765848 -2.35086 2.79149 -1.1424 -2.1191 -1.25346 2.69538 0.781719 -1.35328 -1.36609 -0.0293334 0.938947 -1.81875 -1.84998 -0.51599 3.43417 3.26492 -2.45443 -2.34979 2.25487 -2.1232 1.05321 0.0156174 0.927035 2.75073 2.43097 -1.79151 -2.57375 -0.0181893 3.52322 -1.84746 -2.10518 2.23555 -0.215494 -1.46695 2.58196 -2.39122 2.0206 -0.811945 1.86447 2.06956 0.41237 0.239866 0.68047 -0.543821 1.13177 -0.0947635 -0.926498 1.39943 2.87036 0.788554 0.0638393 -1.1331 0.0556802 -0.334087 -2.66653 -2.14716 -2.1568 -1.9698 -2.23319 3.68204 -1.53862 0.256914 -1.29532 -0.220925 -0.897007 3.049 2.24951 3.02528 -2.574 0.426065 -1.79761 -1.32426 -1.32932 0.0910162 -2.88671 0.624295 3.35652 0.756706 -2.48255 -3.19784 3.3203 1.64339 3.01723 0.584849 0.774481 -0.516832 -3.19736 3.46892 -1.7695 -1.21876 -2.75897 3.18483 3.31816 -1.31541 1.87605 -2.24121 -0.0206503 -3.40855 1.56587 1.94809 1.41742 -1.26733 -1.14801 2.5272 -0.844888 1.2533 2.94614 0.219101 -0.717489 1.17947 -2.83107 -0.539034 -0.569087 -2.65524 1.08717 -0.812933 0.326666 0.411545 3.31347 1.2728 -3.40344 1.16167 -2.87621 -1.8989 -2.81433 -2.61367 -3.21163 1.81717 -0.257519 -2.46798 2.10591 -0.317977 -1.89491 -0.203123 -3.41439 -1.95526 0.216236 -2.83321 -0.787071 -3.41494 -1.04197 2.49964 2.31716 -1.10938 -1.72038 0.573438 -3.23363 -2.64037 -1.24607 -3.20576 0.86963 -1.05316 -1.15447 -0.653434 1.85047 2.28291 3.21737 -0.11192 2.11988 1.11923 -1.31821 0.853314 2.26569 2.98295 3.05681 -1.34968 1.00315 1.32325 -3.00838 0.786499 -2.67783 0.644342 -0.860549 -0.933333 2.03616 -3.36071 0.112346 -0.981511 -0.823215 2.508 -3.20511 -0.729331 2.81566 3.01345 0.673145 -0.0878512 -3.36532 2.24662 -1.48728 -0.209851 
-1.73372 -3.27898 0.894862 -0.672688 1.27809 2.197 -3.428 1.79412 1.58798 -1.51493 -1.60721 -2.11232 -2.33439 2.20017 0.539504 -0.29569 2.53572 0.593587 -0.86173 -1.69811 0.891777 -3.17435 3.36474 -0.0498731 -2.77468 0.213851 3.16759 -2.35442 3.18512 2.32364 -3.46461 2.49785 2.694 2.4309 -0.857714 -2.19555 -1.02413 2.56927 -3.33835 2.34246 -0.683913 3.48624 1.36691 -2.36043 -3.41015 1.28795 -0.294774 2.36939 -3.38066 3.04621 -1.92883 -2.48786 -0.111658 0.34183 -0.676264 2.56309 1.73887 1.71174 1.40741 -0.687224 -1.74239 -1.17994 2.26684 -1.53803 -1.3534 2.88478 -2.81834 2.72885 -3.45678 2.76772 2.0885 1.83785 -1.06597 0.0599959 0.721029 0.209521 -2.78205 -1.02672 -1.44768 -0.198268 -0.131955 2.57374 1.45863 -2.37772 1.37641 -1.99853 0.198816 0.626611 -0.646847 0.105987 1.53798 0.367281 1.7115 -2.38104 -0.477452 2.4484 -2.27609 -0.14476 -3.55593 1.31203 -0.846019 -1.51558 0.380939 -2.10683 2.70946 -2.52555 2.4696 1.54888 -0.810355 0.402653 3.03522 -1.84971 0.912799 1.80263 -0.812164 -1.98143 -3.3089 2.36219 1.80716 1.35384 3.03596 -1.90768 -3.3882 -2.93281 -0.48443 1.67813 -2.69895 1.70256 -1.85437 -0.580733 3.35368 -0.916131 2.50094 3.16358 -0.780752 -2.08308 1.47629 2.41939 -0.182489 -1.94415 1.54914 -0.443351 -0.46961 0.717458 -1.93383 -1.96013 -0.869059 0.926249 2.28058 -1.17413 1.77509 -0.301363 2.95072 -1.69999 0.710916 -0.289442 0.330881 -2.918 -2.78214 3.18263 -1.98256 -3.16555 0.809786 -2.65026 -1.47941 3.32845 -2.71914 0.128644 2.387 2.15346 1.6028 1.95812 -3.3575 -2.61784 1.55995 0.0501187 0.015704 2.09946 -0.0889032 -1.92489 -1.8229 1.10244 0.916144 2.61477 3.04297 3.02534 -0.86943 3.08748 -3.62415 2.75015 -1.54491 -1.87257 -3.4434 3.13675 2.17238 1.66681 2.87835 -0.769373 -1.56362 0.977099 1.77007 -3.09804 2.64248 2.61501 -2.09329 0.707523 -2.7371 0.853772 2.65976 1.68876 -2.89639 -2.36584 -0.0906838 -2.90734 2.70133 -3.52746 -0.96767 -0.49609 1.85626 2.80429 2.17121 -3.42497 2.89467 -0.173151 -1.98581 1.00687 2.89818 -2.67866 2.26637 1.33119 -1.8471 -3.51077 -0.621765 -3.05932 -0.254315 2.49657 2.40369 0.0307672 -0.502119 -1.553 -3.14981 -3.26389 -2.03603 2.09729 -0.19309 -2.5278 -1.14052 -1.15371 -2.85651 0.784006 3.01982 1.8886 2.97875 -1.19047 2.87427 -1.94863 -1.54008 1.19871 -0.403667 -0.837595 3.2498 2.46355 2.14378 2.47546 0.910103 -1.29654 0.16201 -3.08321 -2.14677 -3.40089 3.05539 0.416617 3.59836 1.65449 -0.895243 -0.270234 -1.84158 -2.27019 0.0771128 2.7201 -1.70295 1.60923 0.0677431 -1.94375 1.58803 -3.34695 2.98768 2.54498 -1.42012 2.32786 -2.19572 0.258682 2.59262 -1.49334 -0.999677 0.00249036 -1.38166 -1.51051 -3.20693 -2.75331 1.60403 3.14174 -2.02209 3.36563 -1.55299 3.1851 1.276 0.618397 -2.64021 2.96863 -2.4907 -2.1841 1.45204 -1.0908 2.6767 -1.71694 3.438 0.462162 -2.29337 -3.19769 1.54736 -1.00787 2.17346 -3.9428 -3.67111 0.980476 -3.14549 2.14343 0.67356 -0.583774 0.66295 -1.93513 -0.562491 2.44191 2.75677 -3.26001 1.17556 -0.683424 -1.42741 2.32582 -0.00702738 -3.04216 1.20854 -2.88216 -1.07856 3.40648 0.758163 -1.77771 -2.36778 -2.01762 1.32416 1.08476 0.251721 -0.46766 -3.94754 -0.359973 -2.85043 -1.75274 2.21659 -0.989253 3.61906 0.611117 -0.434192 -2.86427 -2.28629 -3.21819 -1.59548 1.01188 1.14225 2.28805 -0.223171 -0.60635 2.18714 -1.20969 1.61268 1.89829 -1.59139 2.07053 -3.08361 1.964 1.77751 0.65983 -1.98136 -0.877149 -0.487954 4.01092 -0.710731 2.1577 0.940409 0.190613 -1.73729 -1.5171 2.89321 -3.40826 -0.167098 1.94775 -2.56194 1.38544 -2.41038 -2.34959 -0.526436 1.02664 -0.587595 1.39775 -3.15307 -1.50222 -3.31339 1.36646 -4.02429 1.6998 -2.98482 -3.25121 -1.2362 -1.31398 -1.22816 1.22074 -0.197066 -1.29083 1.55413 1.18438 2.49225 -0.496891 -3.16629 2.21166 -2.20263 -1.69581 2.94614 2.93305 -1.55784 -0.91599 1.32818 -3.53803 -1.09063 1.23543 -2.09371 0.491252 0.664913 -0.259871 -2.75682 -0.101256 0.432187 2.21381 -0.132995 3.45401 1.65012 2.5333 -1.93894 -2.10204 -2.493 0.257488 -1.40153 -2.79063 1.04377 -0.452902 -2.04328 0.203307 0.0291489 -2.67436 -3.4885 2.516 -3.45685 -1.97994 -0.364002 2.14152 -1.61908 -3.65827 -2.70708 1.27027 -1.91731 2.73111 0.611506 -0.51003 1.53796 1.58466 2.16632 -2.13419 0.311505 -2.43902 2.77602 0.822364 2.021 2.54747 -1.96186 0.573137 -2.79875 1.82804 -2.22756 -1.4223 1.90967 0.168372 -1.03444 -3.12684 1.91084 -2.50036 -0.610879 1.80899 -2.70987 2.87258 1.2242 -2.7512 1.73721 -0.920421 -0.353337 3.39839 0.597806 -0.587543 -0.245765 1.57831 1.03812 1.46003 2.88951 -2.88623 -0.181311 0.301251 1.35553 -3.04635 0.359562 -0.536354 -2.1169 -1.03941 0.195672 -3.80045 -1.18063 0.431952 -0.92849 -3.16973 1.14299 -2.4805 -1.96374 -0.126854 -2.44002 0.156692 -2.54705 -1.07298 0.194936 2.70664 2.81943 -1.84936 0.340742 -1.89709 0.64763 -1.58935 -1.41901 -0.188908 2.93283 2.90216 2.42206 -2.41476 -0.545951 2.19373 1.25382 -1.26393 -0.658995 0.728509 1.59854 2.17954 -1.63049 -0.581401 1.14728 -2.59618 0.916254 -3.26467 2.49003 -2.23895 1.47391 -3.22547 3.14904 -0.16393 -0.8162 -0.976886 1.12102 -1.79704 -0.669658 1.85298 -3.26242 -2.79568 -0.268017 -0.984891 -0.985625 -2.04352 -0.897472 1.33086 2.38829 -0.368321 3.27537 2.9732 1.32077 -0.0636555 3.48647 3.47014 3.31421 3.34097 -1.57179 -2.59263 -3.36132 1.05966 2.51681 0.673255 -1.09138 2.05199 -2.18776 -2.23339 2.26189 1.57769 0.40415 -2.34133 -1.35299 0.117719 2.04774 -1.53632 -0.717671 -2.86427 -1.69262 -1.3898 0.687329 -0.703663 1.0813 -2.92969 -1.3333 -2.6438 3.04947 2.57408 -2.99307 -3.06324 -2.79135 0.818481 3.1671 -2.64769 -3.28263 0.563698 0.121344 3.04096 0.20445 1.15681 -1.19962 0.269644 1.70268 0.572012 2.72744 -3.36995 -0.990939 -1.84461 0.586548 -1.70067 -2.03836 -1.05392 0.394518 -0.696301 -0.457591 -3.146 -3.36494 1.20929 3.12256 3.01787 -2.49224 1.3422 -0.126281 0.238408 0.366316 -1.65187 0.731892 1.59629 2.91796 -2.8362 -1.8228 -1.43886 -2.48027 3.1631 1.45963 1.58396 2.42651 -0.531437 -2.54877 -3.2194 -3.29224 -2.89603 3.0963 2.53536 -0.628471 -3.08815 -0.618019 -0.21545 -0.483987 -2.08157 -3.12107 -2.44209 -3.13897 -1.06608 -0.139944 -1.90725 1.13916 0.815988 2.46515 -0.274073 -1.62251 -1.89339 -0.653756 1.43438 1.92587 2.243 -2.9543 -2.83078 3.33818 0.393702 0.447155 -3.36922 3.19161 -2.62594 0.708047 -1.87563 2.55016 -0.95855 2.16426 0.411236 -2.12683 1.70773 -0.0283541 -0.117099 1.1626 3.41711 -2.53634 -3.40742 0.530491 0.893427 1.9434 0.0352484 2.88008 -1.01101 -3.19989 -2.3166 0.896929 -3.06009 -1.8399 0.911112 -0.0767026 -1.19683 -0.580351 -1.31671 -0.117078 2.31707 -1.42122 3.16592 -3.29161 2.37814 -2.35653 -1.13283 -1.88773 -0.677446 0.299937 3.25598 -2.40577 2.9692 2.03762 -0.583063 -2.99158 0.693405 -1.79532 1.67005 1.10972 1.04252 1.81602 3.09891 -2.85538 0.444208 1.87134 -0.0259731 1.18595 -0.245581 -0.297902 -1.87681 -0.259745 0.62049 2.94322 0.111144 2.91833 0.473102 3.32035 1.42861 0.339922 -2.33466 2.10959 2.98983 -1.85629 3.01907 
-0.554394 1.90917 -0.447805 2.84049 1.40523 0.471782 0.60238 2.05684 1.01609 3.09998 1.88903 -0.0870972 -0.795327 -0.294132 2.8075 -1.28855 -1.19993 -0.661676 2.26989 1.55267 -2.95234 0.998153 -2.96893 0.47821 -3.05583 1.85096 -2.01283 -1.94347 -1.51498 1.95978 2.0508 0.68438 -2.94605 1.39847 1.34822 1.89107 -1.47559 -0.85527 -2.44421 1.42955 -1.41162 -3.4439 -1.716 2.73268 0.625977 0.556022 0.940779 -2.42751 2.58646 2.10277 3.27712 1.23523 -3.38306 -2.19724 3.42399 -0.827329 -3.40729 -1.26017 2.6606 1.35939 1.68529 2.46336 -3.15581 -3.0129 1.71685 -2.67694 2.11763 -2.72698 -2.47706 -0.795634 1.59984 -0.232109 -2.39293 -3.08156 2.02011 -1.36653 -2.87866 2.82672 1.72083 -1.27675 0.455285 -1.43166 -0.865884 -1.05737 -2.12228 2.29526 0.0244061 1.67099 -0.580126 -0.52383 2.23812 -2.79501 -2.2182 0.655721 0.979973 0.435918 -2.29846 -0.377366 -2.38866 -3.04543 3.45361 -1.28072 0.971616 -2.38526 0.74982 -0.644624 -1.29966 -1.1049 2.06362 0.461302 -0.184124 0.943863 -2.65081 2.31337 2.96634 2.75095 -0.34092 2.8372 0.046725 -2.82939 -1.08049 0.324609 3.53921 -2.25071 -2.89694 -1.30338 0.454207 2.54932 -0.283527 -0.930125 -3.06668 2.76929 0.844281 1.27892 0.293972 1.65144 0.635823 0.328487 -3.2902 -2.58852 -2.16859 2.73347 3.10073 1.8009 2.80782 3.41316 3.15883 2.37502 -1.21791 1.39921 -0.643203 -2.66478 1.66718 2.28678 2.76721 0.844486 1.84534 0.158029 1.49337 -1.31402 -1.19967 3.19221 0.340089 -1.28413 2.23178 3.04586 -2.0731 -0.962352 2.19174 1.1339 -0.577958 -2.36936 -1.56105 -0.145209 -0.84194 0.197101 2.65116 -2.70828 2.24741 -0.717758 -2.87863 0.666296 -2.59102 -1.41151 -0.463058 2.98281 1.18073 0.0750732 0.756578 2.23035 1.64688 -0.168984 -2.40729 0.320209 0.213828 1.61125 -1.97015 -1.83978 -3.07717 -3.25248 3.08834 1.49091 -1.01095 3.52771 2.04433 -2.91183 -0.628856 -0.217328 -2.58805 -0.491389 -1.91079 -2.62993 -0.471557 2.77916 -1.65581 0.816097 1.40079 2.10623 0.408581 -0.749543 -0.8423 2.19971 0.615021 2.09508 -0.603985 -3.47332 -2.16226 -0.549112 1.3782 -0.134088 1.77906 -0.796657 -2.81704 -1.54168 -1.03532 -1.95058 3.85429 1.39927 1.11938 -0.0835159 3.23298 -0.322576 0.822543 -0.840033 0.878963 -1.52495 2.00644 2.3488 -2.08513 2.02492 -0.385967 -2.74659 2.14051 -0.906687 3.3856 0.540144 -2.35392 -0.367365 2.81488 -0.939407 2.97407 -2.25512 -1.10975 3.1764 -2.6197 0.61677 -2.10337 0.320688 -2.99985 0.802467 -2.12499 2.68104 2.23154 0.759153 -0.7433 1.7262 1.24428 -0.702265 -2.87649 -3.02949 1.44083 -1.90328 3.16131 -1.29272 -2.88386 3.00391 2.48534 0.269445 1.65667 3.09115 3.12611 1.73356 1.95763 3.4704 2.46019 0.0904548 3.33621 1.12265 0.0592999 -1.98321 0.0443908 1.75 -0.214306 -0.0906374 -2.69986 -3.35142 0.0925856 -2.74715 0.369382 -3.42274 -2.25711 3.18404 -1.91994 -0.876965 -2.22858 2.41308 -1.04603 1.63223 2.4479 3.01499 -0.744752 0.0776438 0.859125 -2.63763 2.59015 1.17273 3.21397 -2.39592 -0.514872 -3.50873 3.22859 -1.77461 -2.65109 2.79209 1.01216 -3.02677 1.66378 2.4044 2.57711 0.258109 -0.933389 -2.08908 -0.913568 -1.01313 -0.897759 -0.766511 3.54694 -2.26517 -2.5206 0.525739 0.297002 -1.30842 -2.77912 -0.310691 -1.66713 0.105907 2.13612 3.32316 3.46918 -1.14264 -2.37687 -2.2312 1.43525 -1.4493 2.41049 -0.199527 -2.18275 -1.1481 -2.18296 0.884577 -3.229 -0.230645 3.49129 1.59064 -1.30708 0.700664 1.12229 2.48085 0.554328 3.23227 -1.98876 -1.48066 -1.09873 3.36402 1.92707 -0.935445 1.62586 -0.061605 1.73022 -0.816741 0.609815 3.24641 1.18038 -1.03501 -2.75073 1.03518 -0.203055 2.99564 2.91672 2.03294 -2.96077 3.01138 0.824061 2.47126 0.928497 -1.99328 1.74416 3.90507 0.0942446 -0.291352 1.72704 -1.56459 -1.3808 3.47233 -0.235371 -1.95787 1.00426 1.43118 0.872277 0.818212 -0.333674 3.45994 -1.22765 -1.02378 0.880304 -1.71857 0.260506 0.87062 -0.574138 2.75685 -2.13908 1.42612 2.59155 -1.21304 3.70171 2.32332 2.49535 2.42009 1.73221 1.38742 -1.16785 -1.26486 2.90464 -3.06341 2.61049 -1.47504 -3.18414 1.05977 2.14363 -1.91573 1.44162 1.943 -1.70089 2.65051 -3.24623 -1.88924 -3.06 -2.10092 2.39209 -2.60325 1.29634 -1.92514 0.227935 -1.94241 3.27457 1.3859 1.35913 0.257314 3.41767 -2.45226 3.44064 -0.590634 -1.1269 2.61306 -1.92944 -0.799408 3.10059 3.37695 -3.17764 -2.5402 0.151232 -2.72648 2.90403 -0.459014 2.61773 -1.8759 -0.546696 2.36506 -2.26141 -1.35994 3.63808 0.179117 2.90099 2.98501 -2.74238 0.896255 1.78961 -0.774596 -2.86667 0.0811668 -1.25115 -0.325275 -1.67222 -0.917599 3.31919 1.99282 -1.90742 -2.13734 -2.74387 -2.79043 2.96957 -1.48475 0.1776 -1.69171 0.962223 -0.897076 1.11655 -0.360545 0.0404644 3.81741 -0.593534 3.33577 0.831928 0.0768153 3.27623 -1.96422 3.01559 0.143335 2.79807 2.56518 -0.453979 1.81074 -1.88429 0.188318 0.713036 -2.5661 -1.84195 0.952986 0.503127 2.61726 0.616059 2.76272 -1.05659 3.16934 -0.720849 -0.0108898 -1.61145 -2.30381 -0.976865 3.04558 3.15227 0.122682 -0.479477 0.467927 -2.071 1.30419 -0.498817 -2.44151 -2.80838 -2.40797 -0.264083 1.92801 1.50302 2.99227 -0.669381 -1.22405 -0.763515 1.54066 2.49331 2.78048 1.5689 0.440245 0.951755 0.183176 -0.353229 0.75154 2.24841 0.426533 3.59849 -2.55932 2.12984 0.841338 -1.75799 0.803519 0.723791 1.78044 0.184601 -0.457746 -0.990126 -0.620013 3.44854 -3.15811 3.07283 1.9435 2.92476 -0.0169799 -1.67696 -0.620297 -2.84356 -0.428033 1.73359 2.69363 -0.296889 -1.79982 3.74137 0.657272 0.448814 2.03365 -3.16366 -2.64731 -1.43415 -0.643574 -0.0334832 -3.19895 -2.89504 3.30753 2.94391 2.22523 -1.25136 2.21292 0.350168 1.08891 2.46087 0.320844 3.25489 -1.53437 2.55384 1.21526 0.526028 -1.73233 -0.674279 0.0134857 -0.124089 -0.650218 0.12257 -2.73712 2.26375 -0.912216 3.48982 0.0141186 -1.0115 0.93642 -0.406777 2.41162 -2.56547 0.25877 2.86516 0.759358 -3.17041 -1.47954 -1.30382 -0.178004 1.28033 -1.17944 -2.47605 0.968377 -2.61013 3.62236 0.0105133 -0.0183427 -3.11507 -2.90047 1.1641 2.52755 -1.86983 -0.467436 -1.29492 -3.12783 1.73211 -0.445472 -1.89665 -0.69929 -3.26423 -0.783912 2.9733 -2.85231 -1.60705 1.99364 2.64945 -0.0771448 -1.51963 0.664967 -1.34339 -2.05508 1.15403 0.21262 -0.1786 0.810625 1.56036 -0.0479677 2.62064 0.292987 1.83923 -3.4207 -3.22111 -2.01936 0.612793 0.470833 -3.29329 -1.29218 -1.32139 -0.632547 2.31272 1.66408 -2.92611 1.26752 -1.16718 2.75432 -0.280413 -0.490965 -2.7581 1.20853 -1.77672 1.75367 -0.463182 -2.484 -0.796219 0.117734 1.13391 0.00340522 3.48547 2.59646 -2.82492 -0.600684 1.02119 3.15147 3.47717 0.0823428 2.56531 -3.35394 -1.22016 -1.61787 2.18573 1.86848 -3.37257 -0.342286 3.21223 -0.96095 1.26317 -2.10679 -2.51046 2.58677 -2.58917 -0.775767 -0.808025 1.44284 3.13556 -0.713583 1.20802 -1.63016 -0.979218 -0.918284 1.40847 -3.21597 3.44078 -1.42129 -0.178315 -1.58918 -3.02957 -1.1035 -3.10652 -2.45067 2.07365 1.07065 2.23683 0.872012 -1.17822 0.399376 -0.165874 1.74556 1.98648 -2.63299 0.100511 1.52112 3.14358 0.00993974 -1.65426 -1.99582 2.11988 0.011024 -2.26732 -0.571691 -2.66872 2.53976 
1.08203 2.94219 -0.4506 1.72947 -2.79842 0.180817 -2.37522 -1.6921 -2.65137 0.757384 -3.25438 2.12745 -1.64425 -1.96032 -0.168018 -0.152908 -1.79529 0.816646 1.67081 -2.79682 -2.29671 -3.41124 -3.16839 -1.7014 1.79126 -0.0910113 3.22719 0.0673367 -1.4176 -2.19417 -3.04909 2.83567 1.94231 -0.0898922 2.69843 1.08201 -2.36633 2.66559 -2.60095 0.866007 -3.30002 2.45331 -3.14793 -0.925332 -1.03517 2.66536 -1.97334 -1.93279 2.15361 -0.526662 1.41177 -2.84588 2.60288 -2.30809 -2.88269 2.58774 0.604878 -2.26439 0.522463 -1.34647 -2.80884 -2.14954 2.51447 -1.70522 2.60501 2.52039 0.358183 -0.726816 0.479808 1.24191 -2.65112 -2.37056 1.84368 -0.0792264 0.978683 -0.297396 2.0148 1.57829 -3.05166 2.17531 1.98575 -2.69512 -3.06057 1.77421 3.08619 -3.20515 -3.15306 -2.21019 -3.41561 -0.175703 0.335325 -1.08996 -2.99653 3.36641 2.47562 1.44439 3.40055 3.39977 0.657329 2.93659 1.08067 2.49913 1.16268 -1.85574 -3.2888 -1.74757 -2.63222 2.57697 -2.09504 -1.27643 0.899778 1.88192 3.00081 -3.3442 3.08409 -3.47768 -1.4296 -1.03604 3.47335 0.0572811 -1.51551 0.433567 1.67424 -2.52733 -0.919723 1.66025 -2.70085 3.65932 -0.498445 3.06156 2.11633 -0.960308 1.5954 -2.59109 1.36267 -1.61088 0.756543 -0.556797 -0.855442 -2.01613 -0.917355 1.50794 2.18914 0.158956 -0.576168 0.0566505 2.29727 2.70209 -2.54465 -1.40689 0.32897 0.305767 -0.333753 -1.76514 0.0991461 2.527 2.1622 3.6974 0.937769 3.06862 2.30763 -0.364479 -1.2012 -2.24334 0.561486 0.95019 0.223675 -2.45218 2.88898 -0.789968 -0.718063 -2.96971 1.71115 -1.90664 2.46744 -2.93936 1.77962 -1.68337 4.13024 2.80361 0.208073 0.147351 2.12504 4.21785 -1.8251 -0.0447004 -2.23081 -1.81631 -3.12436 2.51288 1.17402 2.16615 -3.61968 -1.3087 2.85268 -2.95942 1.94101 -1.94028 -1.22212 2.80126 -2.15339 0.400811 -0.162109 -1.85231 -1.91304 2.36518 -0.836193 -0.112397 3.33332 0.333298 -0.419386 3.16225 1.44011 -2.20003 2.86229 -2.61854 1.68471 -2.97946 1.24875 1.6898 -0.292051 1.91214 -0.610361 -3.19269 -1.25627 1.54582 0.547133 2.32326 -1.47313 0.294677 -3.03561 -1.43067 -2.33439 -0.267228 2.44763 1.64035 -2.36711 1.02892 -2.2604 -2.27444 0.867908 2.77644 0.942594 -3.26325 3.30438 -3.29488 2.8146 0.83158 2.07673 -2.65551 0.732893 0.185616 -0.647005 -3.31321 1.14988 0.494676 -0.446294 3.03432 -2.55842 -1.2979 2.14857 1.36603 -2.97481 -0.572702 0.488933 -2.63334 3.79519 -0.837598 0.413132 -0.445654 -0.26947 2.78975 1.49265 -2.33457 -1.94061 -2.2685 1.39964 -3.35675 0.114651 -1.96463 -2.6473 2.85503 -0.548945 2.73853 -2.87299 1.80675 -1.13179 0.442213 -2.28814 -2.70105 -1.41768 -2.94587 -2.73844 2.56362 -1.21768 -2.25524 2.34586 2.35304 -0.953022 -0.400544 -1.87423 3.37858 -0.124819 2.03308 0.476821 -3.16293 -1.29965 -3.44589 -3.43294 1.54229 -0.483373 -2.64653 -0.102876 -2.70107 0.898421 -3.3211 -1.62202 -3.94252 1.11842 -2.42352 0.869935 0.0583455 2.79759 3.05835 2.15817 -0.621166 1.06929 -2.64896 2.19682 -1.30031 0.726755 0.259199 3.38725 -3.21719 1.70077 0.548675 1.37417 2.93835 0.54394 -2.43005 -2.8793 2.40447 1.70402 -3.20833 -3.60186 -1.10996 -3.9101 -0.495235 0.203939 -0.369955 -1.11452 -2.55563 0.65741 -4.10684 -0.359395 1.44487 1.27355 1.09484 3.72371 0.147691 1.4824 -2.50594 1.376 2.75215 -0.627135 1.14042 0.816051 -1.37853 1.71534 0.773901 -2.91018 1.55738 0.347383 -4.28597 0.911575 -1.2644 0.455876 0.526376 2.17726 0.105659 1.78666 0.256317 1.22224 2.3151 0.0186521 -2.74946 0.699053 3.28005 -0.0619359 -1.9933 -2.85133 -2.98718 1.09136 -2.52292 0.0776687 3.16065 -2.23609 0.0768651 -1.06522 0.847066 -0.141589 -1.26398 0.362825 1.03824 -3.03049 0.757622 2.02759 -2.87926 -0.387751 -1.69714 -1.80712 0.074349 1.21352 -0.00644508 1.43076 -3.06721 -1.68147 2.39024 0.00314485 -2.34871 1.71015 -0.59347 1.0122 -1.33744 -0.213947 3.11762 -1.79933 0.162246 0.965621 -2.97236 0.79914 -0.337382 1.99059 -0.86761 0.38268 -2.06616 1.95887 -4.02393 -1.76139 -3.21118 2.45466 2.50955 -2.27953 -0.439892 -3.03208 0.0304378 -1.85861 -2.11254 -0.141342 0.0329613 2.2072 2.84711 -0.000855616 -2.2736 -3.17882 2.05846 0.0626672 -0.576451 -0.285827 -0.941673 -0.798673 1.61741 1.41433 -3.63271 -3.53779 -2.67673 0.864221 -0.0911379 -0.139429 3.32283 1.43492 3.55694 2.57427 -1.11571 0.753538 -2.42904 -2.54686 0.288719 -0.804196 1.87695 0.401379 -1.45904 2.43681 3.17925 -1.17325 3.10041 0.14944 -3.21662 2.66884 1.52031 -2.94674 1.20089 -1.11839 -2.83938 1.32585 2.5172 -0.0180113 -2.1017 3.42446 -1.68503 -1.19117 2.41963 1.14168 0.523548 3.28111 -3.46336 -2.39201 -1.22657 2.90117 2.28458 -0.355501 3.22051 0.232711 2.92813 2.65339 -2.52361 -1.88468 1.50601 -0.811921 0.290287 0.277826 3.01541 -1.24086 -1.68332 -0.0870072 0.303132 0.197367 -0.455878 -1.76736 -1.10763 -0.307789 3.48597 3.42738 2.98594 -3.01703 1.46251 0.426116 -1.79773 -1.67277 -0.543766 -0.60072 4.57931 -1.05492 2.36481 1.03446 1.79004 3.39337 3.48825 -2.78022 -0.670195 2.88082 -1.32184 -2.13293 0.384022 -1.81304 3.34489 -1.36149 -0.52124 -2.75357 -2.19435 0.266274 3.46256 2.00078 -0.0157737 2.91257 0.0831305 3.33789 1.82801 1.19293 3.08586 1.20811 1.72633 -2.28166 -2.72742 -2.2697 -1.36079 2.09739 3.09797 1.70359 -1.14917 0.291313 2.92598 1.45506 -1.95388 -1.12289 -0.345601 -0.969554 -0.231021 1.84168 -2.67546 -1.17061 -0.240518 -2.35743 0.211314 3.27756 1.55383 1.2095 -1.84826 4.37129 -2.01316 -1.99945 2.65619 0.0489756 4.04774 3.03621 -3.02493 0.149914 -3.14783 3.4748 -2.93995 -1.64724 -2.62513 0.761752 -0.196633 -0.640359 1.55682 2.51034 -2.1989 -0.376828 1.69229 -1.20294 3.4417 -1.17336 -0.0761735 3.53686 1.04158 -0.138921 0.150235 1.7255 1.80476 -2.46791 -1.20094 0.783412 1.62938 2.42143 -0.696667 1.06768 -1.89637 -0.0499473 -0.122824 2.06989 -1.22234 -0.407842 -0.3535 1.75862 1.67929 -1.79266 0.353664 0.719514 3.47786 -1.80331 0.559441 -0.536521 -1.87301 -0.766764 0.484857 -2.94829 -1.55596 -2.34528 -1.70839 -0.795347 -3.46998 -1.1346 -1.94346 1.63665 0.959866 -2.01437 3.43323 0.268868 -0.0713857 -0.917059 -0.59345 -2.58642 -0.248167 1.52726 -0.377493 3.14082 -1.64959 3.43795 -1.40495 1.47824 -2.10307 0.575284 2.3814 -0.71422 -1.69221 -2.81432 -1.84039 -1.99906 0.67474 0.727404 -2.72421 1.27977 1.01523 -0.431699 3.18094 1.69926 1.56806 -0.484782 3.27011 -3.2045 2.88057 -1.04353 -1.90955 -0.193243 2.72338 -1.24503 -2.50878 -2.04005 0.653002 2.5661 -0.97001 2.16464 3.54242 -2.7554 -0.746292 -1.90401 1.62644 0.905858 -2.21136 -0.273969 3.01743 2.64532 0.73715 -2.45103 0.132082 2.02251 2.93064 -2.98486 0.216171 2.59059 1.32168 -0.722819 3.28121 0.308422 0.167577 2.95225 1.73277 1.91645 -3.41805 -0.636297 2.72923 -0.837615 3.34754 -1.75917 -2.71973 -1.07946 -1.40816 0.147502 0.223037 2.86896 0.956953 -0.192934 0.970715 -1.78887 3.10183 -0.870484 1.45099 1.06004 -1.93327 1.60569 -3.29043 -1.40362 0.758889 2.22751 -2.21035 1.43528 -0.428018 2.35015 -0.357796 2.22823 -3.08309 2.22995 1.2373 -2.4203 2.48262 -0.730869 -3.12456 3.36431 0.282454 1.39319 0.199488 -2.15918 0.965785 
