0.631891 -1.17102 0.707816 -1.4444 2.72966 2.3542 -1.42111 3.27907 0.707263 0.158067 -1.97088 2.91211 0.685554 2.19577 0.815352 -0.23207 -0.291905 1.07437 -1.75287 1.17897 -2.69709 -2.72895 -2.61019 2.04041 -1.93454 1.00401 -0.0806533 1.08525 -1.06894 -2.20185 -0.0744677 -3.33153 0.337018 1.36609 -3.42467 -3.07243 -2.57823 3.23996 1.3094 -1.50588 -0.478853 -0.149359 -2.92601 -1.3249 1.01655 2.37919 2.4615 -1.45648 -3.11668 1.38841 1.86763 2.16311 3.26222 2.63428 -0.183448 0.81556 3.15004 -1.22181 -2.19953 -3.07099 -2.57512 0.805265 -0.661007 -0.835108 1.58431 3.31915 -3.1855 -0.903878 0.366404 -0.539211 -0.692827 -1.24803 -2.30471 2.89706 -1.50476 0.711874 -0.919057 -2.11179 -0.280376 1.85822 -1.67061 -1.81663 0.159386 -0.801528 -2.74651 -1.11325 2.65346 0.240998 1.29698 2.45032 -2.10861 -3.37304 -1.18463 -1.10631 1.42799 3.30148 1.10362 0.916517 -0.905186 -1.89338 3.05302 0.00261477 1.78806 0.162182 -3.42028 -2.41567 -2.30511 -1.54134 0.757168 1.44316 -2.11635 -1.7913 2.91456 1.06406 -1.00749 -0.377976 2.37557 2.82018 -0.663957 -0.296816 -2.1673 -2.6165 1.3402 0.771121 3.07914 0.654394 -0.118376 -1.85834 -2.13969 3.11681 -2.26268 -0.0629949 0.530358 -1.73633 -2.40255 -1.86035 -1.14474 -1.92567 -1.53971 1.30777 -1.69944 -3.20242 -1.39967 -1.37227 0.571891 -2.77557 -1.40353 0.108365 -2.32439 3.05451 -0.610527 1.66125 -2.88311 0.101555 -3.77573 1.30449 -0.0280676 -3.87602 2.46007 -2.13643 -2.62966 2.3944 -0.617825 2.13219 -1.24837 0.132395 -0.0532032 3.03028 -2.59485 -3.0748 1.98103 -0.366264 -2.97017 -1.09013 1.28207 2.15847 -0.757747 -0.778015 0.486671 -0.494112 0.706479 -0.701645 -2.92956 -0.903143 2.62937 -0.32043 0.686232 0.267776 0.314179 2.63621 0.976109 -2.5528 3.38218 -2.66515 -2.13479 -2.8308 2.86634 -1.08794 -2.59143 -3.1132 -1.28231 0.475397 0.41547 3.08207 2.93417 -0.356787 -1.63491 -2.96004 1.68298 -2.29241 0.812953 0.111497 0.508969 1.72595 2.58499 1.94069 1.11037 2.72483 -1.01359 -0.089271 -2.45828 1.36565 2.65179 1.56959 -2.38738 -1.63935 1.54839 -0.32077 -0.0356875 2.26889 -0.693634 3.35299 -0.609098 -0.985983 -2.73781 1.58421 1.14697 1.85316 -0.0214745 -1.32228 -0.0554955 -2.34777 -1.396 0.37982 1.263 -1.19344 -0.684004 0.692471 0.4353 -2.10866 2.58172 -1.20828 3.17533 -0.345705 2.89707 -2.13533 1.04219 1.00502 -0.156071 0.4148 -0.803857 -0.316441 -2.08792 -1.85954 3.14412 2.47162 0.808085 -2.17969 2.96791 0.203419 -0.51823 1.79923 3.12799 0.40596 -1.08485 1.52783 2.36441 -2.91059 -3.19516 0.402008 -2.14386 0.976444 -2.87065 0.0884798 1.99219 1.53359 -2.71562 -0.625082 -2.76008 2.72977 2.6756 2.13842 -2.70774 -2.7543 -2.95427 1.24548 -2.63346 0.558467 1.99648 -0.764915 1.06599 2.90987 1.88675 -3.23546 1.47069 -1.61389 3.0858 1.95358 -1.0627 1.50359 0.604975 -1.44851 -2.11797 -1.02713 -3.1383 1.35918 0.451518 1.53333 -1.06716 -0.222084 -3.5588 2.80438 1.07343 -2.41128 2.36662 2.70382 -2.94087 2.86818 3.19516 -2.40405 -2.24356 0.281256 1.1379 1.5082 2.7302 -1.74823 0.151899 1.91742 -3.36287 -1.1076 0.1288 2.70692 1.51854 -1.18922 -2.55666 -0.608619 -0.202659 -0.723683 2.14247 -1.07014 -1.10546 -1.77463 -0.333407 -2.38679 -3.0827 -2.67377 0.502688 -2.84255 0.509942 -3.38655 0.388884 -0.855989 1.58285 -1.99479 3.16901 2.80211 -0.860701 0.341935 3.25609 -1.02422 2.45055 -2.81808 -2.21967 1.49437 -2.77675 -2.84535 1.26497 -0.862422 -0.082756 0.114251 -1.30206 0.323243 -0.425402 2.67267 3.26922 -3.24658 -0.443346 1.84 0.91043 1.80616 1.3598 -2.81164 -0.176457 3.4442 -1.3324 -1.51732 1.04465 -0.370695 2.66817 1.67909 3.01648 1.10931 -0.807966 2.22581 2.48312 -2.11248 0.852777 0.284735 -3.76754 2.64995 1.59604 -3.58288 -3.07246 -0.935171 3.23767 -1.17673 -0.720587 3.129 -2.34129 -2.46252 -0.0848225 3.08588 -0.798432 -0.159399 -1.37205 1.89178 -0.585946 2.11589 -2.33714 1.58952 1.89246 0.806886 -2.69838 -0.0777263 -4.09764 -3.43923 3.16172 1.49723 2.86963 -1.67708 1.14254 0.360019 -1.68034 -1.83245 2.5402 1.90851 -3.33777 0.94023 -0.615328 3.00458 1.17306 -0.4661 1.63594 -1.71742 0.435017 -2.47653 -2.94844 -0.817662 -2.64732 -1.3792 -2.97206 2.16049 2.13108 0.834018 -1.61694 0.145773 -3.30514 -0.778217 -3.18091 2.12754 1.36144 -2.07023 0.42021 1.48939 1.32391 0.537016 -1.84509 2.73849 -3.44793 -0.643055 0.398392 -1.25999 -1.64815 -1.15804 -0.130928 -0.984357 -1.25402 -2.56287 1.46667 -0.9873 2.5875 -3.31024 1.22722 -2.03737 2.44566 -3.00841 -3.81908 2.89811 1.52969 2.05396 -0.51722 3.34634 -2.16636 -2.83148 -2.37793 -0.0644122 1.12669 -2.73621 2.62556 -3.17216 0.0630449 1.7027 2.0145 1.36716 2.03886 2.01735 -3.46963 -0.983064 0.687521 -2.07028 -3.36929 -1.38666 -2.74073 2.74866 1.20683 -0.047255 0.902551 -2.29786 -0.428888 -0.409855 0.525209 1.98982 1.32235 2.0338 -2.72427 1.59733 2.87148 -0.704556 -3.68228 -0.521155 -2.95482 -3.63914 2.46257 -0.595584 1.94435 2.23608 3.39673 -2.77293 -0.247979 -3.53039 -2.70427 -2.43594 0.476828 -0.856944 2.09195 2.04489 1.23646 -1.86751 0.487609 -0.240865 -2.83246 -1.98574 -0.0752693 0.26302 2.63102 2.49475 -2.06316 -0.604874 -0.0708242 -3.55745 -1.75269 0.359974 -0.541438 -3.24242 1.20094 -0.0264842 -2.94695 2.83674 -0.430908 2.3381 -0.690071 -1.5345 -0.342356 0.83439 2.13424 3.10902 2.4979 -2.68273 -2.81064 -0.248976 -2.31446 0.912455 2.10474 -0.972803 0.29242 1.35877 1.45471 -3.46151 -1.51904 -2.92337 0.915497 3.18246 -2.72065 -3.36135 0.828494 1.76724 -0.516906 -1.8992 -0.788011 1.20864 1.67749 2.46273 -2.9962 2.36923 2.45221 -0.372138 0.166523 0.0553267 -2.65378 -0.960856 2.52475 0.306004 2.52674 -2.15129 0.0940097 -1.86924 -3.27803 2.36787 -2.58372 2.66409 -3.52595 -1.86286 2.95565 1.87849 -1.17532 2.93544 -3.06177 2.64877 2.3674 -2.47941 0.347232 1.98986 -0.670506 -2.01149 -2.69388 0.873217 1.25782 1.85325 -0.145825 0.220994 0.134671 -1.38498 -0.684454 -2.70631 0.780079 -2.42633 1.39525 -1.50011 -2.38151 -2.0892 -1.35629 -3.44043 -1.45133 -0.156747 -2.35602 -2.44264 0.402201 2.57905 -0.160118 3.36026 2.64621 -2.6556 2.84876 2.94239 3.39801 2.34513 -0.38139 3.28391 0.261492 -3.24845 -0.415846 -1.90327 2.16481 1.63419 -2.25039 3.26704 -3.61563 -2.32592 -2.89403 0.484178 -2.87759 0.185474 -1.48955 -1.47693 -3.40507 -0.881103 -3.25722 -0.952348 0.174831 0.473325 -0.167734 0.513602 -2.95774 -2.80236 -0.857803 -1.54076 2.62861 -3.46097 -1.67597 -2.08332 -2.13291 -1.41847 -2.22196 0.630834 1.6532 1.63695 -1.49649 1.94276 -1.38711 -3.2436 1.0375 2.47407 3.0238 0.78243 0.362543 2.96329 2.89009 -1.77319 -0.672907 0.9971 3.48445 -0.762591 1.33504 -2.40457 0.43449 -1.47587 -3.32398 1.85789 3.1408 0.91652 -2.03914 -2.68179 -1.53639 -3.36445 3.32268 -1.11534 0.00282088 -1.30539 -1.06281 0.562966 -2.34364 -3.00012 2.48942 -1.69443 0.1164 -1.62088 -2.62533 -0.205876 1.76913 2.87627 -0.894894 -1.46128 2.32648 2.23347 -2.96052 1.41488 1.36481 -0.553715 -2.06798 -2.20368 -1.18803 -0.899668 1.1319 0.978606 1.15788 1.02137 -0.824821 -2.9499 1.74185 -3.04723 -0.982664 3.01502 -1.84979 2.6473 
-2.33769 2.60134 1.67005 0.336598 -1.10736 2.19964 1.66581 0.817809 2.20172 -2.14593 1.95229 1.65057 -2.64182 -1.75522 1.24472 -1.40899 -2.25075 -0.106882 0.511742 3.22108 -1.75655 0.384233 -1.64172 -2.41298 1.46976 0.78699 -2.75206 2.85701 -0.103137 -2.88551 -2.01476 -1.43026 -1.30483 1.18632 1.98062 3.43566 2.828 -0.160273 1.51767 1.30615 0.12504 -2.92169 -1.04008 1.28015 -3.37641 -2.48854 -1.45745 -2.66349 -1.95815 -1.07925 -1.25698 0.673967 -1.33434 1.55489 -3.40599 2.34799 1.46838 2.92087 -0.532527 -0.14711 1.36114 -2.31291 -3.05233 2.08396 1.8273 -1.93618 -0.673397 0.162164 -3.46685 1.35162 1.10379 -3.36721 1.97222 1.53605 -0.0464909 2.91005 0.843201 -0.711066 3.20521 1.91173 2.43745 -1.12153 2.98472 1.61965 -3.0129 2.80146 -3.19662 -3.16383 2.01984 -0.671445 -2.93322 -3.40686 -1.81254 -0.646623 -3.34126 3.12152 2.98497 -1.9294 1.9869 -1.87193 3.05743 2.10374 -0.435644 -0.970043 -3.02628 0.954082 1.67325 2.73036 1.48345 -1.57406 -2.54734 -0.209823 -1.86692 -0.977963 2.21195 -1.87448 -0.567228 1.0172 -2.24378 3.44853 0.1308 -0.552901 1.95352 1.95348 -3.09832 -0.795933 -0.825009 0.918998 3.41858 -3.25864 1.20239 -0.576468 1.80623 2.62161 3.19505 2.51416 -0.138838 1.52414 -3.28056 -1.55674 3.03099 -2.13727 -0.450303 -3.29623 1.5848 2.61601 -0.974463 1.45549 1.20595 0.765271 -3.00189 -0.166379 -2.23612 -1.21308 2.26087 -2.00772 2.84201 -1.35263 -0.122208 -3.20622 1.11915 1.28211 1.90929 1.65306 -3.43779 -0.167533 1.59521 3.38162 2.84049 -3.45048 -1.7312 2.55592 3.12209 0.446742 -2.37551 -1.85166 -2.31293 -1.74818 3.33504 1.12099 2.97647 2.7679 -2.02468 -2.40948 0.245031 -2.17662 -0.113106 3.62472 2.45757 0.135652 -0.485386 -1.40606 2.29771 1.25185 -0.818203 0.810148 -3.01005 0.79768 2.30922 2.26939 -0.535443 2.11143 -1.95537 1.36356 2.68079 -1.43835 3.17839 2.03558 -0.0800047 -4.18662 0.373965 -3.26982 -1.16794 2.03923 0.937674 -1.84682 -2.03964 -2.15703 2.61931 2.18458 0.528794 3.34337 -1.1065 -1.8746 -2.28385 2.60939 -2.34815 -2.44974 2.43746 2.38284 -2.96412 -0.560107 -1.23652 -0.161513 2.91504 -2.75759 -0.82724 -2.09684 -2.59534 0.485125 -0.679704 -0.446897 -1.9721 -1.97103 -0.518191 -0.361282 -2.33071 3.06212 1.65598 -1.62715 -2.78549 -2.51201 -1.6965 -0.546232 2.36239 1.68279 1.58154 3.04785 -0.614366 1.21807 -2.79589 -3.4085 -3.69246 -2.9868 -3.77129 -4.46152 -1.24196 -2.84432 -2.73532 -0.732057 1.96277 0.901543 0.825375 2.95151 -1.99063 -0.106356 1.31126 2.93224 -2.55155 -2.36771 2.18024 0.805295 -0.866341 -0.621681 1.21361 -0.0838003 0.37952 2.86111 -0.910083 1.56769 -3.3131 -0.431223 -2.90166 0.959536 -2.2994 2.82803 2.73883 2.87849 3.18828 -3.04499 1.21407 -0.208702 0.344671 -1.99547 -1.7672 -0.260557 -3.0362 -1.76103 -0.0485 -3.02089 -0.826163 1.92792 3.50645 -0.334492 -0.506967 0.0268845 -0.604985 2.31861 2.5281 1.51751 1.2129 -2.52781 2.50181 -3.09034 0.63336 1.15738 1.99311 -1.47535 -0.3454 0.767418 1.6811 2.65233 1.56786 2.81455 -3.4071 2.27165 0.243366 2.89094 1.19656 2.16291 1.45474 -2.82683 -2.03407 1.27201 2.36807 -3.74701 0.302546 -0.177068 -1.51176 3.57877 -0.643481 -2.70255 3.50864 -0.0729317 1.28713 2.15464 1.76365 1.92626 2.3956 -3.44235 3.38345 0.228156 -2.4001 2.93687 -3.28814 1.65943 -1.61222 1.79398 3.53136 -1.77466 -1.261 -0.577438 -2.90709 1.03427 3.42538 0.799104 1.11457 0.178696 -0.734822 3.58308 -2.33621 1.96826 2.72705 2.0984 2.19657 -0.702111 -1.48028 0.372859 -0.20271 -2.31176 2.38764 0.0037418 0.272846 -2.52335 0.250548 -2.39833 0.420231 -0.100793 0.896618 2.35012 -2.75501 3.1712 -2.88598 1.50883 -0.765333 0.14713 -2.81108 -3.24215 0.937776 1.41944 1.62911 0.320515 0.887188 1.00855 3.02598 0.205116 -2.00817 -3.09495 -2.96722 1.95717 0.501428 1.05511 -2.50009 2.91007 -2.96739 -0.378641 0.245497 2.73577 -1.40739 -1.51267 -2.26649 0.877478 -1.22958 3.08476 0.293191 2.02327 0.950669 1.5812 1.09104 -1.51456 -0.137355 -0.293719 -0.600141 1.84455 -2.20789 -0.303837 1.98392 -2.70707 0.543943 -1.0237 0.430354 2.18404 -2.12575 0.220727 -2.77586 -1.56105 -1.95923 1.30231 -1.7124 1.76818 3.05815 1.84608 3.1079 -0.768835 -2.52516 1.7533 -0.968927 1.90275 -2.36456 3.13027 -0.218403 2.68764 0.818362 -1.90798 0.0194713 -2.9116 -2.32861 -1.28594 2.38105 1.41035 2.13666 2.73913 1.91984 1.46788 -1.33295 3.03552 2.51033 -0.742306 -2.31504 -2.06226 -2.25635 2.93933 -2.59495 3.79106 3.706 -0.502644 3.23276 2.12018 0.428165 -2.32901 1.08536 -0.0726693 0.79065 0.330592 3.41742 -2.65022 -1.24081 -0.860203 1.63509 -3.04479 -1.88842 -3.16496 0.223252 -3.47857 -2.00704 -2.66128 0.867854 3.34718 0.0416264 -1.47394 -2.62093 -2.26282 -1.81174 1.74988 0.675023 1.51209 -1.43662 0.80262 2.56255 2.91838 2.69699 -0.32133 1.33718 1.56042 0.144686 1.33966 0.313811 0.106456 0.279754 -3.28874 2.29914 -0.128318 -2.19722 -3.36856 1.20375 -1.89928 0.892611 0.672077 2.23056 0.231725 -1.61522 -1.48446 -1.81941 -1.13487 0.273792 0.467523 1.34898 0.460781 2.07903 0.473371 2.41356 1.06304 0.795374 -2.27126 0.828979 1.5865 -0.84616 -2.05201 -2.62178 0.768889 -4.06776 -2.22633 2.40268 -0.986607 1.80959 -2.13192 0.0959566 -0.397569 1.70152 0.226078 -2.03076 1.41891 1.75374 -1.93168 2.01956 1.95868 -2.17744 -3.0536 -1.992 -3.26212 1.71494 1.42767 1.00873 2.47995 1.67844 0.362119 0.365699 -0.714013 -2.18466 1.77458 1.59534 -1.82842 0.721778 2.05041 1.86674 0.513117 0.553828 -1.16273 0.405821 3.5545 3.25164 -2.73461 -2.63434 -3.33867 1.33549 0.212089 -0.0710658 -0.722702 -3.08604 0.780708 -1.86039 1.05464 2.1942 -3.48293 -3.22527 0.539992 -1.01004 2.9318 -3.15076 0.0145358 1.88535 0.535811 2.55226 -3.08424 -0.833979 -2.60789 -1.31237 -1.65065 2.95915 2.61117 -1.52366 -1.80831 -0.130519 1.69897 1.55594 0.365922 -2.02229 -2.64564 -2.5215 -2.40866 3.42678 -3.18686 -2.33421 1.67102 -2.97158 -0.604708 -0.469748 -2.92267 -1.19727 -0.632966 -2.82117 -2.38532 2.21463 -2.09287 -0.901002 1.20506 3.02133 2.30396 -2.38359 -0.107651 1.37729 -3.08932 3.46351 3.10813 0.65761 3.21398 -0.98342 -1.94294 -0.770645 -0.430698 -2.03188 -2.68945 2.77042 -3.08803 -1.96267 3.18433 0.32756 -2.60809 -2.18448 -1.73233 -2.05514 3.19579 0.41671 2.47425 2.37172 2.93257 1.05162 2.51658 0.399256 -1.5543 -2.51332 -2.70482 0.852305 -0.829487 3.35383 -2.45007 -0.48139 1.20164 -0.382269 -1.98152 -3.23617 0.0500301 -0.311106 -1.46067 0.807703 -3.77465 0.105955 -0.88932 -0.0256726 -1.04661 -0.467706 -2.09437 1.86203 1.55576 0.189887 -1.27547 -1.43065 -0.727244 -0.441427 -2.17571 -0.704888 -2.57753 0.750947 -2.40992 0.889157 1.24988 3.0048 2.12843 3.30184 -0.109144 0.180179 3.23405 2.38654 -3.38481 -2.35382 -1.68409 -0.334179 -0.694 -0.338251 -2.17321 2.8261 -2.55478 3.39882 -0.30705 1.39035 -3.20365 -1.72293 3.27773 0.265813 -0.549063 -1.47858 2.13809 2.89922 2.82709 -2.38101 -0.94727 1.49273 0.577581 1.21246 -1.07183 1.26251 -0.675014 -0.40358 0.407 0.0115458 3.29283 -3.13183 -3.26402 1.23056 2.23901 -0.588628 -1.81747 3.19328 3.47552 
-3.27529 3.44828 -1.87069 0.518399 1.1088 -2.97753 1.86406 -2.60624 -1.187 -0.529916 1.46621 -2.52673 -2.45261 0.648609 3.23705 -3.02656 1.68431 0.547725 -0.114524 2.3462 -1.98282 -2.34156 -1.08703 1.84397 -0.319898 1.19069 -1.64281 -0.340941 1.06161 -2.75145 1.59147 0.311012 1.75286 -3.33078 -1.92486 -3.0883 -0.491548 -0.739138 -3.37035 -0.344112 1.5044 -1.94574 1.80257 0.227516 3.321 0.146286 1.7587 1.17421 -1.2978 -1.86471 -3.18047 -0.132453 -3.38841 -1.76893 -3.48556 3.46845 -0.183159 1.07322 0.781545 1.28453 0.761313 -1.98287 -1.85466 2.501 0.671 -2.85734 2.34577 0.582048 0.495789 -1.85061 -0.739968 2.00392 0.608789 -2.83237 -0.553805 1.87237 2.30941 -0.41479 -3.38496 0.268032 0.326702 -0.910753 2.66196 -1.3577 0.223241 -3.44753 -1.78224 -2.24926 1.20878 -3.36316 2.64986 3.37371 1.86449 1.9671 3.20378 -2.37305 1.93864 -2.8001 -1.2219 -0.618092 -0.377465 2.74929 2.53388 1.11514 3.28779 -1.87134 2.5068 -0.183142 2.23644 -2.61954 0.995565 2.16372 -1.26627 -0.52946 2.07376 0.411712 1.7964 -1.29066 0.82235 0.806174 -3.04022 2.68886 1.13598 -2.86011 1.51063 1.74606 3.07435 -2.37551 1.77925 0.0179739 0.305881 -3.09186 0.218111 -2.62742 -3.1992 1.32004 -2.89468 1.24036 -3.48113 0.565802 -2.43414 -0.750862 -3.2015 -3.48868 1.91467 2.47643 -0.631908 -0.691005 -3.10164 1.63239 -0.125697 2.06613 3.32417 -0.0567138 0.17084 1.17648 2.92192 1.40319 1.35763 1.18087 -1.73983 -2.12889 2.34714 3.11694 2.95067 -1.46564 0.734781 2.67585 -0.0811187 -0.613009 0.0118507 -3.41419 1.01474 2.80385 -3.21599 -2.49693 -0.587763 0.831781 0.924125 -1.32557 2.23031 0.574873 3.77198 3.6061 -1.84438 -0.630862 1.98216 1.44916 1.64353 -2.61213 -1.60606 -3.60475 2.77853 -1.70086 1.08024 0.62682 -2.79847 1.87018 -3.30882 -2.26601 -1.71567 0.459804 2.97981 0.852929 3.26335 -2.64198 -1.10116 -2.57533 0.706491 -0.290121 -0.0539277 0.637216 2.97299 2.6852 -0.199675 -0.0896846 -1.26199 -3.44982 2.55246 1.1558 -0.00380661 3.41944 0.212718 2.40109 0.867493 1.33687 1.81226 2.26137 -0.49737 3.04878 -3.10713 3.3395 0.990878 0.79513 3.27529 2.91453 -1.99218 -0.360762 3.38697 -1.96936 0.910316 1.28547 -3.35911 -3.49374 -2.12063 -1.32775 -2.44425 -1.94804 -0.060306 -2.97767 -0.721521 3.03844 1.09871 2.85882 -1.10585 2.71401 0.0987636 3.58584 0.732292 2.82924 1.75511 0.378029 -0.898088 3.21296 -0.0766828 0.406811 0.259623 2.46426 -0.527932 -1.80512 2.964 -0.705389 1.40885 2.55075 -2.88014 1.18842 -1.98927 -0.817484 3.2563 0.581944 -2.86393 -2.0192 1.55817 -2.53607 -0.673737 -1.22121 -1.82298 0.589709 -1.31657 2.32077 1.34549 2.1391 -0.350429 -2.1574 4.13811 -0.63908 2.08702 -2.86479 -3.69229 2.14796 2.74635 -1.19275 -1.75781 1.45755 1.25166 -0.883312 -0.0706012 2.85085 1.81747 -2.21361 3.01793 0.281897 -0.0866992 -0.707548 1.61343 0.937319 0.00698621 -2.22492 3.34688 -1.69647 -2.42877 0.94241 3.23714 1.85538 -2.38749 1.41264 -0.564211 2.61151 1.56891 -0.401839 0.284871 0.388882 3.0618 2.55196 2.08366 -0.575125 0.633581 2.02097 0.453604 3.32433 3.36204 1.17286 0.362162 0.416285 -0.79764 1.1887 -1.70537 -0.976954 0.217266 1.77305 -0.812701 1.48251 1.69255 1.10313 -3.23805 -1.91932 3.09618 -2.77946 3.28985 1.81242 0.315172 1.62912 1.63125 -3.32581 -0.188914 1.50608 -1.87832 -0.668225 -2.49109 3.17701 0.227179 -1.5217 0.682734 2.99349 -0.398822 1.51933 1.89591 -2.04573 2.73376 -1.58488 2.61573 -1.27065 -2.31835 -1.92274 0.358216 3.55359 3.2472 0.426407 2.24768 0.909196 1.52042 3.35135 -1.07677 2.09123 1.69164 2.34178 3.32429 -3.0205 0.997807 -0.0929817 -3.2227 -2.29236 1.09089 -3.43306 -2.59847 -2.72984 2.74961 -3.24615 1.48405 -3.8465 2.34669 1.68902 -1.71494 1.12511 -1.89483 1.34835 1.11143 -1.16822 -2.36099 2.93689 -1.51178 2.10068 1.71644 0.630654 -0.54113 -0.487077 -3.34347 0.76618 -2.81782 0.565471 1.93888 2.33272 1.54645 -3.10243 -1.4476 -2.31128 0.925096 -0.791373 -2.96531 -3.04848 1.86142 -2.18606 -1.2339 -2.22204 -2.02922 -1.91579 2.24675 1.82469 -2.50308 -1.84721 -0.272276 0.553328 1.74046 0.86475 1.38546 -1.87132 -1.18301 0.603074 0.141485 -3.46656 -3.58902 -0.648316 -3.06088 -3.25894 -0.568989 -3.70462 1.96672 -2.01045 1.26655 -1.45495 1.08482 -2.59391 -0.0265155 -0.484205 -0.220624 3.34223 1.69512 -2.14908 2.94689 -0.1584 2.74044 -0.100397 2.58945 -2.41364 2.25709 0.0639762 -3.14676 -0.78698 3.38334 -0.684496 1.39978 -0.865607 -2.10764 -1.76903 0.476528 0.503094 -0.651407 1.49305 3.15415 -1.18974 3.43938 -1.40884 -0.858736 -3.42939 0.594652 0.560106 -1.11997 2.17735 -2.96121 2.16024 -1.90236 -2.97127 -3.02514 -2.62911 0.696921 -0.442839 3.05294 3.28527 -1.89399 -0.209755 -1.18453 -0.771168 -1.09433 0.230883 3.36909 -0.311439 -1.8007 -3.32951 0.0307838 -0.97064 0.842909 3.48427 0.973737 3.38227 -3.05671 -1.02737 -1.74928 0.99903 1.0475 -0.921369 0.913604 -1.44859 -0.0644283 -0.131558 2.26278 1.04448 0.127701 2.12574 0.591641 0.802686 -2.18074 0.138003 -3.06028 0.593373 -3.0475 2.06775 2.33139 -3.15651 -2.5245 0.61799 2.48417 -3.25438 2.50861 -0.804491 0.843093 -0.406016 -2.72317 -1.39092 -1.94752 3.41555 -2.31439 2.76361 2.67489 1.73944 2.5073 -1.65906 0.713807 -0.0561317 1.03371 2.73837 -2.56104 1.89273 -2.81077 -3.52859 1.21379 -2.92028 1.27969 -2.54768 -3.22979 -1.23693 2.77314 -3.39835 -1.58684 -2.47742 1.82282 3.19549 -0.341156 -2.21155 -0.790388 -0.420865 2.39297 3.27429 2.13801 3.88258 -2.32469 0.938018 1.41607 -1.52427 0.519596 0.552612 1.71021 -0.258083 2.15538 -1.72037 1.72131 2.55022 3.03288 0.197791 1.15539 2.97886 1.07116 2.66045 3.11549 -0.684885 1.53321 3.19466 2.13976 -1.42578 -2.36815 -0.641395 -2.52591 1.36235 2.26398 0.634091 -0.765801 0.00121367 2.62082 -0.812377 0.27789 2.5987 -2.78374 1.48427 -1.64818 1.41188 3.19939 -1.01476 -1.2878 -0.989092 2.90981 -2.57161 -0.504283 3.10196 -1.51192 2.57347 -1.39982 0.615463 3.27876 1.76855 2.01843 -1.3839 -1.19963 0.594651 1.59204 2.46807 2.11065 -1.48309 0.588085 2.63236 0.958127 -1.14829 -2.67521 3.49823 -0.0823064 -0.613115 -1.67879 3.174 2.15819 -2.67621 -0.95806 -0.718122 3.41261 2.70344 3.11285 2.75015 -3.1342 3.42196 -1.65157 -0.898388 1.75926 0.617449 -0.891372 3.10271 3.3476 3.30014 0.508279 0.897981 -3.10253 -0.490159 1.84469 3.36433 -0.145808 -0.2807 2.79001 -0.777962 0.147163 0.70135 -1.11956 -0.875972 2.57304 2.19683 1.60065 3.17938 3.22861 -0.0995129 -3.09419 3.02358 -3.40774 2.35642 -1.13794 0.213908 0.681926 2.81153 -0.975519 3.09255 -1.21476 -2.9895 1.41556 -0.570903 2.85258 -2.5596 1.39455 -2.83889 -1.77851 -0.523349 -1.07133 1.28913 1.34993 -0.187031 0.911044 -2.32594 1.63292 1.54607 -0.961941 -0.586906 -3.1158 -3.15954 1.66765 -2.28253 -0.564799 -3.09286 3.44372 3.42814 1.38515 0.186987 3.35494 -0.894047 0.902566 -0.898078 0.876337 -2.31215 -1.04686 1.4252 0.958862 2.59235 -3.03043 -3.18612 3.02762 0.814486 3.24242 -3.15357 -0.0174019 0.959566 2.92043 -2.86244 -3.30242 -0.755677 -0.143338 0.0559554 2.40414 2.62952 1.3385 1.40718 1.93002 -1.77432 
3.18315 1.21422 2.05201 -0.648686 0.588902 -1.79956 -1.69107 1.29385 -1.25564 2.93658 0.498105 2.09436 0.881873 -2.70038 -2.20321 0.956517 2.44089 -1.601 -0.87326 2.48052 -2.26349 -1.88011 3.34508 -2.28895 -1.02377 1.2605 -0.291621 3.35848 -3.3564 0.485341 0.0336644 -0.445979 -0.112595 3.46746 0.796671 2.44802 -3.22805 0.0147227 0.501251 -0.674082 0.531658 3.05955 1.80507 -1.99424 -1.9624 -0.205295 -0.421429 0.973358 2.69819 -1.51994 3.38879 -3.05502 1.29609 2.68998 1.87341 -3.32404 -1.79819 3.22343 2.27799 -1.73301 -0.69736 -2.74192 2.58944 -1.64807 1.1637 1.7801 -0.163243 0.641052 -0.906187 -3.20416 3.23026 1.66313 -2.42956 -1.598 -3.11285 -1.93284 1.78751 -1.43172 1.41453 2.65203 2.76729 0.11022 -2.2694 0.844227 -0.623648 2.45729 -0.138481 -1.8529 2.04725 -0.278316 -3.28888 1.99224 -3.4427 -2.46681 2.96325 -0.428818 -2.51692 1.67221 1.21389 -1.02254 3.04054 -2.2863 -0.539751 -2.29525 -0.512404 -0.73559 1.35009 1.90355 -2.69283 2.59944 -2.39354 -1.01577 -0.00746932 -2.67023 1.76284 -3.1872 0.0533077 -1.1002 -2.48608 -3.12654 2.65709 -3.35114 3.28072 1.774 2.67206 -1.1685 0.118976 2.62782 1.0386 1.35398 2.07896 -1.03172 -3.22389 -2.83535 2.13391 -1.85474 -2.93867 -1.66355 -0.0928994 1.51675 -0.667269 -0.776219 1.25458 1.29168 2.36856 -2.07815 -0.49834 3.59405 -1.50244 2.97197 -1.25414 2.17863 -2.34163 0.0512969 3.2873 2.06 0.724107 -1.58675 2.8085 -1.332 1.98749 -2.98025 3.04365 -3.11705 1.82161 -1.91832 -3.20785 1.03691 3.47229 -1.83222 2.91166 -0.0593819 3.39319 2.53937 0.927347 -0.818577 -2.80589 2.37943 4.03775 -0.181579 0.733114 2.53532 -2.31397 2.81346 -0.0171155 -2.27355 -1.06733 -0.401393 -0.77989 0.0392264 -2.69264 0.258494 -2.27651 1.83474 -3.49753 0.515519 2.0324 3.34019 -1.70055 -0.767669 -2.61909 -2.05401 2.82098 1.33727 1.87329 -0.614129 -2.40707 -2.46207 -2.81475 0.679656 1.13177 -2.86061 3.40104 0.872045 -1.72377 3.46157 -1.30813 -1.55366 0.806983 3.23255 -3.54271 -3.21119 2.11548 -0.550998 -0.420302 1.96274 -1.19713 0.00642892 -1.73501 -1.60495 2.03975 -1.15057 0.1842 3.04643 1.29303 -0.592803 0.48642 0.63016 -2.74117 1.31829 1.79269 -0.615052 -1.43545 0.176966 -1.24339 -0.473104 2.86851 2.30915 -0.617663 -1.49985 2.03757 3.3756 2.18788 -1.71343 1.58168 1.24576 -2.54299 2.83171 -2.62826 -0.73031 -1.40977 -3.85719 1.72326 0.628622 -1.76051 0.93547 -0.910428 2.80526 1.73709 1.54591 0.473754 -2.64569 0.964382 -3.71236 0.846586 -0.745664 1.0901 -3.44099 -2.90611 -2.44246 -0.011993 0.788343 -1.07882 -0.74361 -0.540733 2.04483 -1.12497 3.0401 -0.267277 -2.23685 -0.320076 -1.02042 -2.705 -0.966849 -0.955265 -2.06577 0.530981 -1.85587 -2.9033 0.55611 -1.81129 -1.45066 -0.977343 -1.33435 -0.901554 -2.03721 -1.36312 -2.48263 -3.13801 2.29582 -0.31324 -2.66346 -1.58321 -1.88668 -1.80645 -2.21807 -1.46712 -2.84979 -0.0291027 -2.0245 -2.20689 3.04882 -2.08938 0.221322 2.35114 0.317778 -0.674288 -2.18273 0.963745 0.0897643 2.09783 1.98651 1.69571 1.71948 1.22585 -3.48419 0.578942 -0.622547 0.0424563 -2.86264 0.94077 -3.35325 2.34661 -1.7533 2.17963 2.81981 -0.93152 2.4261 0.888487 -0.0705592 0.941991 -0.278588 0.839986 1.76136 0.224823 -1.56245 -0.0228734 -3.6681 2.72814 -0.495458 -2.72316 -0.894676 -1.94218 2.3936 -3.4014 -3.36675 1.54474 1.43672 0.0784725 -1.94827 2.66906 0.592231 0.83342 2.78187 1.48324 0.314442 4.00438 1.91887 0.937904 4.7417 -2.01595 1.48665 -0.756637 -2.50704 -1.75552 0.779327 -1.5009 0.801679 -3.3688 3.28782 0.452329 -1.82793 -1.09931 1.07864 -1.49653 2.29691 0.542017 1.73151 -2.78558 2.25606 1.81447 -1.50121 3.55913 2.35688 1.09429 0.44124 0.0556966 1.58859 2.30585 1.29324 -1.85131 -0.242606 -2.99798 0.590968 -0.829703 1.09997 1.29735 1.98953 -2.09639 -0.947975 -1.60532 -2.56108 1.12452 -2.09567 -0.758854 1.63571 1.73341 -2.99031 -1.91486 -3.31686 -0.139085 -0.144866 1.56292 -2.13739 -1.97413 2.30025 -1.69717 -0.0282003 3.57964 2.75803 -2.20069 2.88154 -0.269326 2.38551 1.88807 -3.49429 0.286599 0.641314 -3.46143 -0.358141 0.748437 -0.371313 2.11334 -3.61623 -0.651268 -3.23458 -3.84841 -3.21717 -0.953543 2.01756 -0.872612 -1.38684 -1.93977 2.92666 -2.35419 -1.33667 1.37634 -3.0176 2.76859 1.7313 -1.65339 -1.85258 -0.015655 1.28996 3.42127 -0.530111 1.24266 2.72864 -1.29017 2.5921 1.09111 -0.0801446 -3.58948 -3.05083 -3.09201 -2.42071 2.07434 1.82192 -1.14903 -3.16272 -2.49966 2.48664 2.70272 0.642753 -3.35261 -1.02776 -0.596946 -0.302385 1.2698 -2.32457 0.0823666 -0.924162 -1.01148 1.10192 2.22631 -0.121225 -1.20567 1.7628 -0.836976 0.552189 -2.38111 -2.5584 -3.84883 -2.34718 1.03195 -1.53275 -1.44958 -0.19095 1.45622 1.23478 2.04424 1.52611 0.644437 0.329831 1.97776 -2.04789 -3.19916 2.45354 2.55546 0.687306 -1.6889 -1.70912 -1.13698 -2.32773 -3.22983 -2.8889 -1.80057 1.70133 0.424677 -0.794263 -0.218565 2.87157 2.67101 3.00343 3.11214 -2.46472 -2.78125 0.848292 -2.79854 2.86124 0.249428 -0.775542 0.120922 -0.750769 -1.53331 0.385452 -0.204529 -2.08103 2.38816 1.64379 -2.08382 3.41461 -1.14462 1.49587 -0.87607 -2.65346 2.97559 -3.43627 2.29143 -1.13934 -2.12252 -3.13698 -1.48699 -1.60932 -3.28452 2.15662 0.254198 3.01156 -2.95053 -1.38657 1.90874 -1.58894 -0.345202 1.22127 -2.10828 0.589754 3.16468 2.3693 1.44331 1.23163 -0.0770308 2.9471 2.33333 -1.68203 -3.18237 2.67585 -0.659161 2.38573 2.04018 0.449171 -2.58467 -1.47591 1.30812 3.29649 1.04642 0.0574997 -0.339891 -0.711204 2.36305 -1.31211 -2.56686 -3.06965 -1.66845 0.752365 -2.8093 1.63825 -2.85867 -0.464018 3.38622 -3.43757 -0.905876 1.52907 0.377027 1.83622 -1.69572 0.49074 -0.36471 0.732385 2.41216 -2.42589 3.3271 -2.88693 0.859696 -2.51541 -0.0407852 1.11384 -3.16012 -3.32449 -1.2027 2.26894 -1.18433 -0.606604 -2.70776 0.00816373 -2.85397 3.10234 3.34302 1.24864 -3.31538 0.491025 0.592121 -1.52256 -3.00661 0.0285245 3.81317 0.998642 2.21506 3.05456 -2.09558 -2.07886 2.03948 -0.493755 -1.3514 -1.47615 -2.76045 -1.9091 -3.22362 -3.47131 -2.18586 -0.627865 2.93296 -3.15295 -2.48765 -2.34515 -1.34078 -0.00939469 0.112809 1.18323 3.00265 -3.04124 1.72582 -1.367 -1.46411 -0.0167447 -1.6356 -2.43308 2.73719 2.98222 -1.13977 3.16626 3.19116 -2.03736 -0.392766 1.43949 2.46132 1.95579 2.93204 -1.38798 2.19593 -2.17078 -3.28859 2.4441 -0.402224 -0.314051 0.0395217 0.618481 3.00105 -2.82258 2.4329 3.26481 -1.9061 1.74635 -1.85603 2.94846 -1.52464 1.43526 -3.08538 -0.114225 2.29847 -1.50196 0.351257 -1.95897 1.33034 3.20769 -2.11743 1.48397 0.948899 -2.09002 -2.61984 -0.0268506 3.08547 -1.98132 -1.95238 -2.57049 -2.55636 -2.99588 2.7565 -2.70423 2.77803 0.734114 1.75113 1.99253 1.80195 -2.20812 -2.1933 1.62311 0.182814 0.855707 2.22813 2.82159 -0.521499 0.681616 0.280063 0.355095 -2.33104 -0.955583 -3.35553 -3.33825 -0.114565 -2.67559 0.601024 -0.453758 -0.909381 2.87846 1.2095 0.911493 -1.02264 -1.50485 -1.49618 0.860179 -2.96649 -0.953144 -1.32164 1.03203 2.73275 -0.162028 -1.01173 -0.59716 -1.91053 -1.5519 -2.17559 -1.35131 -0.55878 -0.998309 
1.21584 2.38376 -0.174753 0.01765 -0.598416 -2.90147 1.26187 -3.16476 -0.179361 0.694706 -0.237538 1.71007 -1.21114 2.11005 -2.41741 0.325676 -1.4671 -0.822228 -2.53141 -3.12268 1.89184 -2.9609 -2.08769 1.9273 -2.88758 0.856946 -1.36862 2.03825 -2.1284 -0.84968 0.256667 -1.17905 -0.384796 3.36562 2.84116 2.54568 2.01137 0.886131 1.13259 -2.86715 1.93595 0.145109 2.79138 -2.38434 -2.83154 -2.46498 0.909556 1.31228 2.14571 0.710428 -0.666205 2.71987 1.76338 -3.27882 2.92059 3.41613 2.87017 -1.16125 2.24495 -0.0809026 -3.27972 1.16521 2.69025 1.98247 0.154438 -2.81081 -2.45091 0.00276785 2.15552 0.0964438 2.39084 2.89779 0.0550993 -0.495166 0.60951 0.397147 3.07564 -1.10368 0.551843 -0.111685 2.27984 -1.52894 -1.47737 -1.94373 -1.30846 1.69739 2.07905 -2.02901 1.71247 0.995859 -3.02914 2.74403 -3.00245 1.34699 -3.54087 -0.922196 -1.10904 3.22014 0.00740645 -2.69801 0.384431 1.79804 1.79915 -1.21556 2.86778 -2.41639 0.0961728 1.48383 -2.03544 -3.12063 0.86043 -0.710933 -2.63031 0.691755 -2.57152 1.03595 -0.451951 2.06337 -3.25596 2.35952 -2.00712 1.35002 -3.10382 1.50335 2.21129 3.27303 1.31165 1.25255 -1.40406 0.267406 2.0151 3.44701 0.631657 1.11219 -1.88167 -3.03209 -1.33414 -2.31289 -0.403354 -2.25006 -1.73262 2.43202 -2.90293 0.636366 -2.57581 1.19078 2.01293 3.28107 3.07007 2.99578 -0.988888 1.78689 -3.11161 -2.63635 1.13821 3.40657 0.0193257 -2.02951 -2.02483 0.80906 0.362699 -2.60563 -3.15231 -1.86565 3.18171 0.51156 0.211337 3.13216 2.65802 0.463266 -1.04518 2.70241 -2.0036 -1.53307 1.33488 -2.3945 0.866262 -0.489545 0.732353 3.30647 0.194284 1.34113 2.36329 -0.292669 -2.38189 -0.605896 -0.76546 2.47113 2.06645 0.441572 -2.80643 -2.18923 0.683188 -3.53733 1.79819 -1.13602 -2.63143 -2.69325 -2.41277 -2.46314 -1.03381 2.73051 0.765611 -1.74694 2.24663 -2.66738 -1.51178 -0.481505 -0.596233 0.542769 0.0635194 -1.10849 0.399561 0.131159 0.703504 -1.04395 -3.20244 3.26661 -2.34727 -3.8316 -1.06824 -1.70361 0.950872 -2.13014 3.22939 -0.818651 0.760982 2.42539 -2.6589 3.23939 2.14354 -0.721014 1.31905 2.30491 -2.57072 -0.0495423 1.25731 1.96528 -1.19731 0.869961 -0.0659291 0.542228 0.590726 -1.84584 2.12103 2.24525 -3.07927 -3.24457 -3.74247 0.462961 0.508438 2.15621 2.86403 -1.66557 -2.28067 0.579628 -1.25192 3.20819 -0.656128 -1.11462 -0.58021 -0.576678 -3.02817 -0.427171 -2.08538 0.720372 -2.20768 0.539554 1.14859 1.42546 -1.57076 2.27327 3.36909 0.782863 0.845829 2.71316 -0.885568 0.512473 -2.41067 2.15052 1.83356 2.0592 3.49154 1.46607 1.50143 -1.24123 1.34847 1.98575 -2.44087 0.959173 -0.241245 -1.00376 -0.3913 -1.26123 -1.4979 3.0366 -2.94674 -0.191061 0.542141 -1.03901 -1.01965 -1.49929 1.92651 1.12131 0.158231 -2.80531 3.33746 -1.96829 -0.27139 2.63806 -2.78797 -1.89704 3.13848 -2.51048 0.243545 -2.88165 0.913664 -1.77268 1.27368 2.43705 -1.18544 3.01319 -1.13061 1.31126 -0.51421 0.12762 1.34118 2.23587 -0.665869 -1.40975 -0.512951 -2.70613 -2.24285 1.76423 2.79399 -2.98303 3.33896 1.34228 3.43217 3.49424 -2.38164 -0.84856 -2.74189 2.21606 0.962637 -1.87518 -2.38031 1.37299 2.00847 -1.30858 0.978903 1.1553 -3.88793 1.33562 -2.26182 0.0482088 2.6023 -0.513433 1.78151 -1.26117 1.04761 -1.55292 -0.494248 0.342478 -2.50341 3.08852 3.35157 -0.380857 -0.0900839 -3.10531 -1.09314 1.42456 -1.97324 1.36433 -2.64245 2.07113 -2.63291 -3.11364 2.32593 1.09743 0.952158 0.641219 -3.2061 1.22979 -0.862107 0.957322 2.07282 -1.65447 -1.22281 -2.32725 0.0853695 0.689243 0.742804 -2.7754 -0.0800635 -2.02262 2.79702 0.546878 2.22822 -1.24166 2.70669 1.37772 -0.207214 0.599458 -1.06509 -2.65252 -1.45135 -0.821348 1.97342 -2.27077 0.157137 -1.63627 -3.28302 -1.49019 0.954852 2.26928 -0.359593 -1.50703 0.501334 -2.03553 2.08652 2.00513 -3.32276 -0.258726 -1.68367 -2.15617 -1.33139 2.34891 1.73868 -0.71908 -0.531906 -3.88278 -3.01272 0.20819 -4.44015 -0.506941 -1.01008 -1.62243 0.525529 -2.94531 3.31546 2.04093 2.75613 2.59015 1.93207 -0.509241 0.661898 -2.77721 1.05465 1.56411 0.64133 2.97998 0.38484 -1.30992 -1.66488 -0.390773 2.81607 1.25002 1.38626 1.53242 1.331 1.3734 -1.51832 -3.53911 -3.22072 2.10413 -2.84657 -0.812108 -1.84191 -0.533873 -0.194279 -1.68419 -3.24546 -2.16872 1.31736 -0.176405 -2.29864 1.20835 -1.90372 0.576321 1.59428 -1.22324 1.3891 0.66352 -1.60697 -0.933665 -3.42304 0.997022 -4.71038 0.0894064 -4.22893 -2.45152 -1.50813 0.846468 0.195141 1.63804 -0.45803 -2.22057 1.92747 2.55771 0.50564 -2.47594 -2.37279 -1.80796 -2.61377 -3.0813 -1.44099 -0.640999 -1.10877 2.79495 3.67852 -2.64799 -2.00406 -3.13118 -2.04922 0.190425 -2.60215 0.674182 -2.24869 -3.1616 -3.17195 -2.85545 0.349569 0.945438 2.16396 3.19642 3.19649 -2.6061 -1.57124 -3.2051 0.951992 -1.7021 -0.560351 -3.42552 -3.16456 -2.37296 -1.18918 1.01999 -1.29529 -2.7654 1.0547 -1.21041 -2.07739 -2.64954 -3.03731 -3.48262 2.23783 2.95335 1.18295 1.59324 2.12572 0.0621345 2.54574 1.82093 -2.00672 0.14767 -1.32164 -2.47094 2.41259 3.20233 -3.45371 2.10477 0.630968 -2.442 -0.852272 2.96172 -0.969707 4.07215 -2.8617 -0.485152 0.0362686 0.550144 -2.9867 0.930154 -0.7133 0.406404 -0.112981 2.91051 0.519773 -2.53082 2.72171 1.19858 -1.00613 1.0228 -0.0431166 2.02394 -3.4497 1.79627 1.60272 1.64468 0.242852 2.65681 -0.720532 1.42462 -0.631847 3.70076 1.84124 -1.03541 3.52866 -2.23754 -0.998782 0.0521665 0.0941554 -0.676011 1.33839 -0.554508 -1.27639 -2.20971 -2.24094 -0.433259 2.78622 3.115 1.33837 3.13095 -0.378203 0.813902 3.40798 3.05404 2.82493 1.64349 3.07381 -1.99631 -1.02862 -2.22462 0.148433 -2.11624 2.75645 1.08146 3.77343 -0.828837 3.19292 -1.65347 2.93995 2.22424 1.53612 2.65237 2.16814 -2.29302 2.22389 -0.121771 3.45392 -2.13758 -1.09239 2.73965 3.21524 -1.14542 -2.87258 1.38492 -1.06415 -1.38431 -0.72139 -0.696095 3.24401 0.891543 0.996422 1.22425 3.36325 3.27519 -1.95129 1.43783 -2.96181 -1.03373 1.87294 0.873166 -2.79366 2.6606 0.102849 -0.0430556 -3.47556 1.36139 1.00618 -0.916939 -1.45442 -0.995202 -2.39703 2.07777 1.59299 -0.257266 -1.33617 0.367345 0.823444 -0.271597 0.112102 0.5481 -0.827965 0.531174 -0.504913 -2.65185 1.3381 -2.25353 -2.58628 -2.40221 3.15203 0.492397 -0.53401 1.73668 0.40306 -1.83131 2.60508 0.393639 -0.558388 1.93338 -2.1594 -2.79084 -0.672215 0.810172 -1.86902 -3.4175 -1.971 3.03996 -1.56691 -3.34855 0.0966917 -2.45043 -0.781753 2.44295 -0.299465 -2.23679 -2.16308 -2.66387 -2.74284 1.98354 2.711 -2.71603 2.69996 -0.109017 -0.250934 2.60352 1.69695 3.06155 -0.650674 -3.19941 -3.44292 2.88694 2.94537 -1.04103 -1.7011 2.88418 -1.75256 2.18685 0.938088 1.51336 -2.44991 -1.69246 2.01476 2.52941 3.3437 -0.080582 -0.567035 -1.81517 -1.28006 1.97588 2.49357 0.383515 0.0499941 -1.67645 1.36267 -2.24629 0.554443 -0.623249 1.46247 -2.04719 -2.11818 -1.25427 1.45574 -2.61653 -2.34296 2.14537 -2.55832 1.99006 1.52216 0.0532866 -0.0864924 3.0968 2.62007 -3.34431 0.0181745 1.99212 -0.444858 1.27533 -2.77422 -1.12527 1.47765 -2.94816 
-2.33104 3.02965 -1.76219 3.42016 1.92327 -2.43448 -3.28419 1.67287 -0.659363 1.9316 -3.41295 3.00331 0.0951106 -0.801568 -0.414979 -2.05141 -1.76668 -3.19028 -1.18437 -1.84998 2.65099 0.674475 -3.05778 -2.23399 -2.51313 1.32057 0.372509 -1.61324 -1.45246 -2.04038 2.66454 -1.11345 2.17284 -0.96009 0.414168 -2.96485 -0.0945258 -2.00033 -2.48666 3.36945 1.3999 -0.42588 -2.01389 -2.24003 -0.95394 -1.8338 1.37219 1.0497 -0.250968 3.40223 1.31986 -0.230292 3.0064 -1.06669 -2.96494 3.49286 2.12616 2.63725 2.45787 0.606409 -2.15769 -0.0302829 -1.88744 -0.0749143 -3.08977 -2.80529 -2.84875 -2.3309 -1.7726 -0.860775 0.790345 2.05965 -1.28256 0.064463 2.57618 -0.122043 -3.13966 1.29422 -1.23649 -0.165544 1.34841 -1.73466 -2.50289 -3.04328 -0.449389 1.99674 1.22354 0.729266 1.82246 -2.69202 1.51274 2.19008 2.96272 2.66705 -1.39146 -1.56395 -2.34152 -3.43908 0.263604 2.02385 -3.42119 1.956 1.13355 -0.0720579 -0.112303 0.431727 -2.05029 -2.78795 -2.62662 2.22782 1.32925 -3.20564 -0.0275483 1.47859 -2.56166 -1.12867 -0.661721 -3.44785 2.46706 -1.33169 2.73078 0.682696 -0.857271 -2.67382 2.05266 -0.562524 1.55061 3.07263 -3.69364 -2.39064 1.37466 1.21775 2.91211 -0.52023 1.22611 -1.04933 -0.146945 1.77143 -1.66433 1.07285 -2.59297 3.39464 1.84435 -2.69045 1.26295 -0.566632 1.17233 1.40627 -3.152 2.71899 0.0405017 1.78269 -1.49769 1.34788 -1.17973 -0.585304 0.0554141 0.481251 -3.39768 0.33368 -1.50371 0.0644965 -3.18477 2.99105 3.3681 0.208588 2.20551 -0.427027 1.38907 -0.371723 0.67822 2.06053 0.354095 1.02506e-05 -2.68895 -0.968848 1.91062 -2.76377 -2.53411 0.871308 1.35978 -3.04078 1.94728 -1.01039 1.32997 -2.69218 1.08604 -3.69292 -0.688119 1.3995 0.460716 0.160047 0.355365 0.255675 -2.44379 -2.56625 1.76324 -0.157933 1.79027 1.19231 1.37824 -2.10724 -1.36997 -0.544178 2.18106 -1.44153 1.52406 -1.6932 -1.88428 1.09112 -3.65515 0.26707 2.29905 -2.04675 1.4504 -0.970421 -3.61615 1.86991 1.42551 3.10591 -1.4094 -3.02599 -3.26953 0.909228 3.19982 -2.18533 -3.1071 -0.312098 0.554377 3.05538 1.83329 -1.74262 -3.37466 -3.24799 -2.97676 1.20666 -1.17239 -4.03811 1.36129 -2.61895 -3.28372 -0.989251 0.182017 -1.50987 -0.0505113 -3.09357 -1.40215 -0.316938 1.30666 2.36407 -2.76466 -1.41663 -1.46871 -0.553698 1.82996 -2.197 3.24346 0.687926 0.81448 -1.22441 -3.45523 2.56142 -2.16984 1.6139 2.2888 -0.443152 0.498322 1.72464 -3.14788 3.14547 -1.99123 -3.11931 -1.53968 1.65442 -2.5782 -3.57788 3.07179 3.01583 -2.34817 1.16815 -2.76058 -0.529598 -0.0603143 -0.261898 2.03116 0.987746 1.46226 1.84809 -0.926477 -2.1863 -3.51959 1.15659 0.382403 -1.70255 2.1957 1.29591 -0.00670762 -3.0952 1.25988 2.84482 2.82563 -0.650679 1.10258 0.636309 -3.02997 -1.72393 -1.13388 -1.84301 -1.24608 2.13509 1.07861 -3.11761 2.62527 -1.43257 -2.58126 -0.827058 -1.96833 -3.38255 -0.360498 -2.1453 2.92569 1.5121 2.74284 -3.7427 3.06923 -1.95766 -2.51035 1.6293 -0.914441 1.88826 -1.07352 -1.73594 -0.368268 2.49525 2.14563 0.127154 -0.739624 -3.27152 -2.76492 -1.7718 1.61472 -3.17861 -1.83944 -2.00725 -1.34665 -2.00457 -3.2544 -1.65202 1.30873 0.172007 0.640325 -2.72529 2.70873 -2.77163 -1.77853 -1.16187 0.904939 -0.45438 1.95777 -1.76954 -2.62611 2.1875 -0.20448 -2.23762 0.652111 1.92848 3.3672 -0.396442 2.84587 -1.47578 0.252902 0.731483 -3.18348 -1.00415 -3.48949 -1.79851 2.51741 0.712499 -0.190888 -1.4645 -2.67571 2.94705 -0.374283 -1.84218 2.80087 0.350249 1.80798 1.3164 2.58912 3.23192 -1.13918 1.22584 -1.77472 -3.01482 2.14974 3.49508 -0.0198791 -0.223089 2.89166 3.05803 1.09738 2.06728 -2.34343 -1.7059 -2.81533 2.83423 1.74637 -0.849743 -3.58905 -3.26802 0.265012 -3.58138 -3.09599 0.431605 -1.99668 -1.47862 -0.967967 3.14996 -0.73613 -0.451625 2.27591 3.45384 1.57888 2.22385 0.238005 -0.354421 1.33498 -1.49948 -0.480504 2.71076 -2.86686 -2.03915 1.10681 2.07432 -3.17729 -2.24823 -0.0581982 -2.51159 2.05082 -3.57228 -3.59416 -3.59552 -0.221002 -2.16933 -2.95944 2.05971 2.85186 -1.73697 1.52772 -3.00106 -0.693076 -1.62107 -3.46465 2.32029 1.68103 -1.50372 1.83878 2.43032 -2.46924 2.04654 -3.61595 -4.00541 -1.95441 3.14712 -2.51161 3.17632 0.72701 -0.955256 1.56314 2.70015 1.65493 -2.05726 -1.68026 -2.79113 2.8324 -1.67359 2.70166 -1.65704 -3.08731 3.13722 0.908161 -2.07093 -0.832019 2.35371 -2.24545 2.5948 -2.98225 0.451398 -3.13627 -1.71379 -2.56925 -1.53228 -0.783707 -1.58094 0.596143 -2.84428 0.0829378 -0.316223 3.28301 -3.47883 1.23805 2.13358 0.797471 1.21048 3.02387 -2.17701 1.43719 -2.34531 -2.75328 2.30069 -1.51781 1.7566 -2.37613 -2.81297 1.06851 0.184306 -2.32258 2.27599 -2.74018 2.28914 2.56945 -3.15369 0.996857 2.62984 1.77374 0.57789 -3.28443 1.4402 -1.12264 -0.647295 3.14485 1.45985 0.125948 -0.90205 -1.51487 -0.116937 -1.75967 1.61437 -1.29071 0.0701178 -3.11024 2.74861 -3.51906 -1.66007 -1.67835 2.7855 2.26279 -3.33038 -2.76896 1.47687 -0.151561 0.951778 1.37789 1.65415 -0.494946 2.15244 2.67676 2.92915 2.25232 0.111994 2.91594 -1.0276 -1.47081 -2.32334 0.134819 -0.647835 -2.79528 -2.46126 1.0757 -3.19774 -2.36114 1.52622 -3.80618 -1.46032 0.945835 -3.05331 0.243449 -0.892634 3.01458 2.37689 0.0636472 -0.220993 -1.34278 -3.40026 3.10451 -0.692626 1.5042 -3.46956 0.116852 -0.00457068 1.31242 0.0910654 1.93373 0.774644 -3.55349 1.53683 2.84821 -2.75172 0.980271 -3.63802 1.74341 -3.49646 1.96771 0.750431 2.78889 1.49094 -0.461101 -3.18534 2.52152 -0.390553 -0.381559 -2.29744 -0.637421 0.752009 0.559523 -2.46434 1.22316 -2.96402 -0.766451 0.389751 2.63921 1.43245 0.405996 1.45288 1.52353 1.78267 0.725291 -2.03332 -2.50101 2.433 -3.97399 1.52279 0.132928 -1.86088 2.28413 -1.43174 -0.699519 -0.923494 0.599445 0.760637 1.14665 -0.742947 3.14299 3.26023 1.77719 -0.82348 1.46416 2.57164 0.575696 -2.64948 2.91283 0.862242 -0.261806 -1.64272 0.990232 -2.91298 1.27995 -0.752819 2.5042 -2.8952 -3.14469 2.60251 2.75768 -2.74601 2.54436 -2.76959 -2.56505 2.24654 -2.12529 3.33489 2.66808 1.71017 -2.93036 1.61804 2.47188 -3.31406 -0.909423 -3.1717 0.684134 -0.00159325 -0.983004 1.64201 2.99319 2.59495 -0.794797 -1.25251 1.71585 -0.55122 1.62735 3.34976 2.94111 -2.76224 -2.1829 -0.668188 -1.47152 -2.54533 0.00409039 -2.41138 1.19204 1.176 0.527892 1.9118 1.87197 3.43195 1.06081 0.671794 3.03983 -1.01589 2.37526 -1.04201 -2.38663 -2.80916 -0.83958 1.91021 3.2066 -0.572198 -2.05022 -2.58535 1.29507 -0.406741 -2.29299 2.96536 0.993844 0.0573754 2.13868 -0.241761 1.22067 -3.3797 1.19501 -0.602888 -1.35562 -1.19184 0.0247152 -0.217264 -2.67705 -0.275199 -1.70545 3.29266 -0.225373 2.56512 0.993582 3.37062 -2.35327 0.734579 -1.5606 -0.994714 -2.51696 -2.73354 2.36167 0.374732 -0.0625482 3.01084 0.390859 0.946501 -2.688 2.95643 -2.83484 -2.37956 -2.55468 -1.68536 1.02618 -3.44758 -1.28169 -2.51621 2.11432 -1.6856 0.0439935 0.444145 -0.506571 -1.03418 -1.40053 -3.39085 -3.3344 2.37284 1.90319 -2.93822 3.21938 -2.94438 2.05748 1.14618 1.35288 2.84819 0.528594 -1.82834 
1.1608 0.750263 -3.35971 3.29432 -2.88638 -2.03359 2.77324 0.731084 0.85636 -3.49444 2.13585 0.0856389 -0.472559 1.38392 2.71507 2.04658 2.57807 -2.936 3.42539 2.10708 1.42142 -0.607409 -2.11185 -3.18766 -1.51385 -2.38205 -0.822704 -0.138438 1.90152 2.29642 -1.23461 1.49245 -0.139837 2.75045 0.158769 -2.87699 1.9982 2.27486 -1.32289 -0.0782662 1.64461 -2.98643 1.42805 0.262583 1.14722 0.946298 -3.40189 -2.69453 -3.36699 -0.107044 3.30251 1.60595 2.96843 -2.41076 2.34333 0.128065 -1.44933 2.95525 2.7394 2.70685 2.27681 2.7685 2.5915 -2.22062 -0.408096 -2.48608 -1.81057 -2.00796 0.9935 2.09813 -3.35599 0.351445 1.84202 -0.705693 2.98491 -1.43811 0.101634 0.432505 -2.67172 1.64741 -1.47925 -3.29012 -1.22195 1.07108 2.72332 -2.00733 -1.84204 -0.494642 2.06781 1.21293 -1.17102 -3.28505 -3.34374 0.486707 2.92453 2.16592 2.82286 -0.489243 -0.0160343 2.83654 1.52208 -1.92431 -3.38467 -3.28419 0.342288 -0.0525486 -0.221702 2.72213 -0.103851 -2.6061 1.81051 0.338136 -3.11489 1.51743 -2.70413 -2.73878 1.84938 -0.25925 -0.338371 0.379371 1.25049 2.18757 0.430527 1.64316 1.26991 3.68432 2.09161 0.659246 1.43946 1.44875 -2.44639 -0.887467 1.8252 2.73624 -1.38655 -2.77308 -0.0488877 -0.506847 2.70293 -0.780198 -2.59088 3.0839 0.926769 -2.32776 -1.88912 2.59895 -0.521565 -1.84673 1.49502 1.14165 -0.559791 -1.60517 -1.35167 -0.942961 1.01597 1.21626 2.75622 -0.680693 -0.511185 -2.17033 -3.27532 -0.0468283 -1.40984 -2.64081 3.07467 -1.97342 -0.324276 -1.15408 -2.63733 2.73758 0.757413 -3.38304 0.940202 3.47093 0.437094 -0.406888 -3.27879 0.538359 -2.30493 -0.379436 -2.92857 2.41312 2.81273 -1.7779 -2.33811 -1.82408 -1.27149 2.96106 2.46317 0.255722 1.53341 -3.00441 -1.37847 -2.84685 -2.83072 -2.38024 -2.40154 -2.30869 1.32825 -0.174533 1.7112 3.33512 0.487903 1.92998 -2.18094 2.36962 -2.92642 1.90552 -1.62583 -1.20889 1.00656 3.22889 -1.3566 -1.69841 -2.74488 2.75917 0.439876 -0.559923 2.01388 0.30341 -1.00818 -1.10584 -0.892467 -1.26999 -0.718095 3.44548 -2.46146 1.83756 -1.96572 2.90514 -1.9826 -2.26108 -1.432 -3.40341 1.63143 -0.719505 -2.94149 2.99026 -1.42034 -2.89839 3.15325 -0.352343 -2.55031 -2.64286 -2.26649 2.1337 0.730197 3.13018 0.218244 -2.00151 -3.23598 -1.10224 0.908199 2.78038 -1.65379 0.612873 -1.15883 0.211737 -3.13662 0.967996 -1.40782 2.31086 0.478549 0.501587 1.41313 -2.96358 -2.06645 -0.677987 0.863888 -1.66189 1.44742 0.554367 2.8862 2.9701 -0.393753 -0.775126 -0.295335 -0.208175 -1.70383 1.72246 -0.08904 1.17921 1.31805 1.19716 1.30679 -1.79266 0.970018 2.33395 -3.47609 -3.16781 2.28216 -2.08559 -3.54839 -0.306546 2.85161 1.27376 2.66019 -1.82446 -1.03378 2.80664 -1.92291 1.50718 0.0425966 0.000271045 -2.48601 0.331713 -3.38779 -0.672666 -0.90572 -1.32787 -2.67019 0.0619419 1.77093 2.47661 0.697412 -1.17199 3.36616 -2.52409 -3.28461 0.0802143 -2.2334 3.36512 -2.88387 -1.76912 -1.5118 0.531563 -2.5102 2.46681 -2.3837 -3.2035 0.325512 -2.74356 -3.34141 -0.615459 0.425973 -1.4893 -1.37533 -1.04556 -2.15441 0.880898 2.32454 -0.941644 -2.52007 -1.90696 -1.78556 -1.10875 1.88642 2.45669 -1.60968 1.1716 0.572836 1.11425 -0.546412 -2.50406 1.2384 2.91821 -1.4429 1.317 -0.21434 -1.58629 0.908722 0.272461 -2.40739 1.28304 2.52848 -2.33921 1.71571 1.43161 1.74294 1.54606 0.209582 -3.51129 1.22366 -2.43176 -0.878856 -3.2194 -2.632 -1.20674 -2.61715 2.15225 1.8079 1.52426 0.538069 -2.141 -3.20561 -2.06218 1.45075 2.08733 2.94084 -0.975943 1.19978 -1.99958 -0.528702 1.72264 2.2228 -1.56434 0.718366 3.28528 -2.40888 -0.0375216 -2.64278 -2.27186 0.44884 0.0749882 1.89816 -0.153388 -1.4955 -3.11553 -1.7113 2.09872 1.69743 -0.888148 -2.91264 0.231594 -3.11049 -0.112546 -2.7267 2.52677 3.13451 -3.17011 -0.186611 1.18882 2.12611 0.593735 2.58405 -1.4099 -2.88627 3.22842 2.89337 -0.247238 0.882669 -0.815667 -2.28407 -3.04171 -2.35601 -0.0322221 -2.72199 1.07421 2.41224 -1.92201 0.827644 -2.58445 1.74366 1.94702 -2.60014 -0.363821 2.47788 -3.43933 -1.20286 -3.48585 2.54531 2.98991 -1.50904 -3.40695 2.14392 1.80925 1.4531 -2.99986 -3.15271 -1.16172 0.465978 2.33158 2.93649 -0.700038 -1.81751 -0.942536 -0.840318 -2.67873 -0.956313 2.46513 -0.880915 -2.88775 1.91798 -2.07719 0.424019 -0.477697 -1.47814 0.0964648 1.46085 1.52815 -1.5774 -0.768892 2.63501 -1.24503 -2.46182 3.40668 1.41587 -1.89476 1.39443 -1.38404 0.407765 -2.53409 1.14777 -2.7762 -0.0173662 2.49304 -3.08267 -0.590169 3.05315 -2.40988 2.04935 1.84943 -1.25993 -3.11011 -0.808473 1.02928 2.82355 3.0751 2.92809 -2.92199 -2.91391 1.06673 -1.39725 -1.1657 3.32481 -3.21041 2.3708 -1.52569 -1.72527 -2.6545 2.26976 0.311062 0.5958 2.1401 2.17206 -2.70601 3.33199 0.66484 -1.79345 -2.45502 2.14459 -3.34961 -0.289571 1.0923 2.75758 -1.30529 -0.587464 3.17646 1.68029 -0.862188 3.25779 -1.62102 -0.394211 0.80133 -0.791381 -0.143964 -1.64941 0.630633 1.67695 -0.847722 2.27155 2.63898 -0.263046 0.487564 0.193496 -2.13722 -1.58934 -2.51997 -2.94243 -0.862749 2.89293 3.45245 -1.42891 3.45359 2.29573 -0.509351 -2.83627 -3.34517 -1.48657 1.86301 1.81344 -1.23265 1.038 -1.72165 0.262091 0.685418 -0.509098 0.800764 1.32135 1.65047 -1.31921 -0.444064 -1.59254 0.694486 -0.822757 1.58581 2.78803 2.33145 3.4249 0.492293 3.43191 3.18328 1.9142 2.31323 1.24531 2.8897 -2.31807 -0.0145929 0.466508 -0.319085 3.08887 -0.24155 -1.46018 -2.52541 3.24978 -1.51894 -0.630487 0.153883 1.71987 -1.90803 2.72782 1.93395 -1.27315 2.06419 -2.56686 2.93585 0.920302 0.951408 -2.31856 0.282557 2.97105 1.84039 -2.90807 2.57274 0.717918 -0.293159 -2.62505 -1.46658 -0.503192 1.95302 2.39174 1.58272 1.11016 2.15712 2.5092 -2.06601 0.928432 2.18561 -2.41964 1.13527 2.46957 -3.30322 -3.33425 1.87711 1.34279 -3.31972 -1.9214 -0.258295 0.553958 3.11649 -1.74823 1.40849 2.12462 -2.7259 -1.52589 1.0409 -1.57978 -2.07733 2.08437 -1.73717 0.640988 0.162568 2.88145 2.33756 3.1769 -3.10351 0.223142 0.254075 1.42806 0.211101 -3.16015 -3.37875 2.12155 -2.57125 2.20747 0.777779 -2.19624 -2.17434 1.63427 1.56603 2.89749 -2.6415 -2.45524 2.20968 -2.2761 3.34645 -0.13483 -3.20203 -1.66285 -3.2008 -3.08381 3.24486 -1.41569 3.34414 -2.97879 0.968051 2.81683 -2.13025 3.01131 2.21843 3.17344 0.267358 1.775 2.0735 -2.15382 -0.160356 1.8449 3.26257 1.85828 -2.93951 -1.20194 0.260256 0.508999 2.31641 -3.20214 -1.89036 3.03527 2.56849 1.9271 1.19558 -2.87276 -2.28906 1.24691 1.12358 -1.77891 0.942681 0.980427 -3.49728 0.136744 1.54571 -3.35917 2.72774 -2.00839 -0.830302 3.18274 -1.25024 -3.39983 0.363211 -2.1657 0.72212 -2.05365 -3.39305 2.92051 -1.06454 2.19603 2.81645 2.43381 1.55643 -0.523991 -1.51307 0.928153 -2.80481 -2.81876 -1.9618 1.15472 -1.91416 0.892412 2.74356 1.74499 -3.35163 2.87337 2.5703 -1.36639 2.84358 -2.9973 2.14561 0.153317 -1.24675 1.14059 -0.933011 2.40851 1.98524 1.19043 -0.117998 1.50868 3.41663 -2.70866 2.73827 -3.10697 -2.48388 2.9623 -3.02848 2.58001 -2.58803 
-0.483743 -2.47149 -2.9007 -2.70475 -2.17912 -0.0343843 2.7771 1.07489 -2.43946 2.55773 -2.39638 -1.15057 2.67121 -1.47447 -1.45425 1.94961 0.599779 -1.33604 1.87462 -0.595525 -3.3559 0.744054 -0.581685 -1.11722 -2.13279 1.56751 1.71656 -2.88786 3.39712 2.63899 1.42482 -3.28937 2.00938 -2.02603 -1.6662 -0.937345 -3.24699 -0.649774 0.00187263 3.35737 -1.93894 -3.15133 -0.63094 -1.05444 -3.41364 -1.88119 1.27982 3.36695 -2.79777 -0.172859 1.00837 2.49051 2.79335 1.09102 1.41791 1.42823 -2.36523 -0.0289911 -0.142115 0.0402221 1.27426 1.39279 -0.105996 2.3385 3.15092 0.382596 0.131713 -1.39871 2.51459 2.19759 3.42429 -0.318482 -1.23057 1.82931 -1.40257 -1.43386 -0.295054 -1.72083 -0.570056 -3.29384 -3.07706 -0.873251 3.0353 -2.61781 1.28585 2.47564 -1.46889 0.0434177 3.09304 -0.579633 0.204047 0.162612 -1.34125 -0.919189 2.4219 2.08363 0.791801 1.64004 1.64597 2.30998 -2.29364 -0.898933 -0.75781 -2.91582 -2.7245 1.26833 1.9187 3.40019 -3.32838 1.65507 1.47901 -0.839341 -3.26959 2.71508 3.43714 -1.11336 3.05218 2.26179 2.73122 -0.546371 1.49963 -1.47402 3.0777 3.04971 -2.38135 1.4852 1.35294 2.12407 -1.99541 2.81018 -3.32849 -0.330052 -2.42997 3.14384 -0.706981 -0.223825 -1.80418 -2.30735 -2.85664 1.07146 3.45482 -1.4842 -2.11222 3.07431 1.96245 2.06841 -3.22669 0.897548 -1.6845 0.229598 -0.932145 0.701748 -2.72137 -0.943109 -2.49079 2.55069 -1.20857 -0.273491 1.25976 -3.42369 2.22641 -1.55955 -0.94732 -0.633958 -3.18522 -1.23775 -1.68492 -2.59135 -2.18597 -2.03867 -0.981813 -2.53654 2.61422 -1.42128 2.07091 0.163952 2.98767 -3.12533 0.502225 2.56219 -1.38862 -1.3561 -3.33176 -2.74748 -2.68725 2.58014 3.09962 -2.08611 -0.411289 -2.56666 -1.4908 -0.137652 1.27686 -1.97381 2.52341 -3.00693 -2.32995 2.2092 0.245047 0.200713 -2.93589 0.0062029 -0.721445 0.737698 2.14387 -0.837169 -3.57558 -2.34549 2.68087 3.02609 2.07926 -1.42189 3.58706 2.87428 2.44011 3.01244 -1.75056 -0.516014 2.00441 3.55161 -1.71196 1.41217 -0.690114 -2.05009 3.40518 -2.56748 -1.0328 2.1649 1.71971 0.234232 0.120088 1.95441 2.41624 0.421904 -1.6349 1.71632 -1.34415 0.593004 3.77674 -1.71798 -0.2386 1.66588 -2.23963 2.35926 1.40277 -0.965518 2.88813 0.00733721 3.09652 -3.17799 2.18946 3.21629 2.06127 1.84723 2.51976 1.54218 1.7887 1.31758 -3.28914 1.17088 2.64863 -2.86007 2.33837 -0.635436 -0.115838 -2.50344 2.55742 -2.31906 2.67732 2.79811 1.41876 1.59814 0.748379 1.19813 -2.82537 -0.330849 1.59048 1.52434 2.07034 3.0406 2.44293 1.4285 -1.39116 2.03379 1.14183 1.9435 1.96809 2.37647 -3.16811 2.30957 -1.74355 -1.73788 -2.30065 0.693749 -2.05325 -0.0392409 2.26887 -2.61163 1.66656 -0.616941 -1.76871 3.04994 3.43039 0.193946 -1.02895 1.73428 2.01882 2.85881 -0.447179 2.12655 0.006901 -0.328196 0.0485508 -2.94277 -0.207432 -1.60533 3.16106 -2.93077 -1.34468 -0.859204 2.58749 -2.52447 -3.51554 -2.32229 -2.3678 2.3327 -3.29898 1.14235 -1.64978 -0.794627 0.866141 1.55845 0.383503 2.25451 1.21939 1.82317 -3.17197 -1.17195 2.88483 -3.5295 0.279032 3.33155 -2.6077 -2.35267 1.62618 0.107722 0.125297 1.77145 -3.05635 -3.12737 -0.0871962 0.376212 1.41435 2.17368 -2.194 -2.82472 3.01837 -1.22787 0.644187 3.52955 -1.69184 -2.95929 2.17393 -3.03056 1.04813 -2.62483 -0.313363 1.23367 2.23345 -0.645101 0.493837 -2.21685 3.77809 1.70963 2.55462 -1.04564 0.977049 -2.87766 -2.15459 0.708098 -2.20567 -0.336901 0.507164 0.675988 2.87965 0.455911 1.94361 -1.8311 0.28135 -1.04642 0.29557 2.6333 -3.06682 -1.07906 -0.458105 0.34895 3.24875 -3.01436 2.80385 3.9499 2.08263 -0.262429 3.11285 -0.569517 2.38971 -2.03703 -0.0146662 -1.49416 1.69456 0.667759 -1.04913 -1.26928 2.65252 -0.67162 -0.639964 -2.87185 1.09819 -1.8849 -3.49993 -3.25971 0.713281 1.86981 2.32818 -1.30508 -0.780087 -0.887894 0.941258 -1.75923 3.70708 -0.694103 -0.832991 2.81198 0.817015 1.64189 -0.244017 -0.611318 -0.838253 -2.93458 1.05652 -0.391482 2.88725 0.508873 0.181985 3.33159 2.29369 0.384016 -1.55424 -1.63507 1.46167 0.592594 -2.42915 3.20607 3.10775 1.45039 2.63768 3.24484 -2.31504 2.11794 -2.11237 2.35142 1.57981 -1.21026 -3.95408 2.14814 1.77981 -3.47228 0.857971 -0.537261 1.52883 -1.16874 3.456 -1.95622 -0.350749 -2.18026 1.67089 3.24058 1.06274 -0.556361 -2.44131 -1.76061 -0.165892 3.22416 -0.409141 -1.50434 -1.11075 -1.95613 -0.559842 -0.949981 0.581408 -4.00388 -0.115733 -3.91134 2.64627 2.05454 -0.464379 -0.302441 -1.89258 -1.68754 -3.11874 -1.04504 -3.51848 -2.74072 -0.814881 -1.41209 -2.49396 -1.39175 -0.690614 1.32794 -1.3406 -2.57064 1.04735 -2.02828 3.02632 -1.64293 0.807405 -0.63525 -3.4421 0.820687 -3.18593 -2.59994 0.140355 1.23112 -1.31677 -1.80188 -2.92007 0.751477 -0.408713 -3.09669 0.331561 1.83498 -0.850635 2.20192 -1.46922 0.362234 2.98667 2.34348 -2.62593 -1.15172 -2.67454 3.07245 -0.111001 -2.17828 -3.46393 -0.544399 -3.68019 1.11427 0.222396 0.556228 -0.492353 2.60145 -0.436192 3.12716 -1.93946 -3.26372 0.353019 3.06071 -2.65928 -1.5356 0.447983 -2.67415 -0.169594 -0.863569 0.908232 2.73521 -2.92125 1.20478 0.0684867 2.60145 2.16408 2.8626 -0.997508 -3.59925 0.942617 2.37129 2.90404 -1.77498 2.36443 0.340942 -1.03707 -1.48722 1.44764 3.07088 -3.39217 -0.12709 0.795988 0.836743 -1.76822 -1.97356 2.2703 -0.817656 2.82505 1.64465 1.62084 -1.49624 -1.81949 -2.51341 1.50766 -1.92425 -0.895847 -2.65428 -1.17257 0.265369 0.948329 -2.47437 3.22037 -1.99304 1.92096 0.615237 -2.47276 -3.08524 1.68985 0.814837 -0.905228 0.985167 1.42154 -0.601622 0.673607 2.29631 3.29481 -1.60906 0.846931 2.50404 -2.97061 0.0771764 2.50556 -2.53837 -1.17411 0.969014 -2.64628 0.768646 -2.14873 3.2732 2.06474 0.774802 3.14275 1.58133 -2.67968 0.233547 0.539167 0.513516 3.37372 0.552588 2.91419 -3.48363 -2.97989 -2.91169 2.23333 0.880096 1.55577 3.31924 -0.884678 -2.15977 2.49284 2.11503 -3.24653 -2.74698 -2.23039 -1.02996 1.00915 0.162585 -1.85826 -2.27963 -2.66972 -1.677 1.40632 2.08763 -3.0234 2.57756 -0.224567 1.59474 -0.386691 -3.15957 0.751616 -0.713145 -1.45788 -2.48449 0.766011 0.103279 -0.714576 -0.482742 -3.03078 -1.58235 -0.0368279 0.83579 -1.86821 -0.477687 -3.56734 -1.24777 0.502759 -2.60111 -2.87303 1.69721 2.77701 0.0142929 -3.39629 -2.38315 3.20463 -1.94004 -0.77007 0.180061 2.04156 -1.00892 -0.537494 2.78418 0.532375 3.16089 0.00488687 0.10333 3.08366 2.82457 0.632667 -2.36902 -1.99749 -0.169143 -0.335799 -1.79429 0.947076 -0.82417 -1.42885 2.55428 2.08984 1.92441 -0.0373445 1.43837 -2.18991 2.67922 2.60006 -3.22374 -2.5153 0.555496 -0.283733 -1.71615 1.68224 2.61901 2.80783 -1.71036 0.282383 -0.0823021 2.09672 -0.0774883 2.2343 0.214674 0.858424 2.56103 3.37265 -2.72454 1.93079 1.33428 -0.0508993 3.30245 2.11428 -0.802238 1.64395 -2.90332 2.28468 -1.2305 2.16603 -2.42756 -1.45672 -2.87842 1.11148 -1.51782 -3.01215 -3.26306 3.34427 2.42376 1.09551 -0.99999 -0.536165 -3.08105 -3.34378 0.37679 2.28278 1.496 0.787736 -1.60281 2.99247 1.50168 -2.49986 -2.06657 -0.863764 0.830548 -0.713448 1.21546 
2.22982 0.581845 -1.62076 0.588588 -0.274656 -0.676764 3.02096 2.99005 1.89811 -1.51833 2.27001 -3.23067 1.08098 1.60141 2.38975 3.04973 -0.119734 -3.19575 1.09605 -2.1609 2.39991 -2.44732 1.61619 0.934432 2.93643 0.904975 2.53765 -1.34022 1.19687 1.91306 2.2585 -1.20618 -1.59437 -0.618731 1.18628 -0.561146 -2.11734 -2.00698 1.44648 0.248517 -1.89401 2.58869 -1.7882 1.05053 3.37054 3.0719 -0.926386 1.00726 -1.68006 -1.71124 -0.905666 -2.95248 -1.78077 3.25642 0.901021 -0.608834 -1.15696 -0.22716 0.126438 2.43064 0.741282 -2.12601 -2.78174 0.684982 1.25449 -0.341898 1.16231 -1.6996 1.21924 2.65841 -1.42072 -1.3748 3.01157 -2.05191 2.94074 3.10438 2.97176 -1.85644 1.36711 -3.22504 -1.43708 -1.29258 3.33157 2.06171 0.924715 -3.21049 -1.02911 1.47862 -2.80813 -0.12787 -1.02339 -2.45094 1.41873 2.66707 3.20138 1.87377 -2.54844 -0.332498 -2.67796 -3.38326 0.184306 -2.53835 -0.800547 -1.73019 -0.553439 -2.33539 -1.57414 2.04441 -2.05997 -2.38176 -0.295565 -3.12891 0.608287 -1.70065 -2.415 -0.0129717 1.289 -0.283174 3.05486 2.18476 0.300853 1.61807 2.30789 1.51188 -1.39637 2.86563 1.18941 -1.16358 -2.41063 -1.77789 -1.21463 -0.537142 0.565415 -0.933729 2.58336 0.343517 0.592767 -1.33485 2.25574 -0.297638 3.08032 2.11633 1.93657 2.51412 -2.63386 -2.09064 2.30238 2.47339 -3.09358 -3.17742 2.89786 -1.58474 -1.96389 -2.78035 -2.22571 -1.08205 -2.74437 -2.81569 2.73865 1.67387 -2.46389 2.22015 -3.08273 0.455185 1.03156 1.40505 0.232185 0.363099 2.61359 3.18029 2.92021 -3.26522 0.60479 3.38898 0.594702 2.38245 -2.31432 -0.167389 -2.2568 1.18795 1.00708 -0.116361 2.28581 -3.3273 0.409811 -2.78536 -0.800489 1.64071 -1.44632 1.15276 -0.0132596 -0.925981 1.0826 0.890684 -2.03486 3.24066 0.956736 -0.610491 0.644104 0.761069 0.313502 -0.72004 -2.15325 1.82718 -1.04016 -1.71278 2.87845 -0.0310313 -0.483131 -0.228322 -2.66542 2.16707 0.0900196 -3.4126 3.04072 1.65 0.484788 -0.631924 1.94781 2.86566 2.04668 -0.375333 0.226406 -1.8094 1.34864 -3.3425 -2.17726 1.00186 -0.997273 -2.91876 1.4819 -0.81836 0.135659 -1.23998 -0.602011 -1.42612 -1.31407 0.386436 -2.18277 2.37304 0.793945 0.786196 -0.548551 -1.63493 -2.55664 -2.30714 2.38786 -2.45251 1.27367 1.18734 0.616679 -0.653161 0.789551 -3.44273 -3.16343 -3.18253 0.869486 3.37428 -2.38805 2.76507 2.54545 -2.26048 1.30732 -0.750542 -1.39617 0.84029 -0.590527 -0.391793 -2.3908 0.976963 -2.61153 -2.5175 -1.25282 1.2718 -0.600695 -1.51217 2.62268 1.42339 -1.28372 3.06542 0.255047 1.17657 -1.7255 2.46692 1.88242 -2.78548 -0.97948 0.614632 0.429087 -2.21873 -3.09541 -1.04134 0.323516 -2.31857 0.935677 0.688141 -2.48968 1.8325 -3.67421 1.05011 0.945248 -2.98283 2.03652 -0.479162 -2.47171 0.521274 2.61505 0.443096 -0.339563 -0.90765 -1.47979 -2.37552 -0.126956 0.835687 1.76521 -2.14802 2.51086 -1.50619 1.59851 -0.429679 1.15507 2.66901 -2.62771 2.69936 -2.71628 -1.05016 -2.14608 -0.861807 -0.548137 -2.21995 -0.527575 1.86164 -1.84809 0.733226 -1.88771 -0.493187 2.45863 -2.79861 -2.45856 -1.04442 2.39427 -1.78957 0.983578 2.73199 -0.630697 -0.453067 2.05381 -0.0598816 2.776 0.347225 2.40104 0.006884 -0.105964 -3.17671 1.48061 0.356012 2.01629 1.25078 0.890066 -1.49564 -2.28667 -2.58462 -0.807303 0.94915 0.528304 0.637237 1.8114 0.834058 -0.272176 1.03843 -0.866291 -2.50534 0.2851 -2.6252 -1.07531 3.29471 -2.0485 0.720798 1.64704 -2.90032 2.76884 1.6611 -0.802472 -3.09175 -2.89021 -3.07071 2.05794 -3.01039 2.11403 -0.44871 2.5489 -3.24888 2.19946 1.02694 1.90343 2.44046 -0.521181 -2.17859 2.83666 -2.53046 2.13683 -2.1966 0.142252 -3.40231 0.153184 2.09038 -0.396555 0.656836 -1.96491 -2.74296 -1.86357 1.74993 -2.52383 -0.453579 -2.02467 0.485846 1.06454 -1.52558 -0.889958 0.0494799 -1.9414 -0.156763 0.564676 1.56516 -2.27069 -3.52514 2.75909 3.16553 1.8795 0.28218 -3.01726 -1.05063 -0.4764 -2.01537 -0.542267 -1.99912 0.94529 1.64377 -2.83139 0.453528 0.378568 2.46792 1.94896 1.724 2.51945 0.853817 -3.04641 2.58199 0.767438 -0.955407 -2.77552 -0.182039 1.89188 0.85245 0.736547 -3.39812 1.55961 1.14978 -1.19817 -1.03134 -1.9147 -2.38579 -3.489 1.05448 -1.85414 2.10388 1.64054 1.2366 -0.0457804 -1.48611 -0.119118 2.28311 -3.25372 -1.99859 3.04542 -1.04275 0.801604 -2.3373 0.941043 1.28685 1.73507 0.95235 -1.79175 -3.39047 -1.15517 2.62825 -2.35021 2.41429 1.24141 2.58498 0.455861 -2.22843 0.157065 -1.87372 -0.909749 0.515407 -3.06073 2.33048 -0.348134 -2.98675 -3.20257 2.32547 0.264116 -0.26052 2.8993 2.95512 3.3905 1.29753 -2.86751 0.888406 3.12417 -2.97646 2.91839 -0.425537 0.264816 -1.49844 -2.2852 -2.30304 -1.47822 0.685529 2.12637 0.842673 -1.917 -1.97088 1.80014 1.36029 -0.719215 0.623083 2.88175 -0.081018 0.670913 -0.288427 1.1672 -1.40595 -1.43829 -0.0902189 2.05192 -1.82646 -3.0625 1.62904 -2.92188 2.96519 0.028175 -0.605436 -1.253 3.28762 -1.47035 -0.838376 2.46385 -2.16612 0.734693 -0.51077 -3.22957 -3.27218 2.39566 0.82826 0.677605 -1.83269 0.650472 -0.690161 -2.65719 -0.170058 -0.289836 0.215385 -0.0764474 3.09172 -0.829314 -0.24433 2.06503 3.02694 1.19061 2.51807 0.943047 -2.74997 -2.94132 3.47126 -0.608407 -3.27191 1.13658 -0.162076 2.13416 -2.19845 3.12414 -0.0023579 2.83123 -2.47642 0.23622 -2.73828 2.59361 -2.64646 2.44389 -1.12943 2.52775 0.294388 -0.715251 -1.46481 -0.0605193 2.1452 -3.14503 1.08365 -2.09607 3.13938 -1.54588 -0.0475198 -0.96596 3.08937 -1.75556 2.86653 1.55487 -0.918557 0.113878 -1.67731 2.75147 -3.13651 -3.08752 -0.973663 0.840373 -0.816736 2.67214 -3.33913 -0.155412 0.0216754 0.140968 -2.71705 -2.77605 0.212122 2.52544 -2.86164 2.85563 0.891997 -3.05804 0.61916 -2.16801 -3.1623 2.2164 -1.48517 -2.29775 -0.837847 -0.926568 -0.663646 0.250016 2.81728 3.13879 1.46343 -1.12788 -1.07317 -0.3313 -1.3888 -3.0697 0.260115 0.485641 -0.850567 3.13046 1.6434 1.75168 -0.660932 -3.42244 1.69119 2.21309 -1.94279 1.6375 -0.713661 1.10415 -0.961886 3.02999 -2.61879 2.94591 -2.69473 -1.80004 -3.19282 3.3426 2.27317 0.333302 -2.89195 -3.43006 2.25317 0.787478 0.20793 1.41254 2.71007 2.53634 0.797505 -1.80611 1.01932 0.925339 0.269408 -1.06764 -0.612129 2.79851 0.312832 -1.26746 -0.968193 -1.98131 0.448733 2.39093 0.70344 -1.38357 3.28182 1.4416 -3.2917 -1.52911 3.11336 -2.57772 0.506375 -0.115457 -1.30801 0.0136033 3.38716 -3.4618 -1.83507 3.45815 -0.192289 -0.496268 1.03254 -0.781445 0.790089 0.735997 1.38327 -0.629106 1.90428 2.84594 2.08451 -1.99299 1.3624 -2.30197 -0.825774 -2.26812 -0.0489532 -1.06464 1.27114 1.8469 0.732536 -2.54148 -2.61042 -0.636921 -0.375545 -0.71259 2.84211 0.934428 1.16748 -0.417088 1.97026 -3.04795 -2.02265 3.00504 2.43757 1.83161 0.603768 -1.91134 -0.548685 -0.726495 -2.53014 3.39 -0.644298 -2.57623 -0.560115 -0.303503 2.17962 -1.04855 -0.461711 -0.419917 2.03701 2.68516 3.17209 2.36259 -0.143449 1.14691 1.02873 1.04572 -1.86082 3.48219 3.09161 -1.48392 0.114423 2.45878 3.11829 0.0562922 1.65465 0.800207 -0.336959 -1.54747 2.75184 -3.1541 -0.230961 
-1.95323 0.82153 -1.01271 -2.22444 -2.23256 -1.46285 2.96144 0.571535 2.7372 -2.25964 0.0530319 -3.20022 -3.07707 0.794712 -2.73245 -3.43086 -3.11745 -3.12276 1.18962 -3.09368 -0.709281 -1.11427 2.13805 3.18868 0.412045 -1.41267 -1.04493 -2.06557 -0.064956 3.35315 0.385961 0.483087 -0.5364 0.633584 1.95304 -1.64818 1.28383 -2.83302 -0.948277 -1.29709 0.970055 1.8254 0.322646 2.63697 3.25118 -3.18503 2.27414 0.140637 0.273952 1.03656 1.00148 1.38932 -1.94723 -2.20711 3.2441 -0.755832 2.71396 -2.72913 -2.97221 -3.42422 0.856232 2.86069 -3.27734 -2.44089 -0.275506 2.27832 -2.66222 0.0623083 -0.889976 0.504789 2.27318 -1.34693 0.345289 -1.01972 2.44791 -2.53234 -0.555752 2.93007 1.39972 -0.386271 -1.84845 -2.95229 2.83218 -2.12015 -1.78398 -0.856241 -0.385937 -2.04512 -2.78183 -0.542224 -0.517679 1.52511 1.47885 1.41013 2.82574 1.05332 0.961624 2.1866 -0.0111318 0.532359 3.4525 2.41319 -0.0159854 -0.991341 0.501797 -1.0517 -1.14319 2.08816 0.0710964 2.02294 -1.77599 0.563948 0.081891 3.0304 -0.0544812 1.90627 -1.41757 0.317743 1.67887 0.85236 2.93524 -3.1405 1.04856 3.25582 1.70896 0.53494 1.43928 2.81155 -0.213203 1.61376 -2.19796 0.401935 0.736356 -1.65037 2.01413 1.02907 0.981408 -2.02707 2.38618 3.13108 0.0375692 0.549127 1.18742 -2.80544 -1.9927 1.88449 -0.743099 0.982669 -2.83683 0.375677 -1.67074 -2.66841 2.21948 -1.00193 -2.79673 -1.23279 -0.789862 1.10825 1.91542 -0.0658134 1.2094 -1.043 -0.700034 -3.34954 -1.22097 -1.44515 -1.58319 -2.14026 2.04125 1.05434 -0.713838 1.24125 -1.13054 -0.32976 2.56886 3.24209 -2.50239 2.16866 2.9655 -3.16339 2.50614 0.374964 -1.53494 0.0828394 2.34186 2.39401 -0.268475 -0.73541 2.35338 -0.949475 -1.79522 -1.39739 1.62231 -0.663407 1.96649 -1.58888 1.86845 -0.884887 0.32061 -1.03566 -2.75134 -1.70703 -3.29996 -1.49568 0.197438 2.92442 3.00891 3.21526 1.25126 -1.99349 1.0693 0.332271 2.02379 3.10341 -2.34244 1.10703 -0.443703 1.21877 -1.86906 1.99807 1.34798 -1.05424 2.67231 2.20769 -1.02589 -3.27774 1.20041 1.05958 0.859173 -2.16365 -1.71813 -1.75589 -2.97802 -2.37547 -1.78518 -3.374 1.68664 -0.817707 0.761738 0.94274 -3.86173 0.371273 -1.54408 -1.20117 2.42194 1.87867 2.42564 2.49531 -2.28848 -2.14453 -1.38206 -3.11022 2.39078 1.15104 -2.46767 -2.73823 0.204886 -0.319259 1.45193 -0.701864 -0.347181 -2.04413 -2.25511 -0.976033 -2.15594 0.358571 0.19647 -3.4987 -1.18402 -0.694894 2.59194 -2.32073 2.18482 1.36222 2.70171 1.91682 0.474574 2.13583 0.652608 -3.15106 -1.83004 -1.67956 1.30552 -2.59407 -1.71007 1.17315 -2.01009 0.917525 1.1727 1.55921 -1.3219 -0.547716 -0.615307 -0.767466 1.20627 -3.33183 0.303707 1.9621 1.67827 -0.0684536 0.288383 1.51597 -1.52066 -3.27635 2.30567 0.324552 1.75444 -1.30132 -2.93054 -2.77435 1.6633 -0.876669 -0.00945476 -1.03734 -1.67656 -2.94507 -3.3759 -1.29565 0.309715 0.750248 2.61182 2.47898 -1.54261 -2.67548 -2.02074 1.57297 0.321575 2.03634 2.50917 3.37914 1.54409 3.24939 0.209259 -2.56009 2.05773 -3.2539 -1.06426 2.2083 2.50178 -0.492251 0.199047 1.13057 1.94462 2.33015 -0.158187 -2.12268 -1.41488 3.17845 3.06098 2.47809 -1.68977 3.1374 0.817305 1.99372 2.45991 -1.19143 -2.0627 -1.0823 2.16729 1.76332 2.1927 -0.734085 2.512 -1.85282 2.45382 -3.4439 -2.67964 0.542679 0.617875 3.2043 2.38143 0.12377 2.64281 1.31659 -0.90226 3.66793 3.58756 -3.08187 1.36421 1.12565 2.37099 -1.15194 -3.72074 1.22208 0.950588 0.849894 1.58202 -0.492549 -2.03067 -1.40664 -0.937364 2.82789 -1.99013 3.17657 0.991539 -2.91063 1.25415 1.46165 -1.65553 -1.59987 -0.146245 2.91868 0.166304 2.70809 -0.961108 2.10164 2.06479 3.29148 0.25289 -3.20563 -3.27645 1.10892 2.86052 2.23175 -1.83493 0.616869 3.29192 0.875122 2.84696 1.94689 -0.144784 2.83411 -1.2298 -1.97645 1.54255 -2.70727 0.837477 2.47528 3.36987 -0.756065 -0.928121 0.710657 1.84028 1.44869 1.39551 -1.16313 -3.16447 -2.96353 -2.93381 -2.18313 -2.89025 -2.24816 2.13388 -0.0140471 -1.7928 3.03293 2.87449 -0.834625 -0.956842 1.41228 1.14064 -3.01875 -3.36304 1.57097 -0.116201 0.745604 2.26832 3.8718 0.790073 -1.30564 1.83642 -1.10263 1.65661 1.04165 -1.26065 0.479674 -1.77739 2.86656 2.82102 -1.11262 0.87502 -2.80651 -0.725699 -3.17901 -2.66809 2.83125 3.28562 -0.867799 -0.0286201 3.4799 -1.2847 -2.61119 1.21081 -1.17043 -2.09078 -2.83009 -0.173383 -1.94731 2.21668 2.4933 -0.570111 0.589321 1.91455 -1.6239 0.902684 -3.05654 2.26912 -1.55157 -0.933703 3.22983 2.25409 3.20963 1.91015 -0.773057 0.92387 -1.01036 1.09849 1.54533 0.812615 -2.71462 -0.56418 0.132162 2.02969 2.52156 -1.08701 -2.55214 1.65178 -3.08192 -1.74188 2.66121 2.54161 -0.186085 3.50096 -0.570452 1.21042 2.22687 3.24163 -0.976421 0.296411 -0.916823 -1.90314 1.73917 -2.76966 3.23047 1.50903 2.70997 0.729738 -2.14572 -0.677626 -0.867437 -0.0145276 3.68975 -1.38425 1.44267 0.744551 -0.316791 1.76335 1.76453 2.40763 2.209 -1.64355 -1.8135 0.904008 -3.12501 -0.655589 3.36089 0.336808 -0.730119 -0.768379 0.343536 -0.75959 0.870516 2.16059 -1.45184 -2.33023 2.72251 -1.60205 -0.0402981 2.70386 -0.203247 -0.528221 -0.728372 3.2328 2.5227 -0.660819 1.65992 -0.112004 0.671562 -2.63779 -0.181119 2.32845 3.0364 -1.13061 -2.66613 -3.03072 0.142339 -3.30912 -1.33892 -2.42001 -0.455762 -0.642801 3.26256 2.47773 3.21926 2.29501 -0.563701 0.116045 1.41417 3.31535 -1.53633 -0.362097 2.62686 2.10208 -3.69072 -1.83794 -0.280506 3.43695 3.43769 0.690625 0.727437 3.29305 0.34298 -1.34093 -0.963183 2.12902 0.326631 -0.778145 2.32913 0.7921 1.4858 2.29072 -1.36999 -2.27664 -0.178152 0.622053 2.24434 2.19729 -3.39552 -0.607325 -1.38066 3.00119 1.147 1.24545 0.781516 2.65654 1.316 0.743024 -2.84787 -0.00454504 2.30963 0.580844 -0.815816 -3.40583 2.78123 1.5749 -3.08357 -1.80631 -2.17637 -1.36853 -1.72351 -1.37656 1.4747 -1.79351 1.38651 -0.675598 -2.66774 0.951616 0.161853 0.239186 1.21638 0.0451909 0.21996 -1.8962 1.68567 1.7584 0.337164 -2.50456 -1.45061 -2.55925 -2.88827 -3.04337 0.84739 -1.79976 1.6845 -0.98438 1.02876 0.675408 2.971 3.4836 2.74188 0.671493 -1.21281 0.927903 0.59594 1.72954 -3.7254 -2.50584 1.84971 -2.13349 2.72803 -3.36809 0.65648 1.58435 -3.33006 -0.921605 -3.00638 -2.12077 1.56013 -3.17794 3.43545 -2.51581 -3.09276 -0.485124 1.53171 2.05753 -1.91708 1.12612 -2.69091 -2.59118 0.331251 -2.00981 -1.94274 0.451215 -0.519037 -2.52001 -2.34074 -3.59862 2.06359 -3.32463 -2.66741 -1.03812 0.467277 -0.0869119 -1.27683 2.16641 -2.51683 1.99109 0.735132 0.409563 3.15351 -0.855192 -0.0659598 -3.31397 0.969014 2.51612 1.55085 -1.55377 -2.44455 1.45825 -0.752051 1.74473 -0.973861 -0.0222565 -3.43594 -2.48794 3.01279 0.915677 0.241197 -2.02876 -0.491384 1.46833 -1.12736 0.602046 0.894983 3.45159 2.51522 -1.11897 -2.30514 -1.11169 2.13562 -1.26996 2.95336 -1.5877 3.07553 -0.965108 1.16067 2.11235 1.77007 -2.22069 -1.51826 -0.744997 0.480906 -0.240986 3.17815 1.2837 -1.1455 -0.194008 -1.33159 0.314916 -1.89916 0.968142 0.196203 1.87652 2.34075 
-1.17128 2.71509 -0.781457 -0.157436 -2.57603 -2.24085 1.74323 -2.93365 -0.475158 0.209326 -1.67114 -2.0638 1.68239 -2.24271 0.746253 -0.628918 -1.38696 -0.272399 3.087 3.12372 0.312355 -2.53289 -1.7459 -0.488103 -2.73044 -3.01138 2.80591 -0.0408699 0.335187 1.04721 3.36704 2.99897 -1.52013 -3.42242 0.201204 -3.27016 -1.41072 2.56914 0.769576 1.87768 -0.254674 0.901606 2.96425 0.548887 3.22605 -0.880875 3.27222 -0.847096 -0.151214 2.39949 0.315652 -0.865977 -0.972684 1.38299 2.99236 1.74228 1.14974 -2.80762 0.086361 -0.413423 -1.45261 -2.90551 1.67414 2.51718 -1.02212 2.17777 0.0863125 -3.06414 2.97891 2.80134 -0.707578 2.21611 0.183244 -2.4728 1.38296 0.0869251 -0.669231 -0.548763 3.24798 0.678759 0.993692 -2.10421 -2.40029 -2.139 -2.61549 -0.85039 -2.48379 -1.68085 1.09455 2.94499 0.0373446 1.81196 2.5229 3.07051 1.95022 3.03546 3.10546 0.522865 3.31421 0.400645 0.62583 -2.20999 -0.764058 2.29851 1.1057 0.882373 -1.23151 1.83227 -1.55906 2.52309 -1.65095 -2.9504 0.194609 -3.26183 2.63444 -2.42253 -1.3817 -2.82174 1.59383 -0.583821 3.28077 0.287967 0.619005 -1.30358 -0.0639936 -2.24397 2.35136 -2.88877 -1.58707 -2.47637 2.92034 -0.426421 2.71917 2.95852 1.47745 3.42588 -1.44295 2.2007 -2.30606 0.799139 -0.262884 0.50009 1.17623 1.65556 2.6194 -0.0839909 2.16726 2.67795 -0.397832 -2.0012 2.08067 3.02414 2.13982 2.17382 1.79178 3.39883 2.67829 -0.765787 0.11989 -2.57482 -3.10246 1.4179 0.0190395 -3.34501 2.47141 2.33624 0.3457 -1.09226 -0.067444 3.38302 2.60908 -0.206804 3.38288 -1.62421 0.493759 2.87813 -0.476265 2.5533 1.13161 -0.996755 0.94695 -0.925473 2.09174 0.243711 2.31155 0.245899 3.42857 -2.2434 -1.23538 -2.78171 -1.56083 -2.41081 3.03055 2.85834 0.370507 0.622059 0.438315 -2.30947 0.469753 0.611649 -2.39752 -3.41052 -1.04689 1.56683 -3.06215 -1.11772 3.66993 0.320256 1.94054 0.226972 3.84515 -2.78984 -1.91793 -2.20353 1.412 2.1946 0.943659 -1.56873 0.9416 0.850305 1.06998 -1.77289 2.29025 0.555584 1.43253 -2.66671 -1.3634 -1.79334 1.1481 3.39166 -0.679721 -1.84675 3.56245 3.14862 -0.10462 1.32234 2.63749 -1.88315 -0.666618 -0.876489 0.403918 1.02718 3.66839 -1.37131 -2.98303 3.10952 3.40662 -1.98719 1.79296 -0.235217 1.65769 0.0327882 0.545871 -1.35297 -1.90282 -0.754609 0.327541 0.108444 0.654087 0.837223 0.549029 -0.696883 1.69556 -2.53804 -0.575516 2.17892 1.75976 -2.46188 1.15142 3.90595 0.127494 -0.504502 2.76698 0.547054 3.34457 -2.99032 -0.695735 -3.31836 0.376449 -1.41049 2.72426 -0.849656 1.09241 -1.78744 -1.40357 -0.409678 2.87385 -2.2317 -2.57313 1.13511 0.88344 3.2049 -0.371321 3.66788 -1.30386 -2.21488 -0.026874 2.04299 0.00774289 -2.50202 -1.25517 0.983347 2.2414 2.29364 -2.77388 -0.955039 3.03714 0.866062 2.69372 -1.70334 -1.50823 -2.19911 -1.08777 0.0784295 0.128151 1.01166 0.512289 -2.20091 -0.988755 -0.0769073 0.982637 -0.10691 1.97844 -0.20104 -1.38622 2.54505 -2.50385 -1.21799 1.24288 3.01064 -1.61885 -2.74282 1.60848 -0.63745 -3.19038 0.17206 2.53485 -0.455979 -1.93092 -1.32859 3.43459 0.0355038 0.704233 -0.376214 0.619388 2.76738 0.205623 -0.193689 0.0662752 -0.783261 2.50832 0.130306 2.24835 -1.38175 2.33976 1.066 -2.79101 1.34171 2.70436 1.65974 -1.74632 1.56414 2.36575 3.45568 3.13099 2.49802 2.25748 -3.01133 -3.30269 0.938696 -1.11185 3.34387 -1.8522 1.31634 -2.31365 0.92707 -2.83235 -2.37165 1.16576 1.46875 0.534944 2.61989 3.26758 3.35126 -2.96403 -0.588838 1.87116 -1.86333 -1.3103 1.49518 2.06187 -1.34246 -0.869682 0.24319 -3.27283 -1.94562 1.4974 -2.31879 -2.41247 0.164687 2.40011 -3.03955 -1.03899 -0.391644 1.64595 3.61617 -0.362012 1.90672 1.82045 -2.93273 3.56251 -1.08001 2.83489 2.16367 2.24907 0.407336 -2.74616 1.10953 -2.04256 -3.35206 0.46511 -3.16893 -0.495785 3.01578 3.05133 3.50995 1.20493 0.458722 1.78916 -1.31682 0.921455 -0.499836 2.61329 -0.0706603 0.672734 0.831288 3.66052 2.40862 1.84974 2.74804 -0.455909 0.0770747 0.381983 -1.94739 -2.68827 -1.9255 2.0652 3.20839 1.28232 -1.48751 0.620737 -2.28151 2.26026 0.953924 -2.20249 -1.06394 2.47575 1.7338 -1.62593 -0.401349 0.495369 -0.569951 2.31466 3.17238 1.1848 -0.989384 3.28636 2.33454 -0.623875 2.20091 -2.67263 2.94728 -1.06852 0.600987 0.959174 0.671389 -0.628064 -3.22207 2.30234 2.46815 0.0391932 -1.16181 -0.3573 1.38003 2.84447 1.42135 -2.55987 0.30099 -1.32235 3.7364 2.27345 0.108228 -2.00983 2.16819 2.93617 -0.445972 -0.811196 -1.87625 1.88331 3.1342 -2.95307 3.04856 -1.59353 2.8031 0.28824 -2.38711 3.45902 -1.56693 -2.47358 3.41576 0.872828 -0.474819 2.83061 0.246236 2.79025 -1.74011 -0.322062 -0.669542 1.49455 2.25891 -2.67835 0.656207 -2.90675 2.09337 -1.57161 -0.239191 2.20291 1.06191 0.248961 -2.41487 -0.789108 1.27637 2.59227 0.019603 -2.30912 -1.79197 -2.72494 1.26323 -0.486293 -1.29924 -0.716799 -1.36166 3.11675 1.27128 0.390493 2.55769 1.33702 -1.88439 2.6081 0.687712 -0.331338 -2.48272 -0.573988 -2.63624 3.48261 -0.270399 -2.54955 -0.428666 -0.957578 1.56216 -1.36538 -2.15939 -0.553953 2.30921 3.43682 -0.388464 1.33765 0.966516 0.613602 3.58035 -0.411699 1.37398 -1.78508 2.1047 -2.44721 -0.06321 0.174637 3.56636 0.119104 0.167489 -1.0322 0.926418 -0.285807 0.855164 -1.58487 1.0022 -0.810849 -1.99939 0.270307 2.24823 3.44286 0.748904 2.18052 -0.768115 -2.34329 2.80085 -1.13007 -2.11681 -1.27411 2.67425 0.764119 -1.39803 -1.42201 -0.0644347 0.93125 -1.84899 -1.90061 -0.539871 3.43201 3.26382 -2.45502 -2.34979 2.25487 -2.1232 1.05321 0.0156174 0.927035 2.75073 2.42916 -1.79596 -2.58029 -0.0274422 3.52492 -1.83451 -2.09815 2.2226 -0.259029 -1.48465 2.56911 -2.42013 1.97352 -0.837042 1.85395 2.04117 0.370081 0.218434 0.67894 -0.544482 1.1317 -0.0947635 -0.926498 1.39943 2.87036 0.788554 0.0638393 -1.1331 0.0556377 -0.338712 -2.6927 -2.17476 -2.16527 -1.97847 -2.23969 3.6807 -1.57189 0.220819 -1.32775 -0.251155 -0.920909 3.02733 2.23367 2.99724 -2.6152 0.407649 -1.79869 -1.32462 -1.32932 0.0910162 -2.88671 0.624295 3.35652 0.756706 -2.48255 -3.19784 3.3203 1.64171 2.99437 0.557698 0.745972 -0.538174 -3.20261 3.46276 -1.78845 -1.24225 -2.78589 3.1596 3.29896 -1.33932 1.86131 -2.27888 -0.0626932 -3.41414 1.56569 1.94809 1.41742 -1.26733 -1.14801 2.5272 -0.844888 1.2533 2.94614 0.219101 -0.717489 1.17935 -2.83168 -0.53944 -0.569079 -2.65511 1.08616 -0.813486 0.326466 0.405132 3.29657 1.25061 -3.42628 1.13432 -2.89391 -1.93581 -2.85108 -2.61958 -3.2116 1.81717 -0.257522 -2.46798 2.10591 -0.317977 -1.89491 -0.203123 -3.41439 -1.95526 0.216236 -2.83321 -0.787071 -3.41494 -1.04197 2.49964 2.31716 -1.10939 -1.72042 0.56821 -3.24189 -2.64777 -1.2503 -3.21051 0.862858 -1.08642 -1.18067 -0.658623 1.85015 2.28291 3.21737 -0.11192 2.11988 1.11923 -1.31821 0.853314 2.26569 2.98295 3.05681 -1.34968 1.00315 1.32325 -3.00838 0.786499 -2.67783 0.644342 -0.860549 -0.933333 2.03616 -3.36097 0.11225 -0.981567 -0.823548 2.50739 -3.20598 -0.729507 2.81566 3.01345 0.673145 -0.0878512 -3.36532 2.24662 -1.48728 -0.209851 
-1.73372 -3.27898 0.894862 -0.672688 1.27809 2.197 -3.428 1.79412 1.58798 -1.51493 -1.60721 -2.11232 -2.33439 2.20017 0.539504 -0.29569 2.53572 0.593587 -0.86173 -1.69811 0.891777 -3.17435 3.36474 -0.0498731 -2.77468 0.213851 3.16759 -2.35442 3.18512 2.32364 -3.46461 2.49785 2.694 2.4309 -0.857714 -2.19555 -1.02413 2.56927 -3.33835 2.34246 -0.683809 3.49158 1.37822 -2.35457 -3.40687 1.2882 -0.294819 2.36939 -3.38066 3.04621 -1.92883 -2.48786 -0.111658 0.34183 -0.676264 2.56309 1.73887 1.71174 1.40741 -0.687224 -1.74239 -1.17994 2.26753 -1.53085 -1.35046 2.88508 -2.81772 2.72934 -3.45266 2.78858 2.1336 1.88146 -1.03968 0.0726858 0.727766 0.210438 -2.78206 -1.02672 -1.44768 -0.198268 -0.131955 2.57374 1.45863 -2.37772 1.37641 -1.99853 0.198816 0.626611 -0.646847 0.105994 1.53908 0.377504 1.72105 -2.38049 -0.481125 2.43424 -2.2681 -0.103946 -3.4994 1.34628 -0.822457 -1.49616 0.409883 -2.08344 2.72574 -2.52138 2.4698 1.54889 -0.81035 0.402653 3.03522 -1.84971 0.912799 1.80263 -0.812164 -1.98143 -3.30889 2.36233 1.80774 1.34681 3.01767 -1.94742 -3.43569 -3.01062 -0.57924 1.60403 -2.75286 1.65435 -1.90065 -0.599588 3.3982 -0.80742 2.61708 3.22472 -0.768939 -2.06794 1.51853 2.42979 -0.182489 -1.94415 1.54914 -0.443351 -0.46961 0.72383 -1.92742 -1.95578 -0.877281 0.918283 2.27619 -1.20501 1.72028 -0.395402 2.8266 -1.80098 0.680005 -0.333581 0.339974 -2.90313 -2.76076 3.24969 -1.84512 -3.02749 0.896002 -2.59217 -1.44372 3.33128 -2.71874 0.128644 2.387 2.15346 1.6028 1.98729 -3.32726 -2.58426 1.596 0.113274 0.10016 2.16033 -0.0249871 -1.83442 -1.71692 1.22703 1.08051 2.77106 3.19419 3.17312 -0.771964 3.17285 -3.55369 2.84725 -1.43987 -1.82833 -3.42214 3.15871 2.175 1.66681 2.87835 -0.769373 -1.56405 0.998007 1.82621 -3.03688 2.69204 2.68259 -2.01967 0.726353 -2.67453 1.04599 2.86473 1.86532 -2.74277 -2.28383 -0.0301867 -2.85893 2.77929 -3.49484 -1.03218 -0.577962 1.8517 2.82494 2.2136 -3.40187 2.90175 -0.173151 -1.98581 1.00687 2.8936 -2.65239 2.30433 1.35836 -1.83834 -3.50165 -0.570708 -3.00427 -0.13305 2.67263 2.55939 0.0366824 -0.517872 -1.60068 -3.25238 -3.33822 -2.05817 2.09612 -0.230793 -2.59633 -1.24747 -1.22025 -2.85501 0.795142 3.02585 1.8886 2.97875 -1.19047 2.86667 -1.94291 -1.53768 1.21449 -0.397712 -0.813057 3.34315 2.5879 2.33144 2.62754 0.925893 -1.37414 0.122452 -3.08648 -2.12485 -3.33989 3.1279 0.409796 3.50017 1.50055 -1.08065 -0.407417 -1.87239 -2.26886 0.0774004 2.7201 -1.70295 1.60923 0.0614209 -1.94699 1.60136 -3.31741 2.96922 2.5669 -1.34781 2.44376 -2.04576 0.282947 2.49756 -1.56883 -1.016 0.0480507 -1.29829 -1.41584 -3.1012 -2.7667 1.47873 2.96853 -2.2463 3.18959 -1.60475 3.1911 1.27627 0.618397 -2.64021 2.96863 -2.49068 -2.1778 1.48763 -1.05478 2.60413 -1.74906 3.53063 0.606962 -2.22857 -3.18147 1.5521 -0.988885 2.20998 -3.89908 -3.62755 1.0692 -3.02181 2.14419 0.5339 -0.786034 0.424763 -2.17459 -0.643541 2.44239 2.75716 -3.25992 1.17556 -0.683424 -1.42741 2.33022 0.0170216 -3.03689 1.11457 -2.92619 -0.932527 3.57806 0.925154 -1.6475 -2.22869 -1.8742 1.447 1.24949 0.461228 -0.225718 -3.75529 -0.285867 -2.91073 -1.91008 2.03611 -1.20705 3.5169 0.607813 -0.434031 -2.86416 -2.28629 -3.21819 -1.59548 1.01296 1.1522 2.24973 -0.288221 -0.597087 2.31847 -1.03769 1.85977 2.17529 -1.36734 2.18807 -3.00383 2.17038 2.13213 1.06187 -1.67074 -0.710744 -0.455505 3.8825 -0.935818 1.9762 0.868096 0.173163 -1.73713 -1.51706 2.89321 -3.40826 -0.167098 1.94877 -2.56052 1.28464 -2.55105 -2.36518 -0.469487 1.19789 -0.328598 1.63954 -2.92494 -1.31289 -3.08812 1.6032 -3.77802 1.99061 -2.72066 -3.06299 -1.1417 -1.42037 -1.47637 1.05424 -0.261873 -1.29461 1.55416 1.18438 2.49225 -0.496891 -3.16629 2.22271 -2.21174 -1.82824 2.78981 2.89373 -1.57597 -0.87443 1.46935 -3.38325 -0.902289 1.44483 -1.83987 0.802945 0.920648 -0.0510952 -2.55068 0.103256 0.55823 2.15398 -0.303009 3.33202 1.5993 2.56048 -1.93885 -2.10204 -2.493 0.257488 -1.40153 -2.77414 1.03085 -0.586148 -2.16972 0.149768 -0.0197771 -2.66256 -3.38706 2.67503 -3.27018 -1.80933 -0.152769 2.39305 -1.35142 -3.4223 -2.50176 1.41371 -1.89257 2.71999 0.561707 -0.585165 1.50535 1.61182 2.16653 -2.13419 0.311505 -2.43902 2.77818 0.845573 2.06426 2.46169 -2.08695 0.489157 -2.87288 1.84031 -2.12759 -1.24935 2.09467 0.325985 -0.9276 -3.04406 2.13758 -2.24569 -0.443863 1.80654 -2.85219 2.84635 1.27194 -2.74652 1.75421 -0.907148 -0.353099 3.39839 0.597806 -0.587543 -0.235162 1.6096 1.09906 1.42077 2.81687 -2.9718 -0.24475 0.293223 1.41762 -2.92212 0.518867 -0.385402 -2.04812 -1.02716 0.286892 -3.5689 -1.05979 0.309313 -1.16682 -3.12518 1.31233 -2.41235 -1.93793 -0.125693 -2.43999 0.156692 -2.54705 -1.07298 0.206196 2.74296 2.86888 -1.86716 0.302327 -2.01166 0.548087 -1.67167 -1.45807 -0.141492 3.02161 2.96875 2.39585 -2.48124 -0.568858 2.27224 1.26439 -1.35509 -0.700272 0.875125 1.81738 2.27239 -1.60981 -0.581266 1.14731 -2.59618 0.916254 -3.26467 2.49169 -2.20644 1.50587 -3.24744 3.09044 -0.187067 -0.86066 -1.03108 1.12708 -1.81618 -0.683172 1.79068 -3.38079 -2.93716 -0.378158 -0.906758 -0.958628 -2.02501 -0.75887 1.52165 2.56894 -0.31668 3.29137 2.97356 1.32079 -0.0636555 3.48647 3.47014 3.31472 3.36028 -1.54842 -2.61513 -3.43027 1.00271 2.52072 0.654288 -1.1161 1.96601 -2.24514 -2.29098 2.16916 1.49931 0.381007 -2.24425 -1.23773 0.234137 2.19048 -1.39425 -0.639933 -2.84481 -1.68287 -1.38961 0.687359 -0.703663 1.0813 -2.92969 -1.33327 -2.63193 3.07665 2.584 -3.0021 -3.09546 -2.84643 0.789833 3.17674 -2.67625 -3.27272 0.57908 0.180032 3.1096 0.286132 1.35142 -1.0321 0.377701 1.8163 0.674404 2.75351 -3.36236 -0.98839 -1.84585 0.58655 -1.70067 -2.03836 -1.05392 0.394551 -0.694225 -0.447725 -3.13517 -3.3562 1.23702 3.16175 3.01906 -2.53225 1.36698 -0.10198 0.331571 0.491357 -1.59668 0.817688 1.73732 3.0465 -2.75674 -1.73164 -1.40319 -2.47101 3.16374 1.45826 1.58296 2.42651 -0.531437 -2.54877 -3.2194 -3.29224 -2.89603 3.09369 2.52741 -0.628451 -3.07232 -0.608397 -0.194 -0.437282 -2.02686 -3.04809 -2.36108 -3.05671 -0.973651 -0.0222772 -1.79045 1.23665 0.869314 2.49031 -0.275152 -1.6164 -1.89222 -0.653756 1.43436 1.92587 2.243 -2.9543 -2.83078 3.33818 0.392456 0.441067 -3.37475 3.18738 -2.64246 0.691774 -1.88062 2.56057 -0.945095 2.20412 0.467711 -2.07175 1.78313 0.0524808 -0.0561787 1.20303 3.41599 -2.53804 -3.40724 0.535575 0.893611 1.9434 0.0352484 2.88008 -1.01101 -3.19989 -2.3166 0.896929 -3.06009 -1.8399 0.912559 -0.0741207 -1.19648 -0.580437 -1.31706 -0.118265 2.32195 -1.41322 3.16514 -3.28926 2.39673 -2.32947 -1.12469 -1.8898 -0.680243 0.299676 3.25715 -2.40474 2.96879 2.03762 -0.583063 -2.99158 0.693405 -1.79532 1.67005 1.10972 1.04252 1.81602 3.09891 -2.85538 0.444208 1.87131 -0.0260764 1.18585 -0.242821 -0.294921 -1.87821 -0.248649 0.646057 2.95459 0.111137 2.91832 0.473094 3.32038 1.42871 0.339918 -2.33466 2.10959 2.98983 -1.85629 3.01907 
-0.554394 1.90917 -0.447805 2.84049 1.40523 0.471782 0.60238 2.05684 1.01609 3.09998 1.88903 -0.0870972 -0.795327 -0.294132 2.8075 -1.28855 -1.19993 -0.661676 2.26989 1.55267 -2.95234 0.998153 -2.96893 0.47821 -3.05583 1.85096 -2.01283 -1.94347 -1.51498 1.95978 2.0508 0.68438 -2.94605 1.39847 1.34822 1.89107 -1.47559 -0.855273 -2.44422 1.42955 -1.41162 -3.44391 -1.71602 2.73267 0.625977 0.556022 0.940779 -2.42751 2.58646 2.10277 3.27712 1.23523 -3.38306 -2.19724 3.42399 -0.827329 -3.40729 -1.26017 2.6606 1.35939 1.68529 2.46336 -3.15581 -3.0129 1.71685 -2.67695 2.11759 -2.72717 -2.47766 -0.79631 1.59967 -0.232126 -2.39311 -3.08177 2.02009 -1.36653 -2.87866 2.82672 1.72083 -1.27675 0.455285 -1.43166 -0.865884 -1.05737 -2.12228 2.29526 0.0244061 1.67099 -0.580126 -0.52383 2.23812 -2.79508 -2.21831 0.655594 0.9796 0.435012 -2.30343 -0.384816 -2.39369 -3.05239 3.45182 -1.28096 0.971519 -2.38525 0.749821 -0.644624 -1.29966 -1.1049 2.06362 0.461302 -0.184124 0.943863 -2.65081 2.31337 2.96634 2.75095 -0.34092 2.83718 0.0464489 -2.82965 -1.07969 0.325492 3.53824 -2.26426 -2.92013 -1.32749 0.432841 2.5332 -0.29642 -0.933794 -3.06798 2.76869 0.844067 1.27886 0.293972 1.65144 0.635823 0.328487 -3.2902 -2.58852 -2.16859 2.73347 3.10073 1.80113 2.80807 3.41316 3.15886 2.37299 -1.22513 1.36655 -0.677619 -2.72534 1.60042 2.24197 2.75155 0.826617 1.83928 0.154504 1.48871 -1.31636 -1.20203 3.19022 0.339899 -1.28413 2.23178 3.04586 -2.0731 -0.962352 2.19174 1.1339 -0.577958 -2.36828 -1.55986 -0.143041 -0.835534 0.204273 2.61249 -2.77174 2.19165 -0.756468 -2.92082 0.617056 -2.66684 -1.48578 -0.498328 2.97831 1.16923 0.0694203 0.755334 2.22929 1.64658 -0.168941 -2.40723 0.320274 0.213845 1.61125 -1.97015 -1.83978 -3.07718 -3.25006 3.09379 1.49938 -1.0001 3.51727 1.96851 -2.97463 -0.670378 -0.275504 -2.64879 -0.537675 -1.9741 -2.72295 -0.526439 2.74204 -1.67883 0.804921 1.40119 2.10752 0.408918 -0.749512 -0.842249 2.19973 0.615022 2.09508 -0.603985 -3.47332 -2.16227 -0.543461 1.38291 -0.129972 1.77934 -0.847609 -2.88055 -1.5733 -1.08053 -2.00456 3.82882 1.39022 1.08966 -0.156931 3.18199 -0.371387 0.77621 -0.858193 0.87744 -1.52334 2.00854 2.34919 -2.08506 2.02498 -0.385914 -2.74654 2.14051 -0.906687 3.3856 0.542666 -2.35303 -0.354261 2.82669 -0.978101 2.94964 -2.28435 -1.15003 3.16622 -2.62306 0.608414 -2.12084 0.27385 -3.0441 0.765782 -2.18687 2.65338 2.22366 0.76088 -0.740843 1.72712 1.2436 -0.702165 -2.87581 -3.02946 1.44083 -1.90328 3.16131 -1.29268 -2.88331 3.0181 2.48935 0.232667 1.64556 3.07352 3.13157 1.74773 1.95806 3.4692 2.45143 0.0665228 3.29172 1.08084 0.00190987 -2.01133 0.0283231 1.75059 -0.210826 -0.0877463 -2.69866 -3.35021 0.0932969 -2.74715 0.369382 -3.42274 -2.25711 3.18422 -1.91943 -0.877817 -2.24152 2.38654 -1.06191 1.62018 2.44886 3.01083 -0.754383 0.0704491 0.841044 -2.66002 2.53604 1.09755 3.15265 -2.42817 -0.536929 -3.51888 3.23038 -1.77243 -2.65129 2.79087 1.01219 -3.02677 1.66378 2.4044 2.57711 0.258263 -0.934602 -2.09711 -0.936146 -1.04567 -0.918185 -0.769794 3.53711 -2.27234 -2.52407 0.524152 0.284292 -1.32124 -2.83208 -0.38911 -1.70836 0.0887985 2.11406 3.30107 3.46123 -1.14108 -2.37546 -2.23129 1.43525 -1.4493 2.41049 -0.199527 -2.18275 -1.14797 -2.19082 0.871867 -3.25161 -0.255107 3.47529 1.5865 -1.30545 0.711838 1.14088 2.49524 0.554743 3.24078 -2.04228 -1.53224 -1.09713 3.3736 1.91386 -0.950823 1.61407 -0.067578 1.73235 -0.816835 0.609816 3.24641 1.18038 -1.03501 -2.75073 1.03529 -0.210892 2.98407 2.90311 2.01467 -2.97488 3.0118 0.830932 2.50179 0.960124 -1.98621 1.7268 3.87754 -0.0186226 -0.328768 1.73806 -1.54529 -1.37002 3.47075 -0.250905 -1.96588 1.00642 1.43102 0.872277 0.818212 -0.333674 3.45994 -1.22765 -1.02369 0.876937 -1.73117 0.233279 0.838764 -0.60799 2.74069 -2.14524 1.43632 2.6026 -1.23411 3.66356 2.23673 2.38182 2.39292 1.72421 1.385 -1.16165 -1.24856 2.89424 -3.07062 2.61198 -1.47517 -3.18414 1.05977 2.14363 -1.91573 1.44162 1.94301 -1.70057 2.64334 -3.29313 -1.93677 -3.09972 -2.13802 2.35988 -2.62723 1.27462 -1.98169 0.15509 -2.04907 3.17004 1.35831 1.34908 0.248156 3.39978 -2.44352 3.44571 -0.593224 -1.1264 2.61294 -1.92944 -0.799408 3.10059 3.37695 -3.17764 -2.5402 0.151327 -2.72734 2.87324 -0.500672 2.60363 -1.89148 -0.56299 2.34488 -2.29077 -1.40971 3.57545 0.079179 2.82465 2.95767 -2.77344 0.861462 1.7481 -0.788567 -2.85545 0.079352 -1.25127 -0.325387 -1.67222 -0.917599 3.31919 1.99282 -1.90742 -2.13735 -2.74394 -2.78765 2.96831 -1.5186 0.147474 -1.71541 0.924669 -0.938404 1.07781 -0.392293 0.00357583 3.73724 -0.638223 3.33262 0.823688 0.0549691 3.22968 -1.97719 3.00543 0.116897 2.77996 2.54784 -0.453979 1.81074 -1.88429 0.188318 0.713036 -2.56614 -1.84205 0.955702 0.505833 2.60997 0.59776 2.73656 -1.0855 3.14516 -0.753812 -0.0341323 -1.6439 -2.37271 -1.01332 3.04518 3.15082 0.103277 -0.487914 0.481143 -2.07328 1.29085 -0.51113 -2.45932 -2.80838 -2.40797 -0.264083 1.92801 1.50302 2.9922 -0.669464 -1.22322 -0.762197 1.53871 2.4872 2.76909 1.55307 0.40834 0.912616 0.14469 -0.394358 0.701609 2.23495 0.423479 3.59252 -2.57251 2.13785 0.83858 -1.76431 0.801194 0.723055 1.78019 0.184583 -0.457746 -0.990126 -0.620013 3.44854 -3.15816 3.07272 1.9436 2.92697 -0.0135385 -1.6773 -0.633355 -2.86739 -0.46428 1.68471 2.65812 -0.366433 -1.83676 3.73571 0.640637 0.432366 2.02194 -3.17602 -2.6655 -1.4433 -0.645444 -0.0345389 -3.19981 -2.89509 3.30753 2.94391 2.22523 -1.25136 2.21292 0.350091 1.08992 2.4632 0.325693 3.2518 -1.54828 2.54602 1.1922 0.488114 -1.78713 -0.738258 -0.0203432 -0.146441 -0.69587 0.0822689 -2.79091 2.23328 -0.921722 3.48098 0.0098366 -1.01153 0.936412 -0.406777 2.41162 -2.56547 0.25877 2.86516 0.759358 -3.17042 -1.47937 -1.30286 -0.176461 1.27713 -1.1897 -2.47964 0.967439 -2.64143 3.5772 -0.0305443 -0.0508327 -3.14677 -2.94407 1.12343 2.50886 -1.86791 -0.469629 -1.30225 -3.13401 1.73185 -0.445475 -1.89665 -0.69929 -3.26423 -0.783912 2.9733 -2.85231 -1.60705 1.99364 2.64992 -0.0793672 -1.52574 0.652635 -1.34788 -2.04777 1.14801 0.197865 -0.178829 0.818575 1.55297 -0.0479058 2.61482 0.28826 1.84148 -3.41987 -3.22638 -2.02538 0.611966 0.470833 -3.29329 -1.29218 -1.32139 -0.632547 2.31272 1.66408 -2.92611 1.26752 -1.16723 2.75224 -0.282823 -0.496752 -2.76601 1.21206 -1.76505 1.76268 -0.467923 -2.49061 -0.796041 0.122699 1.13017 -0.00066712 3.4866 2.59813 -2.82457 -0.600304 1.02112 3.15147 3.47717 0.0823428 2.56531 -3.35394 -1.22016 -1.61787 2.18573 1.86848 -3.37318 -0.343196 3.21198 -0.961341 1.26112 -2.11576 -2.51966 2.58081 -2.59807 -0.781403 -0.8099 1.44282 3.13556 -0.713583 1.20788 -1.63031 -0.97906 -0.918277 1.40847 -3.21597 3.44078 -1.42129 -0.178315 -1.58918 -3.02957 -1.1035 -3.10652 -2.45067 2.07365 1.07065 2.23683 0.872012 -1.17822 0.399372 -0.165875 1.74556 1.98648 -2.63299 0.100511 1.52112 3.14358 0.00993974 -1.65426 -1.99582 2.11988 0.011024 -2.26732 -0.571691 -2.66872 2.53976 
1.08203 2.94219 -0.4506 1.72947 -2.79842 0.180817 -2.37522 -1.6921 -2.65137 0.757384 -3.25438 2.12745 -1.64601 -1.96418 -0.168018 -0.152908 -1.79529 0.816646 1.67081 -2.79682 -2.29671 -3.41124 -3.16839 -1.7014 1.79126 -0.0910113 3.22719 0.0673367 -1.4176 -2.19417 -3.04909 2.83567 1.94231 -0.0898922 2.69843 1.08201 -2.36526 2.66623 -2.59765 0.86345 -3.3123 2.45063 -3.14699 -0.926017 -1.03583 2.66737 -1.97305 -1.93279 2.15357 -0.527202 1.41023 -2.84714 2.60288 -2.30809 -2.88269 2.58774 0.604878 -2.26439 0.522463 -1.3472 -2.80909 -2.14955 2.51428 -1.70543 2.60545 2.52198 0.354389 -0.750661 0.439082 1.19837 -2.70419 -2.41245 1.81982 -0.0904534 0.97315 -0.297314 2.01523 1.5731 -3.05814 2.17504 1.98536 -2.69519 -3.06057 1.77421 3.08619 -3.20515 -3.15306 -2.21211 -3.41613 -0.174868 0.339158 -1.08756 -2.99914 3.355 2.45246 1.37449 3.32375 3.33741 0.586377 2.87494 1.05217 2.49408 1.16047 -1.85356 -3.29493 -1.75445 -2.63747 2.57855 -2.09586 -1.27663 0.899778 1.88192 3.00081 -3.3442 3.08409 -3.47957 -1.43937 -1.04501 3.46297 0.0401857 -1.58883 0.29258 1.49309 -2.75987 -1.16387 1.42831 -2.87408 3.51426 -0.587413 3.03505 2.13539 -0.903611 1.63947 -2.51037 1.44858 -1.54104 0.797676 -0.557935 -0.855564 -2.01613 -0.917355 1.50794 2.18605 0.143758 -0.59324 0.0371698 2.26472 2.58748 -2.77938 -1.7533 -0.0530629 -0.149823 -0.853503 -2.35697 -0.455812 2.05566 1.79218 3.48984 0.860306 3.03675 2.38134 -0.171285 -0.919682 -2.02976 0.661518 0.957886 0.222697 -2.45211 2.88898 -0.789992 -0.718877 -2.97753 1.68839 -1.95688 2.28856 -3.22956 1.38516 -2.19376 3.58621 2.35324 -0.189138 -0.237446 1.68679 3.72835 -2.35709 -0.495053 -2.55134 -1.98615 -3.13736 2.7299 1.52863 2.47589 -3.46431 -1.26368 2.86059 -2.95925 1.94101 -1.94073 -1.22078 2.80178 -2.17183 0.311495 -0.396358 -2.16671 -2.32216 1.96795 -1.06108 -0.165565 3.30764 0.211764 -0.600504 2.93823 1.35444 -2.28173 2.67862 -2.79996 1.64296 -2.90357 1.45328 1.93387 -0.121635 1.97215 -0.613745 -3.19269 -1.25627 1.54581 0.557503 2.34166 -1.46304 0.224294 -3.19827 -1.61866 -2.40204 -0.152971 2.6621 1.84205 -2.30169 1.00159 -2.42502 -2.4464 0.98205 3.12093 1.21722 -3.24092 3.28325 -3.237 2.87058 0.977508 2.22578 -2.57154 0.74844 0.185134 -0.647005 -3.31336 1.16509 0.526079 -0.418643 3.07265 -2.55887 -1.24772 2.36947 1.69633 -2.79679 -0.458848 0.633831 -2.5988 3.65998 -1.11977 0.44366 0.0115061 0.184452 2.95542 1.39315 -2.4126 -2.07945 -2.2692 1.4569 -3.28893 0.145555 -1.95436 -2.6473 2.85455 -0.533748 2.76748 -2.82438 1.92928 -0.953887 0.728257 -2.00003 -2.49759 -1.36848 -2.74837 -2.48465 2.69558 -1.35647 -2.56087 2.33304 2.75229 -0.610573 -0.380397 -2.04926 3.12132 -0.391189 1.907 0.469004 -3.11976 -1.27873 -3.43076 -3.43294 1.54223 -0.472763 -2.62505 -0.0405659 -2.4778 1.20114 -3.02634 -1.34636 -3.82803 1.25829 -1.93279 1.29693 0.121353 2.56947 2.82125 2.26466 -0.390899 1.17883 -2.70046 2.13027 -1.50206 0.471952 0.118413 3.32196 -3.2127 1.70326 0.55137 1.37417 2.93835 0.546278 -2.41043 -2.80922 2.67393 2.03313 -2.95742 -3.35955 -1.04058 -3.57283 0.0741812 0.475548 -0.47242 -1.33295 -2.69817 0.774361 -3.97041 -0.213848 1.63144 1.33147 0.985728 3.54442 0.0247877 1.412 -2.50938 1.36941 2.75528 -0.627135 1.14042 0.816061 -1.35375 1.8065 1.02017 -2.65587 1.80986 0.582133 -4.0665 1.43402 -0.789302 0.521452 0.433307 2.19049 0.168268 2.06693 0.695517 1.54713 2.69271 0.232072 -2.72152 0.594595 3.17682 -0.152978 -2.00614 -2.85147 -2.98634 1.09136 -2.52292 0.0776715 3.18257 -2.13861 0.250097 -0.932115 1.02328 0.014041 -1.08426 0.792187 1.28567 -3.04038 0.767631 2.05046 -2.79722 0.0271488 -1.23582 -1.51116 0.44743 1.42514 -0.0355301 1.31274 -3.16285 -1.78006 2.3838 0.00395074 -2.34871 1.71015 -0.59347 1.0122 -1.31178 -0.129157 3.12915 -1.83493 0.244717 1.09532 -2.91071 1.04761 -0.126562 2.01602 -0.965454 0.273995 -2.02501 2.26895 -3.81745 -1.67421 -3.02953 2.55722 2.43817 -2.35759 -0.504415 -3.09915 0.0270384 -1.85874 -2.1127 -0.141342 0.0329613 2.2072 2.86724 -0.036338 -2.42897 -3.37729 2.11797 0.228773 -0.45912 -0.246583 -0.926934 -0.77077 1.56552 1.29846 -3.73899 -3.54988 -2.65149 0.997253 -0.0120324 -0.252452 3.16212 1.34322 3.493 2.52613 -1.12641 0.753429 -2.42904 -2.54686 0.288719 -0.804165 1.86077 0.246486 -1.69632 2.30046 3.20836 -1.08538 3.11476 0.00491079 -3.41397 2.60575 1.53217 -2.95426 1.12641 -1.20645 -2.79595 1.42067 2.41859 -0.518426 -2.54102 3.15559 -1.86707 -1.28649 2.37339 1.1416 0.523548 3.28111 -3.46337 -2.39189 -1.27516 2.69325 1.97971 -0.558085 3.04151 0.0269446 2.6956 2.33151 -2.89351 -2.05176 1.44578 -0.768513 0.345421 0.273161 3.14787 -1.18195 -1.9436 -0.62189 -0.18015 -0.201609 -0.759077 -1.92747 -1.18861 -0.30781 3.48597 3.42738 2.98591 -3.01699 1.43953 0.280702 -2.0684 -1.95051 -0.908383 -1.03256 4.08407 -1.56362 1.91294 0.780846 1.76541 3.49832 3.55561 -2.7311 -0.580648 2.8095 -1.64778 -2.57554 0.00901993 -2.17295 3.06201 -1.51534 -0.568651 -2.77032 -2.19435 0.266274 3.46256 2.00078 -0.0425973 2.83836 0.0121137 3.22788 1.57752 0.793917 2.6029 0.802483 1.3381 -2.53075 -2.74043 -2.192 -1.24541 2.17306 3.13195 1.51355 -1.50288 -0.0154939 2.64343 1.28355 -2.11556 -1.22578 -0.379732 -0.971923 -0.231021 1.84168 -2.67546 -1.17532 -0.273245 -2.42234 0.166304 3.25564 1.48184 1.01665 -2.19146 4.11763 -2.22664 -2.03094 2.85831 0.166037 4.06321 2.96047 -3.17293 -0.138853 -3.48467 3.2889 -3.04656 -1.70735 -2.6652 0.72615 -0.19829 -0.640402 1.55682 2.51034 -2.1989 -0.386072 1.66545 -1.23111 3.40996 -1.1817 -0.122749 3.52752 0.953912 -0.267346 0.121838 1.80194 1.86675 -2.66059 -1.42791 0.570892 1.38262 2.28287 -0.832103 1.02389 -1.90772 -0.0927287 -0.125306 2.06794 -1.22503 -0.407862 -0.3535 1.75862 1.67929 -1.79701 0.335856 0.68696 3.4486 -1.80524 0.566033 -0.525104 -1.9057 -0.842243 0.380484 -3.07732 -1.77857 -2.76035 -2.05768 -1.10649 -3.59473 -1.06951 -1.9157 1.71872 1.00768 -2.00913 3.43765 0.260936 -0.0717903 -0.917116 -0.59345 -2.58642 -0.248167 1.52726 -0.377826 3.12962 -1.66955 3.44856 -1.33262 1.53492 -2.10883 0.48825 2.28302 -0.803732 -1.8958 -3.08117 -1.97358 -2.02126 0.852104 0.999933 -2.55235 1.3856 1.07614 -0.434324 3.17142 1.69766 1.56805 -0.484783 3.27011 -3.2045 2.88057 -1.04353 -1.90962 -0.199896 2.72983 -1.22126 -2.48472 -1.98722 0.749508 2.69772 -0.819101 2.26862 3.58983 -2.73785 -0.607599 -1.70721 1.86334 1.1502 -2.10282 -0.203167 3.07274 2.65943 0.738156 -2.45103 0.132082 2.02251 2.93064 -2.98486 0.216171 2.59059 1.32168 -0.721432 3.2845 0.313517 0.188296 2.98789 1.78912 1.97985 -3.3688 -0.579003 2.76264 -0.812429 3.40018 -1.67432 -2.6541 -1.01205 -1.33681 0.215429 0.234646 2.87033 0.956953 -0.192934 0.970715 -1.78887 3.10183 -0.870484 1.45099 1.06004 -1.93327 1.60568 -3.29045 -1.4043 0.757336 2.2268 -2.20958 1.43771 -0.425817 2.35818 -0.347238 2.2359 -3.07798 2.23848 1.2528 -2.4162 2.48612 -0.711241 -3.11608 3.36508 0.282454 1.39319 0.199488 -2.15918 0.965785 
