0.631891 -1.17102 0.707816 -1.4444 2.72966 2.3542 -1.42111 3.27907 0.707263 0.158067 -1.97088 2.91211 0.685554 2.19577 0.815352 -0.23207 -0.291905 1.07437 -1.75287 1.17897 -2.69709 -2.72895 -2.61019 2.04041 -1.93454 1.00401 -0.0806533 1.08525 -1.06894 -2.20185 -0.0744677 -3.33153 0.337018 1.36609 -3.42467 -3.07243 -2.57823 3.23996 1.3094 -1.50588 -0.478853 -0.149359 -2.92601 -1.3249 1.01655 2.37919 2.4615 -1.45648 -3.11668 1.38841 1.86763 2.16311 3.26222 2.63428 -0.183448 0.81556 3.15004 -1.22181 -2.19953 -3.07099 -2.57512 0.805265 -0.661007 -0.835125 1.58417 3.31915 -3.18625 -0.912285 0.348953 -0.555506 -0.697923 -1.24896 -2.30494 2.89705 -1.50477 0.711871 -0.919057 -2.11179 -0.280376 1.85822 -1.67061 -1.81663 0.159386 -0.801528 -2.74651 -1.11325 2.65346 0.240998 1.29698 2.45032 -2.10861 -3.37469 -1.1845 -1.10393 1.4277 3.2905 1.07821 0.896765 -0.906854 -1.8924 3.05866 0.0132847 1.79923 0.171441 -3.41914 -2.41667 -2.30538 -1.54135 0.757168 1.44316 -2.11635 -1.7913 2.91456 1.06406 -1.00749 -0.377976 2.37557 2.82001 -0.668389 -0.309249 -2.16887 -2.61933 1.32682 0.756759 3.06534 0.641224 -0.119756 -1.85901 -2.15139 3.10337 -2.25808 -0.0500315 0.527438 -1.75569 -2.40734 -1.87281 -1.15399 -1.9258 -1.53971 1.30777 -1.69944 -3.20242 -1.39967 -1.37229 0.571858 -2.77616 -1.4177 0.0753442 -2.3499 3.03444 -0.632828 1.62955 -2.9195 0.0469565 -3.83845 1.19432 -0.15304 -3.94211 2.42853 -2.16346 -2.68992 2.24949 -0.768169 2.05439 -1.27236 0.130263 -0.0532033 3.03028 -2.59485 -3.07481 1.981 -0.366306 -2.97019 -1.09987 1.24616 2.11123 -0.825295 -0.837283 0.416768 -0.549759 0.665079 -0.773281 -3.04282 -1.07078 2.4594 -0.435162 0.58877 0.112668 0.0941434 2.37323 0.766188 -2.62356 3.3512 -2.68342 -2.1393 -2.8308 2.86634 -1.08811 -2.59146 -3.11329 -1.28224 0.444406 0.323387 3.01772 2.86688 -0.40626 -1.67911 -2.99367 1.64598 -2.34575 0.761986 -0.00931806 0.410521 1.72158 2.56172 1.83446 0.896506 2.47783 -1.1633 -0.139506 -2.48193 1.35838 2.6493 1.56959 -2.38738 -1.63907 1.54842 -0.321913 -0.0718179 2.1706 -0.798982 3.28796 -0.644862 -0.982342 -2.71753 1.5448 1.0179 1.70561 -0.100535 -1.39646 -0.0796215 -2.29943 -1.41419 0.193016 1.01619 -1.363 -0.776766 0.659733 0.415486 -2.11943 2.57752 -1.20829 3.17533 -0.345671 2.89806 -2.15863 0.959642 0.899407 -0.238614 0.400848 -0.790371 -0.352066 -2.20783 -2.09317 2.90601 2.33794 0.744394 -2.27041 2.91259 0.188029 -0.647573 1.45511 2.79618 0.251368 -1.16323 1.48482 2.3416 -2.92512 -3.19676 0.402003 -2.14386 0.976444 -2.86526 0.0500725 1.90957 1.43942 -2.78802 -0.675466 -2.86193 2.52642 2.37789 1.87616 -2.90148 -2.83874 -3.03711 1.05741 -2.76298 0.490702 1.82039 -1.11535 0.759501 2.74312 1.81831 -3.27603 1.43866 -1.64228 3.0745 1.95358 -1.0627 1.50361 0.608652 -1.50002 -2.19986 -1.1149 -3.23282 1.2412 0.247745 1.26782 -1.31687 -0.405979 -3.64692 2.73712 0.91051 -2.59221 2.33277 2.67182 -3.10316 2.63484 3.00617 -2.54554 -2.32229 0.247326 1.10335 1.47427 2.71215 -1.74823 0.151899 1.9175 -3.36169 -1.13767 0.04963 2.60502 1.41374 -1.35522 -2.84329 -0.905979 -0.428168 -0.867348 2.09214 -1.1755 -1.25694 -1.88706 -0.332611 -2.42555 -3.25358 -2.79885 0.406074 -2.9291 0.435323 -3.42252 0.377267 -0.85632 1.58284 -1.99479 3.16901 2.80223 -0.858487 0.346226 3.1796 -1.12897 2.31049 -3.09057 -2.5591 1.16786 -2.95629 -2.93455 1.168 -1.00543 -0.237006 0.040178 -1.34735 0.127738 -0.669587 2.51463 3.18149 -3.30974 -0.52288 1.78832 0.885035 1.80204 1.35972 -2.81164 -0.176457 3.4442 -1.3324 -1.51528 0.984706 -0.50177 2.43704 1.32807 2.61041 0.720927 -1.13256 1.91321 2.1636 -2.38083 0.602591 0.132106 -3.94858 2.29666 1.25332 -3.79673 -3.18107 -1.02116 3.14114 -1.23451 -0.751315 3.12087 -2.34132 -2.46252 -0.0848225 3.08588 -0.798432 -0.16193 -1.42111 1.74839 -0.832589 1.79831 -2.68128 1.23784 1.5318 0.405508 -3.12564 -0.527696 -4.43246 -3.63152 2.89893 1.14799 2.57841 -1.87666 0.991273 0.218464 -1.80793 -1.89167 2.49848 1.89928 -3.33795 0.940076 -0.615328 3.00458 1.17333 -0.476135 1.59957 -1.82978 0.258969 -2.70086 -3.1841 -1.04019 -2.89327 -1.70779 -3.3271 1.74357 1.72916 0.583396 -1.86167 -0.00202778 -3.4532 -0.864337 -3.29949 1.96374 1.18677 -2.14571 0.382507 1.47979 1.32366 0.537016 -1.84509 2.73849 -3.44793 -0.664247 0.352663 -1.31801 -1.71372 -1.28666 -0.269796 -1.11232 -1.37142 -2.71016 1.28538 -1.23263 2.26936 -3.48605 1.13762 -2.09664 2.38896 -3.04861 -3.90137 2.75686 1.35653 1.97492 -0.545626 3.34098 -2.1665 -2.83148 -2.37793 -0.0644122 1.12814 -2.76079 2.56012 -3.21602 0.0227887 1.61101 1.89102 1.25555 1.9381 1.91236 -3.58867 -1.22419 0.402182 -2.20561 -3.36881 -1.44435 -2.7884 2.70344 1.10175 -0.174044 0.74508 -2.38687 -0.452455 -0.414126 0.525209 1.98982 1.32235 2.0338 -2.72191 1.56986 2.7989 -0.76992 -3.73085 -0.565199 -3.01956 -3.71871 2.35354 -0.720844 1.80709 1.99098 3.14472 -2.86937 -0.287737 -3.59419 -2.75166 -2.4985 0.360187 -0.989788 1.94826 1.93971 1.21986 -1.86527 0.490144 -0.240865 -2.83246 -1.98574 -0.0758255 0.227577 2.56134 2.41041 -2.12232 -0.67215 -0.130709 -3.60113 -1.82434 0.272572 -0.630667 -3.47189 1.01494 -0.12967 -3.03862 2.71713 -0.55695 2.23675 -0.81185 -1.63427 -0.471202 0.759725 2.12102 3.10992 2.4979 -2.68273 -2.81064 -0.248976 -2.3147 0.890546 2.05526 -1.04255 0.222381 1.30563 1.40971 -3.51005 -1.56346 -2.98865 0.84859 2.9609 -2.87257 -3.50985 0.641251 1.58124 -0.676465 -2.02377 -0.884618 1.1411 1.59699 2.41697 -3.00417 2.36869 2.45221 -0.372138 0.166523 0.0553267 -2.65391 -0.964172 2.51341 0.263593 2.47804 -2.19861 0.0474405 -1.93259 -3.33892 2.32324 -2.66322 2.45945 -3.66345 -2.0047 2.77878 1.72438 -1.26291 2.87225 -3.11833 2.59374 2.30339 -2.52995 0.346987 1.98987 -0.670506 -2.01149 -2.69388 0.873217 1.25782 1.85324 -0.146225 0.220089 0.120465 -1.42112 -0.740735 -2.77109 0.698164 -2.47366 1.26273 -1.68111 -2.46885 -2.1719 -1.47772 -3.49328 -1.46667 -0.163265 -2.37035 -2.45829 0.357107 2.55825 -0.160355 3.36026 2.64621 -2.6556 2.84876 2.94239 3.39801 2.34753 -0.376241 3.28965 0.269885 -3.24872 -0.439782 -1.95845 2.17249 1.68752 -2.28187 3.11277 -3.64585 -2.37789 -2.96532 0.461 -2.88669 0.178876 -1.49483 -1.48585 -3.44417 -0.895554 -3.25734 -0.952346 0.174831 0.473325 -0.167734 0.513602 -2.95774 -2.79943 -0.848785 -1.52971 2.63794 -3.4568 -1.66781 -2.02948 -1.96807 -1.2232 -2.09504 0.620768 1.60789 1.58551 -1.53702 1.92494 -1.38693 -3.24838 1.03392 2.46446 2.98845 0.776381 0.362533 2.96329 2.89009 -1.77319 -0.672907 0.9971 3.48445 -0.762591 1.3351 -2.40395 0.434647 -1.47707 -3.3226 1.88258 3.23189 1.0293 -1.98789 -2.67114 -1.53334 -3.37082 3.29826 -1.11719 0.00957099 -1.30505 -1.06299 0.55519 -2.35391 -2.9996 2.48942 -1.69443 0.1164 -1.62088 -2.62533 -0.205876 1.76913 2.87627 -0.894894 -1.46128 2.32622 2.23359 -2.96216 1.41214 1.36581 -0.548013 -2.06593 -2.20368 -1.18811 -0.90109 1.13156 0.978724 1.1579 1.02137 -0.824821 -2.94984 1.74205 -3.04718 -0.982664 3.01502 -1.84979 2.6473 
-2.33769 2.60134 1.67005 0.336598 -1.10736 2.19964 1.66581 0.817809 2.20172 -2.14593 1.95229 1.65057 -2.64182 -1.75522 1.24472 -1.40899 -2.25075 -0.106882 0.511742 3.22108 -1.75655 0.384233 -1.64172 -2.41298 1.46976 0.78699 -2.75206 2.85701 -0.103137 -2.88551 -2.01476 -1.43026 -1.30483 1.18632 1.98062 3.43518 2.82692 -0.161593 1.51735 1.30611 0.122263 -2.92304 -1.03987 1.27213 -3.38792 -2.49694 -1.45815 -2.66349 -1.95963 -1.08444 -1.25741 0.673967 -1.33434 1.55489 -3.40599 2.34799 1.46838 2.92087 -0.53236 -0.14711 1.36115 -2.31288 -3.05228 2.08522 1.83345 -1.93325 -0.669845 0.175999 -3.45986 1.36936 1.1849 -3.33895 1.92867 1.4925 -0.0839958 2.87463 0.817566 -0.734963 3.1957 1.9111 2.43688 -1.12162 2.98472 1.61965 -3.0129 2.80146 -3.19625 -3.16405 2.01633 -0.670434 -2.91714 -3.36576 -1.72855 -0.567498 -3.26301 3.21978 3.13033 -1.73591 2.20748 -1.78715 3.04541 2.04606 -0.470799 -1.04549 -3.1389 0.859218 1.65185 2.75472 1.50034 -1.57168 -2.54734 -0.209823 -1.86692 -0.977963 2.21195 -1.87477 -0.562531 1.04548 -2.14884 3.58676 0.381914 -0.229265 2.26639 2.28903 -2.57676 -0.214476 -0.508775 0.990421 3.34101 -3.41557 1.06885 -0.752361 1.52954 2.28556 2.98691 2.40521 -0.222634 1.51391 -3.28055 -1.55674 3.03099 -2.13727 -0.450236 -3.29193 1.60145 2.69569 -0.801835 1.79709 1.77197 1.48949 -2.19157 0.664834 -1.12207 -0.14802 3.06238 -1.25718 3.4876 -0.942096 0.0458059 -3.14152 0.863938 0.874165 1.69993 1.59888 -3.54609 -0.211438 1.59246 3.38162 2.84049 -3.45048 -1.73165 2.59498 3.19527 0.610258 -2.04972 -1.14133 -1.41928 -0.843589 3.94633 1.34192 2.95159 2.75242 -2.13358 -2.32316 0.588955 -1.89042 0.0279003 3.61567 2.19533 -0.0626294 -0.546316 -1.34182 2.25252 1.15486 -0.829033 0.810148 -3.01005 0.79768 2.30891 2.30456 -0.404446 2.38466 -1.52124 2.06826 3.23141 -1.11011 2.73429 1.22463 -0.367182 -4.2409 -0.417585 -4.26155 -2.18535 1.42423 0.897182 -1.63096 -1.90285 -1.89582 2.66968 2.01365 0.302309 3.05792 -1.11357 -1.87465 -2.28385 2.60942 -2.34692 -2.3797 2.6279 2.60741 -2.55803 -0.225379 -1.18472 -0.717909 1.97007 -3.30996 -0.717369 -2.12773 -3.57885 -0.867386 -1.79471 -1.22521 -2.34859 -1.54837 -0.063581 -0.294479 -2.56328 2.58418 1.3233 -1.8596 -2.76743 -2.51205 -1.6965 -0.544224 2.3801 1.7676 1.7243 3.151 -0.52993 0.996472 -3.40707 -4.48961 -4.59489 -3.03581 -3.58339 -4.76862 -2.09924 -3.6278 -2.92428 -1.20631 1.25109 1.1272 1.11957 2.86749 -2.32482 -0.625792 1.0063 2.78253 -2.53267 -2.3677 2.18024 0.812366 -0.83968 -0.591446 1.25461 -0.140888 0.0856979 2.14069 -2.13523 0.274944 -4.03003 -0.982333 -3.08527 0.443721 -2.88901 2.64822 3.01434 2.67193 2.67355 -2.61952 1.33037 -0.378422 -0.0713596 -2.38281 -1.97501 -0.38566 -3.03398 -1.76103 -0.0485 -3.01901 -0.812649 1.93527 3.50079 -0.494781 -0.903415 -1.00537 -1.97297 1.28287 1.88369 1.06742 0.982299 -2.90228 2.21614 -2.72272 1.17424 1.31642 1.63671 -1.44006 -0.500596 0.449218 1.34786 2.44542 1.48218 2.77819 -3.40709 2.27193 0.243366 2.89094 1.20219 2.15964 1.42045 -2.97209 -2.36269 0.45187 1.44466 -4.1404 0.0637857 -0.304753 -1.60358 3.43741 -0.70894 -2.61025 3.79329 -0.00338295 0.458233 1.59804 1.53395 1.63523 2.12027 -3.62007 3.39147 0.224087 -2.40216 2.9372 -3.28814 1.65945 -1.6118 1.78059 3.50903 -1.83054 -1.40771 -1.03521 -2.7741 1.18216 3.4216 0.659719 1.24551 0.342659 -0.845623 3.6886 -1.80517 1.95168 1.82536 1.64313 2.26181 -0.69431 -1.64979 0.262945 -0.201753 -2.3035 2.39041 0.00382022 0.272846 -2.52327 0.249784 -2.41676 0.448823 0.107233 0.973437 2.36442 -2.05572 3.66622 -2.11455 2.30449 -0.0146765 0.649641 -2.28586 -2.43153 1.76174 1.55892 1.24488 0.451173 1.37204 1.23341 3.08527 0.219794 -1.98398 -3.05979 -2.96163 1.95716 0.501428 1.05511 -2.49743 2.92612 -2.85249 -0.130752 0.553401 3.14269 -0.78665 -0.870285 -1.30084 1.90742 -0.585665 3.32416 0.429808 2.7975 1.94871 2.01571 1.21099 -1.02442 0.389904 0.00536921 -0.335728 1.98831 -2.10471 -0.251739 1.99114 -2.71007 0.543943 -1.0237 0.45035 2.25933 -1.99978 0.467998 -2.44436 -1.03207 -1.48821 1.54987 -1.80729 1.45978 2.66738 1.59361 3.53198 0.27546 -1.32359 2.40052 -0.85303 2.23238 -1.98848 3.37485 -0.0488094 2.75004 0.851097 -1.87964 0.00192836 -2.92335 -2.32861 -1.28594 2.41767 1.54275 2.28708 2.91132 2.08392 1.7971 -1.07769 2.78379 1.9724 -1.02954 -2.14048 -1.5982 -1.36424 3.99457 -1.61933 4.28944 3.51522 -0.542354 3.21065 2.14305 0.489246 -2.28207 1.14279 -0.0447956 0.791285 0.33205 3.41742 -2.65022 -1.20404 -0.698664 1.7722 -2.94805 -1.92295 -3.0134 0.381344 -3.47831 -1.99999 -2.33426 1.26923 3.62968 0.594131 -0.917587 -1.86601 -1.93575 -1.82451 1.84355 0.703298 1.44206 -1.4047 0.908385 2.59168 2.91437 2.70047 -0.319202 1.33718 1.56042 0.211673 1.4561 0.383151 0.119495 0.236129 -3.3693 1.95432 -0.505799 -2.26702 -3.2401 1.20477 -1.77738 1.25139 1.1515 2.74845 0.663713 -1.34428 -1.0714 -1.66139 -1.11845 0.404446 0.575588 1.36631 0.443104 2.06627 0.47337 2.41356 1.06304 0.854105 -2.15981 0.873385 1.43435 -1.15531 -2.36329 -3.15121 0.358915 -4.19594 -2.36611 2.2668 -0.747642 1.94776 -1.87107 0.304377 -0.156336 1.95003 0.694177 -1.65523 1.69484 1.95255 -1.78471 2.1187 1.9759 -2.17995 -3.0536 -1.992 -3.26212 1.74252 1.536 1.11509 2.38808 1.43364 0.159903 0.121957 -1.01833 -2.56706 1.18242 1.29772 -1.82029 0.379864 1.84587 2.01759 0.71664 0.956498 -0.668341 0.834389 3.88139 3.44655 -2.60285 -2.56562 -3.334 1.3352 0.212089 -0.0710658 -0.722702 -3.05958 0.878439 -1.68122 1.21833 2.24536 -3.28828 -2.95582 0.623297 -1.29999 2.48008 -3.31687 -0.0769876 1.25472 0.29614 2.88958 -2.58248 -0.405521 -2.24084 -1.07413 -1.48748 3.0487 2.6594 -1.48844 -1.80499 -0.130519 1.69897 1.55594 0.365922 -2.01019 -2.58984 -2.38785 -2.24286 3.56358 -2.93249 -2.00377 1.86679 -2.86684 -0.454559 0.0530727 -2.85745 -1.67058 -0.581597 -2.32847 -2.07139 2.26963 -2.1071 -0.957054 1.21409 2.99307 2.29322 -2.38371 -0.107401 1.37729 -3.08932 3.46351 3.10813 0.678738 3.24167 -0.939949 -1.88091 -0.717149 -0.298769 -1.80551 -2.53445 2.98562 -2.66176 -1.34481 3.00076 -0.188573 -2.66692 -2.20094 -1.87641 -2.38525 2.80683 0.239484 2.44918 2.3728 2.93145 1.05012 2.51658 0.399256 -1.5543 -2.51332 -2.70482 0.855809 -0.827151 3.35451 -2.45066 -0.5167 1.13054 -0.528265 -2.21796 -3.39135 -0.211511 -0.776145 -2.47024 -0.155596 -4.29258 -0.478794 -1.46628 -0.632969 -1.46517 -0.616756 -2.12673 1.84943 1.55362 0.189882 -1.27547 -1.43065 -0.727244 -0.441427 -2.17571 -0.704888 -2.57753 0.750947 -2.42139 0.82392 1.18124 2.89144 2.00132 3.22026 -0.2441 -0.099686 2.66351 1.97234 -3.4981 -2.42641 -1.7861 -0.477981 -0.789321 -0.38811 -2.20053 2.82061 -2.55371 3.39885 -0.30705 1.39035 -3.20365 -1.72293 3.27773 0.265813 -0.549063 -1.47858 2.1381 2.8994 2.82747 -2.38121 -0.94737 1.49953 0.595358 1.22543 -1.08191 1.24627 -0.672182 -0.401911 0.401538 0.0150518 3.29638 -3.1301 -3.26241 1.23147 2.23901 -0.588628 -1.81747 3.19328 3.47552 
-3.27529 3.44828 -1.87069 0.518399 1.1088 -2.97753 1.86406 -2.60624 -1.187 -0.529916 1.46621 -2.52673 -2.44986 0.654636 3.23705 -3.02656 1.68431 0.547725 -0.114524 2.3462 -1.98282 -2.34156 -1.08703 1.84397 -0.319898 1.19069 -1.64281 -0.340941 1.06161 -2.75145 1.59147 0.311012 1.75286 -3.33078 -1.90562 -3.06067 -0.491218 -0.726549 -3.28134 -0.278668 1.57069 -1.87351 1.90694 0.353325 3.38359 0.216104 1.81801 1.17953 -1.29744 -1.86464 -3.14887 -0.0882925 -3.38841 -1.76893 -3.48556 3.46845 -0.183159 1.07322 0.781545 1.28478 0.761399 -1.98287 -1.84888 2.53621 0.68785 -2.81161 2.45425 0.70411 0.675766 -1.57555 -0.472577 2.21992 0.756803 -2.73532 -0.471206 1.90919 2.33527 -0.368601 -3.31766 0.323754 0.336513 -0.910634 2.66196 -1.3577 0.223241 -3.44753 -1.78224 -2.24867 1.20903 -3.36358 2.68878 3.45517 1.93069 2.03836 3.30128 -2.24395 2.07856 -2.68771 -1.11103 -0.611048 -0.421202 2.77966 2.63375 1.23458 3.44812 -1.7122 2.6129 -0.14379 2.25279 -2.61743 0.995565 2.16372 -1.26627 -0.52946 2.07371 0.419032 1.8349 -1.23834 0.893688 0.886339 -2.99769 2.70108 1.27257 -2.73979 1.48552 1.65026 3.01318 -2.43673 1.62166 -0.106565 0.39383 -2.89234 0.575845 -2.27944 -3.01535 1.39801 -2.85532 1.24759 -3.4811 0.565802 -2.43414 -0.750862 -3.2015 -3.48788 1.92826 2.51872 -0.54948 -0.612221 -3.10156 1.4366 -0.149555 2.12427 3.25616 -0.0524853 0.282288 1.19518 2.75636 1.17385 1.13305 1.37208 -1.19219 -1.67596 2.46802 3.0508 2.91328 -1.46006 0.737601 2.67585 -0.0811187 -0.613009 0.0141175 -3.40108 1.01959 2.76995 -3.21431 -2.41131 -0.725029 0.653192 1.11478 -0.892092 2.71835 0.945858 4.10743 3.63418 -2.03484 -1.02276 1.69278 1.4361 1.99562 -2.25603 -1.54102 -3.63063 2.84707 -1.64925 1.09623 0.626904 -2.79847 1.87018 -3.30374 -2.24081 -1.66473 0.354626 2.9752 0.922298 3.32369 -2.53043 -0.783995 -2.22469 1.02256 0.00732228 0.359629 1.00837 2.91309 2.38965 -0.331266 -0.0386008 -0.954685 -3.08417 2.71405 1.39953 0.306625 3.63815 0.281492 2.40112 0.867493 1.33684 1.81171 2.27261 -0.455212 3.01035 -2.98481 3.58404 1.18127 0.947377 3.37744 2.67329 -1.94028 -0.157689 3.87288 -1.46338 0.977335 1.25923 -3.23609 -3.37716 -1.92376 -0.918863 -1.8668 -1.32286 0.486192 -2.62535 -0.627491 3.03844 1.09871 2.85869 -1.10555 2.71147 0.0995335 3.61879 0.97525 3.17013 1.9333 0.478808 -1.16354 2.70122 -0.0819574 0.918811 0.937735 2.9959 -0.431174 -1.59827 3.26443 -0.544036 1.40606 2.94885 -2.16301 1.86899 -1.52858 -0.553342 3.26491 0.581953 -2.86393 -2.02145 1.55505 -2.55531 -0.688139 -1.14404 -1.58542 0.857301 -1.17909 2.371 1.02565 2.16327 0.412928 -1.13854 4.99656 -0.213303 1.99882 -2.84059 -3.45188 2.06865 2.43664 -1.02303 -1.36668 1.74409 1.44147 -0.777913 -0.0710091 2.85085 1.81747 -2.21306 3.0173 0.254003 -0.100063 -0.608629 1.82416 1.07414 0.180089 -2.13564 3.32185 -1.25899 -1.46006 1.79051 3.98344 1.90869 -3.01471 1.00617 -0.590583 2.25245 1.104 -0.44925 0.411354 0.487039 3.17117 2.58052 2.08435 -0.575125 0.633581 2.02047 0.45308 3.29314 3.31807 1.18357 0.516992 0.464358 -0.798024 1.11538 -1.65035 -0.544738 0.623211 2.19655 -0.564297 0.830821 0.645221 0.809502 -3.06521 -2.06123 2.7596 -2.9818 3.34905 1.89238 0.401546 1.6156 1.63183 -3.32579 -0.188914 1.50584 -1.87741 -0.690355 -2.61575 3.15428 0.3159 -1.57709 0.512245 2.56108 -0.689653 1.45403 1.91825 -2.1782 2.40097 -2.42791 1.88953 -1.41156 -2.20572 -2.11769 -0.0434382 3.28751 3.23879 0.502495 2.31325 0.863762 1.5061 3.35141 -1.07677 2.09162 1.6917 2.33487 3.20631 -3.08885 0.931525 -0.213912 -3.56788 -3.01137 0.23818 -3.82392 -2.78836 -2.79321 2.78847 -3.43765 1.18832 -4.06579 2.24868 1.4862 -1.86478 1.21082 -1.62791 1.50725 1.13598 -1.23466 -2.40532 2.9369 -1.51178 2.10068 1.71627 0.615427 -0.668484 -0.72773 -3.6063 0.82855 -2.9108 0.065194 1.28166 1.7805 1.34686 -2.68863 -0.725042 -2.01025 0.667856 -1.01586 -3.04148 -3.12657 1.99734 -1.86508 -0.843956 -2.02404 -2.05599 -1.95044 2.20206 1.82483 -2.50308 -1.84721 -0.272405 0.525519 1.6208 0.618943 1.0332 -1.89349 -0.937512 0.722824 0.238717 -3.3645 -3.20048 -0.0533164 -2.45423 -3.25927 -0.999243 -3.88193 2.04818 -1.84891 1.48809 -1.10428 1.3519 -2.39389 0.0201281 -0.503598 -0.236767 3.34275 1.69512 -2.14908 2.94422 -0.195622 2.6103 -0.308323 2.44942 -2.16867 2.75488 0.899638 -2.0902 0.130316 3.77691 -0.827257 1.06919 -1.33888 -2.47844 -1.52597 0.958625 0.930741 -0.329888 1.82034 3.42951 -1.00617 3.51226 -1.38435 -0.871789 -3.42941 0.594599 0.560106 -1.11423 2.17448 -3.0615 2.04198 -1.83944 -2.61722 -2.35516 -1.59868 1.9592 0.535081 3.56612 2.97037 -2.57346 -0.766661 -1.34638 -0.311549 -0.419983 0.567625 3.54692 -0.0242236 -1.52322 -3.23791 0.0597309 -0.982666 0.841082 3.4842 0.973737 3.38227 -3.03562 -1.00529 -1.7511 0.952745 1.07504 -0.691441 1.37928 -0.699512 0.847313 0.5622 2.54316 0.852084 -0.142752 2.10784 0.923622 1.47513 -1.53017 0.483784 -2.75659 0.785616 -2.97224 2.0681 2.29006 -3.19134 -2.53904 0.61799 2.48417 -3.25438 2.53577 -0.734988 0.867922 -0.462778 -2.62858 -1.0937 -1.4973 4.16697 -1.48485 3.32328 2.86959 1.86186 2.70098 -1.3346 1.24021 0.722216 1.61854 2.90891 -2.41984 1.91667 -2.86478 -3.66372 1.10438 -2.9708 1.27253 -2.54768 -3.22979 -1.23693 2.78656 -3.36685 -1.52563 -2.38578 1.98228 3.55103 0.228155 -1.41768 -0.036882 0.0661478 2.40603 3.06402 1.97613 4.05013 -1.86924 1.39856 1.79426 -1.51458 0.457274 0.366299 1.52278 -0.44615 2.0502 -1.74454 1.72076 2.55022 3.03288 0.197791 1.15703 2.98319 1.10963 2.74393 3.28833 -0.274814 1.98963 3.78334 2.63974 -1.16117 -2.43951 -0.769526 -2.46735 1.5956 2.58684 0.82658 -0.765897 -0.20026 2.54298 -0.893809 0.224119 2.5339 -2.82848 1.48111 -1.64836 1.41188 3.19939 -1.01476 -1.2878 -0.987712 2.94236 -2.47327 -0.266457 3.52109 -1.05754 2.91522 -1.27847 0.61337 3.02382 1.61645 2.12329 -1.15445 -1.07273 0.592493 1.46977 2.23497 2.01056 -1.46045 0.647659 2.68434 0.977963 -1.14858 -2.67521 3.49823 -0.0823064 -0.613115 -1.67879 3.17417 2.16514 -2.59843 -0.736628 -0.420256 3.55302 2.69613 2.94678 2.45526 -3.55425 3.26739 -1.58952 -0.73159 1.83279 0.609587 -0.928795 3.00654 3.32621 3.36943 0.586893 0.966168 -3.07337 -0.490159 1.84469 3.36433 -0.145808 -0.2807 2.79001 -0.777961 0.152522 0.730626 -1.02183 -0.749052 2.64555 2.19787 1.47715 2.93752 2.99544 -0.0917239 -2.9895 3.15015 -3.24366 2.52729 -0.925021 0.391153 0.753462 2.89531 -0.904523 3.13542 -1.19706 -2.9895 1.41556 -0.570903 2.85258 -2.5596 1.39455 -2.83889 -1.77852 -0.521738 -1.05438 1.30446 1.36 -0.189299 0.882964 -2.36751 1.62115 1.61579 -0.9149 -0.558634 -3.07725 -3.12498 1.67701 -2.23065 -0.562346 -3.08794 3.45396 3.43023 1.38515 0.186987 3.35494 -0.894047 0.902566 -0.898078 0.876337 -2.31215 -1.04686 1.4252 0.958862 2.59235 -3.03037 -3.18577 3.02799 0.813304 3.24276 -3.14558 -0.00752975 0.977596 2.94178 -2.85664 -3.29835 -0.756095 -0.145357 0.0551767 2.40414 2.62952 1.3385 1.40718 1.93002 -1.77432 
3.18315 1.21422 2.05201 -0.648686 0.588902 -1.79956 -1.69107 1.29385 -1.25564 2.93658 0.498105 2.09436 0.881898 -2.70032 -2.20321 0.956517 2.44089 -1.601 -0.87326 2.48052 -2.26349 -1.88011 3.34508 -2.28895 -1.02377 1.2605 -0.291621 3.35848 -3.3564 0.485341 0.0336644 -0.445979 -0.112595 3.46746 0.796671 2.44785 -3.23442 0.00979123 0.498716 -0.673381 0.536166 3.07051 1.80322 -2.00077 -1.96042 -0.203431 -0.420494 0.973512 2.69824 -1.51993 3.38879 -3.05502 1.29609 2.68998 1.87341 -3.32404 -1.79819 3.22343 2.27799 -1.73301 -0.69736 -2.74192 2.58957 -1.64909 1.15549 1.76261 -0.178363 0.627733 -0.917239 -3.23143 3.17384 1.66746 -2.37103 -1.53616 -3.06992 -1.91384 1.79723 -1.42259 1.42567 2.66913 2.77304 0.11022 -2.2694 0.844227 -0.623648 2.45729 -0.138478 -1.8529 2.04725 -0.277382 -3.30304 1.94581 -3.56005 -2.65077 2.71874 -0.73827 -2.91911 1.25284 0.867095 -1.26832 2.89439 -2.34042 -0.48149 -2.23351 -0.442847 -0.668725 1.38988 1.91669 -2.68752 2.59944 -2.39354 -1.01577 -0.00746932 -2.67023 1.76284 -3.18669 0.0601762 -1.07648 -2.52055 -3.22905 2.43624 -3.81659 2.5867 0.894679 1.69333 -2.06169 -0.597884 2.09443 0.679937 1.02567 1.95222 -0.945841 -3.03066 -2.58476 2.27026 -1.84312 -2.9491 -1.66376 -0.0925171 1.51675 -0.667269 -0.776219 1.25458 1.29393 2.38846 -2.07086 -0.651823 3.35759 -1.92852 2.3373 -2.21156 1.09603 -3.20657 -0.561702 2.75028 1.57432 0.32939 -1.98562 2.5564 -1.18633 2.36293 -2.65606 3.19807 -3.13046 1.75635 -1.96486 -3.20934 1.03691 3.47229 -1.83222 2.91174 -0.0467941 3.39836 2.48339 0.723341 -1.16305 -3.36746 1.60895 3.17252 -0.806057 0.578681 2.70204 -2.03842 2.97818 0.0385155 -2.44464 -1.14585 -0.205243 -0.328857 0.322915 -2.65875 0.103245 -2.41362 1.77246 -3.49933 0.514814 2.0324 3.33982 -1.70127 -0.747439 -2.58184 -2.09973 2.53232 0.790116 1.12074 -1.53555 -3.20267 -2.6651 -2.62309 1.15997 1.68061 -2.52068 3.29253 0.378165 -1.97009 3.76327 -0.669164 -1.08594 0.883889 3.17684 -3.58952 -3.27323 2.12376 -0.553012 -0.420302 1.95801 -1.19918 0.0393993 -1.63353 -1.57805 1.76439 -1.71775 -0.6483 2.11982 0.638302 -0.78908 0.650551 0.873543 -2.50302 1.15274 1.09632 -1.59036 -1.75669 0.638791 -0.524549 0.0383936 2.98573 2.31181 -0.530432 -1.49507 2.03208 3.37346 2.18788 -1.71654 1.57611 1.27112 -2.49736 2.86478 -2.82607 -1.22646 -2.03918 -4.42438 1.41592 0.643222 -1.58192 1.13677 -0.718274 2.61133 0.88535 0.562591 0.204572 -2.20525 1.7191 -3.19108 1.05993 -0.731791 1.18861 -3.40047 -2.90835 -2.44247 -0.011993 0.785496 -1.08215 -0.708419 -0.535394 1.99556 -1.38154 2.63128 -0.576443 -2.35306 -0.289996 -0.842451 -2.40167 -0.389327 -0.246707 -1.7144 0.0865695 -2.53296 -3.09621 1.04743 -1.12045 -1.00287 -0.874276 -1.36619 -0.908139 -2.02595 -1.36198 -2.4826 -3.13801 2.29428 -0.312077 -2.63835 -1.58656 -1.99255 -2.00403 -2.42078 -1.56865 -2.88086 0.0238525 -1.79723 -1.66616 3.97767 -1.00107 0.968071 2.23121 -0.0424609 -0.579375 -1.59181 1.43079 0.30417 2.11547 1.87177 1.67804 1.72783 1.23088 -3.47896 0.578942 -0.622727 0.040167 -2.86149 0.948104 -3.42807 2.12549 -2.00636 1.99521 2.66828 -0.9184 2.75518 1.60651 1.11983 2.20967 0.592806 1.06514 1.77106 0.684074 -0.781207 0.468497 -3.57034 2.62022 -0.616199 -2.73801 -0.88783 -1.93162 2.39961 -3.4014 -3.36675 1.54452 1.43319 0.0786462 -1.99473 2.455 0.286426 0.559966 2.59679 1.49722 0.653743 4.65973 2.99227 2.24159 5.6757 -1.64797 1.76772 -0.0853564 -1.68275 -1.29466 0.906425 -1.59628 0.713658 -3.40224 3.28197 0.457021 -1.82629 -1.09931 1.07927 -1.50013 2.28404 0.520195 1.60876 -3.06051 1.91528 1.70248 -1.41535 3.79155 2.81281 1.77379 1.47563 1.16591 2.11233 2.32637 1.51974 -1.27659 0.308208 -2.64025 0.751792 -0.897332 0.983818 1.22488 1.9667 -2.10912 -0.947975 -1.60532 -2.56108 1.12191 -2.10214 -0.791143 1.50419 1.33044 -3.3864 -1.87867 -2.8787 0.371435 0.489107 2.29876 -1.14678 -1.20048 2.33695 -1.99498 0.00482223 3.72388 2.99673 -1.92813 2.98932 -0.203037 2.3035 1.78484 -3.52587 0.275524 0.640945 -3.46143 -0.358141 0.755231 -0.332247 2.1091 -3.7465 -0.896695 -3.37791 -3.82451 -2.90441 -0.43378 2.54749 -0.30224 -0.799398 -1.68312 2.43163 -2.90536 -1.50653 1.38677 -2.86899 2.89072 1.83904 -1.57269 -1.92418 -0.119401 1.20529 3.41362 -0.52955 1.24266 2.72864 -1.27555 2.67997 1.11917 -0.0513717 -3.64497 -2.99596 -3.19672 -2.42018 2.23409 1.89767 -1.05097 -3.04288 -2.7483 1.66043 1.98222 0.197255 -3.53253 -1.06964 -0.677501 -0.359353 1.23971 -2.47018 -0.0892263 -1.04915 -1.03483 1.1129 2.22592 -0.121225 -1.15704 1.94149 -0.731044 0.730355 -2.23694 -2.48749 -3.97468 -2.66185 0.773331 -1.66335 -1.54454 -0.374759 0.991198 0.427064 1.22568 1.05704 0.375919 0.0538588 1.63284 -2.19971 -3.33272 2.18221 2.2835 0.527237 -1.7321 -1.70975 -1.13698 -2.32773 -3.14411 -2.66039 -1.60109 1.98293 0.561764 -0.783854 -0.558543 2.30234 2.31367 2.85196 3.05354 -2.53608 -3.11686 0.0486315 -3.55207 2.2642 -0.294971 -1.2383 -0.345749 -1.01943 -1.82605 -0.00849136 -0.548573 -2.19314 2.36772 1.64329 -2.08382 3.41461 -1.09749 1.66123 -0.631301 -2.39268 3.08704 -3.59217 1.6902 -1.83321 -2.55164 -3.30728 -1.45401 -1.63656 -3.67907 1.29426 -0.480376 2.41054 -3.5671 -1.96916 1.37144 -2.08318 -0.81605 0.721074 -2.4328 0.47282 3.15295 2.3693 1.44331 1.23163 -0.0743645 3.04629 2.46138 -1.46615 -3.05171 2.54463 -1.10907 1.73671 1.52644 0.100308 -2.68992 -1.82393 0.648122 2.53812 0.619599 -0.359091 -0.79935 -1.36874 1.79025 -1.82752 -3.06117 -3.49465 -1.93878 0.654412 -2.81033 1.63825 -2.85867 -0.464018 3.39611 -3.37162 -0.783305 1.69883 0.498552 1.91221 -1.80174 0.155744 -0.860941 0.188044 1.98179 -2.99825 2.72941 -3.1479 0.910792 -2.40302 -0.241916 0.856285 -3.36029 -3.59073 -1.47853 2.06186 -1.25929 -0.628631 -2.70784 0.00816373 -2.85397 3.10234 3.35121 1.26337 -3.242 0.687038 0.938385 -1.07781 -2.56215 0.326133 3.79505 0.909216 1.9693 2.79919 -2.23408 -1.94065 2.22501 -0.36734 -1.27336 -1.47045 -2.86689 -2.06809 -3.351 -3.52284 -2.19512 -0.627901 2.93297 -3.15295 -2.48765 -2.34515 -1.34072 -0.00247409 0.141907 1.29039 3.24119 -2.65824 2.09524 -1.00849 -1.16563 0.342168 -1.56012 -2.70608 2.38385 2.85741 -1.09582 3.27579 3.31203 -1.99595 -0.404431 1.39535 2.40797 1.9505 2.93198 -1.38819 2.19593 -2.17078 -3.28859 2.4441 -0.402218 -0.314001 0.0436548 0.640002 3.06586 -2.70638 2.60695 3.45873 -1.7502 1.873 -1.9396 2.67725 -1.75603 1.32731 -3.05241 -0.0266691 2.37582 -1.435 0.411595 -1.9464 1.32791 3.20785 -2.11743 1.48397 0.948899 -2.09002 -2.61984 -0.0268506 3.08547 -1.9813 -1.94568 -2.55605 -2.54306 -3.0093 2.74857 -2.66813 2.77567 0.673112 1.52011 1.72356 1.56221 -2.31446 -2.19677 1.62068 0.149246 0.862271 2.24471 2.82402 -0.521533 0.681616 0.280063 0.355095 -2.33104 -0.955583 -3.35553 -3.33825 -0.114565 -2.67559 0.601024 -0.453758 -0.909384 2.87844 1.20948 0.911495 -1.02512 -1.50818 -1.50724 0.839783 -3.00382 -0.985573 -1.31825 1.02622 2.72301 -0.164061 -1.01173 -0.59716 -1.91053 -1.5519 -2.17559 -1.35131 -0.55878 -0.998309 
1.21584 2.38376 -0.174753 0.01765 -0.598416 -2.90147 1.26187 -3.16476 -0.179361 0.694706 -0.237538 1.71007 -1.21114 2.11005 -2.41741 0.325676 -1.4671 -0.822228 -2.53141 -3.12268 1.89184 -2.9609 -2.08769 1.9273 -2.88758 0.856946 -1.36862 2.03825 -2.1284 -0.84968 0.256667 -1.17905 -0.384796 3.36562 2.84127 2.54584 2.01138 0.885978 1.13112 -2.86749 1.93595 0.145532 2.79532 -2.38164 -2.83153 -2.46497 0.909561 1.31229 2.14573 0.710431 -0.666205 2.71987 1.76338 -3.27882 2.92059 3.41613 2.87017 -1.16125 2.24495 -0.0809026 -3.27972 1.16521 2.68998 1.97665 0.150049 -2.81655 -2.46784 -0.0236276 2.11814 0.0687491 2.37256 2.86897 -0.00773237 -0.529709 0.579922 0.366774 3.07089 -1.1021 0.552535 -0.111211 2.27984 -1.52894 -1.47737 -1.94373 -1.30846 1.69739 2.07905 -2.02897 1.71306 0.993254 -3.07644 2.65596 -3.09088 1.23878 -3.71167 -1.0905 -1.33586 2.98779 -0.113845 -2.77098 0.341755 1.77356 1.80749 -1.19438 2.88197 -2.41929 0.0895175 1.49022 -2.02968 -3.11886 0.86043 -0.710933 -2.63031 0.692523 -2.57152 1.03603 -0.453145 2.01294 -3.38453 2.20269 -2.15199 1.05457 -3.51972 1.08094 1.85893 2.9074 0.537754 0.515066 -1.96574 -0.148109 1.80584 3.258 0.386074 0.852872 -2.09105 -3.20328 -1.39733 -2.29701 -0.403351 -2.25006 -1.73262 2.43202 -2.90293 0.67702 -2.49603 1.1547 1.88294 3.03607 2.76949 2.68393 -1.07362 1.78124 -2.68894 -2.23546 0.835842 2.97898 0.104434 -1.9972 -2.14748 0.381493 -0.199986 -3.15387 -3.59505 -2.32268 2.87464 0.463538 0.211132 3.13216 2.65802 0.463288 -1.04474 2.79366 -1.91713 -1.55885 1.29815 -2.29425 1.00676 -0.214219 1.06331 3.5814 0.642124 1.87523 2.85791 0.160954 -1.86483 -0.264551 -0.608306 2.11612 1.44847 -0.0902309 -3.17444 -2.63141 0.29687 -3.61666 1.78707 -1.13603 -2.63143 -2.6928 -2.40859 -2.36433 -1.03884 2.7518 0.870957 -1.57507 2.32159 -2.53781 -1.26686 -0.192066 -0.361416 0.900804 0.693527 -0.363262 1.09197 0.665146 1.1106 -0.834826 -3.17619 3.16654 -2.34368 -4.07374 -1.31573 -1.81024 0.91961 -2.13016 3.22939 -0.81853 0.705181 2.36129 -2.86036 3.00504 2.08376 -0.739902 1.07904 1.95107 -2.72088 -0.197876 0.98121 1.8205 -0.90017 1.32437 0.553522 0.972804 1.09119 -1.37227 2.34559 2.1697 -3.12127 -3.40999 -3.95202 0.276885 0.457685 2.15614 2.86403 -1.66426 -2.3665 0.414381 -1.58467 2.82384 -1.01317 -1.50453 -1.07217 -1.12646 -3.55987 -1.1877 -2.61948 0.454748 -1.91195 0.935773 1.5622 2.04827 -0.902922 2.89687 3.67504 0.790904 0.864057 2.73221 -1.08464 0.341374 -2.44799 2.15047 1.83356 2.05969 3.43297 1.29466 1.22142 -1.60837 0.764717 1.26886 -3.16029 0.148699 -1.08039 -2.17348 -0.980674 -1.15688 -0.84927 3.4698 -2.0263 1.08808 1.6578 -0.23678 -0.465751 -1.18652 2.25267 1.4344 0.182031 -2.90829 3.33017 -1.96829 -0.27139 2.64206 -2.82804 -2.01443 2.97715 -2.71485 -0.218243 -3.49549 0.0790972 -2.52417 0.214542 1.07353 -1.78584 3.2097 -0.380853 1.94695 0.682768 1.43899 2.15188 2.47277 -0.343581 -1.09437 -0.156725 -2.35428 -2.14446 1.73215 2.79016 -2.98303 3.33896 1.36637 3.43078 3.42223 -2.47164 -0.996602 -3.00032 1.73347 0.344323 -2.25834 -3.28966 0.297982 1.49793 -1.10585 1.00816 1.02154 -3.76622 1.38991 -2.40531 -0.202608 2.64971 -0.197755 2.24964 -0.886956 1.19758 -1.54539 -0.494816 0.342478 -2.50341 3.0968 3.35158 -0.413703 -0.0918338 -3.15565 -1.17472 1.15209 -2.19232 1.12312 -3.11756 1.60589 -2.58255 -3.07013 1.69648 0.0807653 0.113874 -0.197424 -3.80063 0.876512 -0.83384 1.34229 2.54177 -1.34721 -1.09751 -2.32082 0.0850773 0.689233 0.742804 -2.77526 -0.0874193 -2.04008 2.86834 0.638269 2.38993 -1.35928 2.53054 1.47335 -0.1454 0.886971 -0.589621 -2.15768 -1.48656 -1.18634 1.05883 -3.10994 -0.295667 -1.79033 -3.18318 -1.04432 1.39513 2.54515 -0.250221 -1.5013 0.501295 -2.03554 2.08652 2.00513 -3.32253 -0.251067 -1.54494 -1.99486 -1.08976 2.43075 1.91378 -0.261285 -0.256367 -3.69971 -2.84278 0.474309 -3.99634 -0.131073 -1.07883 -2.18964 0.173193 -2.82172 3.59575 2.38857 3.10572 2.83002 2.00077 -0.504793 0.672863 -2.77721 1.05465 1.56411 0.651408 3.00122 0.504217 -1.00547 -1.35976 -0.107022 3.36533 1.50485 0.876885 0.447778 0.120322 0.384123 -2.13338 -3.46334 -2.88097 1.92301 -2.95264 -0.440127 -1.43735 -0.323889 -0.0843811 -1.61756 -3.24623 -2.19321 1.31684 -0.176405 -2.29864 1.22651 -1.88466 0.606422 1.66445 -1.10785 1.55608 1.20028 -0.624212 -0.629358 -4.01504 -0.312463 -5.99636 -1.18312 -5.34297 -2.65739 -0.761884 1.20264 0.16019 1.81077 -0.172356 -2.11703 1.93738 2.46367 0.456695 -2.51979 -2.37012 -1.80644 -2.61377 -3.05441 -1.37837 -0.517236 -0.951198 2.80353 3.57735 -2.15935 -1.05684 -2.68587 -2.48311 -0.675569 -3.45476 -0.069276 -2.80218 -3.2073 -2.55031 -2.40217 0.49259 0.889698 2.06194 2.97143 2.91957 -2.91267 -1.71051 -3.24968 0.956517 -1.70159 -0.560351 -3.40286 -3.06063 -2.20285 -0.936689 0.986466 -1.52435 -2.51694 1.54771 -0.891349 -2.18969 -2.82171 -3.16393 -3.51594 2.14725 2.89456 1.35833 1.71288 2.14158 -0.118631 1.95586 1.22837 -2.61045 -0.271587 -1.42071 -2.50083 2.41214 3.20233 -3.45371 2.10914 0.724375 -2.21991 -0.435393 3.19288 -1.02459 3.63584 -3.06028 -0.671544 -0.0763944 0.710961 -2.73412 0.961248 -0.76424 0.216101 -0.420147 2.35788 0.192582 -2.87228 1.91315 0.352017 -1.87683 0.480042 -0.201712 1.99052 -3.45277 1.79627 1.60272 1.64468 0.263704 2.83416 -0.206691 2.06474 -0.451881 3.30876 1.35869 -1.41099 3.21061 -2.36181 -1.03062 -0.133341 -0.0849579 -1.03879 0.604741 -1.30362 -1.69992 -2.57195 -2.86248 -1.20817 2.04035 2.57091 1.16482 3.10393 -0.379708 0.813902 3.40798 3.05404 2.82966 1.74692 3.52722 -1.28459 -0.350452 -1.78877 0.319546 -2.31366 2.10061 0.440234 3.014 -1.52516 2.56216 -2.28441 2.4313 1.97169 1.22846 2.42767 1.79434 -2.71306 1.78458 -0.397154 3.39681 -2.14254 -1.0924 2.73965 3.21524 -1.14542 -2.86969 1.43067 -0.777915 -0.758293 -0.00574008 0.0887848 3.96126 1.39986 1.0537 0.811293 2.63885 2.67117 -2.23714 1.42013 -2.81574 -0.938047 1.81352 0.813146 -2.99833 2.40764 -0.0985566 -0.136994 -3.49321 1.36123 1.00618 -0.916939 -1.45442 -0.995202 -2.39699 2.10652 1.70602 0.0430935 -0.81717 0.977136 1.46818 0.246702 0.517062 0.765391 -0.803094 0.670644 -0.161557 -2.26887 1.52887 -2.31758 -2.61539 -2.35441 3.10882 0.403889 -0.586304 1.71893 0.395448 -1.83131 2.60508 0.393639 -0.558388 1.93338 -2.1594 -2.79076 -0.668547 0.833437 -1.81847 -3.34934 -1.9798 2.7937 -1.89514 -3.57177 0.00218815 -2.47285 -0.795579 2.37437 -0.490638 -2.46168 -2.32798 -2.67438 -2.75405 1.95686 2.70959 -2.71456 2.69996 -0.109017 -0.250934 2.60352 1.69695 3.06155 -0.650674 -3.19941 -3.44292 2.8866 2.94269 -1.05105 -1.75255 2.72999 -1.92875 2.06643 0.865199 1.44683 -2.53545 -1.77795 1.88773 2.36572 3.21858 -0.0810258 -0.578336 -1.82279 -1.27825 1.97588 2.49357 0.383515 0.0499941 -1.67645 1.36267 -2.24629 0.554443 -0.623249 1.46247 -2.04719 -2.11813 -1.27071 1.41617 -2.63271 -2.34474 2.13959 -2.57939 1.96682 1.48363 0.00550749 -0.162988 3.00646 2.59475 -3.34737 0.0125187 1.99588 -0.441506 1.27533 -2.77422 -1.12527 1.47765 -2.94816 
-2.33104 3.02965 -1.76219 3.42016 1.92327 -2.43448 -3.28419 1.67287 -0.659363 1.9316 -3.41295 3.00331 0.0951106 -0.801568 -0.414979 -2.05141 -1.76668 -3.19028 -1.18437 -1.84998 2.65099 0.674475 -3.05778 -2.23399 -2.51313 1.32057 0.372509 -1.61324 -1.45246 -2.04038 2.66454 -1.11345 2.17284 -0.96009 0.414168 -2.96485 -0.0945258 -2.00033 -2.48666 3.36945 1.3999 -0.42588 -2.01389 -2.24003 -0.95394 -1.8338 1.37219 1.0497 -0.250968 3.40223 1.31986 -0.230292 3.0064 -1.06669 -2.96494 3.49286 2.12616 2.63725 2.45787 0.606409 -2.15769 -0.0302829 -1.88744 -0.0749143 -3.09123 -2.82816 -2.87083 -2.33091 -1.77261 -0.860791 0.789339 2.04435 -1.28851 0.0624421 2.57213 -0.122553 -3.13966 1.29422 -1.23649 -0.165544 1.34841 -1.73466 -2.50289 -3.04328 -0.449389 1.99674 1.22354 0.729266 1.82245 -2.69225 1.51213 2.18963 2.94152 2.62776 -1.42468 -1.57247 -2.34282 -3.45328 0.226475 1.9973 -3.436 1.92509 1.08816 -0.103861 -0.11269 0.431626 -2.05029 -2.78795 -2.62662 2.22782 1.32925 -3.20564 -0.0275483 1.47859 -2.56166 -1.12867 -0.661721 -3.44776 2.4665 -1.34341 2.71934 0.659459 -0.871299 -2.68567 2.03305 -0.594447 1.44339 2.93171 -3.74916 -2.43022 1.36714 1.21547 2.90858 -0.523633 1.22327 -1.04933 -0.146944 1.77143 -1.66433 1.07285 -2.59297 3.39464 1.84435 -2.69016 1.25924 -0.569205 1.15347 1.3403 -3.21804 2.65462 -0.0131958 1.7325 -1.53531 1.30833 -1.38669 -0.81186 -0.10555 0.402679 -3.41501 0.32954 -1.50745 0.0594938 -3.18801 2.99028 3.3681 0.208588 2.20551 -0.427027 1.38907 -0.371723 0.676558 2.0626 0.342213 -0.0236295 -2.73074 -1.04539 1.84688 -2.79361 -2.5731 0.80759 1.2801 -3.11122 1.72683 -1.17398 1.22296 -2.75149 1.04985 -3.70063 -0.692386 1.39552 0.457469 0.160005 0.355339 0.255674 -2.44379 -2.56625 1.76324 -0.157933 1.78899 1.19572 1.35963 -2.14135 -1.42681 -0.620755 2.15591 -1.45272 1.50372 -1.75278 -2.01934 1.01665 -3.872 0.109665 2.25391 -2.07497 1.41559 -0.979582 -3.61844 1.86782 1.42462 3.10579 -1.40945 -3.02599 -3.26953 0.909228 3.19982 -2.18533 -3.11534 -0.330581 0.492824 2.97126 1.72688 -1.82766 -3.41211 -3.27933 -3.01275 1.12117 -1.29439 -4.12742 1.14049 -2.79676 -3.32101 -1.01875 0.163232 -1.51871 -0.0590226 -3.09976 -1.40217 -0.317064 1.30662 2.36407 -2.76466 -1.41663 -1.46871 -0.553708 1.80157 -2.22849 3.15747 0.578274 0.693286 -1.32461 -3.52901 2.49417 -2.24045 1.4671 2.141 -0.60731 0.156326 1.50113 -3.24469 3.09509 -2.02689 -3.14582 -1.55764 1.64162 -2.57818 -3.57819 3.07182 3.0158 -2.34818 1.16815 -2.76058 -0.529637 -0.0841962 -0.294531 1.95835 0.883964 1.34106 1.7395 -1.01128 -2.26765 -3.60126 1.02373 0.196634 -1.96265 1.75299 1.03363 -0.15298 -3.22211 1.15636 2.76093 2.74666 -0.697219 1.0919 0.626428 -3.03576 -1.72394 -1.13388 -1.84301 -1.24608 2.13509 1.0665 -3.1437 2.58344 -1.49592 -2.67582 -0.9103 -2.02736 -3.45148 -0.431063 -2.23394 2.70673 1.20961 2.29278 -3.8991 2.96796 -2.05896 -2.64133 1.48979 -1.04197 1.77573 -1.1245 -1.74803 -0.368505 2.49525 2.14563 0.127154 -0.739624 -3.27152 -2.76522 -1.77761 1.60126 -3.21681 -1.90321 -2.05728 -1.36426 -2.01864 -3.27538 -1.69207 1.20094 -0.0826967 0.272262 -2.76737 2.69624 -2.82013 -1.85106 -1.28238 0.779131 -0.553021 1.88706 -1.79963 -2.62749 2.1875 -0.20448 -2.23762 0.652111 1.92848 3.36694 -0.39953 2.83572 -1.52025 0.187175 0.659318 -3.20748 -1.00984 -3.48874 -1.81362 2.45459 0.48921 -0.53779 -1.49171 -2.66991 2.92203 -0.420732 -1.8899 2.72569 0.261881 1.7363 1.27121 2.58424 3.23193 -1.13918 1.22584 -1.77472 -3.01482 2.14965 3.49363 -0.0292517 -0.266968 2.82523 2.97895 1.07009 2.06841 -2.33587 -1.73014 -2.9086 2.54631 1.42101 -0.906685 -3.60139 -3.29972 0.20771 -3.61983 -3.13601 0.334222 -2.07245 -1.52911 -0.973017 3.14998 -0.736131 -0.451625 2.27591 3.45384 1.57888 2.22263 0.232926 -0.381429 1.26586 -1.57173 -0.526245 2.69943 -2.87721 -2.08914 1.02624 1.76839 -3.48287 -2.30751 -0.101147 -2.58185 1.98595 -3.62987 -3.63499 -3.68543 -0.31379 -2.22413 -2.96198 2.05973 2.85186 -1.73697 1.52772 -3.00106 -0.693076 -1.62107 -3.46564 2.28586 1.62565 -1.57354 1.79137 2.40006 -2.49477 1.99638 -3.66543 -4.31094 -2.20604 3.10146 -2.53969 3.06351 0.626458 -1.01646 1.50474 2.61419 1.56037 -2.09088 -1.68024 -2.79112 2.8324 -1.67359 2.70166 -1.65704 -3.08731 3.13722 0.905687 -2.10192 -0.865936 2.29978 -2.28604 2.55236 -3.02104 0.414806 -3.18149 -2.01955 -2.80048 -1.58086 -0.781151 -1.6545 0.474204 -2.89364 0.00591016 -0.422571 3.19403 -3.49307 1.23829 2.13358 0.797471 1.21048 3.02387 -2.17701 1.43719 -2.34532 -2.75618 2.27204 -1.54633 1.7369 -2.40654 -2.86376 1.01561 0.13646 -2.39853 1.95515 -2.97421 2.20953 2.57106 -3.22793 0.847518 2.54463 1.68079 0.478183 -3.36536 1.4094 -1.12184 -0.647288 3.14485 1.45985 0.125948 -0.90205 -1.51487 -0.116966 -1.7625 1.60012 -1.31852 0.0574128 -3.13027 2.71306 -3.56613 -1.71793 -1.79934 2.44399 2.03137 -3.38538 -2.79457 1.37884 -0.333237 0.817631 1.27065 1.57287 -0.553145 2.14252 2.67689 2.92915 2.25232 0.111994 2.91594 -1.0276 -1.47083 -2.32325 0.13179 -0.648705 -2.79492 -2.47333 1.04867 -3.20149 -2.38121 1.47156 -3.90297 -1.79578 0.676867 -3.19031 0.10034 -1.09511 2.79535 2.2267 -0.0333673 -0.286412 -1.38081 -3.40023 3.10451 -0.692629 1.50419 -3.46956 0.116852 -0.00457068 1.31252 0.0914022 1.93042 0.76931 -3.55046 1.53381 2.80534 -2.75585 0.974458 -3.64768 1.662 -3.77911 1.67248 0.526662 2.56212 1.24825 -0.642004 -3.27725 2.46327 -0.438398 -0.399257 -2.29767 -0.636732 0.752009 0.559523 -2.46434 1.22316 -2.96402 -0.766387 0.390181 2.63741 1.42094 0.397857 1.45353 1.50426 1.76707 0.711067 -2.06279 -2.60346 2.22311 -4.18014 1.38817 -0.034482 -2.04906 2.16293 -1.4908 -0.740501 -0.951353 0.591493 0.760256 1.14711 -0.742947 3.14299 3.26023 1.77719 -0.82348 1.46418 2.57172 0.576015 -2.65012 2.90319 0.84815 -0.278171 -1.66866 0.967423 -2.91948 1.24614 -0.833164 2.40939 -2.91609 -3.22692 2.4936 2.69719 -2.76005 2.51791 -2.80067 -2.574 2.2463 -2.12529 3.33489 2.66808 1.71017 -2.93036 1.61804 2.47188 -3.31406 -0.909418 -3.17169 0.684902 0.00080998 -0.979928 1.644 2.98619 2.58667 -0.833967 -1.30749 1.6455 -0.583846 1.57449 3.26899 2.87271 -2.76896 -2.21217 -0.699959 -1.47311 -2.54533 0.00409039 -2.41138 1.19204 1.176 0.527892 1.9118 1.87197 3.43195 1.06081 0.671794 3.03986 -1.01589 2.37526 -1.04199 -2.38662 -2.80948 -0.838798 1.91466 3.19483 -0.587492 -2.08378 -2.62948 1.26809 -0.411682 -2.31424 2.93457 0.970069 0.0502439 2.13868 -0.241761 1.22067 -3.3797 1.19501 -0.602888 -1.35562 -1.19184 0.0247152 -0.217264 -2.67705 -0.275199 -1.70545 3.29266 -0.225373 2.56506 0.993384 3.37035 -2.35896 0.723063 -1.5787 -1.02213 -2.53603 -2.73911 2.35455 0.344638 -0.0939524 2.99646 0.390859 0.946501 -2.688 2.95643 -2.83484 -2.37956 -2.55468 -1.68536 1.02618 -3.44758 -1.28169 -2.51621 2.11432 -1.6856 0.0439946 0.444096 -0.506768 -1.03437 -1.40068 -3.39104 -3.33501 2.37097 1.89823 -2.94042 3.21939 -2.95259 2.04689 1.14539 1.35288 2.84819 0.528594 -1.82834 
1.1608 0.750263 -3.35971 3.29432 -2.88638 -2.03359 2.77324 0.731084 0.85636 -3.49444 2.13585 0.0856389 -0.472559 1.38392 2.71507 2.04658 2.57807 -2.936 3.42539 2.10708 1.42142 -0.607409 -2.11185 -3.18766 -1.51385 -2.38205 -0.822704 -0.138438 1.90152 2.29642 -1.23461 1.49245 -0.139837 2.75045 0.158769 -2.87623 2.00658 2.28308 -1.31493 -0.0759079 1.64458 -2.97937 1.45947 0.274109 1.13741 0.925708 -3.40562 -2.69453 -3.36699 -0.107044 3.30251 1.60595 2.96843 -2.41076 2.34333 0.128065 -1.44933 2.95525 2.7394 2.70685 2.2768 2.7685 2.59084 -2.21407 -0.401565 -2.48227 -1.80499 -1.99785 1.01472 2.14251 -3.37658 0.152983 1.56935 -0.928539 2.87032 -1.45698 0.0929528 0.426749 -2.67571 1.64737 -1.47925 -3.29012 -1.22195 1.07108 2.72332 -2.00733 -1.84204 -0.49346 2.06725 1.21291 -1.13771 -3.24514 -3.32173 0.495549 2.92296 2.16772 2.89832 -0.352023 -0.0946037 2.60693 1.25561 -2.03114 -3.36984 -3.28609 0.213378 -0.166712 -0.294904 2.6813 -0.139095 -2.61316 1.81051 0.338136 -3.11489 1.51743 -2.70399 -2.73207 1.85051 -0.250535 -0.31181 0.448033 1.38057 2.42173 0.735103 1.98839 1.62368 3.79968 1.98648 0.56521 1.47147 1.70435 -2.13336 -0.739589 1.77441 2.52713 -1.51577 -2.78594 -0.0685714 -0.519902 2.70293 -0.780198 -2.59088 3.0839 0.926769 -2.3296 -1.89896 2.61666 -0.473824 -1.69161 1.81834 1.70567 0.253425 -0.591021 -0.416769 -0.423581 1.3119 1.51644 3.21418 -0.086523 -0.119186 -1.98527 -3.23227 -0.12399 -1.45075 -2.59609 3.13716 -1.95829 -0.324275 -1.15408 -2.63733 2.73758 0.757564 -3.38663 0.930356 3.44789 0.51334 -0.118946 -2.74873 1.34833 -1.23886 0.769282 -2.0632 2.88737 3.01515 -1.43 -1.65453 -1.01902 -0.527746 3.18894 2.44073 0.235448 1.65874 -2.83632 -1.21719 -2.79412 -2.81937 -2.38024 -2.40154 -2.30869 1.32736 -0.195153 1.6722 3.27603 0.528267 2.27886 -1.61182 3.07138 -2.21518 2.35455 -1.54894 -1.24764 0.814048 3.32021 -0.862809 -0.954304 -2.05514 3.07044 0.413849 -0.586659 2.18654 0.539835 -0.736119 -0.956598 -0.858844 -1.26999 -0.718095 3.44478 -2.46601 1.80371 -2.0164 2.84424 -1.94811 -1.98562 -1.02465 -2.99103 1.75338 -0.85622 -3.17083 2.82742 -1.58803 -2.95325 3.48279 0.155604 -2.08528 -2.28808 -2.13858 2.26921 1.07581 3.53278 0.591826 -1.79302 -3.20067 -1.10224 0.908199 2.77743 -1.66629 0.582067 -1.19816 0.123963 -3.17074 1.0146 -1.29124 2.22825 0.245102 0.176398 1.2215 -3.13912 -2.38458 -0.883728 0.960232 -1.33689 1.69355 0.588979 3.01401 3.09397 -0.241924 -0.643746 -0.0554848 -0.0826221 -1.68252 1.72246 -0.08904 1.16926 1.29704 1.16534 1.21127 -2.01083 0.729693 2.18153 -3.6885 -3.51172 1.82711 -2.43002 -3.73298 -0.588344 2.43227 0.967265 2.64414 -1.73278 -1.46284 2.09298 -2.36595 1.30182 -0.115957 -0.11046 -2.47643 0.352636 -3.38779 -0.672666 -0.90572 -1.33146 -2.68126 0.025838 1.63713 2.15568 0.321865 -1.4867 3.02208 -3.15588 -3.69439 -0.0866816 -2.17293 3.16918 -3.16641 -1.92242 -1.48987 0.469909 -3.24472 1.49867 -2.89105 -3.4688 0.10625 -2.98547 -3.42107 -0.616706 0.425913 -1.48927 -1.37533 -1.04844 -2.16132 0.859695 2.22377 -1.24524 -2.92552 -2.29841 -2.2866 -1.64147 1.80078 2.7283 -1.21107 1.2748 0.666103 1.39644 -0.0685119 -2.39026 0.596347 2.12755 -1.76571 1.06809 -0.509744 -1.83134 0.840884 0.275596 -2.40741 1.28307 2.52848 -2.33972 1.71133 1.40364 1.64565 1.27758 -0.215134 -4.03518 0.564833 -2.92664 -0.821542 -2.67584 -2.07308 -0.963805 -2.45493 2.64042 2.50111 1.81954 0.247286 -2.61731 -3.42958 -2.33816 1.1502 1.84451 2.89862 -0.968632 1.20221 -1.99947 -0.528702 1.72264 2.22132 -1.60806 0.588306 3.04774 -2.8514 -0.7732 -3.577 -2.87768 0.564679 0.741907 2.46142 0.0966461 -1.39659 -2.78953 -1.01269 2.5893 1.78545 -1.02525 -3.11188 -0.0691282 -3.44916 -0.318597 -2.7367 2.53878 3.1371 -3.17004 -0.186611 1.18882 2.12594 0.583721 2.49234 -1.56767 -3.32083 2.47663 2.03031 -0.818878 0.875568 -0.348125 -1.75904 -3.00132 -2.51243 0.0710082 -2.31464 1.41857 2.70661 -1.68306 0.710645 -2.96186 1.40438 1.87092 -2.5774 -0.354447 2.48165 -3.43933 -1.20286 -3.48585 2.54507 3.02898 -1.4882 -3.42121 1.88588 1.31286 0.892921 -3.33265 -3.23716 -0.990915 0.487983 1.85182 2.5592 -0.573201 -1.59537 -0.628313 -0.551427 -2.51604 -1.19236 2.19949 -1.06591 -2.79876 2.02697 -2.04013 0.433573 -0.477689 -1.47814 0.0964648 1.46102 1.58088 -1.4347 -0.569092 2.78182 -1.29206 -2.85778 2.75598 0.919269 -2.09918 1.19328 -1.79098 0.418718 -2.17608 1.48253 -2.34175 0.307778 2.50298 -3.21351 -0.610387 3.1676 -2.17392 2.22012 1.9177 -1.24965 -3.11005 -0.808473 1.02928 2.81673 3.12013 3.18588 -2.47351 -2.24477 1.51925 -1.51477 -1.86966 2.68189 -3.5474 2.13739 -1.48963 -1.19181 -1.98764 2.66011 0.573057 0.773896 2.06893 2.18862 -2.41847 3.68347 0.984754 -1.59515 -2.37046 2.15936 -3.34973 -0.289571 1.0923 2.7386 -1.23735 -0.355253 3.6746 2.72954 0.170116 3.77436 -1.79738 -0.815498 0.466064 -0.710414 0.251877 -0.974237 1.21948 1.94152 -0.716988 2.43231 2.76997 0.222023 1.1909 0.761382 -1.73151 -1.37859 -2.42159 -2.91858 -0.86286 2.89293 3.45241 -1.44689 3.50902 2.43903 -0.117786 -1.8106 -2.07237 -0.463056 2.46834 1.9847 -1.0506 1.33378 -1.35654 0.553193 0.920077 -0.456398 0.85391 1.42411 2.00322 -0.606036 0.228046 -0.993235 1.07881 -0.638852 1.64161 2.79343 2.33145 3.4249 0.492224 3.43002 3.23965 2.00823 2.5362 1.98822 4.11684 -0.967492 1.05193 1.18196 0.209013 3.38854 -0.152165 -1.58382 -2.66385 3.18775 -1.49654 -0.60712 0.475755 2.19782 -1.42867 3.1162 2.16399 -1.15572 2.09753 -2.56623 2.93585 0.920302 0.951408 -2.31798 0.299572 3.0334 1.86119 -2.65115 3.14043 1.5434 0.788957 -1.56858 -0.656701 -0.146224 1.81005 2.12344 1.4463 0.979612 1.96818 2.33862 -2.01589 1.08879 2.43984 -2.20973 1.23929 2.52948 -3.28921 -3.33236 1.87711 1.34279 -3.31972 -1.92003 -0.255269 0.551778 3.05183 -1.89109 1.22177 2.12527 -2.38876 -0.854012 1.74364 -1.25289 -2.13261 1.89685 -1.89338 0.441325 -0.211323 2.45737 2.11833 3.13277 -3.02918 0.34131 0.317944 1.46892 0.213611 -3.15255 -3.37875 2.12155 -2.57125 2.20787 0.773241 -2.20505 -2.25135 1.39645 1.26263 2.68458 -2.66669 -2.2614 2.45617 -2.14732 3.31893 -0.229987 -3.301 -1.83371 -3.50934 -3.43953 2.9659 -1.57123 3.31375 -2.93759 0.989805 2.82633 -2.13025 3.01131 2.21843 3.17344 0.267358 1.775 2.07262 -2.15783 -0.183123 1.73557 3.12333 1.80011 -2.91857 -1.14123 0.204116 0.330598 2.08463 -3.36364 -1.95595 2.90444 2.35947 1.69022 1.01687 -2.96163 -2.3179 1.24117 1.12347 -1.77891 0.942681 0.980427 -3.49728 0.136744 1.54571 -3.35917 2.72774 -2.00929 -0.839452 3.15018 -1.28606 -3.4103 0.360372 -2.16766 0.713655 -2.0926 -3.45862 2.86217 -1.08769 2.13273 2.69722 2.29805 1.47794 -0.569883 -1.52603 0.923721 -2.80481 -2.81876 -1.9618 1.15472 -1.91416 0.892412 2.74356 1.74499 -3.35163 2.87337 2.57028 -1.36641 2.84357 -2.9973 2.14561 0.153218 -1.24691 1.14025 -0.933375 2.38952 1.97771 1.16093 -0.15006 1.49039 3.40508 -2.72407 2.72965 -3.10651 -2.48388 2.9623 -3.02848 2.58001 -2.58803 
-0.483743 -2.47149 -2.9007 -2.70475 -2.17912 -0.0343843 2.7771 1.07489 -2.43946 2.55773 -2.39638 -1.15057 2.67121 -1.47447 -1.45425 1.94961 0.599779 -1.33604 1.87462 -0.595525 -3.3559 0.744054 -0.581685 -1.11722 -2.13279 1.56751 1.71656 -2.88786 3.39712 2.63899 1.42482 -3.28937 2.00938 -2.02603 -1.6662 -0.937341 -3.23974 -0.634288 0.0158369 3.38309 -1.89022 -3.13601 -0.623128 -1.05589 -3.41758 -1.87904 1.27958 3.3668 -2.79789 -0.17227 1.00862 2.49076 2.79335 1.09102 1.41791 1.42823 -2.36523 -0.0289911 -0.142431 0.0402221 1.27509 1.39309 -0.104754 2.34534 3.16802 0.391819 0.130882 -1.37439 2.52341 2.17846 3.3778 -0.328453 -1.23794 1.79775 -1.46218 -1.48634 -0.324662 -1.71565 -0.545577 -3.26534 -3.05948 -0.866937 3.0353 -2.61781 1.28585 2.47564 -1.46959 0.0433832 3.09318 -0.582296 0.192461 0.153838 -1.37401 -0.975187 2.34853 2.06696 0.705417 1.40587 1.39108 2.09676 -2.41485 -1.08034 -0.962171 -3.02511 -2.77318 1.25882 1.95047 3.43415 -3.30674 1.66532 1.47901 -0.839341 -3.26959 2.71508 3.4371 -1.11347 3.05687 2.22979 2.66215 -0.640167 1.37308 -1.64151 2.89477 2.8972 -2.59662 1.15626 0.924758 1.81813 -2.29621 2.62213 -3.46062 -0.363839 -2.34898 3.25308 -0.648546 -0.223092 -1.81197 -2.30843 -2.85655 1.07146 3.45482 -1.4842 -2.11232 3.07433 1.97115 2.01671 -3.32482 0.741947 -1.87354 0.0165243 -1.04546 0.60386 -2.84668 -1.10479 -2.78331 2.1469 -1.62093 -0.670921 0.929455 -3.63383 2.10892 -1.60235 -1.0109 -0.744212 -3.30144 -1.27582 -1.69056 -2.5936 -2.18597 -2.03867 -0.98061 -2.53614 2.58568 -1.49663 1.8726 -0.114422 2.65664 -3.27882 0.610696 2.73419 -1.16347 -1.00192 -2.86426 -2.25685 -2.20603 2.77507 3.02888 -2.17659 -0.445679 -2.70186 -1.76658 -0.47448 1.1021 -2.04928 2.51193 -3.01223 -2.32995 2.2092 0.2408 0.18289 -3.01707 -0.21754 -1.14367 0.149289 1.51515 -1.18729 -3.56689 -2.28128 2.70824 3.05206 2.61504 -0.673966 4.14656 3.12305 2.31385 2.71668 -1.99307 -0.90436 1.56286 3.17292 -1.85975 1.35536 -0.704482 -2.05204 3.40518 -2.56749 -1.08007 2.04991 1.47021 -0.181293 -0.574464 0.99656 1.41985 -0.374314 -2.11737 1.1817 -1.82958 0.193558 3.52502 -1.77178 -0.341576 1.32897 -2.59004 1.86729 1.02565 -1.35438 2.56234 -0.109788 2.9902 -3.2328 2.15731 3.21629 2.06127 1.84455 2.43534 1.37068 1.45098 0.815772 -4.00142 0.215275 1.65376 -3.50269 1.95536 -0.836906 -0.268048 -2.66737 2.22181 -2.73712 2.01771 2.29171 1.18283 1.43747 0.538565 0.80061 -3.04159 -0.435392 1.47244 1.47609 2.04405 3.03903 2.44293 1.42098 -1.44467 1.89734 0.832881 1.57027 1.47342 1.84506 -3.47164 2.38722 -1.12843 -0.932656 -1.98667 0.616215 -2.24075 -0.329543 1.78824 -2.77336 1.8153 -0.218878 -1.63597 2.85841 3.37492 0.140807 -1.09874 1.69491 2.0098 2.85782 -0.447179 2.12329 -0.0190768 -0.390892 -0.130889 -3.11154 -0.400091 -1.65502 3.4449 -2.00145 0.0838539 0.123506 2.73626 -2.53798 -3.76313 -2.85814 -2.95542 2.25681 -2.7659 1.79241 -1.32143 -0.703993 0.939146 1.62274 0.381178 2.20269 1.20848 1.8224 -3.17197 -1.17232 2.87536 -3.56441 0.182692 3.35331 -2.48645 -2.144 2.17309 1.43556 1.46042 2.27607 -3.29431 -3.38053 -0.459572 -0.0608601 0.994654 2.30912 -1.47235 -2.24207 3.20813 -0.998025 0.785283 3.69465 -1.58176 -2.96799 2.16269 -3.03057 1.04813 -2.62551 -0.321644 1.21307 2.13904 -0.527429 0.793531 -1.80477 4.44427 3.20704 3.69286 -0.811223 0.780517 -3.16151 -2.33031 0.382843 -2.49054 -0.159018 0.969018 0.661387 2.84175 0.681062 2.18525 -1.60012 0.430686 -1.06944 0.2924 2.6333 -3.06682 -1.07988 -0.465926 0.323009 3.20404 -2.79222 3.15401 4.33132 2.80582 1.00771 3.94082 -0.390493 2.28465 -2.12345 -0.176104 -1.85121 1.52872 0.979707 -0.992854 -1.65259 2.51313 -0.564289 -0.494102 -2.6379 1.23997 -1.91014 -3.50405 -3.25971 0.713281 1.86981 2.32461 -1.3555 -0.762063 -0.672209 1.18428 -1.44099 4.30833 0.365018 0.0843772 2.98446 0.551725 1.34595 -0.419057 -0.742841 -0.815798 -2.82161 0.764628 -0.674221 2.76792 0.447795 0.264802 3.54351 2.37779 0.341045 -1.55244 -1.63507 1.46167 0.592594 -2.43487 3.14465 3.0857 1.60194 2.76037 3.34911 -1.6427 3.21206 -1.0453 2.70913 1.55612 -1.16292 -3.77497 2.18181 1.70111 -3.69282 0.575272 -0.763507 1.56561 -1.08018 3.54721 -1.79711 -0.279429 -2.18357 1.65949 3.24058 1.06274 -0.556327 -2.44214 -1.81721 -0.284363 3.20218 -0.417718 -1.36382 -0.546783 -0.886341 0.454718 -0.577869 0.615942 -3.89685 0.0203129 -3.79603 2.43478 1.67886 -0.719247 -0.390846 -1.82317 -1.54865 -3.09487 -1.00802 -3.5044 -2.75168 -0.830532 -1.41206 -2.49469 -1.3917 -0.688121 1.29909 -1.45449 -2.76605 0.750372 -2.11493 3.3989 -0.846109 1.31865 -0.629647 -3.57114 0.777971 -3.17316 -2.59671 -0.168265 0.757777 -1.53908 -1.79797 -2.79844 0.796246 -0.441933 -3.14454 0.296933 1.81141 -0.852292 2.20192 -1.46922 0.362276 2.99713 2.32834 -2.67184 -1.33999 -3.02342 2.57999 -0.283773 -1.83028 -3.15164 -0.461396 -3.68936 1.05287 0.231013 0.409495 -0.997121 2.14459 -0.589616 3.08032 -1.95662 -3.29782 0.30413 3.01559 -2.7443 -1.55762 0.447182 -2.67415 -0.169594 -0.863561 0.916285 2.72896 -2.90599 1.14482 -0.211821 1.90981 1.62875 2.69716 -0.963016 -3.43268 0.904794 2.11004 2.54913 -2.1505 1.84441 0.0276643 -1.03604 -1.64431 1.16393 2.84731 -3.54362 -0.276507 0.683236 0.823429 -1.76846 -1.97356 2.2703 -0.817656 2.83571 1.64112 1.65163 -1.42512 -1.88534 -3.01878 0.792259 -2.39246 -1.03229 -2.66451 -1.35017 -0.126169 0.592361 -2.80495 2.78793 -2.20818 1.83884 0.231664 -2.79352 -3.32615 1.45014 0.6536 -1.00048 0.983542 1.42098 -0.601622 0.673607 2.29631 3.3011 -1.60905 0.813427 2.52514 -2.93378 -0.0889361 2.10203 -2.81052 -1.24653 0.926455 -2.71727 0.6175 -2.41322 2.81461 1.55952 0.513434 2.96804 1.41424 -2.84084 0.0392856 0.402201 0.437977 3.33295 0.550602 2.91419 -3.48363 -2.97989 -2.91169 2.2375 0.881965 1.53619 3.29604 -0.943663 -2.28177 2.26284 1.95286 -3.34391 -2.95964 -2.31382 -1.23911 0.679793 -0.145618 -2.20849 -2.33799 -2.50001 -1.58684 1.39479 2.05522 -3.06777 2.538 -0.251784 1.59383 -0.386691 -3.15957 0.751616 -0.713145 -1.45429 -2.48426 0.743481 0.0654958 -0.778052 -0.545881 -3.06122 -1.87113 -0.542175 0.31752 -2.09798 -0.74543 -4.01281 -1.4656 0.434018 -2.43227 -2.54465 1.8843 2.87837 0.0773066 -3.38537 -2.40088 3.21077 -1.94044 -0.77007 0.180061 2.04156 -1.00892 -0.53664 2.78413 0.524877 3.14672 0.0272057 0.19689 3.19107 2.63021 0.240033 -2.63637 -2.12341 -0.367213 -0.663223 -1.88524 0.977073 -0.613148 -1.13155 2.73362 2.18095 1.94887 -0.0282449 1.44054 -2.18997 2.67922 2.60006 -3.22374 -2.5153 0.555496 -0.283733 -1.71612 1.67342 2.61187 2.81753 -1.71539 0.220016 -0.269049 1.75222 -0.446302 1.93201 -0.10087 0.586116 2.39841 3.26249 -2.79647 1.95489 1.4081 -0.0240525 3.30019 2.11136 -0.802888 1.64394 -2.90332 2.28468 -1.2305 2.16603 -2.42756 -1.45672 -2.87842 1.11148 -1.51874 -3.01839 -3.26708 3.3414 2.42013 1.08275 -1.04137 -0.594362 -3.15484 -3.40135 0.324231 2.24294 1.47205 0.774112 -1.61113 2.98713 1.49812 -2.50041 -2.06657 -0.863764 0.830548 -0.713448 1.21546 
2.22982 0.581845 -1.62076 0.588588 -0.274656 -0.676764 3.02096 2.99005 1.89811 -1.51833 2.27001 -3.23067 1.08098 1.60141 2.38975 3.04973 -0.119734 -3.19575 1.09605 -2.1609 2.39991 -2.44732 1.61619 0.934432 2.93643 0.904975 2.53765 -1.34022 1.19687 1.91306 2.2585 -1.20618 -1.59437 -0.618731 1.18628 -0.561155 -2.11744 -2.00819 1.4372 0.246359 -1.89426 2.58206 -1.81645 1.04465 3.37054 3.0719 -0.926386 1.00726 -1.68006 -1.71124 -0.905666 -2.95248 -1.78077 3.25642 0.901021 -0.608834 -1.15696 -0.22716 0.126438 2.43064 0.741282 -2.12601 -2.78283 0.679126 1.23369 -0.383978 1.11282 -1.72565 1.19323 2.61148 -1.45779 -1.38376 3.0134 -2.05076 2.94866 3.11164 2.97045 -1.85481 1.3691 -3.2235 -1.43692 -1.29258 3.33157 2.06171 0.924715 -3.21049 -1.02911 1.47862 -2.80813 -0.133128 -1.04145 -2.4803 1.34916 2.52042 3.03878 1.74283 -2.6377 -0.431426 -2.73014 -3.41792 0.17288 -2.54242 -0.827408 -1.7863 -0.628489 -2.39531 -1.59794 2.03039 -2.06208 -2.37311 -0.293433 -3.12891 0.608287 -1.70065 -2.415 -0.0130886 1.2904 -0.278992 3.04668 2.16036 0.254562 1.51802 2.18596 1.39578 -1.52599 2.82849 1.17151 -1.12862 -2.41322 -1.84043 -1.36913 -0.785921 0.311015 -1.05346 2.63597 0.425653 0.604891 -1.32592 2.25652 -0.297638 3.08032 2.11633 1.93639 2.53732 -2.59505 -2.05528 2.33168 2.53821 -2.91832 -2.88884 3.22736 -1.28347 -1.58748 -2.31683 -1.92043 -0.941011 -2.6658 -2.94783 2.33757 1.21411 -2.78074 2.10539 -3.0164 0.568842 1.05684 1.41284 0.237601 0.363099 2.61359 3.18029 2.92026 -3.19543 0.703116 3.47079 0.7105 2.64586 -1.934 0.309335 -1.84489 1.51495 1.32444 0.296592 2.74347 -2.99151 0.629305 -2.85234 -1.10785 1.43996 -1.55731 1.17245 0.126301 -0.714726 1.23082 0.965247 -2.01315 3.24079 0.956736 -0.610488 0.644198 0.823132 0.42859 -0.571833 -1.92785 2.10634 -0.723191 -1.49064 3.01019 0.0483022 -0.340792 0.151279 -2.16634 2.52344 0.404685 -3.26857 3.01797 1.73364 0.699898 -0.4855 2.05459 3.05083 2.27109 -0.22147 0.246934 -1.80773 1.34864 -3.3425 -2.17751 1.01269 -0.875472 -2.76857 1.64416 -0.697792 0.147645 -1.26049 -0.620033 -1.46464 -1.26925 0.738027 -1.62653 2.72226 1.03222 0.947475 -0.409509 -1.39767 -2.26286 -2.093 2.52784 -2.32067 1.46399 1.32983 0.633642 -0.653161 0.789551 -3.44273 -3.16368 -3.14954 0.930212 3.43009 -2.35911 2.62945 2.3333 -2.44708 1.20824 -0.7542 -1.2868 1.16972 -0.294014 -0.255561 -2.19496 1.20485 -2.46458 -2.37252 -1.10606 1.3811 -0.602191 -1.55676 2.69911 1.49415 -1.27875 3.06542 0.255047 1.17657 -1.72585 2.49041 1.89434 -2.82326 -1.0771 0.271928 0.0296353 -2.35697 -3.17629 -1.01113 0.536849 -1.92408 1.18021 0.637241 -2.40339 1.82167 -3.73121 0.926566 0.888655 -3.01039 1.90348 -0.61474 -2.54062 0.515454 2.61593 0.443102 -0.339563 -0.907646 -1.47983 -2.39021 -0.159373 0.719638 1.51145 -2.61455 2.07023 -1.71232 1.53718 -0.213466 1.50455 2.94991 -2.62143 2.50531 -2.85821 -1.25682 -2.41955 -1.19238 -0.83106 -2.49657 -0.821261 1.64272 -1.9438 0.72594 -1.88767 -0.493187 2.45863 -2.79861 -2.45855 -1.066 2.33275 -1.92641 0.743459 2.29379 -0.981294 -0.655201 2.11221 0.212171 3.25768 0.702871 2.31233 -0.218525 -0.178278 -3.21954 1.28854 0.0738585 1.73135 0.965452 0.647651 -1.73941 -2.39646 -2.57955 -0.8073 0.949215 0.528304 0.634808 1.79182 0.812901 -0.306326 0.936074 -0.990091 -2.74132 0.113926 -2.60444 -0.87987 3.70245 -1.43046 1.19172 1.74808 -2.91405 2.87179 1.84051 -0.712899 -3.14931 -3.06737 -3.31076 1.82682 -3.28196 2.0034 -0.443332 2.54935 -3.24834 2.19946 1.02338 1.87721 2.43517 -0.508768 -2.27247 2.70912 -2.66604 2.03038 -2.15539 0.33066 -3.03341 0.75287 2.62367 0.0560161 1.12499 -1.63537 -2.33672 -1.53427 2.02412 -2.54873 -0.654415 -2.32111 0.216993 0.977149 -1.52369 -0.890829 0.049491 -1.9414 -0.156763 0.569445 1.56646 -2.26589 -3.57233 2.72265 3.00975 1.69311 0.106657 -3.07703 -1.08087 -0.525455 -1.94436 -0.265894 -1.58786 1.40914 2.03197 -2.36325 1.03135 0.560292 2.26404 1.59011 1.46743 2.46082 0.839953 -3.05138 2.58199 0.767438 -0.955407 -2.76567 -0.168781 1.90396 0.892779 0.739332 -3.56801 1.33043 0.766152 -1.62623 -1.59568 -2.4424 -2.78168 -3.64348 1.01623 -1.75153 2.24458 2.0836 1.9063 0.31037 -1.4821 -0.330924 2.07515 -3.30994 -2.01232 3.04062 -1.04292 0.801604 -2.3373 0.944115 1.30473 1.75714 1.05283 -1.69048 -3.44196 -1.4298 2.14537 -2.91829 1.75215 0.65671 2.15562 0.231589 -2.45538 0.0116305 -1.81697 -0.558564 1.10375 -2.66321 2.45148 -0.374901 -3.1526 -3.29352 2.30828 0.261593 -0.260766 2.8993 2.95512 3.3905 1.31303 -2.80992 1.01973 3.35848 -2.77339 2.80645 -0.843256 -0.28287 -1.98058 -2.69808 -2.51802 -1.60827 0.370817 1.80242 0.74695 -1.71084 -1.53728 2.13384 1.58254 -0.63253 0.458893 2.74786 -0.114992 0.666881 -0.288589 1.1672 -1.40595 -1.43827 -0.0761344 2.11165 -1.7542 -2.81673 1.95104 -2.77498 2.75184 -0.246591 -0.841907 -1.37992 3.28357 -1.59734 -1.31813 1.97239 -2.21253 0.953261 -0.1143 -2.88269 -3.05551 2.40324 0.672711 0.556714 -1.86391 0.648551 -0.690289 -2.65719 -0.170058 -0.289828 0.225019 -0.0929834 3.08704 -0.708766 -0.0128208 2.22225 2.90098 1.09843 2.44276 0.996736 -2.64882 -3.01125 3.07651 -0.78986 -3.09879 1.45431 0.253919 2.41054 -2.09754 3.04761 -0.139719 2.7387 -2.48326 0.236084 -2.73828 2.59361 -2.64646 2.4439 -1.12488 2.50853 0.20456 -0.738216 -1.40303 -0.0524544 2.01424 -3.19987 1.17259 -1.93597 3.3018 -1.45699 0.00200695 -0.666246 3.56326 -1.25667 3.13475 1.64108 -0.970523 0.00740528 -1.76354 2.7241 -3.13888 -3.08752 -0.973663 0.840373 -0.816736 2.67216 -3.33346 -0.134082 -0.0196863 0.062626 -2.73444 -2.81954 0.234274 2.66569 -2.51965 3.30983 1.34442 -2.5349 1.13765 -1.59947 -2.67937 2.49374 -1.38972 -2.34148 -0.90684 -1.00219 -0.691431 0.249181 2.81728 3.13879 1.46343 -1.12788 -1.07317 -0.331294 -1.38419 -3.04603 0.241694 0.467915 -0.852434 3.04781 1.62345 2.00805 -0.161162 -2.84189 2.31848 2.90761 -1.37809 2.05885 -0.566317 1.11213 -1.03593 2.97449 -2.67042 2.90681 -2.71092 -1.80151 -3.19282 3.34256 2.27317 0.333302 -2.89195 -3.43006 2.25646 0.801887 0.24384 1.47881 2.78225 2.58461 0.833496 -1.70615 1.23 1.25729 0.751963 -0.619034 -0.39053 2.816 0.26262 -1.31425 -1.02802 -2.03417 0.40641 2.35878 0.680105 -1.39309 3.28182 1.4416 -3.2917 -1.52911 3.11336 -2.57772 0.506375 -0.115771 -1.30846 0.0129521 3.36844 -3.46356 -1.79311 3.48117 -0.208157 -0.527613 1.06244 -0.768625 0.692423 0.617382 1.23991 -0.745909 1.80757 2.79356 2.08033 -1.98842 1.36436 -2.30195 -0.825774 -2.26812 -0.0489532 -1.06464 1.27114 1.8469 0.732536 -2.54152 -2.6103 -0.63644 -0.376463 -0.711985 2.7958 0.880896 1.13452 -0.473295 1.90916 -3.08182 -2.07506 2.89222 2.31 1.7671 0.545508 -1.95795 -0.575773 -0.738939 -2.53014 3.39 -0.644298 -2.57623 -0.560115 -0.303503 2.17962 -1.04855 -0.461711 -0.419917 2.03701 2.68516 3.17209 2.36259 -0.143461 1.14691 1.0286 1.04486 -1.8608 3.47946 3.0907 -1.48166 0.113787 2.45777 3.11116 0.0294638 1.63581 0.797866 -0.336959 -1.54747 2.75184 -3.1541 -0.230961 
-1.95323 0.82153 -1.01271 -2.22444 -2.23256 -1.46285 2.96144 0.571535 2.7372 -2.25964 0.0530319 -3.20022 -3.07707 0.794712 -2.73245 -3.43086 -3.11745 -3.12276 1.18962 -3.09368 -0.709281 -1.11427 2.13805 3.18868 0.412045 -1.41267 -1.04493 -2.06557 -0.064956 3.35315 0.385961 0.483087 -0.5364 0.633584 1.95294 -1.64833 1.28383 -2.83302 -0.948277 -1.29709 0.970055 1.8254 0.322635 2.63696 3.25114 -3.18508 2.27414 0.140637 0.273952 1.03656 1.00147 1.38931 -1.94723 -2.20711 3.2441 -0.755832 2.71396 -2.72913 -2.97221 -3.42422 0.856232 2.86069 -3.27738 -2.44113 -0.275565 2.27819 -2.66236 0.060948 -0.891659 0.505133 2.28746 -1.31866 0.360126 -1.01559 2.45769 -2.52639 -0.555695 2.93105 1.40076 -0.386277 -1.84845 -2.95229 2.83218 -2.12015 -1.78398 -0.856241 -0.385937 -2.04512 -2.78183 -0.542224 -0.517723 1.52487 1.47899 1.41065 2.82588 1.05113 0.958793 2.19436 0.0229923 0.574381 3.47351 2.43454 0.0116925 -0.956536 0.519451 -1.05245 -1.14488 2.08756 0.0711047 2.02294 -1.77599 0.563948 0.081891 3.0304 -0.0544812 1.90625 -1.41762 0.316967 1.67697 0.852702 2.94876 -3.12406 1.06258 3.26726 1.74268 0.651951 1.61377 2.96179 -0.0916801 1.6872 -2.12295 0.464161 0.779985 -1.6262 2.02677 1.03301 0.985283 -2.02683 2.38618 3.13108 0.0375692 0.549127 1.18742 -2.80385 -1.98939 1.90788 -0.669625 1.15868 -2.59306 0.641107 -1.3488 -2.26604 2.56545 -0.556288 -2.23067 -0.64121 -0.360883 1.31017 2.05443 0.0687519 1.30375 -0.910615 -0.426737 -3.1745 -1.17539 -1.43838 -1.58318 -2.14026 2.04125 1.05434 -0.713846 1.25717 -1.10259 -0.198389 2.69496 3.30436 -2.47026 2.34312 3.18636 -2.8078 2.85357 0.79024 -0.961265 0.495919 2.60262 2.43628 -0.199505 -0.579493 2.52916 -0.661688 -1.43333 -1.17966 1.68201 -0.652635 1.96757 -1.58888 1.86845 -0.88578 0.298628 -1.03255 -2.62915 -1.59023 -3.32292 -1.69212 0.0123093 2.56261 2.46676 2.89693 1.10901 -1.82926 1.41494 0.724351 2.1459 2.83736 -2.54374 0.994285 -0.563626 1.1405 -1.97958 1.91923 1.39858 -1.0126 2.67604 2.20769 -1.02589 -3.28139 1.16487 1.0383 0.91657 -2.11294 -1.881 -2.23537 -3.51861 -3.02291 -2.07423 -3.34777 1.60706 -0.94076 0.908032 1.29418 -3.86182 -0.332964 -2.18674 -1.60804 1.75285 1.21836 1.9269 2.20283 -2.31084 -2.10574 -1.35984 -3.11022 2.39078 1.13837 -2.53403 -2.88301 0.00523697 -0.500779 1.11587 -1.15702 -0.785953 -2.1523 -1.76934 -0.640114 -2.35005 -0.137065 -0.187051 -3.34543 -1.66685 -1.76023 1.6209 -3.02891 1.37773 0.451477 2.12212 1.68333 0.448489 2.15907 0.667594 -3.15106 -1.83004 -1.72705 1.22742 -2.77628 -1.91212 0.918646 -2.2872 0.523858 1.23995 2.19134 -0.881125 -0.730783 -1.27266 -1.62434 0.623428 -3.41411 -0.348308 0.456469 0.584747 -0.616127 -0.356898 0.626307 -1.95509 -3.36049 2.34397 0.336108 1.75462 -1.30132 -2.93054 -2.77972 1.61303 -1.00847 -0.154027 -1.23648 -1.95264 -3.20331 -2.94874 -0.670785 0.291795 -0.0205516 1.60264 1.87031 -1.47271 -2.48807 -2.7156 0.304785 -0.474556 1.59253 1.99604 2.88312 1.35841 3.29374 0.277807 -2.55579 2.05799 -3.2539 -1.06426 2.20823 2.48408 -0.554789 0.183845 1.06368 1.79973 2.19912 0.285967 -1.4478 -1.41992 2.69909 2.90514 2.90897 -0.908606 3.66851 0.290311 1.1696 2.14595 -1.33264 -2.41966 -1.2881 2.19254 1.86212 2.26543 -0.733803 2.51276 -1.85006 2.45382 -3.44391 -2.68788 0.484673 0.618226 3.08387 2.21088 0.220026 3.21633 2.197 -0.337993 4.12047 4.40108 -2.03961 2.20894 1.2188 1.96321 -1.07245 -3.44724 1.02163 0.603316 0.793124 1.66841 -0.377416 -1.94745 -1.38817 -0.905158 2.85311 -1.99013 3.17657 0.991085 -2.94144 1.27052 1.47193 -1.62781 -1.29819 0.305409 3.61469 1.02183 3.65986 0.124176 3.16378 2.70446 3.03421 0.33486 -2.47168 -2.61772 0.902413 2.51117 2.10466 -1.81243 0.720347 3.35096 0.875998 2.86115 1.9472 -0.144784 2.83411 -1.23027 -1.9738 1.60704 -2.4623 1.05407 2.85959 3.7172 -0.143286 0.00859667 1.68352 2.74457 2.3436 1.82236 -1.2116 -2.82813 -2.12752 -2.35989 -2.3974 -3.19092 -2.33315 2.13394 -0.0141421 -1.83638 2.98914 2.87663 -0.83277 -0.956842 1.41228 1.14039 -3.00957 -3.32267 1.76998 0.129878 1.23755 2.68437 4.39753 1.67548 -0.25586 2.88332 -0.313385 1.88486 0.606213 -1.50374 0.776491 -1.42555 2.72837 2.68081 -1.18857 0.964793 -2.86538 -0.809509 -3.17676 -2.66748 2.83125 3.28562 -0.867799 -0.0287206 3.48916 -1.20404 -2.39172 1.54166 -0.662182 -1.59841 -2.24074 0.659206 -0.863715 3.04199 2.67551 -0.892017 -0.311454 1.38302 -1.36575 1.33105 -2.96706 2.27579 -1.47692 -0.766456 3.19866 2.22967 3.21063 1.91193 -0.773057 0.923816 -1.01036 1.09496 1.54693 0.912991 -2.37398 -0.171894 0.547382 2.49026 2.99625 -0.572847 -2.04606 1.69462 -3.46569 -2.53746 1.83957 2.32936 0.309102 4.18969 -0.127404 1.483 2.54614 3.49454 -0.907821 0.320889 -0.918062 -1.90218 1.73917 -2.76966 3.23047 1.50426 2.7095 0.825568 -1.84876 -0.325974 -0.606599 0.27349 3.96233 -1.1645 1.26455 0.0264255 -1.0488 0.818233 1.21842 2.53498 2.95495 -0.662445 -1.17308 1.30811 -2.72759 -0.314787 3.51429 0.387871 -0.740643 -0.768379 0.343536 -0.75959 0.870516 2.16059 -1.45162 -2.24825 2.90668 -1.32413 0.216457 2.95914 -0.0548983 -0.828945 -1.39938 2.24396 1.72427 -1.3049 1.48831 0.459041 1.5473 -1.7918 0.238591 2.66544 3.29398 -0.829823 -2.5254 -3.01006 0.142678 -3.30912 -1.33892 -2.42001 -0.455762 -0.642801 3.26364 2.53382 3.32957 2.52572 -0.285997 0.279977 1.20414 2.73406 -2.17306 -1.03696 2.13604 1.69689 -3.2949 -1.05679 0.537426 3.95285 3.7558 0.920478 0.934969 3.52554 0.473145 -1.33695 -0.962181 2.12902 0.326631 -0.778145 2.32913 0.7921 1.48599 2.30925 -1.27512 -2.12207 -0.070256 0.504641 1.72285 1.64687 -3.75108 -0.923079 -1.5272 2.78163 1.70615 1.96642 1.35932 3.02704 1.66552 1.00819 -2.57163 0.160761 2.47646 0.590147 -0.815432 -3.40443 2.78123 1.5749 -3.08357 -1.80576 -2.17433 -1.37211 -1.68158 -1.3404 1.31057 -2.25266 0.722275 -1.09788 -2.84932 0.791607 0.161556 0.193898 1.62868 0.539562 0.51696 -1.55369 1.96619 1.96265 0.593787 -2.26816 -1.30569 -2.54139 -2.88693 -3.03799 0.84739 -1.79976 1.6845 -0.981907 1.04021 0.671093 2.9139 3.22607 2.2758 -0.0255561 -1.73485 0.399919 0.212163 1.32268 -3.82712 -2.56885 2.03453 -1.93129 2.74234 -3.05833 0.826186 1.76034 -3.14947 -0.756922 -2.93907 -2.11228 1.56013 -3.17794 3.43545 -2.51581 -3.09276 -0.483546 1.5327 2.03886 -2.00866 0.761533 -3.28239 -3.18634 -0.0317466 -2.49582 -2.44144 -0.269332 -0.950113 -2.56744 -2.192 -3.71457 1.91195 -3.22304 -2.5937 -0.941162 0.559027 0.00500417 -1.25933 2.16707 -2.51683 1.99109 0.735132 0.409563 3.15351 -0.855192 -0.0659598 -3.33686 0.919299 2.34364 1.26296 -1.74455 -2.53309 1.30654 -0.969529 1.54184 -1.01128 0.0246061 -3.36975 -2.5966 2.82582 0.879102 0.266451 -2.00928 -0.464118 1.488 -1.12322 0.602046 0.894983 3.45159 2.51522 -1.11897 -2.30514 -1.11169 2.13562 -1.26996 2.9533 -1.58795 3.07517 -0.965349 1.15983 2.10564 1.75652 -2.23504 -1.5522 -0.771586 0.469303 -0.279081 3.11341 1.21961 -1.17589 -0.213383 -1.33329 0.316654 -1.89916 0.968142 0.196203 1.87652 2.34075 
-1.17128 2.71509 -0.781457 -0.157436 -2.57603 -2.24085 1.74323 -2.93365 -0.475158 0.209326 -1.67114 -2.0638 1.68239 -2.24271 0.746253 -0.628918 -1.38696 -0.272399 3.087 3.12372 0.312355 -2.53289 -1.7459 -0.488103 -2.73044 -3.01138 2.80591 -0.0408699 0.335187 1.04721 3.36704 2.99897 -1.52013 -3.42242 0.201204 -3.27016 -1.41072 2.56914 0.769576 1.87768 -0.254674 0.901606 2.96425 0.548887 3.22605 -0.880875 3.27222 -0.847096 -0.151214 2.39949 0.315652 -0.865977 -0.972684 1.38299 2.99236 1.74228 1.14974 -2.80762 0.086361 -0.413423 -1.45261 -2.90551 1.67414 2.51718 -1.02212 2.17777 0.0863125 -3.06414 2.97891 2.80134 -0.707578 2.21611 0.183244 -2.47274 1.38308 0.086927 -0.669231 -0.548763 3.24798 0.678759 0.993692 -2.10421 -2.40029 -2.139 -2.61549 -0.85039 -2.48379 -1.68085 1.09455 2.94499 0.0373446 1.81196 2.5229 3.07051 1.95022 3.03546 3.10546 0.522862 3.31427 0.401705 0.62794 -2.20861 -0.763249 2.29899 1.10574 0.882571 -1.23091 1.83282 -1.55904 2.52309 -1.65095 -2.9504 0.194609 -3.26183 2.63444 -2.42253 -1.3817 -2.82174 1.59383 -0.583821 3.28077 0.28797 0.619189 -1.30324 -0.0634814 -2.24329 2.35309 -2.88628 -1.58446 -2.47482 2.91957 -0.425162 2.72205 2.96153 1.48032 3.42585 -1.44453 2.20022 -2.30599 0.799139 -0.262884 0.50009 1.17623 1.65556 2.6194 -0.0839906 2.16726 2.67795 -0.397735 -2.00083 2.08105 3.02455 2.14006 2.17265 1.79075 3.38918 2.66568 -0.759344 0.136505 -2.55291 -3.08276 1.41226 0.012359 -3.3569 2.45678 2.32717 0.347053 -1.09226 -0.067444 3.38302 2.60908 -0.206804 3.38288 -1.62421 0.493742 2.87834 -0.47464 2.55637 1.13461 -0.993588 0.94909 -0.92053 2.09203 0.244922 2.33675 0.301403 3.49926 -2.1767 -1.1797 -2.73477 -1.54582 -2.40713 3.0222 2.84864 0.370234 0.621779 0.438315 -2.30947 0.471876 0.614353 -2.38351 -3.37831 -1.02836 1.56896 -3.05487 -1.10735 3.67293 0.323837 1.95347 0.254147 3.87982 -2.71792 -1.83148 -2.12932 1.4634 2.26382 1.01763 -1.50207 0.983743 0.892803 1.11527 -1.76718 2.28985 0.555243 1.43253 -2.6667 -1.35935 -1.7874 1.16923 3.42868 -0.649819 -1.84205 3.56954 3.15974 -0.0765761 1.34824 2.66531 -1.8352 -0.590502 -0.783148 0.490547 1.06938 3.71075 -1.30802 -2.924 3.14013 3.41444 -1.96668 1.82679 -0.220618 1.65886 0.0339979 0.545871 -1.35249 -1.89865 -0.7461 0.350692 0.149246 0.683533 0.848728 0.566739 -0.667725 1.75651 -2.47559 -0.551378 2.2071 1.80309 -2.40874 1.19175 3.95517 0.224973 -0.402011 2.83907 0.595951 3.36789 -2.96451 -0.668705 -3.30139 0.379987 -1.40785 2.72426 -0.84784 1.09555 -1.78066 -1.3714 -0.367045 2.92141 -2.1786 -2.51488 1.24021 0.982061 3.30856 -0.319003 3.73119 -1.21947 -2.08236 0.125838 2.20366 0.155061 -2.3994 -1.17826 1.02324 2.25844 2.30895 -2.7616 -0.949824 3.03967 0.866062 2.69372 -1.70277 -1.50599 -2.18101 -1.04336 0.126417 0.189631 1.11202 0.654875 -2.00882 -0.801443 0.0404775 1.05451 -0.0517938 2.05875 -0.0882677 -1.29971 2.60657 -2.4393 -1.16072 1.30514 3.06137 -1.57595 -2.7259 1.60199 -0.641832 -3.18567 0.17206 2.53485 -0.455599 -1.92895 -1.31667 3.47977 0.101744 0.778856 -0.284022 0.6938 2.86076 0.255719 -0.184587 0.066067 -0.750047 2.58571 0.21664 2.29896 -1.35864 2.3694 1.11506 -2.73987 1.35268 2.72983 1.73191 -1.70023 1.55793 2.36575 3.45568 3.13099 2.49807 2.25884 -3.00118 -3.25883 1.03978 -1.0584 3.43302 -1.78183 1.3941 -2.26912 0.934616 -2.80736 -2.32204 1.24227 1.5292 0.562476 2.63736 3.28889 3.39519 -2.91517 -0.573169 1.89227 -1.81204 -1.22655 1.49518 2.06187 -1.34246 -0.869682 0.243193 -3.27237 -1.94351 1.52532 -2.24573 -2.35284 0.218809 2.50398 -2.95719 -1.01064 -0.391668 1.64515 3.64305 -0.313202 1.9516 1.84503 -2.9234 3.58093 -1.0378 2.87464 2.16903 2.261 0.47396 -2.67825 1.10953 -2.04256 -3.35206 0.46511 -3.16893 -0.495785 3.0158 3.06238 3.52557 1.29133 0.520885 1.84881 -1.22961 0.937528 -0.493374 2.62374 -0.0501825 0.703482 0.863159 3.69444 2.42019 1.86717 2.79354 -0.42013 0.0855971 0.448592 -1.86723 -2.67393 -1.9255 2.0652 3.20839 1.28232 -1.48751 0.620737 -2.28151 2.26026 0.960763 -2.15777 -0.962107 2.54026 1.7946 -1.62014 -0.352884 0.533254 -0.566711 2.3267 3.19875 1.20923 -0.979808 3.31703 2.38232 -0.588933 2.26769 -2.58053 2.96877 -1.06746 0.600987 0.959174 0.671389 -0.628064 -3.22207 2.30234 2.46815 0.0396308 -1.148 -0.333329 1.4024 2.87069 1.41655 -2.57033 0.326102 -1.26655 3.74578 2.27165 0.136853 -1.99037 2.17038 2.98306 -0.373376 -0.715524 -1.79888 1.89551 3.13402 -2.95307 3.04856 -1.59353 2.8031 0.28824 -2.38711 3.45984 -1.56655 -2.47358 3.43376 0.898971 -0.466222 2.83615 0.249416 2.77015 -1.72934 -0.260542 -0.624969 1.50811 2.2996 -2.6538 0.674017 -2.82719 2.215 -1.48698 -0.225833 2.20512 1.06191 0.248963 -2.41487 -0.789108 1.27637 2.59227 0.019603 -2.30603 -1.79115 -2.72494 1.27676 -0.455664 -1.28582 -0.703798 -1.36551 3.10401 1.27795 0.430928 2.61433 1.3867 -1.82768 2.64112 0.709121 -0.221172 -2.37257 -0.550358 -2.62999 3.48341 -0.270398 -2.54955 -0.428666 -0.957578 1.56216 -1.36538 -2.15939 -0.550352 2.31076 3.43685 -0.384089 1.34994 0.997002 0.632628 3.56549 -0.424522 1.38256 -1.76438 2.16889 -2.34988 -0.00615403 0.180797 3.62223 0.227021 0.226162 -1.02308 0.928322 -0.285145 0.855164 -1.58487 1.0022 -0.810849 -1.99939 0.270307 2.24823 3.44502 0.752707 2.18102 -0.763247 -2.35997 2.80352 -1.13148 -2.11319 -1.25475 2.69404 0.78737 -1.32828 -1.32983 -0.00821466 0.963223 -1.79432 -1.84945 -0.508247 3.43485 3.26492 -2.45443 -2.34979 2.25487 -2.1232 1.05321 0.0156174 0.927035 2.75073 2.43097 -1.79151 -2.57375 -0.0141997 3.52833 -1.84852 -2.11646 2.23383 -0.207835 -1.4608 2.58838 -2.3801 2.04713 -0.795789 1.85821 2.06308 0.411149 0.245102 0.680566 -0.543821 1.13177 -0.0947635 -0.926498 1.39943 2.87036 0.788554 0.0638393 -1.1331 0.0556802 -0.334087 -2.66653 -2.14393 -2.14509 -1.95653 -2.23615 3.68132 -1.52634 0.269638 -1.29021 -0.21593 -0.8845 3.05875 2.24456 3.023 -2.56854 0.429622 -1.79741 -1.32426 -1.32932 0.0910162 -2.88671 0.624295 3.35652 0.756706 -2.48255 -3.19784 3.3203 1.64339 3.01724 0.584897 0.777398 -0.506134 -3.18564 3.48009 -1.76707 -1.21142 -2.74496 3.20401 3.33159 -1.3009 1.88132 -2.23815 -0.0156361 -3.40487 1.56576 1.94809 1.41742 -1.26733 -1.14801 2.5272 -0.844888 1.2533 2.94614 0.219101 -0.717489 1.17947 -2.83107 -0.539034 -0.569037 -2.65675 1.08541 -0.808601 0.330785 0.417822 3.32783 1.29437 -3.3801 1.18495 -2.86585 -1.89525 -2.81009 -2.61101 -3.21142 1.81717 -0.257519 -2.46798 2.10591 -0.317977 -1.89491 -0.203123 -3.41439 -1.95526 0.216236 -2.83321 -0.787071 -3.41493 -1.04187 2.4997 2.31716 -1.1119 -1.7228 0.572802 -3.23511 -2.64031 -1.24603 -3.20559 0.872657 -1.04943 -1.15037 -0.65092 1.85115 2.28291 3.21737 -0.11192 2.11988 1.11923 -1.31821 0.853314 2.26569 2.98295 3.05681 -1.34968 1.00315 1.32325 -3.00838 0.786499 -2.67783 0.644342 -0.860549 -0.933333 2.03616 -3.36071 0.112348 -0.980683 -0.820221 2.51099 -3.20487 -0.729331 2.81566 3.01345 0.673145 -0.0878512 -3.36532 2.24662 -1.48728 -0.209851 
-1.73372 -3.27898 0.894862 -0.672688 1.27809 2.197 -3.428 1.79412 1.58798 -1.51493 -1.60721 -2.11232 -2.33439 2.20017 0.539504 -0.29569 2.53572 0.593587 -0.86173 -1.69811 0.891777 -3.17435 3.36474 -0.0498731 -2.77468 0.213851 3.16759 -2.35442 3.18512 2.32364 -3.46461 2.49785 2.694 2.4309 -0.857714 -2.19555 -1.02413 2.56927 -3.33835 2.34293 -0.68341 3.48509 1.36459 -2.36111 -3.41015 1.28795 -0.294774 2.36939 -3.38066 3.04621 -1.92883 -2.48786 -0.111658 0.34183 -0.676264 2.56309 1.73887 1.71174 1.40741 -0.687224 -1.74239 -1.17994 2.26661 -1.54463 -1.35849 2.90321 -2.80328 2.72937 -3.46082 2.73148 2.04077 1.815 -1.07009 0.0594401 0.721053 0.209601 -2.78203 -1.02664 -1.44763 -0.198268 -0.131955 2.57374 1.45863 -2.37772 1.37641 -1.99853 0.198816 0.626611 -0.646847 0.105994 1.5349 0.353206 1.71494 -2.3639 -0.439724 2.47135 -2.2708 -0.183709 -3.69003 1.20548 -0.851917 -1.53321 0.41473 -2.06604 2.73104 -2.52477 2.46936 1.54857 -0.810355 0.402653 3.03522 -1.84971 0.912799 1.80263 -0.812164 -1.98143 -3.30925 2.36205 1.81761 1.34308 3.02535 -1.92085 -3.38813 -2.91319 -0.44129 1.68333 -2.66328 1.77821 -1.75065 -0.525407 3.43148 -0.852727 2.55033 3.14552 -0.846292 -2.12147 1.45684 2.41934 -0.182489 -1.94415 1.54914 -0.443351 -0.46961 0.717458 -1.9352 -1.97255 -0.892023 0.864153 2.20692 -1.22393 1.79825 -0.203818 3.07009 -1.61643 0.755987 -0.25066 0.426056 -2.83364 -2.72068 3.20052 -1.97381 -3.17301 0.796235 -2.67705 -1.48176 3.32594 -2.71914 0.128641 2.387 2.15346 1.6028 1.95815 -3.36261 -2.65169 1.51408 0.00871491 -0.00569869 2.12084 0.0439583 -1.75787 -1.72184 1.08521 0.861098 2.57759 2.99991 3.07474 -0.839835 3.10482 -3.61712 2.74936 -1.52545 -1.87618 -3.46125 3.12872 2.16941 1.6668 2.87835 -0.769373 -1.56362 0.977307 1.74269 -3.11472 2.68128 2.67351 -1.97695 0.909681 -2.56977 0.949686 2.59595 1.60278 -2.90477 -2.28321 0.0574947 -2.71473 2.87793 -3.34223 -0.817021 -0.374707 1.94305 2.80532 2.11832 -3.46196 2.88036 -0.173151 -1.98581 1.00687 2.88621 -2.68778 2.24747 1.32882 -1.77858 -3.42175 -0.559636 -2.99774 -0.250822 2.36232 2.27075 -0.0293779 -0.545065 -1.52467 -3.02073 -3.07839 -1.88868 2.2007 -0.0564935 -2.28639 -0.976985 -1.08949 -2.88215 0.769779 3.01831 1.8886 2.97875 -1.19047 2.85386 -1.96968 -1.56834 1.1858 -0.338165 -0.828624 3.1772 2.36405 1.90533 2.26673 0.914762 -1.21342 0.189894 -3.01205 -2.00296 -3.25281 3.1451 0.489497 3.69628 1.83129 -0.730702 -0.200247 -1.85259 -2.27099 0.0753682 2.7201 -1.70295 1.60923 0.0525574 -1.96891 1.55857 -3.346 3.08624 2.63166 -1.36883 2.20913 -2.37718 0.175996 2.67032 -1.41247 -1.02791 0.0161677 -1.2793 -1.42848 -3.15123 -2.64668 1.78148 3.32503 -1.88882 3.38856 -1.57303 3.18516 1.27474 0.618397 -2.64021 2.96863 -2.4907 -2.18803 1.43177 -0.963699 2.90289 -1.49124 3.48949 0.328116 -2.46926 -3.24726 1.51263 -1.0667 2.07804 -4.00354 -3.74548 0.835691 -3.27422 2.15611 0.842017 -0.330878 0.861836 -1.92136 -0.600017 2.43178 2.75605 -3.26036 1.17556 -0.683424 -1.42741 2.32554 -0.00608188 -2.80605 1.55685 -2.57784 -1.09215 3.21525 0.639559 -1.74243 -2.36447 -2.0316 1.25324 0.899716 -0.0457725 -0.796517 -4.28184 -0.494998 -2.77406 -1.54865 2.45814 -0.896636 3.62549 0.58691 -0.434793 -2.86467 -2.28629 -3.21819 -1.59548 1.01294 1.15533 2.57449 0.159962 -0.36202 2.13864 -1.25636 1.57718 1.8438 -1.61564 2.07494 -3.15775 1.73318 1.48566 0.372332 -2.22626 -0.923493 -0.422137 4.09328 -0.574305 2.2658 1.00609 0.153568 -1.73788 -1.51721 2.89321 -3.40826 -0.167098 1.94929 -2.51416 1.71719 -1.99637 -2.14107 -0.536512 0.998804 -0.594668 1.29312 -3.31016 -1.60694 -3.55432 1.02323 -4.33957 1.39642 -3.17191 -3.19904 -1.1013 -1.226 -1.15252 1.29284 -0.120788 -1.3217 1.55402 1.18438 2.49225 -0.496891 -3.16629 2.21164 -2.13277 -1.40601 3.30048 3.13854 -1.53303 -0.895077 1.31638 -3.69948 -1.32538 0.949865 -2.43797 0.124266 0.276883 -0.623069 -3.01071 -0.176351 0.491108 2.26637 -0.119278 3.48337 1.66694 2.54048 -1.93123 -2.10204 -2.493 0.257488 -1.40153 -2.7907 1.13223 -0.188601 -1.74827 0.367495 0.105674 -2.6917 -3.6052 2.26579 -3.78767 -2.35175 -0.725899 1.74478 -1.90654 -3.88742 -2.92396 1.21282 -1.83914 2.84643 0.702068 -0.457092 1.56923 1.59312 2.17134 -2.13419 0.311505 -2.43902 2.77602 0.821583 2.09685 2.73473 -1.78336 0.655318 -2.72803 1.83458 -2.30291 -1.5589 1.73119 0.0350637 -1.19863 -3.35878 1.62305 -2.65298 -0.685547 1.85857 -2.44151 3.19506 1.39415 -2.65281 1.79846 -0.919498 -0.353811 3.39839 0.597806 -0.587543 -0.245772 1.57598 1.1039 1.47615 2.89754 -2.7652 0.0243203 0.494328 1.44292 -3.07538 0.268075 -0.63072 -2.32762 -1.30105 -0.0214524 -3.83089 -1.08047 0.621525 -0.590129 -2.90502 1.21229 -2.4582 -1.91104 -0.127113 -2.4411 0.156691 -2.54705 -1.07298 0.194932 2.70076 2.86773 -1.88285 0.308482 -1.77318 0.820927 -1.36085 -1.25997 -0.147204 2.85986 2.7422 2.41175 -2.36253 -0.496991 2.28353 1.41836 -1.04351 -0.411071 0.848353 1.58371 2.16648 -1.60127 -0.581791 1.14602 -2.59618 0.916254 -3.26467 2.49003 -2.24483 1.50067 -3.19451 3.15358 -0.145172 -0.787139 -0.967329 1.16571 -1.80029 -0.63603 1.98139 -3.02702 -2.58078 -0.127794 -0.833432 -0.843533 -1.86779 -0.816001 1.33765 2.36392 -0.378499 3.29038 2.96451 1.31951 -0.0636555 3.48647 3.47014 3.31421 3.34047 -1.56627 -2.52336 -3.24799 1.14169 2.59256 0.743513 -0.98301 2.17668 -2.02756 -2.06899 2.41331 1.68073 0.474874 -2.25331 -1.33729 0.135783 2.02504 -1.54088 -0.719769 -2.84991 -1.68782 -1.39005 0.686217 -0.703663 1.0813 -2.92969 -1.3333 -2.6438 3.05342 2.59878 -2.91489 -2.93762 -2.6204 0.968186 3.31721 -2.50056 -3.14531 0.662264 0.210553 3.07312 0.211486 1.16822 -1.22966 0.254098 1.68802 0.602938 2.7262 -3.37551 -0.989537 -1.84461 0.586483 -1.70067 -2.03836 -1.05392 0.394518 -0.696302 -0.457653 -3.1367 -3.35774 1.18831 3.06295 3.02182 -2.41999 1.40682 -0.127909 0.20043 0.348539 -1.65115 0.743454 1.66521 2.96929 -2.81819 -1.80599 -1.41912 -2.49865 3.16009 1.45973 1.58396 2.42651 -0.531437 -2.54877 -3.2194 -3.29224 -2.89603 3.09779 2.5505 -0.61202 -3.08019 -0.673267 -0.340425 -0.611653 -2.16491 -3.16116 -2.46322 -3.17261 -1.06195 -0.124877 -1.90349 1.12369 0.791959 2.4519 -0.266451 -1.63944 -1.8978 -0.653734 1.43438 1.92587 2.243 -2.9543 -2.83078 3.33818 0.393702 0.447155 -3.35904 3.21283 -2.60966 0.711519 -1.89193 2.5158 -0.982127 2.14844 0.377815 -2.17386 1.65755 -0.066892 -0.149048 1.12603 3.39731 -2.53777 -3.40111 0.517567 0.891951 1.9434 0.0352484 2.88008 -1.01101 -3.19989 -2.3166 0.896929 -3.06009 -1.8399 0.911116 -0.0766653 -1.1968 -0.580335 -1.31638 -0.116802 2.31705 -1.42124 3.15267 -3.31189 2.3543 -2.36679 -1.13796 -1.89576 -0.677605 0.299851 3.24968 -2.41307 2.9692 2.03762 -0.583063 -2.99158 0.693405 -1.79532 1.67005 1.10972 1.04252 1.81602 3.09891 -2.85538 0.444215 1.87135 -0.0259701 1.18595 -0.245615 -0.297939 -1.88083 -0.27943 0.605858 2.9412 0.11072 2.91776 0.473102 3.32035 1.42861 0.339922 -2.33466 2.10959 2.98983 -1.85629 3.01907 
-0.554394 1.90917 -0.447805 2.84049 1.40523 0.471782 0.60238 2.05684 1.01609 3.09998 1.88903 -0.0870972 -0.795327 -0.294132 2.8075 -1.28855 -1.19993 -0.661676 2.26989 1.55267 -2.95234 0.998153 -2.96893 0.47821 -3.05583 1.85096 -2.01283 -1.94347 -1.51498 1.95978 2.0508 0.68438 -2.94605 1.39847 1.34822 1.89107 -1.47559 -0.855269 -2.44421 1.42955 -1.41162 -3.4439 -1.71599 2.73268 0.625977 0.556022 0.940779 -2.42751 2.58646 2.10277 3.27712 1.23523 -3.38306 -2.19724 3.42399 -0.827329 -3.40729 -1.26017 2.6606 1.35939 1.68529 2.46336 -3.15581 -3.0129 1.71685 -2.67694 2.11763 -2.72648 -2.4751 -0.793424 1.6 -0.232755 -2.39321 -3.08156 2.02011 -1.36653 -2.87866 2.82672 1.72083 -1.27675 0.455285 -1.43166 -0.865884 -1.05737 -2.12228 2.29526 0.0244061 1.67099 -0.580126 -0.52383 2.23812 -2.79501 -2.2182 0.655721 0.980721 0.43813 -2.29651 -0.377228 -2.38936 -3.04601 3.45337 -1.28072 0.971616 -2.38526 0.74982 -0.644624 -1.29966 -1.1049 2.06362 0.461302 -0.184124 0.943863 -2.65081 2.31337 2.96634 2.7509 -0.341107 2.83706 0.0465758 -2.84016 -1.1025 0.303839 3.53805 -2.23911 -2.89253 -1.33142 0.422988 2.54299 -0.281244 -0.927467 -3.06403 2.77075 0.844582 1.27892 0.293972 1.65144 0.635823 0.328487 -3.2902 -2.58852 -2.16859 2.73347 3.10073 1.8009 2.8078 3.41305 3.15478 2.35097 -1.24014 1.39845 -0.621385 -2.62467 1.71221 2.30946 2.77294 0.848594 1.86064 0.170159 1.49798 -1.31174 -1.19793 3.19221 0.34009 -1.28413 2.23178 3.04586 -2.0731 -0.962352 2.19174 1.1339 -0.577958 -2.36936 -1.56105 -0.14522 -0.841983 0.193106 2.67037 -2.61969 2.3629 -0.608076 -2.7792 0.752565 -2.50285 -1.3307 -0.425341 3.00542 1.19129 0.0777615 0.7583 2.23051 1.64678 -0.169033 -2.40734 0.320202 0.213828 1.61125 -1.97015 -1.83978 -3.07717 -3.25248 3.08834 1.49092 -1.01078 3.54178 2.11171 -2.81045 -0.53117 -0.130854 -2.50054 -0.413498 -1.79588 -2.49303 -0.392929 2.82913 -1.62365 0.824421 1.40275 2.10682 0.408428 -0.749783 -0.842358 2.19967 0.615017 2.09508 -0.603985 -3.47332 -2.16226 -0.549112 1.37819 -0.133785 1.77983 -0.76409 -2.73486 -1.46953 -1.00326 -1.94887 3.87314 1.41438 1.17046 0.0088262 3.30674 -0.255877 0.872852 -0.815405 0.886248 -1.52378 2.00713 2.34839 -2.08538 2.02467 -0.386116 -2.74659 2.14051 -0.906687 3.3856 0.540148 -2.35403 -0.367075 2.80851 -0.904949 3.02847 -2.21108 -1.11598 3.16599 -2.60781 0.628397 -2.06974 0.388449 -2.94129 0.876172 -2.06027 2.71085 2.24795 0.767813 -0.742818 1.72594 1.24395 -0.702694 -2.87688 -3.02949 1.44083 -1.90328 3.16131 -1.29272 -2.88403 3.0055 2.48017 0.316661 1.69967 3.09877 3.10426 1.71093 1.94254 3.46222 2.48167 0.14342 3.38047 1.19824 0.14653 -1.92697 0.069499 1.76813 -0.191602 -0.0716474 -2.67315 -3.32522 0.0924698 -2.74715 0.369382 -3.42274 -2.25711 3.18404 -1.92004 -0.864763 -2.20037 2.48736 -0.978954 1.65353 2.45205 3.01144 -0.75132 0.0832149 0.889344 -2.5933 2.64086 1.24663 3.30381 -2.29035 -0.436946 -3.45585 3.28542 -1.73429 -2.63086 2.80038 1.01216 -3.02677 1.66378 2.4044 2.57711 0.258114 -0.933424 -2.07104 -0.873954 -0.934205 -0.827882 -0.742029 3.56534 -2.24846 -2.50306 0.554342 0.345897 -1.24628 -2.71759 -0.234438 -1.55554 0.204683 2.19766 3.35328 3.48885 -1.12357 -2.36757 -2.23133 1.43525 -1.4493 2.41049 -0.199527 -2.18275 -1.1481 -2.18298 0.901357 -3.18981 -0.15213 3.54968 1.60463 -1.27193 0.735825 1.15919 2.54034 0.616971 3.2945 -1.94218 -1.44882 -1.05104 3.4025 1.96739 -0.915932 1.63192 -0.0424969 1.74266 -0.816901 0.609815 3.24641 1.18038 -1.03501 -2.75073 1.03518 -0.203005 3.00829 2.94867 2.11815 -2.8774 3.04153 0.845191 2.48668 0.936864 -1.96245 1.77588 3.9529 0.158898 -0.241144 1.76549 -1.56024 -1.35197 3.50298 -0.227323 -1.93927 1.0135 1.43074 0.872277 0.818212 -0.333674 3.45994 -1.22765 -1.02378 0.880503 -1.7085 0.275303 0.972261 -0.469082 2.78023 -2.13332 1.43705 2.60422 -1.18861 3.73526 2.39398 2.56537 2.48399 1.76964 1.3836 -1.16438 -1.24593 2.93513 -3.04576 2.61639 -1.47549 -3.18414 1.05977 2.14363 -1.91573 1.44162 1.943 -1.69997 2.65604 -3.23784 -1.81223 -2.94445 -2.03199 2.4182 -2.57928 1.31977 -1.89261 0.287227 -1.85286 3.34756 1.43512 1.39756 0.278147 3.42555 -2.43954 3.47021 -0.575732 -1.12432 2.61246 -1.92944 -0.799408 3.10059 3.37695 -3.17764 -2.54018 0.152583 -2.7234 2.90738 -0.420593 2.69229 -1.79717 -0.49158 2.39532 -2.23056 -1.31479 3.70164 0.256544 2.94759 3.01324 -2.70783 0.927776 1.81045 -0.750993 -2.84683 0.08813 -1.24931 -0.326006 -1.67219 -0.917585 3.31919 1.99282 -1.90742 -2.13657 -2.74225 -2.78851 2.97091 -1.47505 0.218289 -1.63567 1.01995 -0.876531 1.14349 -0.320989 0.0896686 3.88936 -0.553876 3.34606 0.865101 0.111072 3.31339 -1.92476 3.0232 0.132715 2.79811 2.56477 -0.453973 1.81075 -1.88429 0.188318 0.713036 -2.56464 -1.84036 0.954389 0.504667 2.61771 0.644054 2.82936 -1.01136 3.1764 -0.708197 0.00931835 -1.56226 -2.22925 -0.949617 3.04695 3.17152 0.163493 -0.419261 0.507756 -2.06056 1.29159 -0.499198 -2.44188 -2.80838 -2.40797 -0.264083 1.92801 1.50302 2.99269 -0.668809 -1.22383 -0.734554 1.57111 2.54024 2.85055 1.60388 0.466768 0.965439 0.199862 -0.302495 0.819374 2.27112 0.428947 3.61591 -2.49882 2.20086 0.88368 -1.76044 0.793734 0.723382 1.78041 0.184602 -0.457746 -0.990126 -0.620013 3.44854 -3.15811 3.07283 1.94349 2.95145 0.0123087 -1.65367 -0.60204 -2.81535 -0.40189 1.75498 2.71651 -0.252038 -1.74633 3.7711 0.671471 0.489124 2.1021 -3.10301 -2.61835 -1.42782 -0.638565 -0.0334908 -3.19895 -2.89504 3.30753 2.94391 2.22523 -1.25136 2.21292 0.350168 1.08891 2.46089 0.320559 3.26311 -1.53878 2.55827 1.2272 0.552412 -1.70279 -0.65959 0.0576237 -0.087106 -0.614303 0.144216 -2.71847 2.29022 -0.898079 3.50528 0.0227336 -1.0115 0.93642 -0.406777 2.41162 -2.56547 0.25877 2.86516 0.759356 -3.17041 -1.47954 -1.30381 -0.177308 1.29093 -1.17453 -2.47726 0.994281 -2.57139 3.64658 0.0450843 0.0338643 -3.06298 -2.87044 1.15963 2.51517 -1.86462 -0.442607 -1.26454 -3.11026 1.73241 -0.445472 -1.89665 -0.69929 -3.26423 -0.783912 2.9733 -2.85231 -1.60705 1.99364 2.64945 -0.0751484 -1.51127 0.681196 -1.31438 -2.009 1.19798 0.233651 -0.152539 0.856743 1.59343 -0.0372558 2.62725 0.29327 1.84663 -3.39563 -3.19063 -2.00691 0.613635 0.470833 -3.29329 -1.29218 -1.32139 -0.632547 2.31272 1.66408 -2.92611 1.26752 -1.16718 2.75582 -0.277962 -0.484881 -2.73204 1.23393 -1.76831 1.75521 -0.457227 -2.45775 -0.789878 0.11744 1.13372 0.00326398 3.48674 2.6047 -2.81674 -0.600765 1.02119 3.15147 3.47717 0.0823428 2.56531 -3.35394 -1.22016 -1.61787 2.18573 1.86848 -3.37255 -0.342268 3.21228 -0.960138 1.2638 -2.10593 -2.50659 2.58685 -2.58894 -0.775662 -0.808019 1.44284 3.13556 -0.713583 1.20802 -1.63016 -0.979243 -0.918286 1.40847 -3.21597 3.44078 -1.42129 -0.178315 -1.58918 -3.02957 -1.1035 -3.10652 -2.45067 2.07365 1.07065 2.23683 0.872012 -1.17822 0.399377 -0.165874 1.7456 1.98658 -2.63298 0.100511 1.52112 3.14358 0.00993974 -1.65426 -1.99582 2.11988 0.011024 -2.26732 -0.571691 -2.66872 2.53976 
1.08203 2.94219 -0.4506 1.72947 -2.79842 0.180817 -2.37522 -1.6921 -2.65137 0.757384 -3.25438 2.12745 -1.64425 -1.96032 -0.168018 -0.152908 -1.79529 0.816646 1.67081 -2.79682 -2.29671 -3.41124 -3.16839 -1.7014 1.79126 -0.0910113 3.22719 0.0673367 -1.4176 -2.19417 -3.04909 2.83567 1.94231 -0.0898922 2.69843 1.08201 -2.35365 2.67032 -2.59408 0.879171 -3.29496 2.45325 -3.14708 -0.923125 -1.03352 2.66568 -1.97335 -1.93279 2.15361 -0.526662 1.41248 -2.84489 2.60288 -2.30809 -2.88269 2.58774 0.604878 -2.26439 0.522463 -1.34251 -2.80751 -2.14955 2.51447 -1.70417 2.61931 2.53005 0.365495 -0.712843 0.485629 1.23956 -2.64837 -2.35028 1.85781 -0.0893084 0.971454 -0.300625 2.01288 1.56776 -3.05665 2.18138 1.98631 -2.69512 -3.06057 1.77421 3.08619 -3.20515 -3.15306 -2.19871 -3.41179 -0.175705 0.335277 -1.08094 -2.97012 3.39032 2.48339 1.4811 3.42296 3.41599 0.676402 2.96209 1.06131 2.44559 1.07949 -1.99632 -3.36787 -1.8082 -2.64509 2.59762 -2.09352 -1.27602 0.899778 1.88192 3.00081 -3.3442 3.0839 -3.47292 -1.42436 -1.05966 3.48492 0.0833749 -1.44754 0.526416 1.74142 -2.43104 -0.773372 1.84811 -2.55631 3.6975 -0.641845 2.91158 1.97023 -1.13448 1.46812 -2.72657 1.30654 -1.58423 0.749189 -0.556184 -0.855451 -2.01613 -0.917355 1.50794 2.18914 0.159259 -0.58679 0.0315131 2.297 2.77833 -2.343 -1.13894 0.55849 0.532775 -0.00938251 -1.39637 0.403024 2.62151 2.10399 3.70062 0.944548 3.04083 2.27903 -0.464777 -1.35277 -2.34287 0.512287 0.946402 0.219225 -2.45655 2.88898 -0.789968 -0.718063 -2.97053 1.68656 -1.99736 2.47453 -2.7318 2.10125 -1.39488 4.32542 3.00217 0.405416 0.254823 2.16105 4.13776 -1.89076 -0.0539799 -2.15133 -1.72104 -3.12258 2.3596 0.931491 1.93746 -3.77484 -1.36041 2.82652 -2.96938 1.94101 -1.94028 -1.2221 2.79318 -2.17154 0.344734 -0.0932772 -1.61026 -1.68899 2.4603 -0.822674 -0.116895 3.25605 0.232557 -0.422983 3.18378 1.3437 -2.38165 2.81541 -2.53196 1.64265 -3.15032 1.04999 1.46699 -0.43708 1.84207 -0.603039 -3.1927 -1.25627 1.54582 0.545957 2.31924 -1.45981 0.297814 -2.91548 -1.29782 -2.31062 -0.384937 2.26707 1.44381 -2.59741 0.927594 -2.10788 -2.12685 0.89905 2.51847 0.624892 -3.30095 3.35442 -3.22643 2.7889 0.744023 1.97893 -2.71707 0.712242 0.185594 -0.647005 -3.31323 1.14749 0.50437 -0.438794 3.04674 -2.50047 -1.30012 2.01529 1.14604 -3.12932 -0.712962 0.458542 -2.53916 4.00356 -0.618519 0.540866 -0.590066 -0.505465 2.85556 1.74373 -2.08864 -1.86325 -2.26045 1.35875 -3.41228 0.0753372 -1.96463 -2.6473 2.85499 -0.548671 2.75701 -2.85171 1.77377 -1.17942 0.338989 -2.4447 -2.82919 -1.40213 -2.97482 -2.81568 2.581 -1.00808 -2.0093 2.49854 2.33009 -0.851717 -0.16428 -1.5684 3.66216 0.0124864 2.03299 0.458823 -3.1774 -1.30305 -3.44652 -3.43294 1.54227 -0.482086 -2.63106 -0.100205 -2.8168 0.701215 -3.54083 -1.81617 -4.03139 1.02332 -2.59562 0.693928 -0.0429299 2.79101 3.25391 2.21795 -0.485931 1.29481 -2.40957 2.44415 -1.13736 0.808785 0.316055 3.3986 -3.22162 1.69755 0.543799 1.37417 2.93835 0.543943 -2.42982 -2.88832 2.25566 1.45256 -3.43739 -3.74179 -1.16357 -4.12874 -0.756143 -0.0849337 -0.516919 -1.02532 -2.4336 0.641636 -3.93477 -0.193601 1.49563 1.34376 1.12776 3.77294 0.218872 1.50507 -2.51097 1.3684 2.74716 -0.627135 1.14042 0.816137 -1.38021 1.67406 0.603352 -3.12524 1.5388 0.339755 -4.25203 0.685002 -1.45404 0.389718 0.643882 2.30432 0.145879 1.6178 0.0996027 1.10709 2.20913 0.0794999 -2.70941 0.78227 3.36922 -0.0540956 -1.99991 -2.85816 -2.98764 1.09136 -2.52292 0.0776687 3.15644 -2.2945 -0.0281817 -1.14598 0.794825 -0.223055 -1.24635 0.298918 1.11555 -2.84392 0.989772 2.17794 -2.81258 -0.596207 -1.88395 -1.83228 0.113647 1.31781 0.0817158 1.51004 -3.00612 -1.6534 2.38629 0.0189724 -2.3487 1.71015 -0.59347 1.0122 -1.33739 -0.267752 3.10854 -1.79977 0.0741574 0.782601 -2.9888 0.871786 -0.245289 2.13589 -0.749916 0.392218 -2.16643 1.74708 -4.07088 -1.6711 -3.04248 2.48576 2.55496 -2.29833 -0.415671 -3.02266 0.0342634 -1.84661 -2.11159 -0.141342 0.0329613 2.2072 2.85265 0.0374933 -2.23107 -3.08808 2.04456 -0.19786 -0.669883 -0.259477 -0.901888 -0.801297 1.46576 1.19829 -3.88753 -3.73851 -2.6652 0.815792 -0.10861 -0.161566 3.33267 1.45707 3.60491 2.62164 -1.08704 0.771527 -2.42901 -2.54686 0.288719 -0.804196 1.87107 0.43137 -1.3398 2.54772 3.16404 -1.20821 3.07902 0.0920556 -3.20085 2.59608 1.38753 -3.05055 1.15329 -1.11114 -2.77075 1.38426 2.59221 0.140156 -1.92978 3.55635 -1.58277 -1.08955 2.44961 1.14723 0.525765 3.28111 -3.46336 -2.38493 -1.25551 2.99022 2.48032 -0.280519 3.2944 0.387932 3.10258 2.82647 -2.33481 -1.83741 1.5043 -0.870422 0.287947 0.398705 3.03162 -1.15219 -1.49114 0.11019 0.49009 0.403641 -0.30609 -1.66228 -1.0746 -0.30614 3.48665 3.42738 2.98594 -3.00462 1.44999 0.550351 -1.61995 -1.59064 -0.460873 -0.481402 4.88139 -0.654838 2.77699 1.26493 1.7928 3.27558 3.38623 -2.83484 -0.713209 2.88055 -1.15454 -2.04889 0.513649 -1.56484 3.53132 -1.22841 -0.487249 -2.74572 -2.1944 0.266274 3.46256 2.01311 0.00933308 3.04796 0.181009 3.28092 1.81432 1.20825 3.27583 1.62668 2.09902 -2.03088 -2.69729 -2.43126 -1.53549 1.9602 2.93523 1.67474 -1.08528 0.23398 2.99093 1.67478 -1.76336 -1.0149 -0.306192 -0.966344 -0.231021 1.84168 -2.67546 -1.16896 -0.205184 -2.25424 0.348987 3.29388 1.42165 1.02505 -1.90455 4.40396 -1.90921 -1.99056 2.53739 -0.060335 3.92183 2.86886 -3.05025 0.139628 -3.09142 3.40446 -2.93579 -1.55353 -2.51575 0.81229 -0.171008 -0.640359 1.55682 2.51034 -2.1989 -0.376828 1.73474 -1.11963 3.54196 -1.08652 -0.120766 3.46367 0.995609 -0.179252 0.0693638 1.57367 1.78321 -2.33077 -1.06004 0.813767 1.61723 2.38475 -0.702161 0.94843 -1.91509 -0.0340224 -0.108945 2.05742 -1.22253 -0.407831 -0.3535 1.75862 1.67929 -1.79071 0.362511 0.75824 3.54941 -1.71649 0.567982 -0.52816 -1.82536 -0.715605 0.538327 -2.89171 -1.32364 -2.00302 -1.46947 -0.720646 -3.58458 -1.25362 -2.03629 1.46116 0.854424 -2.02261 3.43619 0.272067 -0.0714759 -0.91702 -0.59345 -2.58642 -0.248167 1.53112 -0.373896 3.14509 -1.61201 3.42872 -1.43607 1.43731 -2.10831 0.529431 2.34712 -0.640089 -1.49764 -2.60057 -1.74977 -2.0645 0.463446 0.515388 -2.83562 1.1799 0.941541 -0.46122 3.18039 1.69855 1.56806 -0.484782 3.27011 -3.2045 2.88057 -1.04289 -1.90912 -0.193676 2.70849 -1.2964 -2.60952 -2.15117 0.541764 2.38913 -1.06257 2.14651 3.56678 -2.72385 -0.795912 -2.03933 1.39404 0.737884 -2.2786 -0.307923 2.98565 2.63428 0.737779 -2.45157 0.132082 2.02251 2.93064 -2.98486 0.216171 2.59059 1.32168 -0.726525 3.27 0.283566 0.140113 2.93049 1.67659 1.88089 -3.44328 -0.666579 2.72121 -0.84413 3.32605 -1.79497 -2.74511 -1.08426 -1.40843 0.138307 0.208525 2.86954 0.957416 -0.192934 0.970715 -1.78887 3.10183 -0.870484 1.45099 1.06004 -1.93327 1.60569 -3.29043 -1.40362 0.758892 2.22006 -2.23152 1.43434 -0.424954 2.35001 -0.363307 2.2225 -3.08393 2.22987 1.2373 -2.4203 2.48262 -0.730869 -3.12456 3.36431 0.282454 1.39319 0.199488 -2.15918 0.965785 
