0.631891 -1.17102 0.707816 -1.4444 2.72966 2.3542 -1.42111 3.27907 0.707263 0.158067 -1.97088 2.91211 0.685554 2.19577 0.815352 -0.23207 -0.291905 1.07437 -1.75287 1.17897 -2.69709 -2.72895 -2.61019 2.04041 -1.93454 1.00401 -0.0806533 1.08525 -1.06894 -2.20185 -0.0744677 -3.33153 0.337018 1.36609 -3.42467 -3.07243 -2.57823 3.23996 1.3094 -1.50588 -0.478855 -0.149359 -2.92601 -1.32572 1.01564 2.37924 2.4615 -1.45648 -3.11668 1.38841 1.86763 2.16311 3.26222 2.63428 -0.183448 0.81556 3.15004 -1.22181 -2.19953 -3.07099 -2.5751 0.805269 -0.661007 -0.835107 1.58431 3.31903 -3.18385 -0.8961 0.385672 -0.519297 -0.673863 -1.2306 -2.29978 2.8953 -1.50291 0.712977 -0.918993 -2.11179 -0.280377 1.85822 -1.67061 -1.81663 0.159386 -0.801528 -2.74651 -1.11325 2.65346 0.240998 1.29698 2.45032 -2.10861 -3.37267 -1.18232 -1.10954 1.42757 3.31925 1.13392 0.954365 -0.858718 -1.84748 3.08097 0.02194 1.80445 0.179585 -3.40458 -2.39977 -2.29841 -1.541 0.757168 1.44316 -2.11635 -1.7913 2.91456 1.06406 -1.00749 -0.377976 2.37492 2.82127 -0.663295 -0.290404 -2.15771 -2.59987 1.38732 0.835609 3.14595 0.714688 -0.0582902 -1.79925 -2.0682 3.20201 -2.18603 -0.00589273 0.585937 -1.67887 -2.35835 -1.8448 -1.14177 -1.92561 -1.53971 1.30777 -1.69944 -3.20242 -1.39967 -1.37209 0.571533 -2.77363 -1.3876 0.1539 -2.25116 3.13749 -0.495304 1.79705 -2.7637 0.204563 -3.65732 1.48287 0.216262 -3.64134 2.6491 -2.0104 -2.47727 2.58666 -0.487172 2.18407 -1.23149 0.133544 -0.0531777 3.03028 -2.59485 -3.0748 1.98103 -0.363683 -2.96877 -1.07191 1.32804 2.25302 -0.623815 -0.63847 0.630986 -0.323366 0.873354 -0.525853 -2.74991 -0.701425 2.87728 -0.0628776 0.93215 0.494214 0.586641 2.92565 1.13392 -2.48796 3.41581 -2.66038 -2.13456 -2.8308 2.86634 -1.08794 -2.59143 -3.10969 -1.2655 0.534831 0.515882 3.22911 3.09023 -0.242442 -1.53972 -2.86656 1.76208 -2.25109 0.83777 0.148915 0.578298 1.79637 2.6544 2.06783 1.31005 2.94806 -0.882431 -0.0160919 -2.41352 1.37943 2.65663 1.56959 -2.38738 -1.63935 1.54822 -0.315755 0.00951428 2.33445 -0.613563 3.45677 -0.53498 -0.951265 -2.75578 1.49553 1.02887 1.75024 -0.174492 -1.47412 -0.183128 -2.50066 -1.53066 0.363183 1.32979 -1.08936 -0.570225 0.775886 0.486573 -2.08518 2.58734 -1.20833 3.17533 -0.345705 2.89695 -2.13392 1.06897 1.02438 -0.124201 0.47017 -0.803087 -0.374517 -2.23613 -2.08683 2.91235 2.32611 0.715723 -2.2602 2.89892 0.12612 -0.588295 1.79891 3.20331 0.501255 -0.958682 1.64258 2.46087 -2.8533 -3.19003 0.401974 -2.14386 0.976444 -2.87068 0.0889663 1.99919 1.53652 -2.71631 -0.608988 -2.80441 2.60699 2.44566 1.90692 -2.82965 -2.74083 -2.89664 1.34542 -2.51807 0.635199 2.03362 -0.729306 1.15438 3.01463 1.99314 -3.15417 1.53784 -1.56736 3.09642 1.95358 -1.0627 1.50326 0.60492 -1.44857 -2.10758 -1.02169 -3.12398 1.36718 0.374328 1.37366 -1.2627 -0.31435 -3.48875 2.99216 1.28715 -2.19834 2.53088 2.75558 -2.99388 2.82225 3.214 -2.36659 -2.21419 0.308446 1.16157 1.52311 2.73811 -1.74823 0.151899 1.91609 -3.36539 -1.11265 0.142532 2.74001 1.56605 -1.15099 -2.56982 -0.701005 -0.246106 -0.608333 2.40802 -0.761513 -0.791512 -1.51285 -0.221488 -2.41222 -3.19192 -2.74576 0.509212 -2.80166 0.538247 -3.3692 0.400306 -0.856033 1.58287 -1.99452 3.16901 2.80206 -0.867306 0.334757 3.27602 -0.969829 2.51731 -2.73291 -2.17157 1.55698 -2.62671 -2.55504 1.62434 -0.508359 0.274791 0.407635 -1.16604 0.29389 -0.472368 2.69405 3.32766 -3.18806 -0.406181 1.8597 0.9232 1.80896 1.36264 -2.81049 -0.176457 3.44418 -1.33501 -1.52176 1.06579 -0.303121 2.77706 1.83853 3.22532 1.36559 -0.497709 2.6157 2.85112 -1.75183 1.22395 0.575766 -3.64545 2.72837 1.66888 -3.45382 -2.94562 -0.828954 3.30547 -1.13951 -0.695665 3.13878 -2.33645 -2.46239 -0.0848225 3.08588 -0.802349 -0.159052 -1.35955 1.9616 -0.430943 2.3452 -2.07685 1.90611 2.26243 1.16331 -2.36438 0.310936 -3.69715 -3.25218 3.20066 1.59778 3.05187 -1.43348 1.3309 0.520902 -1.56796 -1.77854 2.57253 1.92087 -3.33131 0.94023 -0.615328 3.00458 1.17083 -0.452624 1.65996 -1.6293 0.604721 -2.27699 -2.74053 -0.554417 -2.36643 -1.10501 -2.67446 2.50549 2.39264 0.83197 -1.72065 0.125055 -3.09592 -0.542127 -2.99047 2.31347 1.50819 -2.0036 0.458595 1.50373 1.33553 0.537016 -1.84509 2.73849 -3.44747 -0.626111 0.453562 -1.14477 -1.46779 -0.986396 0.0221066 -0.791294 -1.04583 -2.36304 1.66932 -0.789614 2.63115 -3.44605 1.04416 -2.03919 2.6253 -2.79811 -3.59682 3.13379 1.71161 2.14974 -0.487763 3.35353 -2.15455 -2.83144 -2.37793 -0.0644122 1.12939 -2.71561 2.71443 -3.02587 0.261219 1.88911 2.16654 1.51551 2.20597 2.19791 -3.29288 -0.866631 0.647156 -2.25676 -3.48372 -1.32778 -2.60571 2.93153 1.44551 0.209998 1.10876 -2.18448 -0.410526 -0.408785 0.527639 1.99051 1.32235 2.03379 -2.72165 1.63896 3.0101 -0.505286 -3.46607 -0.329751 -2.77256 -3.44616 2.6809 -0.372206 2.13325 2.28461 3.30427 -2.94144 -0.238374 -3.44371 -2.58092 -2.25451 0.727678 -0.609993 2.27737 2.14129 1.25083 -1.86766 0.487604 -0.240329 -2.83246 -1.98574 -0.0721768 0.311039 2.76465 2.71853 -1.82472 -0.395162 0.153782 -3.35223 -1.53639 0.542336 -0.506019 -3.30357 1.09268 -0.0360788 -2.84784 2.98177 -0.233696 2.57109 -0.421573 -1.33244 -0.211119 0.902641 2.1492 3.1065 2.49787 -2.68273 -2.81064 -0.248976 -2.31419 0.935125 2.24008 -0.749395 0.565949 1.6249 1.7006 -3.24666 -1.35917 -2.86515 0.835643 3.06228 -2.72955 -3.22821 1.01679 2.02078 -0.252343 -1.67295 -0.609012 1.33664 1.75801 2.50199 -2.98698 2.37312 2.45309 -0.372138 0.166523 0.0553267 -2.6541 -0.946231 2.59517 0.439541 2.70806 -1.94732 0.324782 -1.66376 -3.16482 2.34024 -2.67144 2.61422 -3.39824 -1.66146 3.16937 2.09914 -1.0112 3.04243 -2.9898 2.70885 2.42266 -2.44304 0.356227 1.99698 -0.668644 -2.01149 -2.69388 0.873217 1.25794 1.86091 -0.115769 0.289283 0.224612 -1.25055 -0.527 -2.6057 0.752116 -2.55428 1.27388 -1.48289 -2.26217 -1.98091 -1.25564 -3.36326 -1.41483 -0.125427 -2.34413 -2.42683 0.427639 2.59802 -0.15477 3.36026 2.64621 -2.6556 2.84876 2.94239 3.39801 2.34392 -0.374543 3.30143 0.277779 -3.21972 -0.396067 -1.9769 1.9402 1.37714 -2.44614 3.26164 -3.55294 -2.29521 -2.87508 0.495105 -2.8726 0.196478 -1.48319 -1.47164 -3.39885 -0.873938 -3.2545 -0.952346 0.174831 0.473325 -0.167734 0.513602 -2.95774 -2.80453 -0.859108 -1.53962 2.6293 -3.46407 -1.75056 -2.30573 -2.48864 -1.76382 -2.42125 0.589779 1.66203 1.64427 -1.48359 1.94717 -1.38372 -3.24145 1.03732 2.47402 3.02463 0.78309 0.362494 2.96329 2.89009 -1.77319 -0.672907 0.9971 3.48445 -0.762591 1.33507 -2.40306 0.435671 -1.48719 -3.38981 1.71239 2.9315 0.764097 -2.09837 -2.70132 -1.54145 -3.3609 3.32655 -1.1177 0.00424003 -1.30519 -1.06324 0.563522 -2.3428 -2.99968 2.48942 -1.69443 0.1164 -1.62088 -2.62533 -0.205876 1.76913 2.87627 -0.894894 -1.46128 2.32623 2.23282 -2.96292 1.40894 1.34537 -0.561861 -2.06833 -2.20382 -1.18814 -0.899711 1.13086 0.976827 1.15778 1.02137 -0.824821 -2.9499 1.74185 -3.04723 -0.982664 3.01502 -1.84979 2.6473 
-2.33769 2.60134 1.67005 0.336598 -1.10736 2.19964 1.66581 0.817809 2.20172 -2.14593 1.95229 1.65057 -2.64182 -1.75522 1.24472 -1.40899 -2.25075 -0.106882 0.511742 3.22108 -1.75655 0.384233 -1.64172 -2.41298 1.46976 0.78699 -2.75206 2.85701 -0.103137 -2.88551 -2.01476 -1.43026 -1.30483 1.18631 1.98062 3.43567 2.8281 -0.159519 1.52194 1.31325 0.130701 -2.91523 -1.03751 1.27795 -3.37705 -2.4882 -1.45736 -2.66328 -1.95618 -1.07877 -1.25698 0.673967 -1.33434 1.55489 -3.40599 2.34799 1.46838 2.92087 -0.532527 -0.14711 1.36112 -2.3133 -3.05488 2.08069 1.82618 -1.93951 -0.666955 0.174126 -3.45301 1.36782 1.10311 -3.38267 1.99173 1.56417 -0.0188162 2.92638 0.851976 -0.694379 3.21314 1.91491 2.43756 -1.12153 2.98472 1.61965 -3.0129 2.80146 -3.19662 -3.16383 2.01984 -0.677532 -2.9425 -3.41569 -1.8283 -0.673681 -3.3708 3.10878 2.99946 -1.90159 1.99028 -1.90534 3.06113 2.11873 -0.428483 -0.950568 -2.9958 0.990526 1.698 2.74181 1.4877 -1.57324 -2.54734 -0.209823 -1.86692 -0.977963 2.21195 -1.87456 -0.568743 1.00259 -2.26626 3.40518 0.0612993 -0.656364 1.80862 1.83464 -3.22749 -0.880397 -0.832952 0.921882 3.37424 -3.30953 1.18906 -0.528888 1.93523 2.78697 3.26216 2.54511 -0.130524 1.52416 -3.28007 -1.55625 3.03099 -2.13727 -0.450162 -3.29655 1.58133 2.59711 -1.01684 1.32204 0.978725 0.4613 -3.32702 -0.453854 -2.5743 -1.55133 2.03653 -2.22372 2.55632 -1.79 -0.510031 -3.41387 1.12472 1.3681 1.9671 1.69219 -3.44138 -0.166033 1.5967 3.38234 2.84049 -3.45048 -1.73188 2.5523 3.11296 0.40644 -2.49261 -2.08333 -2.74332 -2.26151 2.94771 0.899383 2.83024 2.74742 -1.77381 -2.0641 0.337528 -2.45919 -0.489237 3.28729 2.3131 0.0620514 -0.473683 -1.39134 2.26641 1.24516 -0.817873 0.809861 -3.01005 0.797618 2.30606 2.26296 -0.573006 2.04167 -2.12591 0.984694 2.10799 -1.97503 3.06761 2.24245 0.16557 -3.6948 1.39068 -2.10088 -0.266402 2.38647 0.815408 -2.19146 -2.30976 -2.28197 2.64311 2.25445 0.573328 3.40098 -1.08869 -1.8746 -2.28385 2.60935 -2.35163 -2.46554 2.35218 2.26425 -3.17547 -0.978764 -1.72438 -0.316658 3.23646 -2.33692 -0.248327 -1.21698 -1.34592 1.77131 0.196229 -0.0923853 -1.9553 -2.27817 -0.797916 -0.382706 -2.23802 3.21689 1.80403 -1.52803 -2.76842 -2.51202 -1.6965 -0.545027 2.35794 1.64398 1.48758 2.94142 -0.843829 0.907523 -3.00254 -3.2202 -3.24125 -2.533 -3.26628 -3.7429 -0.31517 -2.06737 -2.36678 -0.689812 2.0585 0.728039 0.719786 3.1623 -1.77822 0.124129 1.47666 3.04557 -2.53955 -2.36773 2.18024 0.806563 -0.877073 -0.663148 1.16041 -0.149228 0.205059 2.71616 -0.818578 1.95359 -2.90055 -0.0359662 -2.49792 1.46301 -1.82218 3.14729 2.76287 2.73298 3.28563 -3.04129 1.16881 0.0157127 0.603887 -1.8339 -1.70731 -0.227972 -3.03531 -1.76104 -0.0485 -3.02001 -0.838318 1.91529 3.4909 -0.376301 -0.643301 0.0472307 -0.355958 2.65908 2.85865 1.8531 1.46024 -2.27764 2.62908 -3.16689 0.422856 0.960241 2.06954 -1.41017 -0.260744 1.06292 1.94199 2.7402 1.57514 2.8149 -3.41835 2.27122 0.243366 2.88914 1.19196 2.17542 1.46615 -2.87339 -2.16018 1.35253 2.54894 -3.59815 0.574198 -0.0248763 -1.53263 3.47643 -0.815457 -2.94611 3.2493 -0.268794 1.49775 2.42091 1.91942 2.16893 2.61998 -3.38792 3.37484 0.22639 -2.40091 2.93637 -3.28814 1.65574 -1.61584 1.80408 3.52833 -1.86214 -1.44635 -0.629437 -2.93484 1.04606 3.47604 0.621485 0.692257 -0.217619 -0.978381 3.47643 -2.48309 1.85811 2.86845 2.17841 2.1176 -0.634233 -1.36996 0.412503 -0.205852 -2.31357 2.3867 0.00360675 0.272846 -2.52511 0.246074 -2.41481 0.360457 -0.272459 0.562673 2.03379 -2.99516 3.00094 -3.17385 1.19159 -1.21824 -0.116424 -2.74492 -3.14852 0.805481 1.19434 1.45837 -0.0967131 0.516641 0.920814 3.07081 0.190177 -1.99268 -3.08658 -2.9665 1.95717 0.501428 1.05502 -2.50682 2.87645 -3.05802 -0.590695 -0.20169 2.24322 -1.80473 -1.76725 -2.53241 0.670845 -1.32958 3.23575 0.578432 2.01771 0.571217 1.16306 0.581996 -2.17422 -0.552719 -0.461996 -0.625563 1.80267 -2.22565 -0.287803 1.98644 -2.70707 0.543943 -1.0237 0.429014 2.16474 -2.17344 0.0784724 -3.11483 -1.95608 -2.20241 1.22171 -1.68328 1.91884 3.26961 1.9586 2.98571 -1.23179 -3.08159 1.28676 -1.57863 1.40176 -2.64646 3.0429 -0.230302 2.65812 0.80629 -1.89233 0.0219358 -2.9116 -2.32861 -1.28594 2.38407 1.39547 2.1299 2.69038 1.80339 1.33281 -1.42862 3.11171 2.68854 -0.652314 -2.43612 -2.28937 -2.58472 2.65981 -2.9258 3.46414 3.28801 -0.816235 3.1725 2.13461 0.400098 -2.3692 1.10157 -0.0457092 0.794494 0.331948 3.41742 -2.65023 -1.24152 -0.887385 1.63822 -3.05586 -1.8727 -3.09151 0.333756 -3.32817 -1.82992 -2.5979 0.852543 3.28631 0.0533735 -1.34952 -2.65568 -2.58507 -2.14942 1.5719 0.688548 1.50299 -1.49209 0.788734 2.58909 2.93997 2.69885 -0.320807 1.33718 1.56039 0.125835 1.30468 0.315763 0.114608 0.362781 -3.06511 2.6543 0.273082 -1.83207 -3.06141 1.495 -1.77675 1.10798 0.949852 2.19631 -0.207061 -2.02704 -1.68754 -1.9052 -1.19787 0.237455 0.48574 1.38417 0.476314 2.08224 0.473358 2.41356 1.06302 0.776463 -2.32598 0.807676 1.60063 -0.788739 -1.86224 -2.20485 1.27993 -3.57877 -1.79555 2.66141 -0.905883 2.02692 -1.80768 -0.0272616 -0.907178 1.22845 -0.0735927 -2.19704 1.34357 1.74085 -1.92252 2.03689 1.96487 -2.17577 -3.0536 -1.992 -3.26235 1.70763 1.38068 0.960025 2.45642 1.71376 0.44165 0.585334 -0.362353 -1.75205 2.15795 1.70176 -1.77879 1.05024 2.37935 1.6596 -0.074459 0.0751451 -1.51454 0.210183 3.51181 3.26931 -2.73047 -2.63554 -3.3358 1.33561 0.212089 -0.0710658 -0.722702 -3.08976 0.75599 -1.90976 0.994956 2.15031 -3.56336 -3.28149 0.589383 -0.865137 3.07774 -3.17422 0.0484484 2.28403 0.749542 2.22541 -3.69264 -1.30108 -2.91235 -1.47504 -1.66561 2.97842 2.61469 -1.52085 -1.80389 -0.129636 1.69897 1.55594 0.365922 -2.02341 -2.65324 -2.53565 -2.41469 3.4332 -3.22068 -2.37314 1.58939 -3.08512 -0.794315 -0.664702 -2.93828 -0.769333 -0.491184 -3.08807 -2.86446 1.86269 -2.29079 -0.989673 1.1965 3.03563 2.32367 -2.37131 -0.103565 1.37782 -3.08932 3.46351 3.10813 0.656147 3.21055 -0.992385 -1.95749 -0.785775 -0.4359 -2.03019 -2.71711 2.64647 -3.36308 -2.07416 3.40693 0.866365 -2.31101 -2.26702 -1.87323 -2.18422 3.17878 0.391885 2.46853 2.38249 2.94424 1.05702 2.51839 0.399256 -1.5543 -2.51332 -2.70482 0.852305 -0.830215 3.3526 -2.45092 -0.455247 1.29606 -0.267306 -1.88592 -3.21418 0.0376476 -0.116692 -0.987601 1.45911 -3.31079 0.315872 -0.764383 0.103058 -0.925182 -0.402387 -2.06894 1.87901 1.56424 0.191122 -1.27467 -1.43065 -0.727244 -0.441427 -2.17571 -0.704888 -2.57753 0.751115 -2.40668 0.931559 1.30595 3.07192 2.17565 3.34536 -0.0762253 0.256262 3.45546 2.70912 -3.24641 -2.32903 -1.65284 -0.282788 -0.647457 -0.310458 -2.16626 2.82701 -2.55478 3.39882 -0.30705 1.39035 -3.20365 -1.72293 3.27773 0.265813 -0.549063 -1.47858 2.13794 2.8998 2.82825 -2.37983 -0.94818 1.49493 0.575403 1.20331 -1.07638 1.2668 -0.685096 -0.413057 0.405965 0.0148428 3.29082 -3.13301 -3.26586 1.22966 2.23901 -0.588628 -1.81747 3.19328 3.47552 
-3.27529 3.44828 -1.87069 0.518399 1.1088 -2.97753 1.86406 -2.60624 -1.187 -0.529916 1.46621 -2.52673 -2.45768 0.637503 3.23705 -3.02656 1.68431 0.547725 -0.114524 2.3462 -1.98282 -2.34156 -1.08703 1.84397 -0.319898 1.19069 -1.64281 -0.340941 1.06161 -2.75145 1.59147 0.311012 1.75286 -3.33078 -1.92486 -3.09071 -0.500716 -0.754568 -3.38007 -0.36177 1.47247 -1.98517 1.77143 0.215907 3.31143 0.131455 1.74519 1.17271 -1.29991 -1.86543 -3.18047 -0.132453 -3.38841 -1.76893 -3.48556 3.46845 -0.183159 1.07322 0.781545 1.28453 0.756134 -1.9838 -1.85521 2.49964 0.660137 -2.88049 2.31051 0.50933 0.398541 -1.96927 -0.875888 1.88161 0.458221 -2.97851 -0.638673 1.83058 2.27155 -0.45823 -3.41011 0.268447 0.327375 -0.910717 2.66196 -1.3577 0.223241 -3.44753 -1.78186 -2.24926 1.20785 -3.36291 2.65219 3.37761 1.8872 2.01049 3.27903 -2.35242 1.96504 -2.76996 -1.19097 -0.608092 -0.364282 2.74161 2.52272 1.03616 3.19048 -1.9997 2.43484 -0.18998 2.23377 -2.61981 0.995565 2.16372 -1.26627 -0.52946 2.0752 0.411716 1.79684 -1.29249 0.822985 0.807033 -3.02889 2.73857 1.23521 -2.73615 1.69425 1.97503 3.37044 -2.00995 2.16379 0.295898 0.431698 -3.0867 0.109934 -2.7504 -3.23896 1.32467 -2.89133 1.23859 -3.48117 0.565761 -2.43414 -0.750862 -3.20153 -3.49157 1.91017 2.46719 -0.647774 -0.744499 -3.16034 1.62818 -0.0380972 2.24032 3.57417 0.26864 0.484171 1.52719 3.33027 1.83124 1.66329 1.28649 -1.8393 -2.22669 2.31493 3.1907 3.00966 -1.46018 0.732808 2.67579 -0.0811187 -0.613009 0.0116222 -3.42067 1.00859 2.7907 -3.27001 -2.55442 -0.621338 0.773369 0.850901 -1.38414 2.19996 0.552791 3.72118 3.70891 -1.57512 -0.205054 2.39877 1.7126 1.70581 -2.6345 -1.54723 -3.43553 2.92834 -1.65323 1.0811 0.623931 -2.79847 1.87019 -3.31013 -2.28604 -1.75944 0.413003 2.91801 0.800039 3.21321 -2.76096 -1.26064 -2.74508 0.548717 -0.501431 -0.359967 0.358593 2.97155 3.01045 0.243423 0.310644 -1.06888 -3.31763 2.75714 1.31367 0.0640664 3.45153 0.211971 2.39994 0.867493 1.33687 1.81144 2.23061 -0.538275 3.01513 -3.13455 3.33295 0.931753 0.675982 3.24934 2.90126 -2.2146 -0.785363 2.85918 -2.40796 0.765769 1.5744 -2.85064 -3.04073 -1.8687 -1.12039 -2.24783 -1.84515 -0.112555 -3.02337 -0.728696 3.03844 1.09871 2.85803 -1.10566 2.68213 0.057503 3.54487 0.72092 2.82295 1.67863 0.296672 -0.850196 3.24783 -0.391303 -0.141477 -0.362691 2.00698 -0.714561 -1.62208 3.31212 -0.304588 1.60573 2.67302 -2.86388 1.09798 -2.17469 -0.923051 3.23505 0.581943 -2.86393 -2.01928 1.55844 -2.54911 -0.708095 -1.28209 -1.85739 0.516212 -1.40048 2.24143 1.36515 1.97401 -0.914135 -2.82094 3.54626 -1.11237 1.85536 -2.77422 -3.4614 2.47317 2.97558 -1.12632 -1.82268 1.33477 1.13416 -0.92897 -0.0748495 2.85085 1.81747 -2.21339 3.01343 0.269348 -0.107313 -0.763769 1.57033 0.895015 -0.0838652 -2.26923 3.27687 -2.05472 -3.13677 0.207172 2.64536 1.55678 -2.33574 1.66084 -0.285349 3.01545 1.83459 -0.310381 0.256703 0.323763 3.01974 2.54236 2.08389 -0.575125 0.633591 2.02126 0.452861 3.32078 3.33995 1.12873 0.430612 0.447204 -0.844617 1.10749 -1.90743 -1.43021 -0.374484 1.18403 -1.19523 1.41445 1.86828 1.39191 -3.06967 -1.70898 3.20042 -2.8057 3.18296 1.7466 0.284362 1.61739 1.63133 -3.32581 -0.188914 1.50622 -1.87644 -0.66856 -2.51219 3.19465 0.379622 -1.43478 0.616013 2.84705 -0.542531 1.18235 1.50872 -2.36417 2.54372 -1.61115 2.75977 -1.06796 -2.22221 -1.88112 0.296786 3.416 3.07987 0.352642 2.21768 0.892607 1.5186 3.35135 -1.07677 2.09124 1.69109 2.34762 3.3138 -2.9364 1.2059 0.0352192 -3.32314 -2.33136 1.34091 -3.30655 -2.55732 -2.78248 2.66261 -3.3357 1.58458 -3.65028 2.4419 1.68426 -1.90349 0.824222 -2.18501 1.16957 1.04059 -1.19282 -2.36285 2.93689 -1.51178 2.10068 1.71387 0.640528 -0.52672 -0.374758 -3.11194 0.921008 -2.78614 0.844233 2.55108 2.85894 1.90989 -2.99659 -1.64338 -2.4884 1.11809 -0.421478 -2.78596 -3.04403 1.65986 -2.45463 -1.51693 -2.41438 -2.12284 -1.95007 2.24491 1.82469 -2.50308 -1.84721 -0.273833 0.563248 1.76775 1.02262 1.67371 -1.62445 -1.08724 0.765376 0.466512 -3.13058 -3.41333 -0.559863 -3.08118 -3.03188 0.0236649 -3.13316 2.21171 -2.06101 1.1246 -1.6787 0.841595 -2.77718 -0.0798692 -0.506066 -0.221133 3.34223 1.69512 -2.14908 2.94391 -0.154939 2.83041 0.154642 2.98319 -2.16291 2.23334 -0.089863 -3.3292 -0.94895 3.36429 -0.543564 1.74057 -0.246166 -1.35419 -1.24153 0.555199 0.353913 -0.825349 1.31287 3.02276 -1.32805 3.41555 -1.4157 -0.85837 -3.42944 0.594652 0.560106 -1.1304 2.19557 -2.79904 2.49704 -1.51679 -2.72958 -3.13219 -2.98308 0.30745 -0.827225 2.80327 3.36642 -1.52307 0.291599 -0.599466 -0.531243 -1.21021 0.131356 3.29049 -0.413614 -1.91857 -3.40988 0.0493217 -0.960336 0.843167 3.48425 0.973737 3.38227 -3.06224 -0.990597 -1.55742 1.38849 1.42162 -0.624701 0.91355 -1.72182 -0.492965 -0.595729 1.93455 1.02 0.27441 2.30808 0.805945 0.813452 -2.29421 0.0667287 -3.0617 0.556987 -3.12081 2.09605 2.37378 -3.16029 -2.526 0.61799 2.48417 -3.25438 2.50725 -0.761858 1.06967 -0.0657502 -2.33537 -1.06938 -1.79574 3.38238 -2.58497 2.41393 2.41579 1.59222 2.34347 -1.77694 0.616783 -0.165964 0.869079 2.70538 -2.50091 1.93831 -2.77668 -3.44981 1.26544 -2.92037 1.27524 -2.54763 -3.22979 -1.23693 2.77333 -3.3512 -1.39427 -2.23653 2.09711 3.44981 -0.234777 -2.27353 -0.972751 -0.6779 2.2502 3.22593 2.01682 3.74671 -2.45436 0.71853 1.15204 -1.58076 0.624642 0.628396 1.76406 -0.195539 2.19415 -1.71158 1.72124 2.55022 3.03288 0.197791 1.15626 3.00882 1.18535 2.8012 3.23384 -0.613265 1.56628 3.06521 1.93173 -1.66865 -2.40489 -0.654399 -2.57257 1.24138 2.17657 0.46127 -0.887428 0.0853318 2.74662 -0.763074 0.300266 2.63484 -2.76449 1.48532 -1.64835 1.41188 3.19939 -1.01476 -1.2878 -0.978642 2.94854 -2.51971 -0.54266 2.97304 -1.71149 2.32946 -1.6156 0.438727 3.248 1.74665 1.87014 -1.52841 -1.26184 0.508472 1.5766 2.55874 2.19737 -1.46566 0.564881 2.62856 0.960244 -1.14882 -2.67531 3.49823 -0.0823064 -0.613115 -1.67879 3.1746 2.1579 -2.69579 -1.04618 -0.841132 3.32041 2.64402 3.10313 2.73497 -3.18354 3.33077 -1.76071 -0.934026 1.81043 0.596958 -0.945262 3.10014 3.39238 3.2942 0.472891 0.874978 -3.10281 -0.490243 1.84469 3.36433 -0.145808 -0.2807 2.79001 -0.77796 0.145497 0.674625 -1.18958 -0.950895 2.55328 2.20078 1.61082 3.20785 3.23621 -0.191666 -3.14036 3.09501 -3.34157 2.35975 -1.27532 0.121464 0.675054 2.80942 -0.984863 3.08468 -1.2166 -2.98954 1.41556 -0.570903 2.85258 -2.5596 1.39455 -2.83889 -1.7791 -0.528681 -1.09091 1.27021 1.34265 -0.192566 0.886169 -2.34762 1.59063 1.48999 -0.989292 -0.563539 -3.08963 -3.14715 1.64238 -2.2876 -0.568231 -3.09782 3.44328 3.42811 1.38519 0.186987 3.35494 -0.894047 0.902566 -0.898078 0.876337 -2.31215 -1.04686 1.4252 0.958862 2.59235 -3.03043 -3.18624 3.02617 0.808964 3.23577 -3.16502 -0.0196148 0.985443 2.93403 -2.8654 -3.32905 -0.76544 -0.143324 0.0559557 2.40414 2.62952 1.3385 1.40718 1.93002 -1.77432 
3.18315 1.21422 2.05201 -0.648686 0.588902 -1.79956 -1.69107 1.29385 -1.25564 2.93658 0.498105 2.09436 0.881852 -2.70043 -2.20321 0.956517 2.44089 -1.601 -0.87326 2.48052 -2.26349 -1.88011 3.34508 -2.28895 -1.02377 1.2605 -0.291621 3.35848 -3.3564 0.485341 0.0336644 -0.445979 -0.112595 3.46746 0.796671 2.44802 -3.22805 0.0147221 0.50209 -0.673853 0.529583 3.05563 1.80238 -1.99425 -1.96429 -0.205127 -0.421492 0.973355 2.69818 -1.51994 3.38879 -3.05502 1.29609 2.68998 1.87341 -3.32404 -1.79819 3.22343 2.27799 -1.73301 -0.69736 -2.74192 2.58944 -1.65294 1.15609 1.78247 -0.141021 0.661418 -0.902857 -3.21961 3.23819 1.69095 -2.42359 -1.601 -3.12572 -1.95225 1.77238 -1.44064 1.40924 2.64943 2.76646 0.11022 -2.2694 0.844227 -0.623648 2.45729 -0.138481 -1.8529 2.04725 -0.278254 -3.28806 1.99373 -3.42417 -2.42343 3.02432 -0.401551 -2.49127 1.71802 1.30183 -0.930994 3.13021 -2.24199 -0.54243 -2.31555 -0.548979 -0.770633 1.33001 1.89762 -2.69397 2.59944 -2.39354 -1.01577 -0.00746932 -2.67023 1.76284 -3.19326 0.0269405 -1.13619 -2.51101 -3.13025 2.6731 -3.28603 3.38036 1.87598 2.77083 -0.9978 0.373644 2.92837 1.2753 1.49347 2.09876 -1.10421 -3.32653 -2.89539 2.11012 -1.84714 -2.93192 -1.66235 -0.0925823 1.51675 -0.667269 -0.776219 1.25472 1.27578 2.3334 -2.13881 -0.551047 3.49127 -1.60421 2.93645 -1.27651 2.08488 -2.46842 0.0228012 3.3161 2.09479 0.743783 -1.5579 2.76956 -1.44989 1.81768 -3.08692 3.01798 -3.08338 1.85632 -1.9045 -3.20788 1.03691 3.47229 -1.83222 2.91166 -0.0820326 3.33284 2.45109 0.788466 -1.01846 -3.0168 2.1791 3.82683 -0.544607 0.284032 2.09883 -2.71173 2.42172 -0.396231 -2.51081 -1.20871 -0.552527 -0.961665 -0.0186457 -2.65547 0.305248 -2.22918 1.85633 -3.49649 0.516101 2.03298 3.34386 -1.6972 -0.790776 -2.6737 -2.15915 2.671 1.16734 1.72843 -0.762148 -2.55464 -2.78165 -3.27486 0.123645 0.618879 -3.3267 3.04942 0.646153 -1.86422 3.28351 -1.46491 -1.56393 0.935521 3.33528 -3.51643 -3.19079 2.12279 -0.551148 -0.41797 1.96625 -1.19018 -0.0252868 -1.79679 -1.70077 1.90152 -1.24834 0.200625 3.14146 1.29271 -0.72341 0.262389 0.371143 -2.916 1.24502 1.80937 -0.557243 -1.48978 -0.0400516 -1.42111 -0.402906 3.08224 2.45314 -0.59059 -1.49147 2.0395 3.37477 2.18826 -1.71299 1.58694 1.23547 -2.5651 2.79825 -2.64905 -0.665794 -1.25506 -3.69173 1.86232 0.718385 -1.74884 0.922754 -0.950805 2.75513 1.69909 1.48828 0.283545 -2.93498 0.741974 -3.61657 1.09996 -0.592025 1.11839 -3.4452 -2.90683 -2.44245 -0.011993 0.787892 -1.07808 -0.742058 -0.553621 2.0847 -1.0077 3.24352 -0.0646804 -2.07215 -0.115516 -0.912342 -2.72026 -1.11836 -1.261 -2.41718 0.19262 -2.17962 -3.2064 0.296018 -1.87348 -1.29916 -0.709879 -1.15989 -0.851064 -2.04024 -1.36362 -2.48263 -3.13801 2.29558 -0.313823 -2.66223 -1.57537 -1.83268 -1.67389 -2.009 -1.24059 -2.66727 0.185594 -1.98535 -2.41058 2.60264 -2.66714 -0.361151 1.82903 -0.101553 -0.976513 -2.29587 1.06991 0.363646 2.40389 2.21323 1.77002 1.71801 1.22376 -3.48422 0.578943 -0.622571 0.0421118 -2.86712 0.942322 -3.29522 2.53448 -1.44697 2.45299 3.02152 -0.803363 2.30518 0.463976 -0.797743 0.0881398 -1.06811 0.186856 1.37692 0.0514691 -1.5642 0.174112 -3.32499 3.09632 -0.259197 -2.65678 -0.894417 -1.94218 2.39356 -3.4014 -3.36675 1.54505 1.43734 0.0958229 -1.84118 2.9496 0.949724 1.10893 2.94914 1.5194 0.0569049 3.37136 1.00244 -0.0407675 3.80628 -2.7299 1.07086 -0.98861 -2.55607 -1.58982 1.13226 -1.12354 1.03117 -3.32541 3.28872 0.455065 -1.82793 -1.09931 1.07864 -1.49623 2.30491 0.598443 1.92066 -2.44835 2.65755 2.08322 -1.3915 3.5054 1.96723 0.435549 -0.427262 -0.887823 0.765364 1.79063 0.955687 -2.09964 -0.308838 -2.8709 0.848434 -0.523941 1.32209 1.35295 1.99894 -2.09286 -0.947975 -1.60532 -2.56108 1.12015 -2.07924 -0.689153 1.88032 2.11392 -2.57956 -1.64335 -3.21523 -0.25672 -0.510263 1.00415 -2.82236 -2.68331 1.71711 -2.03999 -0.301929 3.43588 2.70816 -2.06617 3.12807 -0.0208442 2.55688 1.93949 -3.48256 0.287263 0.641314 -3.46143 -0.358175 0.733432 -0.36624 2.19764 -3.34247 -0.282857 -2.86967 -3.55225 -3.01618 -0.916187 1.8403 -1.18473 -1.78215 -2.31429 2.73662 -2.44417 -1.48652 1.32672 -3.02576 2.96047 1.94137 -1.50935 -1.77474 0.0442256 1.30907 3.42372 -0.529993 1.24266 2.72862 -1.31178 2.55951 1.14693 0.171573 -3.24836 -2.74901 -2.78017 -2.10967 2.21369 1.77913 -1.32331 -3.32588 -2.58985 2.53718 2.79258 0.656034 -3.33449 -1.02185 -0.452021 -0.223825 1.27673 -2.2997 0.158644 -0.892352 -1.01117 1.10207 2.22631 -0.121225 -1.24872 1.69199 -0.821604 0.731969 -2.11373 -2.24112 -3.48131 -2.01871 1.21936 -1.4877 -1.52372 -0.211449 1.52815 1.37673 2.27247 1.7114 0.743882 0.389983 1.9908 -2.09907 -3.26124 2.49623 2.62925 0.709409 -1.68777 -1.7095 -1.13698 -2.32773 -3.26011 -2.97704 -1.85119 1.79614 0.667475 -0.525024 0.120389 3.19832 2.94301 3.16649 3.16869 -2.46486 -2.71448 0.965244 -2.61593 3.04315 0.287415 -0.826875 -0.0162337 -0.862635 -1.62516 0.443251 -0.140141 -2.06147 2.38966 1.64341 -2.08382 3.41461 -1.16381 1.42342 -0.976901 -2.7055 3.03326 -3.36628 2.49414 -0.860109 -1.85001 -2.95035 -1.42233 -1.65123 -3.32749 2.12625 0.27728 2.99664 -3.15651 -1.57964 1.76519 -1.72182 -0.396618 1.24749 -2.08111 0.596584 3.16667 2.36885 1.44331 1.23163 -0.0815489 2.89094 2.23826 -1.80271 -3.34654 2.48775 -0.668872 2.57506 2.26808 0.582395 -2.58553 -1.52566 1.24634 3.18559 0.830824 -0.263682 -0.764921 -1.00258 2.20292 -1.40746 -2.56653 -3.04067 -1.65439 0.756222 -2.80915 1.63825 -2.85867 -0.464018 3.38585 -3.47494 -0.98916 1.41619 0.129846 1.50831 -1.9707 0.338166 -0.424484 0.677477 2.26489 -2.58556 3.1318 -3.19463 0.506739 -2.88212 -0.331682 0.942653 -3.26186 -3.34434 -1.18069 2.28905 -1.17751 -0.605503 -2.70799 0.00816373 -2.85397 3.10234 3.34292 1.23587 -3.36131 0.400076 0.401508 -1.85567 -3.38303 -0.402676 3.44167 0.707232 1.9823 2.80902 -2.33363 -2.34904 1.83072 -0.65095 -1.50665 -1.55966 -2.77819 -1.90258 -3.21235 -3.46441 -2.18199 -0.62753 2.93235 -3.15295 -2.48765 -2.34515 -1.34078 -0.0105904 0.0995348 1.13102 2.90865 -3.22811 1.45014 -1.72646 -1.83102 -0.373596 -1.94338 -2.68282 2.51986 2.87011 -1.18888 3.1252 3.15719 -2.06645 -0.40582 1.43771 2.46013 1.95439 2.93171 -1.38798 2.19593 -2.17078 -3.28859 2.4441 -0.402224 -0.314051 0.0394175 0.613611 2.98988 -2.84655 2.36729 3.17815 -1.98054 1.6956 -1.87927 2.9169 -1.55363 1.46309 -3.05478 -0.12819 2.25886 -1.52949 0.341901 -1.95876 1.32948 3.20719 -2.11756 1.48397 0.948899 -2.09002 -2.61984 -0.0268506 3.08547 -1.98132 -1.95253 -2.57343 -2.56006 -2.99948 2.75315 -2.7201 2.78243 0.764323 1.78214 2.00489 1.81718 -2.1488 -2.13909 1.63022 0.16878 0.840954 2.22141 2.82152 -0.521492 0.681609 0.280063 0.355095 -2.33104 -0.955583 -3.35553 -3.33825 -0.114565 -2.67559 0.601024 -0.453758 -0.909381 2.87846 1.20964 0.912635 -1.02133 -1.50472 -1.49801 0.856168 -2.9774 -0.938201 -1.30607 1.03432 2.73266 -0.162066 -1.01173 -0.59716 -1.91053 -1.5519 -2.17559 -1.35131 -0.55878 -0.998309 
1.21584 2.38376 -0.174753 0.01765 -0.598416 -2.90147 1.26187 -3.16476 -0.179361 0.694706 -0.237538 1.71007 -1.21114 2.11005 -2.41741 0.325676 -1.4671 -0.822228 -2.53141 -3.12268 1.89184 -2.9609 -2.08769 1.9273 -2.88758 0.856946 -1.36862 2.03825 -2.1284 -0.84968 0.256667 -1.17905 -0.384796 3.36562 2.84116 2.54603 2.01246 0.886709 1.13259 -2.8672 1.93601 0.145268 2.79117 -2.38439 -2.83183 -2.46537 0.90943 1.31228 2.14571 0.710428 -0.666205 2.71987 1.76338 -3.27882 2.92059 3.41613 2.87017 -1.16125 2.24495 -0.0809026 -3.27972 1.1653 2.69069 1.98337 0.15548 -2.80853 -2.44816 0.00185103 2.14707 0.100739 2.40362 2.90739 0.0609758 -0.47505 0.619294 0.402917 3.08179 -1.1009 0.553446 -0.110701 2.27984 -1.52894 -1.47737 -1.94373 -1.30846 1.69739 2.07905 -2.02901 1.71247 0.99776 -3.0241 2.758 -2.9784 1.39302 -3.44733 -0.75096 -0.920149 3.4377 0.241457 -2.55992 0.469883 1.87723 1.83194 -1.21808 2.85575 -2.42266 0.0958792 1.48424 -2.03418 -3.12063 0.86043 -0.710933 -2.63031 0.691755 -2.57152 1.03595 -0.451751 2.06179 -3.24861 2.38688 -1.9283 1.52749 -2.85528 1.79023 2.52 3.62772 1.6581 1.49836 -1.22924 0.308618 1.95311 3.41424 0.625028 1.14078 -1.7979 -2.96429 -1.31101 -2.30437 -0.403365 -2.25006 -1.73262 2.43202 -2.90293 0.635799 -2.59025 1.16903 2.01696 3.32663 3.16633 3.14522 -0.870993 1.84842 -3.14262 -2.78633 1.08225 3.25961 -0.252325 -2.26489 -2.21034 0.724565 0.398104 -2.54511 -3.05025 -1.73678 3.29302 0.563254 0.22008 3.13216 2.65802 0.463266 -1.04518 2.69966 -2.0259 -1.56288 1.319 -2.41993 0.816731 -0.666 0.4294 3.00781 -0.16522 0.950047 1.99625 -0.757782 -2.91353 -1.03639 -1.04058 2.36764 2.11563 0.536783 -2.68809 -1.97211 0.862407 -3.46719 1.82501 -1.13591 -2.63143 -2.69365 -2.41174 -2.46539 -1.02212 2.75509 0.763549 -1.8197 2.10599 -2.93019 -1.84732 -0.84507 -0.828324 0.252854 -0.365021 -1.59179 -0.104097 -0.244952 0.397945 -1.24477 -3.26476 3.33276 -2.21947 -3.6001 -0.888499 -1.62259 0.962718 -2.12995 3.22939 -0.81953 0.762404 2.43399 -2.58592 3.34464 2.25335 -0.673851 1.33179 2.31266 -2.58501 0.0100367 1.41224 1.98476 -1.32349 0.690624 -0.272804 0.347354 0.329815 -2.12755 1.97569 2.15668 -3.05831 -3.15298 -3.63801 0.522037 0.52462 2.15621 2.86403 -1.65413 -2.25276 0.658823 -1.09703 3.3763 -0.499272 -0.948348 -0.329401 -0.296546 -2.74359 -0.0835252 -1.74573 0.913809 -2.28294 0.402307 0.984369 1.27576 -1.84601 2.03665 3.13204 0.536414 0.70901 2.66199 -0.871225 0.526556 -2.40305 2.15093 1.83356 2.06373 3.4941 1.54075 1.66329 -1.03436 1.55803 2.19566 -2.11242 1.34556 0.20925 -0.575836 -0.101448 -1.28232 -1.76204 2.68194 -3.32035 -0.512897 0.229799 -1.24774 -1.2406 -1.79299 1.69839 0.921501 0.109579 -2.7951 3.3384 -1.96812 -0.27139 2.62701 -2.79583 -1.86011 3.21728 -2.3534 0.405032 -2.71502 1.18352 -1.4155 1.69326 2.76551 -1.18912 2.77007 -1.55763 0.935307 -0.922373 -0.0838302 1.33777 2.21627 -0.853066 -1.67134 -0.768836 -2.92935 -2.30601 1.76355 2.79412 -2.98303 3.33875 1.33152 3.432 3.4979 -2.33507 -0.770877 -2.65779 2.31002 1.05856 -1.77954 -2.23353 1.41786 1.81504 -1.57547 0.75329 1.01827 -3.97669 1.42362 -1.9949 0.125752 2.43502 -0.789367 1.52295 -1.4917 0.944985 -1.55866 -0.494252 0.342475 -2.50341 3.08781 3.35415 -0.383729 -0.0476911 -3.07366 -1.05746 1.49914 -2.01097 1.21388 -2.7775 1.94826 -2.81972 -3.14887 2.46175 1.33485 1.26256 0.966934 -2.89106 1.29678 -1.05421 0.627232 1.79679 -1.88897 -1.3347 -2.34348 0.0853711 0.689242 0.742804 -2.77535 -0.0772182 -2.02734 2.83021 0.527887 2.20017 -1.20166 2.69353 1.25382 -0.240214 0.686965 -0.957506 -2.40888 -1.07896 -0.444615 2.29667 -1.92088 0.413669 -1.67403 -3.49968 -1.76991 0.700892 2.0747 -0.473849 -1.52259 0.501434 -2.03553 2.08652 2.00513 -3.33487 -0.276367 -1.69224 -2.22584 -1.45984 2.3273 1.76478 -0.667665 -0.302641 -3.47393 -2.42394 0.848616 -4.00984 -0.293696 -0.931095 -1.52739 0.631023 -3.13558 3.07377 1.84027 2.63511 2.45409 1.81463 -0.523086 0.662011 -2.77721 1.05465 1.56411 0.627096 2.96528 0.392393 -1.453 -1.83769 -0.504167 2.81641 1.55752 2.04614 2.52463 2.38261 2.2335 -0.982524 -3.35493 -3.26274 2.00243 -3.01457 -1.09938 -2.129 -0.662325 -0.243111 -1.78589 -3.34997 -2.18378 1.3175 -0.176404 -2.29864 1.20835 -1.91591 0.548169 1.55838 -1.38498 1.25634 0.413825 -1.9141 -0.934261 -2.93866 1.86145 -3.86727 0.789271 -3.73556 -2.34862 -1.67466 0.593428 0.0058105 1.32598 -0.711725 -2.31193 1.89002 2.48907 0.458731 -2.47713 -2.36785 -1.80799 -2.61377 -3.0813 -1.4694 -0.693434 -1.17999 2.65383 3.55572 -2.96016 -2.44277 -3.26198 -1.73437 0.722278 -2.09709 1.16242 -1.87278 -3.19381 -3.51937 -3.15491 0.193541 0.803748 2.07969 3.20401 3.26591 -2.55823 -1.53811 -3.19473 0.95192 -1.70243 -0.560351 -3.42552 -3.18577 -2.44332 -1.35629 0.81202 -1.40984 -2.98884 0.822134 -1.32193 -1.9271 -2.43907 -2.877 -3.29967 2.36767 2.79489 0.913364 1.54402 2.19017 0.142857 2.67187 2.03875 -1.79102 0.283491 -1.22937 -2.42036 2.41683 3.20209 -3.45371 2.10477 0.614419 -2.50546 -1.08617 2.67615 -1.15104 3.92304 -2.9993 -0.528854 0.065704 0.533263 -3.14541 0.879704 -0.744228 0.268188 -0.166065 3.09216 0.714389 -2.2941 3.0143 1.55404 -0.720525 1.19659 0.0610241 2.06551 -3.44468 1.79627 1.60272 1.64468 0.232821 2.62791 -0.918784 1.11078 -0.875936 3.56443 1.72424 -1.0885 3.53403 -2.26244 -1.18187 -0.0952497 -0.0769032 -0.796629 1.48119 -0.212898 -0.997808 -1.95213 -1.92731 -0.13641 2.98638 3.2447 1.41762 3.15979 -0.377094 0.813902 3.40798 3.05404 2.82266 1.6256 2.94774 -2.23582 -1.3162 -2.45911 -0.0470718 -2.29731 2.6202 0.912425 3.47756 -1.23044 2.90574 -1.72658 3.15418 2.46129 1.79507 2.87873 2.38804 -2.09686 2.35842 -0.041686 3.48673 -2.12991 -1.09222 2.73965 3.21524 -1.14542 -2.87526 1.36413 -1.12043 -1.54173 -1.00592 -1.05214 2.88059 0.477934 0.59807 0.867553 3.0214 2.93509 -2.15129 1.35495 -2.93748 -0.997573 1.97438 0.982222 -2.6323 2.8067 0.175279 0.000911234 -3.4658 1.3633 1.00618 -0.916939 -1.45442 -0.995202 -2.39511 2.07544 1.58196 -0.28963 -1.43485 0.161019 0.589903 -0.499327 -0.0936536 0.317055 -1.02007 0.332219 -0.58647 -2.65483 1.40051 -2.17134 -2.52082 -2.34332 3.24074 0.586981 -0.488325 1.76978 0.412103 -1.83045 2.60508 0.393639 -0.558388 1.93338 -2.1594 -2.79084 -0.672225 0.809897 -1.87117 -3.43651 -1.98595 3.08179 -1.54859 -3.36178 0.0725535 -2.43523 -0.702614 2.54765 -0.150229 -2.13916 -2.10237 -2.62452 -2.70347 2.03811 2.73034 -2.7106 2.69996 -0.109017 -0.250934 2.60352 1.69695 3.06155 -0.650674 -3.19941 -3.44292 2.88693 2.94515 -1.0429 -1.70097 2.90283 -1.75857 2.17724 0.947375 1.52772 -2.40397 -1.63795 2.11449 2.58355 3.38326 -0.0500554 -0.56199 -1.809 -1.27702 1.9766 2.49357 0.383515 0.0499941 -1.67645 1.36267 -2.24629 0.554443 -0.623249 1.46247 -2.04719 -2.11818 -1.25427 1.45583 -2.61262 -2.33845 2.16435 -2.52675 2.00186 1.55673 0.0716459 -0.0621109 3.12047 2.64654 -3.33701 0.015682 1.99304 -0.444061 1.27533 -2.77422 -1.12527 1.47765 -2.94816 
-2.33104 3.02965 -1.76219 3.42016 1.92327 -2.43448 -3.28419 1.67287 -0.659363 1.9316 -3.41295 3.00331 0.0951106 -0.801568 -0.414979 -2.05141 -1.76668 -3.19028 -1.18437 -1.84998 2.65099 0.674475 -3.05778 -2.23399 -2.51313 1.32057 0.372509 -1.61324 -1.45246 -2.04038 2.66454 -1.11345 2.17284 -0.96009 0.414168 -2.96485 -0.0945258 -2.00033 -2.48666 3.36945 1.3999 -0.42588 -2.01389 -2.24003 -0.95394 -1.8338 1.37219 1.0497 -0.250968 3.40223 1.31986 -0.230292 3.0064 -1.06669 -2.96494 3.49286 2.12616 2.63725 2.45787 0.606409 -2.15769 -0.0302829 -1.88744 -0.0749143 -3.08977 -2.80354 -2.84423 -2.32402 -1.767 -0.854732 0.81361 2.08206 -1.26572 0.0797973 2.58017 -0.121718 -3.13955 1.29429 -1.23645 -0.165522 1.34841 -1.73466 -2.50289 -3.04328 -0.449389 1.99674 1.22354 0.729266 1.82246 -2.69202 1.52183 2.19743 2.97125 2.686 -1.36545 -1.52626 -2.31868 -3.41378 0.314336 2.07841 -3.37357 1.99601 1.13927 -0.0712915 -0.111727 0.4332 -2.0491 -2.78708 -2.62662 2.22782 1.32925 -3.20564 -0.0275483 1.47859 -2.56166 -1.12867 -0.661587 -3.44883 2.47597 -1.32204 2.76765 0.727863 -0.834865 -2.65935 2.14126 -0.370252 1.85908 3.34478 -3.52936 -2.29035 1.41259 1.23084 2.91328 -0.52228 1.22484 -1.04521 -0.145092 1.77143 -1.66433 1.07285 -2.59297 3.39464 1.84435 -2.69057 1.25111 -0.583244 1.17771 1.42889 -3.10519 2.71391 -0.00186114 1.72789 -1.46119 1.57968 -0.739104 -0.14486 0.334079 0.604689 -3.36051 0.364937 -1.47369 0.079787 -3.18298 2.99995 3.37946 0.217326 2.20551 -0.427027 1.38907 -0.371723 0.67822 2.05796 0.346414 -0.0108999 -2.69059 -0.963502 1.91293 -2.83445 -2.6181 0.841517 1.41906 -2.81288 2.41512 -0.56204 1.56712 -2.62787 1.13088 -3.64724 -0.65547 1.42448 0.484174 0.18774 0.377094 0.272543 -2.44167 -2.56625 1.76324 -0.157933 1.79307 1.19626 1.39405 -2.09994 -1.35423 -0.512276 2.20455 -1.48041 1.48679 -1.66441 -1.76837 1.37697 -3.16969 0.67638 2.4942 -2.02285 1.50688 -0.907847 -3.57481 1.89628 1.45101 3.13744 -1.38327 -3.019 -3.26951 0.909228 3.19982 -2.18533 -3.0939 -0.272447 0.615029 3.11966 1.88065 -1.68547 -3.29635 -3.17752 -2.88568 1.37023 -0.9473 -3.63607 1.94089 -2.20072 -3.14864 -0.985194 0.238945 -1.44891 0.00452779 -3.06316 -1.39175 -0.292005 1.35174 2.39451 -2.76342 -1.41663 -1.46871 -0.549634 1.86646 -2.13125 3.32325 0.791077 0.92387 -1.10552 -3.31706 2.7281 -1.94245 1.89104 2.59799 0.118344 1.19706 2.17832 -2.99381 3.23003 -1.87025 -2.9885 -1.43166 1.75831 -2.49054 -3.4938 3.16333 3.08758 -2.34651 1.16815 -2.76058 -0.517554 -0.0445205 -0.216845 2.07631 1.06684 1.58157 1.97476 -0.811335 -2.04814 -3.29756 1.44667 0.701362 -1.1576 2.92113 1.8473 0.275326 -2.87064 1.50299 3.07096 3.01162 -0.522212 1.20391 0.689022 -2.99354 -1.71096 -1.13387 -1.84301 -1.24608 2.13818 1.08646 -3.09746 2.63795 -1.3912 -2.51391 -0.740214 -1.9052 -3.33688 -0.289193 -1.94672 3.20081 2.00181 3.44171 -3.20408 3.31471 -1.78107 -2.34665 1.81375 -0.76003 1.99773 -1.02865 -1.73186 -0.366661 2.49492 2.14564 0.127154 -0.739624 -3.27143 -2.76395 -1.77031 1.62261 -3.14589 -1.79322 -1.93841 -1.30003 -1.9834 -3.20428 -1.51859 1.52772 0.637814 1.29723 -2.28684 2.83929 -2.6969 -1.70424 -1.0494 1.03428 -0.336702 2.03672 -1.76038 -2.6241 2.18706 -0.204474 -2.23762 0.652111 1.92865 3.36164 -0.39228 2.85172 -1.44868 0.306945 0.80794 -3.1047 -0.923 -3.41049 -1.68491 2.67321 1.16162 0.507786 -1.07072 -2.60913 2.98896 -0.32133 -1.75975 2.9081 0.468587 1.90905 1.33834 2.59161 3.23194 -1.13918 1.22584 -1.77472 -3.01474 2.14937 3.49907 -0.00986142 -0.201353 2.94709 3.1398 1.21031 2.17804 -2.25325 -1.63321 -2.69918 3.30408 2.45491 -0.475142 -3.52834 -3.24616 0.314198 -3.49819 -2.9959 0.534667 -1.8903 -1.4508 -0.964972 3.14996 -0.73613 -0.451625 2.27591 3.45384 1.579 2.22844 0.247575 -0.322246 1.38705 -1.40008 -0.329779 2.82082 -2.79466 -1.96862 1.25822 2.59658 -2.51157 -1.92166 -0.00824061 -2.50353 2.1179 -3.51447 -3.50043 -3.48964 -0.122079 -2.13864 -2.95374 2.05971 2.85186 -1.73697 1.52772 -3.00106 -0.693069 -1.61573 -3.45462 2.35428 1.72967 -1.40023 1.97736 2.54324 -2.37055 2.15807 -3.43414 -3.48412 -1.32342 3.46704 -2.44672 3.2306 0.796169 -0.878366 1.65129 2.81712 1.75851 -2.02869 -1.68044 -2.79104 2.83296 -1.67359 2.70166 -1.65704 -3.08731 3.13832 0.911406 -2.03705 -0.787933 2.42589 -2.1382 2.73186 -2.85441 0.619832 -2.90115 -1.15885 -1.93092 -1.19008 -0.686072 -1.46406 0.719702 -2.78768 0.17175 -0.221518 3.35078 -3.47155 1.23118 2.12911 0.793969 1.21055 3.02387 -2.17701 1.43719 -2.34511 -2.75249 2.32889 -1.46622 1.81451 -2.31163 -2.71691 1.16948 0.31112 -2.10632 2.82956 -2.0863 2.70162 2.70057 -3.00104 1.17329 2.69128 1.85367 0.648852 -3.25606 1.44541 -1.12632 -0.651502 3.1462 1.46107 0.125948 -0.90205 -1.51467 -0.115834 -1.76058 1.63229 -1.23085 0.124816 -3.06148 2.82689 -3.43833 -1.53807 -1.47315 3.32117 2.91881 -2.88181 -2.53883 1.69629 0.049174 1.04595 1.43745 1.73131 -0.481069 2.16707 2.68852 2.92853 2.25245 0.112948 2.91594 -1.0276 -1.47054 -2.32195 0.132993 -0.639995 -2.75822 -2.3996 1.12292 -3.14365 -2.30056 1.66192 -3.5422 -0.888625 1.68649 -2.50635 0.583406 -0.639519 3.20927 2.45771 0.104764 -0.192789 -1.33649 -3.3879 3.11277 -0.692039 1.50427 -3.46956 0.116852 -0.00457068 1.31316 0.0951236 1.92905 0.782636 -3.51047 1.62318 2.92612 -2.67489 1.08862 -3.48609 2.03567 -2.91252 2.74677 1.3923 3.14499 1.72526 -0.30922 -3.1334 2.49753 -0.394588 -0.375602 -2.29435 -0.63711 0.752097 0.559538 -2.46434 1.22316 -2.96402 -0.76472 0.39331 2.63561 1.43522 0.435434 1.5026 1.56126 1.82124 0.796227 -1.9287 -2.24069 2.93721 -3.35705 1.96433 0.327353 -1.70804 2.37079 -1.44581 -0.736494 -0.930365 0.598655 0.76109 1.14683 -0.742917 3.14299 3.26023 1.77719 -0.82348 1.4647 2.57434 0.571046 -2.66079 2.91326 0.880344 -0.223775 -1.62397 1.0149 -2.86031 1.40663 -0.447522 2.89808 -2.64309 -3.06494 2.67457 2.78563 -2.76814 2.54477 -2.76464 -2.56528 2.24671 -2.12528 3.33489 2.66808 1.71017 -2.93036 1.61804 2.47188 -3.31406 -0.923477 -3.19071 0.67533 0.00518099 -0.983893 1.64837 2.99576 2.59315 -0.813429 -1.21831 1.80599 -0.481093 1.67977 3.39401 2.9869 -2.75463 -2.17496 -0.662507 -1.47163 -2.54533 0.00409039 -2.41135 1.19204 1.176 0.527892 1.9118 1.87197 3.43195 1.06081 0.671794 3.04539 -1.00877 2.37888 -1.03927 -2.3878 -2.81002 -0.828339 1.94345 3.2576 -0.515723 -2.00143 -2.53326 1.33794 -0.404499 -2.29251 2.96566 0.993687 0.0573754 2.13868 -0.241761 1.22067 -3.3797 1.19501 -0.602888 -1.35562 -1.19184 0.0247152 -0.217264 -2.67705 -0.275198 -1.70545 3.29207 -0.224671 2.56866 1.00823 3.39676 -2.31594 0.776953 -1.52459 -0.959513 -2.48795 -2.72575 2.3624 0.375581 -0.062521 3.01084 0.390859 0.946501 -2.688 2.95643 -2.83484 -2.37956 -2.55468 -1.68536 1.02618 -3.44758 -1.28169 -2.51621 2.11432 -1.6856 0.0439926 0.444723 -0.502985 -1.02453 -1.39686 -3.37768 -3.30924 2.39657 1.90915 -2.9376 3.21975 -2.94428 2.05748 1.14618 1.35288 2.84819 0.528594 -1.82834 
1.1608 0.750263 -3.35971 3.29432 -2.88638 -2.03359 2.77324 0.731084 0.85636 -3.49444 2.13585 0.0856389 -0.472559 1.38392 2.71507 2.04658 2.57807 -2.936 3.42539 2.10708 1.42142 -0.607409 -2.11185 -3.18766 -1.51385 -2.38205 -0.822704 -0.138438 1.90152 2.29642 -1.23461 1.49245 -0.139837 2.75045 0.158769 -2.87699 1.9982 2.27486 -1.32289 -0.0782624 1.64461 -2.98645 1.428 0.262575 1.14723 0.946099 -3.40198 -2.69453 -3.36699 -0.107044 3.30251 1.60595 2.96843 -2.41076 2.34333 0.128065 -1.44933 2.95525 2.7394 2.70685 2.27681 2.7685 2.5915 -2.22062 -0.408007 -2.48425 -1.81136 -2.01022 0.982144 2.08319 -3.37707 0.33515 1.84097 -0.70998 2.98149 -1.44004 0.0974941 0.430971 -2.6716 1.64748 -1.47925 -3.29012 -1.22195 1.07108 2.72332 -2.00733 -1.84204 -0.494642 2.06716 1.20949 -1.17682 -3.29453 -3.35521 0.470282 2.88359 2.1119 2.74802 -0.596757 -0.131835 2.73014 1.43654 -1.98372 -3.43699 -3.32172 0.319955 -0.063202 -0.225293 2.72095 -0.104848 -2.6061 1.81051 0.338136 -3.11489 1.51743 -2.70413 -2.7398 1.83958 -0.26733 -0.349468 0.361998 1.20919 2.11327 0.318194 1.49932 1.09058 3.49174 1.91766 0.482568 1.295 1.30232 -2.56065 -0.969354 1.78604 2.74588 -1.37617 -2.77011 -0.0394116 -0.503413 2.7031 -0.780198 -2.59088 3.0839 0.926769 -2.33019 -1.89836 2.59047 -0.539353 -1.8953 1.40823 1.0458 -0.714169 -1.79109 -1.53928 -1.07361 0.909572 1.07901 2.61238 -0.840349 -0.653496 -2.26079 -3.27821 -0.0380472 -1.37159 -2.61977 3.08575 -1.97058 -0.324268 -1.15408 -2.63733 2.73758 0.757229 -3.38462 0.931066 3.46998 0.414556 -0.467181 -3.35604 0.444136 -2.42434 -0.51748 -3.02611 2.4006 2.82447 -1.79917 -2.39938 -1.9589 -1.41374 2.9342 2.50221 0.280728 1.57348 -2.99045 -1.37337 -2.84309 -2.83075 -2.38024 -2.40148 -2.30799 1.32862 -0.17003 1.7292 3.3548 0.478021 1.90114 -2.22223 2.33537 -2.94885 1.89444 -1.60956 -1.12187 1.14853 3.35106 -1.33303 -1.74463 -2.82023 2.78099 0.486881 -0.54441 2.00144 0.284976 -1.02282 -1.11328 -0.892522 -1.26999 -0.717867 3.44605 -2.45925 1.84581 -1.94093 2.94692 -1.9482 -2.22726 -1.38743 -3.35903 1.69154 -0.659644 -2.84001 3.13601 -1.24065 -2.70243 3.30715 -0.285193 -2.46544 -2.56805 -2.20588 2.18232 0.751296 3.124 0.184564 -2.01882 -3.24144 -1.10224 0.908236 2.78161 -1.65053 0.617012 -1.14094 0.278195 -3.04276 1.05027 -1.322 2.41001 0.577279 0.614744 1.56269 -2.79041 -1.86245 -0.48218 1.03957 -1.5206 1.61531 0.706081 2.96033 3.04079 -0.346428 -0.739977 -0.301346 -0.215934 -1.706 1.72246 -0.08904 1.19129 1.32894 1.20675 1.35044 -1.69238 1.09844 2.43312 -3.36462 -3.05587 2.40862 -1.98301 -3.41014 -0.15085 3.02466 1.40326 2.80006 -1.66484 -0.798371 3.03677 -1.83222 1.58664 0.115863 0.0605627 -2.47725 0.330096 -3.38796 -0.672667 -0.90572 -1.31964 -2.65854 0.0760723 1.81257 2.58884 0.846082 -1.0535 3.50335 -2.40495 -3.18255 0.14547 -2.1535 3.48145 -2.77148 -1.69895 -1.42461 0.655122 -2.30089 2.64605 -2.31652 -3.15288 0.413088 -2.67573 -3.33008 -0.616165 0.425975 -1.4893 -1.37533 -1.04504 -2.14853 0.890814 2.35269 -0.838581 -2.37723 -1.7868 -1.65556 -0.961828 1.97666 2.50888 -1.56208 1.22673 0.591576 1.08006 -0.603786 -2.48923 1.34162 2.98179 -1.46543 1.3417 -0.121854 -1.51423 0.917225 0.271198 -2.40739 1.28304 2.52848 -2.33918 1.71693 1.43873 1.77476 1.64404 0.362848 -3.37899 1.37654 -2.27878 -0.795648 -3.18089 -2.58491 -1.17543 -2.62756 2.0405 1.64108 1.44594 0.550715 -2.13312 -3.24536 -1.99849 1.55517 2.14728 2.94191 -0.976965 1.19903 -1.99958 -0.528702 1.72265 2.22314 -1.56003 0.75494 3.37214 -2.25638 0.111081 -2.48003 -2.14837 0.472723 0.0620326 1.9217 -0.124461 -1.53167 -3.21488 -1.84571 2.04589 1.69705 -0.878799 -2.8962 0.321448 -3.00194 -0.0542042 -2.72603 2.52538 3.13415 -3.17011 -0.186611 1.18882 2.12746 0.596306 2.62067 -1.33031 -2.77117 3.35053 3.02568 -0.186785 0.817093 -0.904008 -2.35237 -3.09601 -2.41503 -0.100878 -2.78663 1.09026 2.40171 -1.93585 0.860744 -2.49181 1.83158 1.99647 -2.61121 -0.363829 2.47792 -3.43931 -1.20286 -3.48585 2.54618 2.98222 -1.48512 -3.34075 2.21574 1.89306 1.52884 -2.97479 -3.18219 -1.21427 0.444294 2.33809 2.91493 -0.759911 -1.87503 -0.900946 -0.840165 -2.70571 -0.901922 2.55801 -0.809896 -2.84431 1.91002 -2.07585 0.424035 -0.477681 -1.47814 0.0964648 1.46093 1.51252 -1.58161 -0.770073 2.64888 -1.22799 -2.46001 3.39705 1.40131 -1.8823 1.4608 -1.35621 0.353555 -2.62641 1.10899 -2.76085 -0.0534535 2.41784 -3.08934 -0.559372 3.08565 -2.38693 2.04008 1.84894 -1.26013 -3.1102 -0.808473 1.02928 2.82585 3.05085 2.89046 -2.98063 -2.98634 0.997771 -1.47285 -1.23405 3.32299 -3.19142 2.3955 -1.6282 -1.87692 -2.77506 2.2633 0.318226 0.486781 2.03551 2.12186 -2.73222 3.33057 0.661902 -1.79756 -2.45834 2.14453 -3.34965 -0.289571 1.0923 2.76392 -1.33519 -0.662624 3.0826 1.58892 -0.987159 3.05462 -1.74472 -0.446203 0.732733 -0.898299 -0.316176 -1.8056 0.556729 1.68968 -0.84176 2.12264 2.53683 -0.355219 0.413021 0.152219 -2.14933 -1.58651 -2.52247 -2.94289 -0.862749 2.89293 3.45232 -1.42603 3.42998 2.21348 -0.6037 -2.94268 -3.48978 -1.66127 1.72289 1.69019 -1.40546 0.908569 -1.84789 0.172044 0.672255 -0.452841 0.83791 1.25092 1.56446 -1.4189 -0.52567 -1.65623 0.659803 -0.827925 1.58479 2.78681 2.33145 3.4249 0.490444 3.43027 3.16059 1.86848 2.2526 1.16032 2.7885 -2.42774 -0.0973377 0.347772 -0.44611 2.99904 -0.310117 -1.49866 -2.53156 3.32805 -1.43268 -0.619222 0.104885 1.60594 -1.99731 2.65822 1.89537 -1.28983 2.06128 -2.56737 2.93585 0.920302 0.951408 -2.31849 0.274277 2.95938 1.83941 -2.89725 2.58556 0.731256 -0.293939 -2.65599 -1.52665 -0.515769 2.00582 2.45829 1.66771 1.23412 2.28763 2.55909 -2.09566 0.880851 2.14331 -2.46715 1.1131 2.45705 -3.30694 -3.3345 1.87711 1.34279 -3.31972 -1.92137 -0.261049 0.556513 3.1538 -1.65873 1.53689 2.20223 -2.6928 -1.53071 1.03652 -1.54435 -1.96059 2.21007 -1.61544 0.794043 0.323577 2.97277 2.36188 3.186 -3.09764 0.219932 0.252292 1.42726 0.210431 -3.16015 -3.37875 2.12155 -2.57125 2.20747 0.777395 -2.19783 -2.16331 1.68909 1.63663 2.93784 -2.63956 -2.4499 2.21553 -2.25318 3.40449 -0.0723933 -3.11737 -1.54989 -3.05111 -2.96831 3.29105 -1.389 3.35842 -2.97731 0.969001 2.81695 -2.13025 3.01131 2.21843 3.17344 0.267358 1.775 2.07365 -2.15176 -0.146354 1.86889 3.28106 1.86271 -2.93579 -1.19563 0.268486 0.524963 2.33887 -3.17603 -1.85366 3.11317 2.68981 2.01505 1.22529 -2.86624 -2.29143 1.24385 1.12348 -1.77891 0.942681 0.980427 -3.49728 0.136744 1.54571 -3.35917 2.72774 -2.00817 -0.829165 3.18397 -1.24913 -3.39976 0.363274 -2.16523 0.72358 -2.04766 -3.38462 2.93618 -1.04771 2.22848 2.8816 2.47812 1.57174 -0.515565 -1.51245 0.927893 -2.8047 -2.81876 -1.9618 1.15472 -1.91416 0.892412 2.74356 1.74499 -3.35163 2.87337 2.5703 -1.36639 2.84358 -2.9973 2.14564 0.153361 -1.24675 1.14067 -0.932275 2.41555 1.99479 1.19843 -0.110127 1.51101 3.41715 -2.70715 2.73896 -3.1069 -2.48388 2.9623 -3.02848 2.58001 -2.58803 
-0.483743 -2.47149 -2.9007 -2.70475 -2.17912 -0.0343843 2.7771 1.07489 -2.43946 2.55773 -2.39638 -1.15057 2.67121 -1.47447 -1.45425 1.94961 0.599779 -1.33604 1.87462 -0.595525 -3.3559 0.744054 -0.581685 -1.11722 -2.13279 1.56751 1.71656 -2.88786 3.39712 2.63899 1.42482 -3.28937 2.0097 -2.02508 -1.6662 -0.938048 -3.25051 -0.655091 -0.00104597 3.35335 -1.94718 -3.16282 -0.638917 -1.05159 -3.41311 -1.88688 1.27919 3.36262 -2.80222 -0.173197 1.00831 2.49051 2.79335 1.09102 1.41791 1.42823 -2.36523 -0.0289911 -0.142115 0.0402221 1.27117 1.39312 -0.105507 2.33881 3.14366 0.37512 0.123741 -1.41101 2.5051 2.2029 3.44948 -0.281125 -1.21499 1.82933 -1.40279 -1.42896 -0.282425 -1.72409 -0.57707 -3.29456 -3.0771 -0.873251 3.0353 -2.61781 1.28585 2.47564 -1.46889 0.0434177 3.09323 -0.576336 0.209614 0.168821 -1.32387 -0.888002 2.4577 2.11647 0.838951 1.72471 1.76323 2.41369 -2.21222 -0.821124 -0.700713 -2.87048 -2.69864 1.27521 1.92752 3.40758 -3.33854 1.65296 1.47901 -0.839341 -3.26959 2.71508 3.43734 -1.11339 3.05521 2.26527 2.73983 -0.525158 1.54119 -1.40317 3.15792 3.16565 -2.20133 1.71923 1.60837 2.36693 -1.77136 3.00112 -3.18278 -0.274781 -2.43769 3.10808 -0.712023 -0.202489 -1.80348 -2.3073 -2.85664 1.07146 3.45482 -1.4842 -2.11114 3.0741 1.96824 2.07863 -3.19489 0.965066 -1.58629 0.381879 -0.72851 0.939378 -2.4152 -0.611459 -2.14009 2.9333 -0.891276 0.0895569 1.56542 -3.24577 2.31537 -1.51119 -0.886674 -0.577697 -3.16138 -1.22115 -1.68312 -2.59125 -2.18597 -2.03867 -0.982185 -2.5372 2.62414 -1.39304 2.14182 0.277353 3.16554 -2.88846 0.767981 2.89279 -0.982338 -1.03827 -3.21079 -2.82744 -2.80533 2.5509 3.18746 -2.02543 -0.367504 -2.52787 -1.43475 -0.0533058 1.32294 -1.94381 2.53093 -3.00266 -2.32995 2.20917 0.244242 0.202581 -2.92857 0.0573511 -0.606474 0.90688 2.42487 -0.49687 -3.19257 -1.99178 2.99847 3.13586 1.82035 -1.85402 3.24054 2.65542 2.4421 3.12032 -1.70278 -0.493762 2.01387 3.56262 -1.68663 1.43298 -0.674997 -2.0459 3.40399 -2.56748 -1.02087 2.18721 1.76881 0.341548 0.278727 2.20896 2.78202 0.817429 -1.26054 1.99806 -1.34048 0.436077 3.47355 -2.03704 -0.486409 1.54739 -2.23205 2.4319 1.39562 -1.03429 2.78016 -0.0706828 3.06099 -3.19895 2.19662 3.21701 2.06127 1.85028 2.54614 1.5842 1.8621 1.44382 -3.10077 1.4533 2.96214 -2.55178 2.5463 -0.750479 -0.351587 -2.67013 2.42566 -2.37556 2.71926 2.84058 1.45591 1.54378 0.573379 1.01631 -3.00415 -0.452552 1.51374 1.48973 2.06981 3.0406 2.44293 1.44144 -1.36154 2.06739 1.20306 2.0483 2.13522 2.52616 -3.0573 2.36128 -1.97629 -2.11526 -2.49962 0.666655 -2.07984 0.0707881 2.44648 -2.43788 1.77126 -0.759834 -2.06788 2.77664 3.24301 0.0786936 -1.08144 1.72477 2.02066 2.85881 -0.447179 2.1367 0.0295574 -0.302332 0.0819103 -2.88115 -0.118085 -1.6381 3.0717 -3.27116 -1.86693 -1.1913 2.55601 -2.53155 -3.47623 -2.15428 -2.08743 2.65731 -3.18563 0.937206 -2.05553 -1.11858 0.675406 1.4592 0.341976 2.25345 1.2201 1.82317 -3.17197 -1.16261 2.89877 -3.51307 0.297657 3.34394 -2.63208 -2.48711 1.37951 -0.361794 -0.294257 1.63923 -3.02582 -3.05865 0.0754789 0.629107 1.82192 2.53095 -2.17297 -3.10459 2.67807 -1.52071 0.494561 3.44699 -1.72842 -2.96001 2.17393 -3.03056 1.04813 -2.62341 -0.309342 1.23904 2.23825 -0.688692 0.419265 -2.43047 3.39526 1.19702 2.26074 -1.15565 0.959786 -2.87842 -2.02506 0.999383 -1.7239 -0.0223574 0.469663 0.467566 2.66296 0.240768 1.80477 -1.88652 0.26162 -1.04654 0.295611 2.6333 -3.06682 -1.07905 -0.457507 0.350686 3.24281 -3.07501 2.73293 3.72683 1.65743 -0.729722 2.8419 -0.685905 2.36677 -2.04439 0.114954 -1.17706 2.07961 0.885412 -1.07109 -1.29571 2.58247 -0.80069 -0.744671 -2.89846 1.1096 -1.8853 -3.49905 -3.25971 0.713281 1.86981 2.32815 -1.30181 -0.782521 -0.923976 0.898095 -1.95858 3.35696 -1.10587 -0.965902 2.91031 1.04269 1.90442 0.0468311 -0.253128 -0.496263 -2.7527 1.1198 -0.303358 2.92658 0.480703 0.125851 3.29764 2.3255 0.396054 -1.55227 -1.63507 1.46167 0.592594 -2.42937 3.2101 3.12533 1.44702 2.65968 3.17068 -2.6224 1.7915 -2.19028 2.57462 1.91292 -0.866053 -3.5741 2.53936 2.16088 -3.30448 0.961095 -0.402796 1.54929 -1.19215 3.45335 -1.95644 -0.31398 -2.16556 1.67356 3.24058 1.06274 -0.556361 -2.44062 -1.75818 -0.146381 3.232 -0.348701 -1.52847 -1.32875 -2.24108 -0.590968 -0.671889 0.968111 -3.61499 0.23341 -3.63768 2.90975 2.1926 -0.401794 -0.197459 -1.84548 -1.67693 -3.05376 -0.97147 -3.48448 -2.73292 -0.808655 -1.41209 -2.49396 -1.39175 -0.691297 1.33431 -1.29457 -2.51823 1.09724 -2.00682 2.97307 -1.74333 0.939208 -0.314009 -3.05869 1.17017 -2.99625 -2.51496 0.305428 1.27596 -1.20905 -1.6839 -2.80759 0.875958 -0.255191 -2.96965 0.399141 1.86371 -0.848326 2.20192 -1.46922 0.361965 2.98745 2.36178 -2.55075 -1.08957 -2.60197 3.18528 -0.0341807 -2.16418 -3.29825 -0.216729 -3.37881 1.31651 0.325478 0.623316 -0.386543 2.71166 -0.257662 3.32474 -1.75892 -3.08878 0.536401 3.20984 -2.58573 -1.50521 0.448609 -2.67415 -0.169594 -0.864244 0.909275 2.76094 -2.88686 1.21433 0.150679 2.75374 2.33154 2.98724 -0.894636 -3.40309 1.05677 2.50816 3.03645 -1.65951 2.51079 0.557241 -0.812088 -1.20999 1.68083 3.26044 -3.21635 0.00624665 0.851138 0.853988 -1.7677 -1.97356 2.2703 -0.817626 2.82584 1.66712 1.63149 -1.52757 -1.83508 -2.40682 1.70987 -1.80127 -0.912392 -2.68947 -1.15145 0.389189 1.09158 -2.3143 3.412 -1.78527 2.17583 0.901208 -2.22159 -2.88019 1.85912 0.918744 -0.866076 0.999118 1.42249 -0.601622 0.673607 2.29631 3.29502 -1.59905 0.86244 2.45916 -3.03872 0.142503 2.70726 -2.36573 -1.18475 0.848806 -2.71987 0.805501 -2.08819 3.40688 2.23703 0.929509 3.31465 1.77179 -2.49929 0.409571 0.672201 0.56705 3.3991 0.557222 2.91419 -3.48363 -2.97989 -2.91169 2.23332 0.884503 1.5585 3.30367 -0.935644 -2.15397 2.597 2.20296 -3.25135 -2.83924 -2.28168 -0.992735 1.02784 0.18864 -1.82097 -2.28585 -2.66088 -1.61668 1.47087 2.15108 -2.99142 2.58921 -0.217219 1.59709 -0.386689 -3.15957 0.751616 -0.713145 -1.45788 -2.48439 0.75975 0.0879839 -0.734258 -0.453005 -3.00526 -1.55047 -0.00560113 0.878422 -1.83935 -0.456696 -3.58129 -1.25218 0.486586 -2.66778 -2.94545 1.66732 2.78503 0.0210621 -3.39868 -2.38321 3.20666 -1.93937 -0.77007 0.180061 2.04156 -1.00892 -0.537494 2.78476 0.533423 3.15005 -0.0104105 0.100591 3.06199 2.74342 0.543395 -2.45227 -2.06361 -0.212562 -0.355753 -1.84732 0.862801 -0.932599 -1.51743 2.51809 2.08283 1.92873 -0.0369053 1.43466 -2.19155 2.67922 2.60006 -3.22374 -2.5153 0.555496 -0.283733 -1.71615 1.68225 2.61856 2.80851 -1.69555 0.313921 -0.0317504 2.15585 -0.0439563 2.27849 0.26381 0.869788 2.57535 3.38789 -2.72606 1.94307 1.33835 -0.0560772 3.30688 2.1191 -0.799911 1.64395 -2.90332 2.28468 -1.2305 2.16603 -2.42756 -1.45672 -2.87842 1.11148 -1.51782 -3.01215 -3.26192 3.3466 2.42668 1.101 -0.99544 -0.535804 -3.07742 -3.34029 0.383819 2.29792 1.51876 0.798302 -1.60189 2.99261 1.50299 -2.4986 -2.06657 -0.863764 0.830548 -0.713448 1.21546 
2.22982 0.581845 -1.62076 0.588588 -0.274656 -0.676764 3.02096 2.99005 1.89811 -1.51833 2.27001 -3.23067 1.08098 1.60141 2.38975 3.04973 -0.119734 -3.19575 1.09605 -2.1609 2.39991 -2.44732 1.61619 0.934432 2.93643 0.904975 2.53765 -1.34022 1.19687 1.91306 2.2585 -1.20618 -1.59437 -0.618731 1.18628 -0.561131 -2.1173 -2.00705 1.44582 0.247782 -1.89424 2.58869 -1.78841 1.05053 3.37054 3.0719 -0.926386 1.00727 -1.68002 -1.71119 -0.905636 -2.95248 -1.78077 3.25642 0.901021 -0.608834 -1.15696 -0.22716 0.126438 2.43064 0.741282 -2.12601 -2.78062 0.688429 1.25929 -0.331851 1.16995 -1.68863 1.23824 2.6805 -1.41703 -1.37772 3.01018 -2.05079 2.9401 3.10738 2.97663 -1.85673 1.36668 -3.22522 -1.43708 -1.29258 3.33157 2.06171 0.924715 -3.21049 -1.02911 1.47862 -2.80813 -0.126832 -1.01084 -2.42931 1.47085 2.75044 3.30848 1.96554 -2.51181 -0.306811 -2.67613 -3.38491 0.186863 -2.53792 -0.795738 -1.71035 -0.532657 -2.32943 -1.57158 2.04696 -2.05978 -2.38176 -0.295565 -3.12891 0.608287 -1.70065 -2.415 -0.0129935 1.28895 -0.272138 3.07051 2.19645 0.332242 1.68339 2.37903 1.54569 -1.39868 2.85353 1.19592 -1.17477 -2.41677 -1.71379 -1.10174 -0.404327 0.668702 -0.865407 2.63748 0.373804 0.599097 -1.33429 2.25555 -0.297823 3.08032 2.11633 1.93657 2.51384 -2.63583 -2.09091 2.30043 2.46872 -3.07963 -3.14816 2.92643 -1.60216 -2.01394 -2.84879 -2.29528 -1.13151 -2.76856 -2.71312 2.95734 1.92537 -2.27083 2.34006 -3.0329 0.46763 1.03305 1.40744 0.231739 0.362825 2.61359 3.18029 2.92021 -3.26737 0.595234 3.36818 0.565049 2.35405 -2.31802 -0.169195 -2.27062 1.16125 0.982384 -0.178479 2.19689 -3.38715 0.445149 -2.61507 -0.547793 1.87322 -1.31483 1.19702 -0.0427365 -0.992815 1.03179 0.868247 -2.04022 3.23976 0.956736 -0.610494 0.644588 0.757658 0.291469 -0.752057 -2.18033 1.82138 -1.00996 -1.70749 2.89704 -0.00131644 -0.468961 -0.241876 -2.71158 2.16974 0.177379 -3.27406 3.20418 1.70636 0.432476 -0.706436 1.86914 2.77648 1.98075 -0.411744 0.214408 -1.80956 1.34864 -3.3425 -2.17662 0.997748 -1.01174 -2.93153 1.47343 -0.791512 0.208794 -1.17633 -0.551413 -1.38518 -1.30077 0.401253 -2.16669 2.38963 0.857336 0.851503 -0.544164 -1.71661 -2.6635 -2.37661 2.36082 -2.49996 1.21268 1.14379 0.602772 -0.653161 0.789551 -3.44273 -3.16335 -3.18205 0.871273 3.37873 -2.35422 2.85378 2.64617 -2.17245 1.36359 -0.722545 -1.39542 0.80637 -0.640172 -0.389856 -2.37271 1.04748 -2.59825 -2.55024 -1.2731 1.27662 -0.604629 -1.52021 2.58088 1.38768 -1.30023 3.06539 0.255047 1.17657 -1.72544 2.46618 1.88114 -2.77698 -0.936279 0.709217 0.527491 -2.15957 -3.07106 -1.07427 0.236378 -2.46959 0.850062 0.711607 -2.44439 1.95172 -3.60688 1.10242 0.994814 -2.92631 2.10248 -0.444922 -2.47328 0.515471 2.61336 0.443082 -0.339563 -0.907652 -1.47976 -2.38484 -0.129938 0.839749 1.80577 -2.06692 2.6093 -1.45619 1.58449 -0.559737 0.993683 2.56869 -2.61101 2.81017 -2.52214 -0.82267 -1.99476 -0.773962 -0.496903 -2.14271 -0.429337 1.92517 -1.83744 0.73277 -1.88783 -0.493193 2.45863 -2.79861 -2.45856 -1.05026 2.39495 -1.78056 1.01149 2.82849 -0.536986 -0.434831 2.01183 -0.194262 2.64355 0.290687 2.46226 0.12691 0.065907 -3.01228 1.58549 0.418877 2.05121 1.34116 0.993496 -1.42816 -2.26206 -2.58467 -0.807313 0.949117 0.528304 0.637237 1.8114 0.836646 -0.266945 1.04025 -0.852689 -2.40562 0.380711 -2.61877 -1.12734 3.18266 -2.20488 0.664081 1.64323 -2.86609 2.77812 1.69114 -0.790916 -3.07353 -2.84703 -2.99834 2.16168 -2.94092 2.14782 -0.448973 2.54878 -3.24899 2.19946 1.02694 1.90343 2.4422 -0.515296 -2.16814 2.87347 -2.41275 2.27595 -2.15963 0.163629 -3.42317 0.141033 2.12816 -0.400309 0.632617 -2.06095 -2.82067 -1.92814 1.71458 -2.50348 -0.390994 -1.93228 0.56004 1.09681 -1.52626 -0.889942 0.0494679 -1.9414 -0.156763 0.564676 1.56899 -2.26637 -3.50764 2.79936 3.26492 2.01671 0.35035 -2.95732 -0.937493 -0.281146 -1.83718 -0.438123 -2.03026 0.771711 1.50814 -2.9292 0.383435 0.41425 2.54253 2.04568 1.78567 2.54607 0.848506 -3.04586 2.58199 0.767438 -0.955407 -2.77552 -0.174247 1.90442 0.876134 0.773705 -3.28872 1.70089 1.2431 -1.06579 -0.763555 -1.63811 -2.16611 -3.34959 1.06895 -1.97396 1.96527 1.53293 1.17195 -0.0111892 -1.40876 -0.0406774 2.32945 -3.23022 -1.99972 3.04654 -1.04249 0.801604 -2.3373 0.941042 1.29239 1.74229 0.976294 -1.76136 -3.32403 -1.04609 2.76422 -2.11838 2.74054 1.5117 2.75331 0.518608 -2.25129 0.0611482 -1.96508 -0.990246 0.494633 -3.03739 2.36954 -0.324389 -2.95862 -3.17732 2.32564 0.265952 -0.26015 2.8993 2.95512 3.39049 1.29159 -2.87478 0.894465 3.10817 -2.99825 2.95102 -0.28797 0.540107 -1.21509 -2.06346 -2.22917 -1.50637 0.630398 2.09683 0.875162 -1.85305 -1.88357 1.87013 1.38023 -0.726253 0.653515 2.92055 -0.0678807 0.673288 -0.288275 1.1672 -1.40595 -1.4383 -0.0987426 2.04309 -1.84546 -3.10159 1.52804 -2.94099 3.1131 0.271623 -0.400652 -1.16169 3.24268 -1.55989 -0.865368 2.55088 -2.01385 0.884354 -0.385074 -3.14658 -3.2435 2.39773 0.859967 0.703981 -1.81884 0.65397 -0.690009 -2.65719 -0.170058 -0.28985 0.209618 -0.0769941 3.07466 -0.884336 -0.32274 2.07156 3.17139 1.36051 2.65353 0.960888 -2.81263 -2.98917 3.54902 -0.406997 -3.12202 1.23369 -0.0977866 2.17742 -2.18654 3.13997 0.033555 2.86902 -2.47102 0.236635 -2.73824 2.59361 -2.64646 2.44389 -1.12909 2.5318 0.313486 -0.723762 -1.48484 0.0118999 2.32253 -2.96191 1.18816 -2.10352 3.13006 -1.53575 0.0500106 -0.861549 3.12876 -1.75564 2.85554 1.54745 -0.924375 0.128391 -1.65038 2.77693 -3.12614 -3.08749 -0.973663 0.840373 -0.816736 2.67214 -3.33909 -0.159217 0.037841 0.152774 -2.67695 -2.65198 0.387837 2.68298 -2.7933 2.8308 0.84365 -3.09066 0.66028 -2.11448 -3.14927 2.19783 -1.52276 -2.33968 -0.862558 -0.922852 -0.637296 0.267678 2.82228 3.13879 1.46343 -1.12788 -1.07317 -0.331301 -1.39315 -3.08156 0.246353 0.470767 -0.843382 3.17227 1.72531 1.81157 -0.661091 -3.43455 1.63682 2.16292 -1.93676 1.65058 -0.735051 1.07337 -0.982586 3.00692 -2.63109 2.94591 -2.69362 -1.79948 -3.19282 3.3426 2.27317 0.333302 -2.89195 -3.43006 2.2469 0.776489 0.19818 1.39951 2.69917 2.52308 0.7863 -1.80914 1.0266 0.923801 0.254168 -1.09384 -0.593505 2.81147 0.298863 -1.27064 -0.977928 -1.98458 0.451036 2.39336 0.703619 -1.38352 3.28182 1.4416 -3.2917 -1.52911 3.11336 -2.57772 0.506375 -0.115441 -1.3081 0.0122385 3.37925 -3.4722 -1.84509 3.43968 -0.216514 -0.515894 1.0176 -0.807932 0.789662 0.74401 1.39101 -0.628248 1.90413 2.84955 2.087 -1.99193 1.36241 -2.30197 -0.825774 -2.26812 -0.0489532 -1.06464 1.27114 1.8469 0.732536 -2.54148 -2.61052 -0.63845 -0.378125 -0.713053 2.84185 0.934072 1.16672 -0.417457 1.9703 -3.04676 -2.00836 3.02467 2.45476 1.83927 0.607526 -1.91012 -0.548589 -0.726451 -2.53012 3.39 -0.644298 -2.57623 -0.560115 -0.303503 2.17962 -1.04855 -0.461711 -0.419917 2.03701 2.68516 3.17209 2.36259 -0.143507 1.14675 1.02854 1.0456 -1.86082 3.48271 3.09891 -1.47997 0.115208 2.45953 3.11867 0.0565227 1.65471 0.800215 -0.336959 -1.54747 2.75184 -3.1541 -0.230961 
-1.95323 0.82153 -1.01271 -2.22444 -2.23256 -1.46285 2.96144 0.571535 2.7372 -2.25964 0.0530319 -3.20022 -3.07707 0.794712 -2.73245 -3.43086 -3.11745 -3.12276 1.18962 -3.09368 -0.709281 -1.11427 2.13805 3.18868 0.412045 -1.41267 -1.04493 -2.06557 -0.064956 3.35315 0.385961 0.483087 -0.5364 0.633584 1.95304 -1.6482 1.28379 -2.83305 -0.948277 -1.29709 0.970055 1.8254 0.322653 2.63697 3.25118 -3.18503 2.27414 0.140637 0.273952 1.03656 1.00148 1.38932 -1.94723 -2.20711 3.2441 -0.755832 2.71396 -2.72913 -2.97221 -3.42422 0.856232 2.86069 -3.27734 -2.44091 -0.275544 2.27829 -2.66223 0.06229 -0.889982 0.504975 2.27359 -1.34633 0.345763 -1.02082 2.44359 -2.53773 -0.55763 2.93007 1.39972 -0.386271 -1.84845 -2.95229 2.83218 -2.12015 -1.78398 -0.856241 -0.385937 -2.04512 -2.78183 -0.542224 -0.517679 1.525 1.47834 1.41028 2.82605 1.05333 0.961118 2.18524 -0.0182229 0.519517 3.43515 2.38143 -0.0504191 -1.01517 0.481299 -1.08331 -1.16655 2.06915 0.0633858 2.02294 -1.77599 0.563948 0.081891 3.0304 -0.0544812 1.90627 -1.41757 0.317154 1.67865 0.851747 2.93235 -3.14487 1.04344 3.24381 1.69301 0.501983 1.35748 2.71907 -0.283732 1.55713 -2.25248 0.363931 0.704867 -1.68135 2.00657 1.02723 0.980953 -2.02707 2.38618 3.13108 0.0375692 0.549127 1.18742 -2.80544 -1.99269 1.88369 -0.750387 0.968644 -2.87096 0.330375 -1.71611 -2.77602 2.06626 -1.19298 -3.04441 -1.46965 -0.933624 1.02744 1.8405 -0.141708 1.15988 -1.06874 -0.729297 -3.36534 -1.22636 -1.44767 -1.58319 -2.14026 2.04125 1.05434 -0.713838 1.24113 -1.12148 -0.330333 2.56231 3.23757 -2.52783 2.11218 2.86717 -3.34547 2.27241 0.0680879 -1.89841 -0.259365 2.11306 2.25935 -0.404372 -0.870182 2.27425 -1.00077 -1.83168 -1.41467 1.61114 -0.668974 1.96628 -1.58888 1.86855 -0.884417 0.325749 -1.01607 -2.69794 -1.61696 -3.14238 -1.29244 0.388093 3.12661 3.16822 3.25594 1.22316 -2.03988 1.05594 0.347562 2.14394 3.27166 -2.20712 1.23871 -0.36281 1.2199 -1.87309 1.99098 1.33964 -1.0577 2.67227 2.20769 -1.02547 -3.27421 1.22118 1.09604 0.963376 -1.95705 -1.44485 -1.37954 -2.51771 -1.92375 -1.36635 -2.98112 2.1079 -0.26592 1.37039 1.4796 -3.3539 0.913488 -1.0776 -0.826617 2.67402 1.98534 2.44751 2.49441 -2.28992 -2.14425 -1.38206 -3.11022 2.39085 1.1541 -2.45563 -2.69773 0.324928 -0.0700736 1.77994 -0.285038 0.1424 -1.58073 -1.86833 -0.511555 -1.5349 1.05877 0.88448 -2.94503 -0.590123 0.00806059 3.24515 -1.78436 2.57456 1.53867 2.73346 1.90791 0.468742 2.13583 0.652608 -3.15106 -1.83004 -1.67908 1.30869 -2.5681 -1.61092 1.37244 -1.74229 1.25962 1.57664 1.83816 -1.05821 -0.18148 -0.15757 -0.366266 1.53968 -3.05245 0.673411 2.57324 2.32653 0.494392 0.699678 1.6678 -1.49348 -3.2854 2.29537 0.324552 1.75444 -1.30132 -2.93054 -2.77199 1.67094 -0.856512 0.0717364 -0.926658 -1.51686 -2.72908 -3.15141 -1.18677 0.419863 0.904418 2.72602 2.50852 -1.62621 -2.79663 -1.9412 2.05048 0.978938 2.60182 2.83366 3.47856 1.55955 3.23769 0.19385 -2.56074 2.05773 -3.2539 -1.0638 2.2108 2.51137 -0.461489 0.260434 1.18814 2.0429 2.43704 -0.106935 -2.16457 -1.42871 3.16862 2.98791 2.33025 -1.9 2.93216 0.831529 2.37125 3.07719 -0.726279 -1.85465 -1.04072 2.16549 1.74713 2.17945 -0.738041 2.50992 -1.85282 2.45382 -3.44361 -2.66408 0.57088 0.647034 3.23922 2.37598 0.119181 2.57565 1.20578 -0.991836 3.53671 3.43066 -3.30919 1.15198 1.01312 2.47788 -0.827203 -3.3173 1.526 1.07656 0.860165 1.57547 -0.509483 -2.03661 -1.40486 -0.938535 2.8279 -1.99013 3.17657 0.992482 -2.90134 1.26593 1.44841 -1.75667 -1.67907 -0.223524 2.78923 -0.012246 2.52963 -1.16826 1.86499 1.88077 3.22186 0.478066 -2.91724 -3.047 1.23314 2.9128 2.22065 -1.85904 0.571767 3.26426 0.871898 2.84696 1.94689 -0.144784 2.83411 -1.2298 -1.96818 1.54575 -2.75901 0.690587 2.30006 3.21812 -0.96271 -1.20894 0.452378 1.53788 1.14268 1.17092 -1.10305 -2.82182 -2.68019 -2.90824 -2.30185 -2.94924 -2.29103 2.0671 -0.0735949 -1.82537 3.02313 2.87449 -0.834625 -0.956842 1.41228 1.14064 -3.01779 -3.37026 1.5045 -0.243139 0.509114 2.01317 3.56893 0.406116 -1.73941 1.41538 -1.46212 1.54946 1.35953 -0.727924 0.811572 -1.83258 2.62162 2.69878 -1.16778 0.840555 -2.83509 -0.730306 -3.17951 -2.66814 2.83125 3.28562 -0.867799 -0.0286195 3.47998 -1.29137 -2.68138 1.07441 -1.37818 -2.37723 -3.15757 -0.530525 -2.32377 1.89523 2.36306 -0.359822 1.1782 2.55468 -1.3606 0.798676 -3.32697 2.12781 -1.64264 -0.9876 3.21263 2.24695 3.20961 1.91013 -0.773057 0.92387 -1.01036 1.09849 1.54533 0.80948 -2.77526 -0.663161 0.0196213 1.88495 2.3564 -1.25953 -2.72169 1.55408 -2.91667 -1.23692 3.39411 3.18666 0.0126554 3.33978 -0.875256 1.04303 2.12284 3.16199 -1.00353 0.278778 -0.916811 -1.90314 1.73917 -2.76966 3.23047 1.50903 2.70997 0.729578 -2.1909 -0.762146 -0.955068 -0.112801 3.5769 -1.48946 1.39075 0.875948 0.0539609 2.41547 2.49 2.89511 2.2268 -1.91518 -2.09363 0.772081 -3.19668 -0.728184 3.30512 0.315434 -0.730117 -0.76838 0.343536 -0.75959 0.870516 2.16059 -1.4524 -2.33076 2.70014 -1.68066 -0.168715 2.58394 -0.321516 -0.647168 -0.720561 3.46472 2.98845 -0.0310195 2.21137 0.0972594 0.520257 -2.96379 -0.367479 2.26628 2.97882 -1.19974 -2.71712 -3.07421 0.141748 -3.30912 -1.33892 -2.42001 -0.455762 -0.642801 3.26088 2.47702 3.21539 2.25621 -0.66355 0.00813116 1.33145 3.26582 -1.48516 -0.10846 3.06844 2.58281 -3.36037 -1.79077 -0.491851 3.18118 3.35918 0.660004 0.696804 3.25996 0.29929 -1.37199 -0.963899 2.12902 0.326631 -0.778145 2.32913 0.7921 1.4858 2.29061 -1.37748 -2.29567 -0.244099 0.530487 2.20538 2.22052 -3.29213 -0.396057 -1.04287 3.37025 1.35952 1.27115 0.643055 2.51325 1.26886 0.723371 -2.86775 -0.0139706 2.29799 0.579987 -0.815753 -3.40581 2.78123 1.5749 -3.08357 -1.80631 -2.17638 -1.36853 -1.72994 -1.38573 1.44139 -1.83609 1.42796 -0.557596 -2.48582 1.17714 0.433193 0.527333 1.38426 0.0650656 0.161906 -1.99933 1.66088 1.74392 0.32455 -2.5173 -1.45899 -2.55882 -2.88821 -3.04336 0.84739 -1.79976 1.6845 -0.98438 1.02872 0.6754 2.96982 3.48209 2.7423 0.74227 -1.05864 1.16595 0.823388 1.96411 -3.41885 -2.19017 2.06971 -2.04164 2.72739 -3.41878 0.651239 1.57315 -3.33694 -0.931629 -3.01834 -2.11983 1.56013 -3.17794 3.43545 -2.51581 -3.09276 -0.485124 1.53167 2.05749 -1.91711 1.12957 -2.65859 -2.4511 0.574488 -1.72189 -1.66227 0.757393 -0.159844 -2.15841 -2.09954 -3.42302 2.13537 -3.30748 -2.64868 -1.02399 0.48404 -0.0705922 -1.27353 2.16644 -2.51683 1.99109 0.735132 0.409563 3.15351 -0.855192 -0.0659598 -3.31397 0.969007 2.51744 1.59029 -1.40275 -2.26211 1.62369 -0.603953 1.92595 -0.717823 0.239724 -3.20168 -2.30193 3.12941 0.972996 0.279978 -2.01671 -0.472133 1.47087 -1.12739 0.602046 0.894983 3.45159 2.51522 -1.11897 -2.30514 -1.11169 2.13562 -1.26996 2.95336 -1.58751 3.07697 -0.958319 1.17474 2.13526 1.79005 -2.19665 -1.48963 -0.716409 0.528569 -0.18187 3.20989 1.29385 -1.14047 -0.189294 -1.33026 0.315162 -1.89916 0.968142 0.196203 1.87652 2.34075 
-1.17128 2.71509 -0.781457 -0.157436 -2.57603 -2.24085 1.74323 -2.93365 -0.475158 0.209326 -1.67114 -2.0638 1.68239 -2.24271 0.746253 -0.628918 -1.38696 -0.272399 3.087 3.12372 0.312355 -2.53289 -1.7459 -0.488103 -2.73044 -3.01138 2.80591 -0.0408699 0.335187 1.04721 3.36704 2.99897 -1.52013 -3.42242 0.201204 -3.27016 -1.41072 2.56914 0.769576 1.87768 -0.254674 0.901606 2.96425 0.548887 3.22605 -0.880875 3.27222 -0.847096 -0.151214 2.39949 0.315652 -0.865977 -0.972684 1.38299 2.99236 1.74228 1.14974 -2.80762 0.086361 -0.413423 -1.45261 -2.90551 1.67414 2.51718 -1.02212 2.17777 0.0863125 -3.06414 2.97891 2.80134 -0.707584 2.21611 0.182735 -2.47381 1.38242 0.0868858 -0.669268 -0.548783 3.24797 0.678759 0.993692 -2.10421 -2.40029 -2.139 -2.61549 -0.85039 -2.48379 -1.68085 1.09455 2.94499 0.0373446 1.81196 2.5229 3.07061 1.95075 3.0357 3.10557 0.523086 3.31413 0.397658 0.607538 -2.22657 -0.775524 2.27829 1.09577 0.882343 -1.23153 1.83227 -1.55906 2.52309 -1.65095 -2.9504 0.194609 -3.26183 2.63444 -2.42253 -1.3817 -2.82174 1.59383 -0.583821 3.28088 0.288749 0.620371 -1.30237 -0.062781 -2.24325 2.35088 -2.90045 -1.61284 -2.52197 2.87998 -0.449598 2.69519 2.94939 1.47412 3.42493 -1.44133 2.20051 -2.30606 0.799139 -0.262884 0.50009 1.17623 1.65556 2.6194 -0.0839909 2.16726 2.67795 -0.397806 -2.0011 2.08077 3.02353 2.13967 2.17794 1.79122 3.37784 2.61935 -0.848008 0.0325496 -2.67776 -3.21595 1.3807 0.0129859 -3.3341 2.49302 2.33401 0.345626 -1.09226 -0.067444 3.38302 2.60908 -0.206804 3.38288 -1.62421 0.49381 2.87825 -0.476974 2.55222 1.13082 -0.998434 0.946098 -0.940638 2.03322 0.164507 2.18581 0.131476 3.34347 -2.34127 -1.33422 -2.86087 -1.6008 -2.43577 3.03746 2.86807 0.370846 0.622058 0.438315 -2.30947 0.469746 0.611631 -2.39765 -3.41114 -1.04796 1.56541 -3.06501 -1.12003 3.66492 0.297851 1.90341 0.14389 3.76271 -2.91973 -2.06773 -2.28709 1.36299 2.10959 0.832206 -1.64868 0.903454 0.821406 1.04422 -1.76861 2.2924 0.555584 1.43253 -2.67161 -1.37354 -1.8067 1.13466 3.38305 -0.682839 -1.85491 3.55176 3.13963 -0.133336 1.23903 2.53536 -1.9973 -0.768495 -1.00453 0.299517 0.959969 3.57841 -1.49955 -3.08971 3.06488 3.38075 -2.01689 1.77159 -0.23959 1.6569 0.0323746 0.545871 -1.35979 -1.94309 -0.795147 0.270396 0.056377 0.610883 0.783486 0.489911 -0.758149 1.58454 -2.69292 -0.729235 2.0331 1.6001 -2.61469 1.04775 3.8029 -0.0356714 -0.671718 2.65552 0.507776 3.30217 -3.04696 -0.746179 -3.32853 0.374734 -1.41058 2.72426 -0.856501 1.08271 -1.80821 -1.45293 -0.468226 2.81089 -2.29981 -2.64912 1.01489 0.747345 3.04021 -0.529299 3.50748 -1.49257 -2.39664 -0.186933 1.84461 -0.214248 -2.69474 -1.36614 0.918078 2.18 2.22903 -2.82869 -0.96877 3.03353 0.866128 2.69372 -1.70704 -1.51509 -2.20837 -1.09923 0.0525279 0.0861293 0.965707 0.436668 -2.29546 -1.09122 -0.18988 0.85268 -0.260055 1.83682 -0.323574 -1.53014 2.34367 -2.71601 -1.35114 1.17526 2.98753 -1.66046 -2.79855 1.56403 -0.648338 -3.19656 0.17206 2.53485 -0.456413 -1.93851 -1.34638 3.41931 0.0134235 0.677121 -0.41261 0.545005 2.68477 0.120466 -0.278213 -0.040394 -0.872369 2.44802 0.0583592 2.14917 -1.49823 2.22008 0.987574 -2.85907 1.31451 2.67204 1.60836 -1.78122 1.56417 2.36575 3.45568 3.13099 2.49802 2.246 -3.0247 -3.32396 0.915345 -1.13759 3.29797 -1.92858 1.21265 -2.42403 0.850393 -2.91559 -2.43436 1.08168 1.38922 0.449265 2.55431 3.21437 3.29754 -3.03203 -0.663866 1.83392 -1.90743 -1.34221 1.49317 2.06187 -1.34246 -0.869682 0.24319 -3.28499 -1.95774 1.4825 -2.33799 -2.44584 0.111476 2.32298 -3.14376 -1.14498 -0.467657 1.57111 3.51407 -0.488596 1.82355 1.79547 -2.95243 3.52348 -1.12663 2.75924 2.08756 2.2083 0.373317 -2.75853 1.10779 -2.04256 -3.35206 0.46511 -3.16893 -0.49971 3.00665 3.04147 3.50209 1.16684 0.404959 1.72409 -1.40188 0.827862 -0.623691 2.47001 -0.201161 0.548776 0.760348 3.63758 2.39386 1.82457 2.70604 -0.54664 0.0012852 0.340648 -1.96411 -2.68819 -1.9255 2.0652 3.20839 1.28232 -1.48751 0.620737 -2.28151 2.25914 0.934093 -2.24454 -1.11538 2.42702 1.68924 -1.71042 -0.550578 0.310929 -0.716887 2.21553 3.12165 1.14907 -1.01454 3.25086 2.266 -0.725157 2.12923 -2.70727 2.94086 -1.06721 0.600987 0.959174 0.671389 -0.628064 -3.22207 2.30234 2.46815 0.0378156 -1.20062 -0.399956 1.34263 2.81944 1.38719 -2.65087 0.135194 -1.49294 3.6549 2.24634 0.0744285 -2.03718 2.13621 2.85606 -0.544999 -0.914644 -1.92483 1.87049 3.13656 -2.95309 3.04853 -1.59353 2.8031 0.28824 -2.38711 3.4581 -1.56735 -2.47554 3.37483 0.828998 -0.502774 2.81266 0.202333 2.6965 -1.88224 -0.45345 -0.719002 1.44329 2.20669 -2.70466 0.596773 -3.01573 1.97645 -1.65291 -0.272246 2.20283 1.06228 0.24892 -2.41491 -0.789108 1.27637 2.59227 0.019603 -2.31265 -1.79298 -2.72676 1.22619 -0.522454 -1.33313 -0.745809 -1.42345 3.04181 1.15776 0.310654 2.52959 1.24942 -2.00058 2.53694 0.629625 -0.447363 -2.6026 -0.619205 -2.64903 3.48332 -0.270537 -2.54962 -0.428676 -0.957578 1.56216 -1.36538 -2.15939 -0.558042 2.30742 3.43575 -0.409376 1.30541 0.918401 0.553449 3.5161 -0.486288 1.29629 -1.86626 2.00434 -2.5978 -0.20356 0.111913 3.49541 0.00588715 0.0899521 -1.05584 0.921361 -0.285935 0.855063 -1.58492 1.0022 -0.810849 -1.99939 0.270307 2.24823 3.44046 0.744884 2.18688 -0.774695 -2.36563 2.72016 -1.22804 -2.2132 -1.35107 2.60036 0.674714 -1.52888 -1.56381 -0.161977 0.866207 -1.95016 -1.98662 -0.581615 3.41069 3.25908 -2.45511 -2.34986 2.25482 -2.1232 1.05321 0.0156174 0.927035 2.75073 2.42714 -1.79996 -2.57135 -0.0428928 3.49456 -1.90273 -2.19544 2.17287 -0.297698 -1.53045 2.47564 -2.56261 1.8504 -0.902583 1.77649 1.96637 0.321058 0.188597 0.659418 -0.54883 1.13164 -0.0947807 -0.926498 1.39943 2.87036 0.788554 0.0638393 -1.1331 0.0555904 -0.340466 -2.68534 -2.16543 -2.20173 -2.05764 -2.32513 3.62558 -1.64474 0.137602 -1.45277 -0.384383 -0.980876 3.00792 2.19044 2.95071 -2.65144 0.378454 -1.81199 -1.32676 -1.32934 0.0910162 -2.88671 0.624295 3.35652 0.756706 -2.48255 -3.19784 3.3203 1.64171 2.99472 0.567139 0.741073 -0.590359 -3.26156 3.42837 -1.85185 -1.33279 -2.88147 3.13262 3.29959 -1.36652 1.81692 -2.30817 -0.09946 -3.44427 1.55803 1.94806 1.41742 -1.26733 -1.14801 2.5272 -0.844888 1.2533 2.94614 0.219101 -0.717489 1.17935 -2.83168 -0.541803 -0.575631 -2.66469 1.08144 -0.825871 0.313307 0.38996 3.28312 1.24536 -3.43827 1.09422 -2.93335 -1.9555 -2.89229 -2.64514 -3.21877 1.81715 -0.257522 -2.46798 2.10591 -0.317977 -1.89491 -0.203123 -3.41439 -1.95526 0.216236 -2.83321 -0.787071 -3.41494 -1.04197 2.49964 2.31753 -1.11043 -1.72466 0.563191 -3.24343 -2.65394 -1.26281 -3.24706 0.828957 -1.09926 -1.21428 -0.680323 1.84514 2.2829 3.21737 -0.11192 2.11988 1.11923 -1.31821 0.853314 2.26569 2.98295 3.05681 -1.34968 1.00315 1.32325 -3.00838 0.786499 -2.67783 0.644341 -0.860561 -0.933339 2.03534 -3.36536 0.10869 -0.99861 -0.843229 2.49774 -3.23906 -0.752379 2.81485 3.01345 0.673143 -0.0878512 -3.36532 2.24662 -1.48728 -0.209851 
-1.73372 -3.27898 0.894862 -0.672688 1.27809 2.197 -3.428 1.79412 1.58798 -1.51493 -1.60721 -2.11232 -2.33439 2.20017 0.539504 -0.29569 2.53572 0.593587 -0.86173 -1.69811 0.891777 -3.17435 3.36474 -0.0498731 -2.77468 0.213851 3.16759 -2.35442 3.18512 2.32364 -3.46461 2.49785 2.694 2.43091 -0.857714 -2.19555 -1.02413 2.56927 -3.33837 2.34159 -0.683946 3.49495 1.38164 -2.35354 -3.40403 1.29115 -0.296597 2.36889 -3.38066 3.04621 -1.92883 -2.48786 -0.111658 0.34183 -0.676264 2.56309 1.73887 1.71174 1.40741 -0.687224 -1.74239 -1.17993 2.26781 -1.52935 -1.34863 2.88632 -2.81775 2.72901 -3.44565 2.82774 2.18741 1.92616 -1.00629 0.100622 0.732861 0.210688 -2.78151 -1.02655 -1.44768 -0.197107 -0.131432 2.57374 1.45863 -2.37772 1.37641 -1.99853 0.198816 0.626611 -0.646847 0.106072 1.54324 0.379026 1.7215 -2.37778 -0.470797 2.45803 -2.21112 -0.030932 -3.4311 1.42037 -0.762533 -1.45204 0.434518 -2.07703 2.72499 -2.52121 2.48464 1.56996 -0.806816 0.402652 3.03522 -1.84971 0.912799 1.80263 -0.812164 -1.98142 -3.30831 2.36123 1.81511 1.36786 3.06242 -1.89057 -3.39641 -3.0159 -0.535359 1.66159 -2.76462 1.60428 -1.99329 -0.671417 3.34841 -0.829102 2.62452 3.25787 -0.730744 -2.01936 1.54639 2.43133 -0.182497 -1.94415 1.54914 -0.443351 -0.469616 0.723899 -1.92531 -1.95179 -0.846379 0.988214 2.36414 -1.13773 1.71026 -0.442307 2.82361 -1.78484 0.635853 -0.384484 0.292434 -2.91354 -2.75796 3.27812 -1.78718 -2.88205 1.00478 -2.51239 -1.40725 3.33734 -2.71694 0.128677 2.387 2.15346 1.6028 1.98716 -3.3215 -2.579 1.65032 0.210065 0.210339 2.20575 -0.0786763 -1.87569 -1.64396 1.3807 1.13268 2.77901 3.28356 3.31784 -0.661386 3.30923 -3.43645 3.03794 -1.29784 -1.73374 -3.36677 3.17961 2.18265 1.66813 2.87835 -0.769373 -1.56491 1.0014 1.84805 -3.01197 2.76452 2.78209 -1.95107 0.716872 -2.6459 1.17583 3.11679 2.14939 -2.57534 -2.25205 -0.0134465 -2.77459 2.87832 -3.38137 -0.98932 -0.475435 1.95648 2.89431 2.27417 -3.37522 2.91293 -0.172697 -1.98581 1.00687 2.89232 -2.64569 2.33967 1.40288 -1.77877 -3.46705 -0.602465 -2.96098 0.0286496 2.88627 2.82723 0.287048 -0.38081 -1.5859 -3.32637 -3.42634 -2.11549 2.05563 -0.34909 -2.68719 -1.27645 -1.2117 -2.82582 0.813577 3.03549 1.89146 2.97875 -1.19047 2.86503 -1.94216 -1.50896 1.25436 -0.374187 -0.85351 3.32839 2.67886 2.48562 2.77203 1.00302 -1.29634 0.194004 -3.10673 -2.19289 -3.42101 3.05892 0.285126 3.24302 1.25917 -1.23258 -0.447751 -1.86311 -2.25195 0.0892269 2.72012 -1.70295 1.60923 0.0610484 -1.94398 1.63777 -3.30359 2.95912 2.49278 -1.37753 2.47803 -2.00164 0.381432 2.58085 -1.45027 -0.840095 0.0886426 -1.30134 -1.38752 -3.0455 -2.84309 1.16436 2.62159 -2.49833 3.06589 -1.61672 3.19683 1.27796 0.618397 -2.64021 2.96863 -2.49068 -2.17329 1.50683 -1.07402 2.52655 -1.89006 3.43167 0.562991 -2.17451 -3.06102 1.66906 -0.821284 2.45332 -3.74222 -3.48404 1.24906 -2.869 2.11053 0.241984 -1.17364 0.0928938 -2.37517 -0.68871 2.443 2.75831 -3.25987 1.17556 -0.683424 -1.42741 2.33141 0.0201525 -3.0941 0.950551 -3.12018 -1.06145 3.56025 1.01657 -1.55129 -2.08935 -1.68242 1.73659 1.49959 0.715394 0.00975678 -3.6109 -0.293097 -3.10008 -2.25189 1.70051 -1.45019 3.43746 0.605434 -0.433964 -2.8641 -2.28629 -3.21819 -1.59548 1.01416 1.13833 2.14077 -0.495289 -0.776149 2.28585 -0.976181 2.04535 2.46217 -1.08249 2.55601 -2.55519 2.57283 2.50307 1.37368 -1.46604 -0.635081 -0.54699 3.59524 -1.25351 1.74599 0.772918 0.172918 -1.73707 -1.51704 2.89321 -3.40826 -0.167098 1.95211 -2.58246 1.11929 -2.75742 -2.57623 -0.499134 1.34742 -0.049768 2.00134 -2.48801 -0.783107 -2.50492 2.08511 -3.42155 2.31307 -2.42398 -2.92224 -1.14865 -1.64728 -1.73666 0.854771 -0.328349 -1.28328 1.55608 1.18438 2.49225 -0.496891 -3.16629 2.23368 -2.23817 -1.99164 2.59271 2.69934 -1.62246 -0.761108 1.73939 -3.0233 -0.441408 2.07416 -1.16846 1.29796 1.24644 0.242515 -2.22113 0.319193 0.612171 1.99064 -0.494305 3.17227 1.56454 2.59257 -1.93456 -2.10204 -2.493 0.25748 -1.40153 -2.75596 1.01789 -0.727887 -2.37451 -0.0506935 -0.13302 -2.63544 -3.22327 2.97094 -2.96262 -1.38965 0.381746 2.8188 -1.04761 -3.16734 -2.24835 1.63056 -1.9549 2.52516 0.459882 -0.671912 1.47838 1.64452 2.16652 -2.13419 0.311505 -2.43902 2.77818 0.870784 2.07862 2.365 -2.26785 0.285739 -2.96913 1.90226 -1.96019 -1.0264 2.33913 0.655237 -0.604802 -2.7955 2.41325 -2.00175 -0.25922 1.88179 -2.96401 2.67924 1.27123 -2.74265 1.73754 -0.879329 -0.352247 3.39843 0.597806 -0.587543 -0.233853 1.64026 1.11658 1.35537 2.70452 -3.1564 -0.378027 0.329151 1.58074 -2.71582 0.763409 -0.0426804 -1.78974 -0.887349 0.481318 -3.32948 -0.931959 0.23481 -1.32295 -3.17995 1.40994 -2.3529 -1.95708 -0.109843 -2.43864 0.156707 -2.54705 -1.07298 0.206163 2.75881 2.89165 -1.8899 0.258297 -2.14074 0.414219 -1.74731 -1.40084 -0.00945795 3.21644 3.25602 2.62011 -2.3729 -0.429318 2.44313 1.323 -1.49746 -0.815442 0.972392 1.96575 2.3103 -1.6262 -0.57663 1.14886 -2.59618 0.916254 -3.26467 2.49168 -2.20489 1.50772 -3.27048 3.05253 -0.240193 -0.936281 -1.1616 1.01365 -1.80846 -0.571335 1.98808 -3.17765 -2.84833 -0.299198 -0.809565 -0.901156 -2.03155 -0.718299 1.64235 2.67391 -0.290697 3.29337 2.97406 1.32079 -0.0636555 3.48647 3.47014 3.31467 3.36234 -1.54571 -2.64341 -3.46803 0.982969 2.49449 0.492496 -1.35057 1.80813 -2.27016 -2.17775 2.34216 1.63689 0.489763 -2.17932 -1.11826 0.338915 2.28151 -1.29459 -0.579665 -2.81194 -1.68585 -1.38845 0.68736 -0.703663 1.0813 -2.92969 -1.33326 -2.63105 3.08849 2.5838 -3.04071 -3.09227 -2.84059 0.667742 2.98871 -2.90051 -3.45086 0.542235 0.25222 3.19278 0.356013 1.46654 -0.878328 0.506898 1.92489 0.794966 2.83078 -3.34182 -0.988523 -1.84572 0.586557 -1.70067 -2.03836 -1.05392 0.394567 -0.694141 -0.442701 -3.12259 -3.34662 1.2688 3.22206 3.04995 -2.53574 1.32693 -0.179152 0.344759 0.585623 -1.48887 0.907737 1.81162 3.14933 -2.67287 -1.64803 -1.31315 -2.44185 3.1755 1.46242 1.58373 2.42651 -0.531437 -2.54877 -3.2194 -3.29222 -2.89543 3.09852 2.53123 -0.636818 -3.07447 -0.561136 -0.0753557 -0.302892 -1.88999 -2.92778 -2.25417 -2.93083 -0.87272 0.00578479 -1.77713 1.2688 0.902724 2.51866 -0.249748 -1.61149 -1.88602 -0.64708 1.43534 1.92585 2.243 -2.9543 -2.83078 3.33818 0.392477 0.441007 -3.38016 3.17493 -2.65548 0.684316 -1.86676 2.59416 -0.916169 2.20887 0.47028 -2.05428 1.79916 0.0501785 -0.0722944 1.19816 3.41187 -2.53112 -3.38768 0.534485 0.890379 1.94279 0.0352484 2.88008 -1.01101 -3.19989 -2.3166 0.896929 -3.06009 -1.8399 0.913261 -0.072894 -1.19554 -0.580514 -1.32079 -0.119756 2.3293 -1.40853 3.16836 -3.28773 2.39703 -2.33024 -1.13534 -1.89766 -0.679786 0.302202 3.2744 -2.40011 2.96819 2.03762 -0.583063 -2.99158 0.693405 -1.79532 1.67005 1.10972 1.04252 1.81602 3.09891 -2.85538 0.444208 1.87132 -0.026026 1.18593 -0.240752 -0.292809 -1.87702 -0.247199 0.638775 2.95053 0.109687 2.91779 0.472699 3.32111 1.44329 0.349147 -2.33466 2.10959 2.98983 -1.85629 3.01907 
-0.554394 1.90917 -0.447805 2.84049 1.40523 0.471782 0.60238 2.05684 1.01609 3.09998 1.88903 -0.0870972 -0.795327 -0.294132 2.8075 -1.28855 -1.19993 -0.661676 2.26989 1.55267 -2.95234 0.998153 -2.96893 0.47821 -3.05583 1.85096 -2.01283 -1.94347 -1.51498 1.95978 2.0508 0.68438 -2.94605 1.39847 1.34822 1.89107 -1.47559 -0.855273 -2.44422 1.42955 -1.41163 -3.44392 -1.71688 2.73267 0.625977 0.556022 0.940779 -2.42751 2.58646 2.10277 3.27712 1.23523 -3.38306 -2.19724 3.42399 -0.827329 -3.40729 -1.26017 2.6606 1.35939 1.68529 2.46336 -3.15581 -3.0129 1.71685 -2.67695 2.1105 -2.7419 -2.49359 -0.814932 1.59122 -0.232527 -2.39344 -3.08191 2.02008 -1.36653 -2.87866 2.82672 1.72083 -1.27675 0.455285 -1.43166 -0.865884 -1.05737 -2.12228 2.29526 0.0244061 1.67099 -0.580126 -0.52383 2.23812 -2.79612 -2.22021 0.653074 0.970295 0.39051 -2.36403 -0.444129 -2.43178 -3.06634 3.44978 -1.28189 0.971199 -2.38525 0.74982 -0.644624 -1.29966 -1.1049 2.06362 0.461302 -0.184124 0.943863 -2.65081 2.31337 2.96634 2.75095 -0.34092 2.83613 0.0413136 -2.83974 -1.09047 0.302017 3.47255 -2.40208 -3.06944 -1.45713 0.340745 2.48359 -0.329064 -0.961322 -3.09209 2.75661 0.838499 1.27529 0.29388 1.65137 0.635833 0.328487 -3.2902 -2.58852 -2.16859 2.73347 3.10073 1.80113 2.80817 3.40717 3.14782 2.37918 -1.22629 1.34159 -0.762671 -2.85059 1.48563 2.13893 2.64123 0.722574 1.79053 0.122069 1.45753 -1.32048 -1.19902 3.18628 0.339903 -1.28408 2.23179 3.04586 -2.0731 -0.962352 2.19174 1.1339 -0.57796 -2.36828 -1.55632 -0.144839 -0.861251 0.191085 2.58548 -2.86012 2.05148 -0.925213 -3.09679 0.427457 -2.88711 -1.68942 -0.617338 2.94452 1.15426 0.0687087 0.769318 2.23061 1.64571 -0.169319 -2.40775 0.32004 0.213633 1.61125 -1.97015 -1.83978 -3.07719 -3.2492 3.09968 1.49493 -1.04123 3.45595 1.82773 -3.21971 -0.980036 -0.583303 -2.91631 -0.785507 -2.23947 -3.00069 -0.721201 2.64548 -1.71793 0.790639 1.41071 2.11261 0.420033 -0.744417 -0.840873 2.20092 0.61513 2.09508 -0.603985 -3.47332 -2.16227 -0.53947 1.38442 -0.156606 1.73081 -0.975388 -3.16403 -1.93306 -1.44641 -2.27714 3.59719 1.17967 0.873935 -0.426379 2.94164 -0.579568 0.610398 -0.942577 0.857734 -1.53998 2.00356 2.34508 -2.0891 2.02287 -0.393874 -2.7588 2.14051 -0.906687 3.3856 0.546296 -2.36042 -0.384295 2.77541 -1.1392 2.68149 -2.57337 -1.34208 3.06237 -2.69963 0.525687 -2.22176 0.127138 -3.22349 0.535662 -2.42611 2.50046 2.15711 0.72751 -0.773543 1.70116 1.21965 -0.722309 -2.88761 -3.03696 1.44083 -1.90328 3.16131 -1.29187 -2.89632 2.99153 2.42954 0.0832057 1.4281 2.9063 3.08608 1.74587 1.95862 3.47379 2.42149 0.0173326 3.18435 0.884211 -0.22295 -2.17937 -0.0415419 1.73298 -0.215464 -0.0930627 -2.70222 -3.35205 0.095323 -2.74718 0.369382 -3.42274 -2.25711 3.18422 -1.93527 -0.905993 -2.31321 2.23426 -1.26218 1.50827 2.42522 3.01235 -0.761666 0.0611171 0.811926 -2.72228 2.39104 0.856369 2.93359 -2.59281 -0.612841 -3.54692 3.21303 -1.77785 -2.65483 2.79031 1.01227 -3.02677 1.66378 2.4044 2.57711 0.25921 -0.948703 -2.1231 -1.00862 -1.22565 -1.12354 -0.891867 3.47911 -2.29987 -2.52632 0.508304 0.251864 -1.41304 -3.00561 -0.642991 -1.94702 -0.0650897 2.02195 3.25083 3.43195 -1.15329 -2.37834 -2.23158 1.43525 -1.4493 2.41049 -0.199527 -2.18275 -1.14509 -2.19987 0.848316 -3.33992 -0.442672 3.25596 1.46705 -1.35221 0.686196 1.12362 2.44223 0.473663 3.11942 -2.26422 -1.78072 -1.28904 3.23863 1.82194 -1.02417 1.56021 -0.0846991 1.72877 -0.817279 0.609816 3.24641 1.18038 -1.03501 -2.75073 1.03749 -0.215679 2.96293 2.82212 1.83197 -3.19168 2.91439 0.810873 2.49152 0.941338 -2.05411 1.60973 3.67111 -0.28703 -0.554645 1.62975 -1.61509 -1.45809 3.38655 -0.320338 -2.00606 0.987891 1.42438 0.867101 0.818212 -0.333674 3.45994 -1.22765 -1.02199 0.877407 -1.73899 0.178997 0.676452 -0.815418 2.61178 -2.21146 1.39814 2.52263 -1.39535 3.46049 1.95057 2.11006 2.19018 1.64112 1.36017 -1.21843 -1.31892 2.81384 -3.12617 2.56862 -1.50553 -3.19816 1.05977 2.14363 -1.91573 1.44161 1.94313 -1.70118 2.64253 -3.31708 -2.06908 -3.31174 -2.33721 2.21286 -2.79226 1.0839 -2.20793 -0.103027 -2.34239 2.91789 1.17664 1.25815 0.208816 3.34548 -2.50126 3.36486 -0.659543 -1.17154 2.58498 -1.94115 -0.799408 3.10059 3.37695 -3.17764 -2.54024 0.145372 -2.73074 2.85671 -0.577925 2.45192 -2.08571 -0.757137 2.16025 -2.47938 -1.62023 3.34114 -0.155809 2.62315 2.82281 -2.84929 0.802412 1.6663 -0.854482 -2.92733 0.00109111 -1.31215 -0.34377 -1.67877 -0.919552 3.31919 1.99282 -1.90742 -2.13739 -2.75548 -2.79251 2.9616 -1.55279 0.0508623 -1.86891 0.736678 -1.10097 0.917186 -0.56603 -0.201913 3.56 -0.755737 3.27119 0.767056 -0.0197534 3.14771 -2.04182 2.93937 0.0508776 2.75389 2.54057 -0.455219 1.80994 -1.88429 0.188318 0.713036 -2.56799 -1.85213 0.959262 0.511305 2.59522 0.540263 2.63141 -1.21753 3.01853 -0.91321 -0.22366 -1.89306 -2.56356 -1.10938 2.99909 3.09266 -0.0012137 -0.604726 0.404267 -2.15518 1.23968 -0.524389 -2.4675 -2.80893 -2.40797 -0.264083 1.92801 1.50302 2.98568 -0.678975 -1.21503 -0.765988 1.5253 2.43702 2.69477 1.45067 0.264043 0.733919 -0.0786762 -0.671745 0.51532 2.15471 0.344962 3.52066 -2.69873 2.00025 0.725668 -1.84581 0.763001 0.71088 1.77789 0.182545 -0.457746 -0.990126 -0.620013 3.44856 -3.16455 3.06211 1.95466 2.93578 -0.00512647 -1.7 -0.688579 -2.96832 -0.614771 1.48311 2.39845 -0.648958 -2.03303 3.61431 0.505267 0.31234 1.86945 -3.32589 -2.77943 -1.50534 -0.680804 -0.0369692 -3.20102 -2.89568 3.30753 2.94391 2.22523 -1.2511 2.2133 0.350119 1.09711 2.48783 0.34521 3.24349 -1.58848 2.45062 1.04116 0.298557 -1.99456 -0.961111 -0.189996 -0.29602 -0.824365 -0.0374335 -2.9006 2.13864 -0.994271 3.43263 -0.0127925 -1.01737 0.936337 -0.40682 2.41162 -2.56547 0.25877 2.86529 0.759805 -3.17004 -1.47883 -1.29016 -0.150411 1.30778 -1.16144 -2.50252 0.910322 -2.73877 3.46534 -0.157322 -0.168359 -3.24266 -3.00227 1.0971 2.48263 -1.91944 -0.523124 -1.32844 -3.15059 1.73094 -0.445481 -1.89665 -0.69929 -3.26423 -0.783912 2.9733 -2.85208 -1.60675 1.99406 2.65037 -0.0696245 -1.50781 0.67685 -1.34193 -2.05999 1.14466 0.188225 -0.209829 0.770116 1.51314 -0.0527391 2.62118 0.284265 1.81858 -3.44702 -3.24637 -2.03832 0.611587 0.470839 -3.29329 -1.29218 -1.32139 -0.632547 2.31272 1.66408 -2.92611 1.26752 -1.16873 2.75143 -0.29972 -0.521011 -2.80426 1.17029 -1.79906 1.71513 -0.524964 -2.55604 -0.852977 0.0936877 1.1269 -0.000917839 3.48134 2.58715 -2.83276 -0.602751 1.02112 3.15147 3.47717 0.0823428 2.56531 -3.35394 -1.22016 -1.61787 2.18573 1.86848 -3.37322 -0.343638 3.21006 -0.967354 1.2485 -2.13559 -2.54327 2.56583 -2.62251 -0.808951 -0.837227 1.42658 3.1349 -0.713604 1.20787 -1.6302 -0.979163 -0.918289 1.40847 -3.21597 3.44078 -1.42129 -0.178315 -1.58918 -3.02957 -1.1035 -3.10652 -2.45067 2.07365 1.07065 2.23683 0.872012 -1.1783 0.398296 -0.16632 1.74484 1.98459 -2.6335 0.100331 1.52112 3.14358 0.00993974 -1.65426 -1.99582 2.11988 0.011024 -2.26732 -0.571691 -2.66872 2.53976 
1.08203 2.94219 -0.4506 1.72947 -2.79842 0.180817 -2.37522 -1.6921 -2.65137 0.757384 -3.25438 2.12745 -1.64913 -1.971 -0.168018 -0.152908 -1.79529 0.816646 1.67081 -2.79682 -2.29671 -3.41124 -3.16839 -1.7014 1.79126 -0.0910113 3.22719 0.0673367 -1.4176 -2.19417 -3.04909 2.83567 1.94218 -0.0902822 2.69843 1.08222 -2.36473 2.66707 -2.5968 0.852889 -3.32729 2.43361 -3.16237 -0.930734 -1.03866 2.66627 -1.97203 -1.93285 2.15357 -0.527202 1.41023 -2.84714 2.60288 -2.30809 -2.88269 2.58774 0.604878 -2.26439 0.522463 -1.3472 -2.82012 -2.15029 2.51403 -1.70636 2.60626 2.51966 0.343038 -0.789381 0.390941 1.15754 -2.73924 -2.44552 1.78475 -0.1165 0.950993 -0.317624 2.00835 1.55612 -3.07181 2.17434 1.98535 -2.69519 -3.06057 1.77421 3.08619 -3.20515 -3.15306 -2.21211 -3.41669 -0.175239 0.33918 -1.08922 -3.00866 3.32958 2.40935 1.27312 3.1984 3.23273 0.490999 2.78246 0.984739 2.43204 1.12428 -1.90196 -3.35882 -1.81165 -2.67363 2.57858 -2.09604 -1.27676 0.899778 1.88192 3.00081 -3.3442 3.08409 -3.47954 -1.43731 -1.04324 3.45519 -0.000546725 -1.66356 0.164002 1.31713 -3.0055 -1.47725 1.10461 -3.1391 3.29321 -0.684311 3.00336 2.1334 -0.863899 1.69667 -2.44566 1.51522 -1.50047 0.810365 -0.550467 -0.855751 -2.01613 -0.917355 1.50794 2.18604 0.142828 -0.586891 0.0206124 2.23545 2.52794 -2.95943 -1.99257 -0.342147 -0.537108 -1.40348 -3.01473 -1.02841 1.65133 1.46837 3.21626 0.707858 3.05751 2.53734 0.0568211 -0.729795 -1.888 0.727191 0.970059 0.22316 -2.45211 2.88898 -0.789992 -0.719156 -2.97034 1.69196 -1.9918 2.22211 -3.3857 1.09951 -2.56323 3.20624 1.8717 -0.818532 -0.959726 1.11145 3.36138 -2.61809 -0.757962 -2.76009 -1.98244 -3.009 2.98595 1.80123 2.67134 -3.35432 -1.24317 2.87548 -2.9596 1.94101 -1.94069 -1.22051 2.81183 -2.1665 0.313281 -0.448253 -2.33718 -2.60809 1.6296 -1.35348 -0.479878 2.88181 -0.283869 -0.969294 2.67104 1.26522 -2.2784 2.62724 -2.81031 1.76766 -2.75068 1.62624 2.13703 -0.00234392 2.01149 -0.602216 -3.19131 -1.25627 1.5445 0.570483 2.3772 -1.40565 0.286317 -3.18684 -1.70706 -2.42945 -0.197307 2.64024 1.80869 -2.50997 0.82972 -2.56335 -2.63013 1.01228 3.3435 1.39942 -3.19018 3.28455 -3.3244 2.83007 1.07337 2.32306 -2.53789 0.766434 0.187278 -0.647005 -3.30561 1.19845 0.598215 -0.29585 3.22067 -2.44427 -1.13475 2.58774 1.90782 -2.53273 -0.335485 0.670204 -2.62865 3.5403 -1.35374 0.498428 0.340633 0.469284 3 1.21118 -2.73809 -2.30097 -2.33045 1.4574 -3.29384 0.150257 -1.95405 -2.6473 2.86838 -0.513431 2.83605 -2.68893 2.10789 -0.754277 0.97253 -1.71471 -2.20525 -1.05782 -2.46236 -2.23156 2.79727 -1.50144 -2.8112 2.49423 3.10314 -0.346282 -0.368564 -2.27852 2.78204 -0.654932 1.76217 0.444335 -3.11482 -1.27866 -3.43064 -3.43294 1.54574 -0.46065 -2.56641 0.0554206 -2.29185 1.44174 -2.78493 -1.11806 -3.62259 1.57423 -1.57431 1.52728 0.0859932 2.40835 2.74027 2.57773 0.0464266 1.45523 -2.62544 1.99105 -1.7624 0.259648 -0.043791 3.27624 -3.21267 1.7018 0.551359 1.37417 2.94272 0.556648 -2.3691 -2.72559 2.87637 2.25918 -2.74223 -3.14438 -0.817472 -3.14372 0.488238 0.626215 -0.537566 -1.41269 -2.59392 1.21586 -3.46129 0.090098 1.80419 1.21892 0.772892 3.35473 -0.1486 1.36687 -2.51754 1.36647 2.75527 -0.627135 1.1494 0.829236 -1.3188 1.88459 1.19056 -2.47398 1.98148 0.789919 -3.79013 1.97911 -0.396893 0.564133 0.420189 2.33223 0.523599 2.62333 1.2234 1.85919 2.94493 0.278376 -2.83055 0.427442 3.00158 -0.20389 -2.01944 -2.8531 -2.98634 1.09136 -2.51862 0.0900651 3.21891 -2.05599 0.369455 -0.846983 1.17369 0.290344 -0.731026 1.32841 1.71523 -2.84601 0.941673 2.31712 -2.46193 0.540766 -0.829049 -1.208 0.783175 1.49949 -0.170653 1.08276 -3.34633 -1.84207 2.35818 -0.00344299 -2.34871 1.71015 -0.593257 1.02137 -1.27848 -0.0617177 3.15356 -1.86835 0.362188 1.36815 -2.58937 1.54337 0.266321 2.27229 -0.773498 0.421435 -1.79731 2.69187 -3.5675 -1.3522 -2.80015 2.52285 2.23377 -2.6203 -0.687325 -3.1756 -0.00721032 -1.87762 -2.11271 -0.141342 0.0328854 2.20777 2.87837 -0.027572 -2.50837 -3.47559 2.19503 0.37781 -0.279304 -0.0103952 -0.771327 -0.653153 1.64806 1.33601 -3.68723 -3.36704 -2.38924 1.30268 0.0527442 -0.482826 2.80132 1.05308 3.34055 2.46546 -1.16597 0.746144 -2.42905 -2.54686 0.288669 -0.804986 1.84683 0.182099 -1.89571 2.08216 3.08264 -1.16071 3.04428 -0.0790041 -3.49789 2.53357 1.53721 -3.00117 1.06154 -1.17446 -2.60122 1.54246 2.19879 -1.00697 -3.07104 2.78494 -2.07221 -1.40978 2.2909 1.11897 0.52055 3.28111 -3.46337 -2.39394 -1.31394 2.59248 1.76442 -0.843103 2.70035 -0.412332 2.18089 1.7895 -3.37733 -2.41005 1.27534 -0.804899 0.242256 0.241359 3.30335 -1.3106 -2.37077 -1.19975 -0.720747 -0.589728 -1.01258 -2.08955 -1.25959 -0.311798 3.48572 3.42738 2.98591 -3.01613 1.4004 0.147965 -2.28294 -2.3138 -1.44666 -1.71489 3.29657 -2.35952 1.21154 0.312698 1.63038 3.5046 3.46104 -2.7658 -0.544798 2.67858 -2.07015 -3.09844 -0.428743 -2.50658 2.84611 -1.64575 -0.621374 -2.77546 -2.19357 0.266274 3.46256 2.0002 -0.0789454 2.7041 -0.151576 2.98199 1.15746 0.16703 1.8444 0.0470682 0.722086 -2.88707 -2.86093 -2.36324 -1.45656 2.1273 3.20235 1.51222 -1.73075 -0.266184 2.39241 1.06453 -2.26677 -1.3252 -0.403219 -0.975329 -0.231021 1.84168 -2.67546 -1.17606 -0.28991 -2.49506 0.0512043 3.12587 1.3007 0.615922 -2.7653 3.56241 -2.56265 -2.07137 2.86519 -0.0710056 3.79663 2.8578 -3.11389 -0.0363605 -3.48891 3.26451 -3.10538 -1.78493 -2.75753 0.659234 -0.220239 -0.640339 1.55682 2.51034 -2.1989 -0.386036 1.66059 -1.25511 3.37255 -1.25931 -0.226617 3.35117 0.67817 -0.513003 0.0509588 1.88565 1.77082 -2.9948 -1.69767 0.590143 1.58176 2.55672 -0.677334 1.13478 -1.84837 -0.097371 -0.162221 2.0428 -1.23489 -0.407904 -0.3535 1.75862 1.67929 -1.79696 0.334917 0.678232 3.42718 -1.86083 0.490132 -0.61738 -2.03168 -0.936737 0.424081 -3.14809 -2.03198 -3.09227 -2.25396 -0.952054 -3.22163 -0.732328 -1.72116 1.87847 1.09704 -1.97056 3.46427 0.286416 -0.0666347 -0.91801 -0.59345 -2.58642 -0.248167 1.52726 -0.378624 3.12408 -1.68372 3.40421 -1.40118 1.44959 -2.16403 0.512104 2.35728 -0.84364 -2.04269 -3.20507 -1.98583 -1.75713 1.21983 1.26946 -2.40306 1.5226 1.15122 -0.3995 3.20049 1.71311 1.57089 -0.484783 3.27011 -3.2045 2.88057 -1.04353 -1.90962 -0.200797 2.72338 -1.23921 -2.50194 -1.99068 0.81107 2.87932 -0.62648 2.34907 3.58614 -2.73493 -0.512633 -1.51983 2.0939 1.31403 -2.00662 -0.123162 3.11798 2.67312 0.743361 -2.45052 0.132082 2.02251 2.93064 -2.98486 0.216171 2.59059 1.32168 -0.722533 3.28446 0.312237 0.180203 2.98533 1.81675 2.01973 -3.333 -0.587422 2.74265 -0.798886 3.47298 -1.58294 -2.58258 -0.963433 -1.31307 0.246798 0.25288 2.87167 0.956056 -0.192934 0.970715 -1.78887 3.10183 -0.870484 1.45099 1.06004 -1.93327 1.60568 -3.29045 -1.40432 0.757402 2.22765 -2.20878 1.43809 -0.424514 2.36404 -0.339661 2.25203 -3.06255 2.26051 1.27028 -2.41228 2.49041 -0.70283 -3.10731 3.36996 0.282454 1.39319 0.199488 -2.15918 0.965785 
